812 128
615 0.08367693 0.25789118 -0.19030902 0.049524263 0.33847076 -0.51325345 0.45437878 0.45097953 -0.3113828 0.10219436 -0.38161278 0.43485177 0.3951254 -0.32004315 -0.20266905 0.47116354 0.12973855 -0.38503104 -0.038218416 -0.055775806 0.1166044 0.2501027 0.036648415 -0.21049283 0.38877344 -0.118017755 -0.24973953 -0.20053379 -0.014028475 -0.14108722 0.07106391 0.036741436 -0.09202578 -0.3086935 -0.22072262 -0.19084442 -0.16729634 -0.09299607 0.3269792 0.64790326 -0.5730129 -0.4140617 -0.11235159 -0.10146176 0.13830712 -0.008446488 -0.02262366 -0.3919615 0.35148677 0.14856161 -0.24792224 -0.031033657 -0.028313303 -0.06902582 0.16285376 -0.2051979 -0.069894135 0.021218883 0.07367462 0.31267723 0.043656603 -0.16772622 -0.07921975 -0.23526967 0.02559806 -0.073930904 -0.39211324 0.12010396 0.37110624 -0.2873641 0.28275546 -0.31200227 -0.19060403 -0.16154541 0.028351242 -0.047854304 -0.08604905 -0.30240875 -0.36812606 0.008338174 -0.36039633 0.078523934 0.1709039 0.12701483 0.25524828 0.03614425 -0.14444125 -0.34980422 0.2924167 -0.13946386 0.08511832 0.9490543 -0.005673632 -0.0055058952 0.23344924 0.29524246 0.25799942 -0.04980608 -0.0016812435 -0.008240824 0.030610174 0.37074417 -0.40105784 0.3219192 0.032605164 0.45175502 0.2703014 -0.16739476 0.26562533 -0.05856517 0.29569957 -0.1135836 0.2399011 0.003717338 0.02150265 -0.35390666 0.10984916 0.34876272 0.13828242 0.106839694 -0.0691102 -0.14849012 0.046723127 -0.06527186 0.012097638 -0.20461254 -0.14853916 0.64565885
195 0.088814214 -0.22759064 -0.20855688 -0.10896262 0.83195 -0.2629893 0.02120943 0.316636 -0.4437419 0.20020202 -0.019458465 -0.31435114 0.12118109 -0.2865005 -0.07248097 0.08892232 0.15558265 -0.4062807 -0.60996914 -0.3890221 -0.2806773 -0.068819016 0.09167942 0.016874963 -0.06336976 -0.5572142 -0.25910217 -0.17388694 -0.30297 0.0655469 -0.1055574 -0.026201542 0.3772233 -0.15561402 -0.10687096 -0.09322825 -0.23760419 -0.07544709 0.10381379 0.2605005 0.00040676282 -0.080983154 -0.11978286 0.18246785 0.3947352 -0.34392098 -0.39441663 -0.23950732 0.09708381 -0.18575552 -0.11670419 0.33993402 -0.5840052 0.035854306 0.089735985 0.12331018 0.10718221 -0.07609349 0.26714423 -0.1867168 -0.17451936 0.47813502 0.40405157 0.5236429 -0.014024775 0.16749924 0.3619425 0.27043125 0.16435021 0.2447071 -0.492577 0.2457474 -0.1618799 0.126667 -0.123320006 0.29520458 -0.3170145 -0.33920825 -0.3768847 -0.1864397 0.11422772 -0.13491978 -0.0870629 0.50731647 0.21942952 0.116415314 -0.26675552 -0.074082896 -0.25183395 -0.2691261 -0.28355804 0.34006858 0.34293953 -0.23098056 -0.28105974 0.4366888 0.12831852 0.12730677 -0.18919979 -0.38293898 -0.085192606 -0.2039817 -0.12522928 -0.08044737 -0.964101 0.0623666 -0.24307051 0.09808558 0.12066088 -0.23953655 0.03163985 -0.052275434 0.60782635 -0.13761327 -0.095403284 -0.17159751 0.27785864 0.22311005 -0.0730732 0.2635796 -0.2411983 0.31751588 0.55429745 0.0069357497 0.34103054 0.1166804 0.10790983 0.3177743
383 0.5585351 -0.35415065 -0.050104775 0.42280686 0.074388325 -0.5255084 0.11046865 0.43996778 -0.24015082 0.07685053 0.36374426 -0.1410305 0.12446082 -0.13285945 0.11087821 0.61495936 0.12539537 -0.2773322 -0.3914637 -0.18039902 -0.13428673 0.041296855 -0.3698293 -0.326503 0.13473105 0.23893273 -0.106641114 0.4031958 -0.378775 0.12826116 -0.3661799 0.19862391 0.0019814626 0.13653581 0.08661247 0.24251664 -0.100301765 -0.05918666 0.24275707 0.4540658 -0.3168986 -0.13779156 0.12011614 0.45277932 -0.32533816 0.33737093 -0.14384797 0.24074866 0.3110431 0.2107591 -0.26078585 0.4292898 -0.45726296 0.11808004 0.071683265 0.11584901 0.22160715 0.23195618 -0.046784203 -0.19094497 0.3123881 0.28718293 -0.3547687 0.16500004 0.055328533 0.27622405 0.30537018 -0.55479956 0.11098608 -0.018911244 -0.32520092 -0.5752518 -0.14163692 -0.0054920153 -0.15772934 -0.13936906 -0.19525836 -0.42869812 0.32279906 0.16813886 0.057292715 0.22191297 -0.20126054 0.10685444 -0.098215654 0.2067505 -0.4112195 -0.116744734 0.26122314 0.022673193 -0.24642237 0.36236575 0.02140662 -0.051282752 -0.45588893 0.11151201 0.058063794 -0.14236628 0.064087614 0.40393502 0.109866515 -0.23611099 -0.47883585 -0.005325287 -0.49258205 -0.022664845 0.17555267 0.47580677 0.11989159 -0.5338022 0.06771441 0.04117558 -0.097634315 0.5016703 -0.004401007 0.23330821 0.00836295 -0.22359471 0.1252413 0.19000702 -0.2015301 0.14882201 0.17781474 0.0053613684 -0.007869974 0.4307247 0.1512731 0.7778199
12 0.00026469416 0.25976244 -0.13409628 -0.08358978 0.17422085 -0.34304407 -0.056150727 0.16099091 -0.114149764 0.06985234 0.34524074 0.43135244 -0.20602341 -0.20389923 0.0990113 0.59222275 -0.033432767 0.19834213 -0.41936296 -0.24784663 -0.096187025 -0.07961174 -0.2984206 0.149526 0.12529236 -0.2932402 -0.7686357 0.10970157 0.0111532435 0.17777982 -0.23791502 0.047169223 -0.2354099 -0.06606894 -0.20649524 -0.27986047 0.16212605 0.21471553 0.38900027 0.12221533 -0.2661405 0.10006112 0.20809251 0.05266818 0.3986558 -0.054380648 -0.07148851 -0.007610695 0.5779756 -0.0039188196 -0.3745735 0.07535035 -0.71519506 0.36132774 -0.1688716 -0.14682226 -0.4024201 -0.7316136 0.41192526 0.3313266 -0.21665105 0.43265414 0.17360997 0.3230116 0.2941439 -0.24471484 0.22204544 -0.08291832 0.10414446 0.012827775 0.30608067 -0.47269303 0.1835191 0.7355443 -0.21817125 0.2119582 -0.0020836864 0.17848784 0.03623273 0.38789982 -0.012466292 -0.42485747 0.07678334 0.17296071 -0.08386894 0.28602636 -0.22434828 -0.11885849 0.08840208 -0.17153834 0.08028308 0.24152167 -0.10272718 -0.22445466 -0.008943492 -0.37238386 0.26696628 -0.039782345 -0.0005909593 -0.30283958 0.31381333 -0.14408015 -0.491115 -0.15582275 0.15253694 -0.018649105 0.09007484 0.48288378 0.29939047 -0.15921204 0.3246731 -0.33325002 -0.025384117 -0.17153637 -0.20250413 -0.07364931 -0.18192773 0.012050045 -0.101171836 -0.09400283 -0.5967969 0.103237815 0.41103584 0.23936252 0.3271196 0.09458077 -0.19097084 0.72125715
196 0.05034438 -0.5188677 -0.29968935 -0.12333337 0.97303045 -0.18233727 0.10756299 0.18391085 -0.28048614 0.08899752 -0.0039557973 0.07930442 0.29107475 -0.3510636 -0.01672755 0.28913984 -0.19443354 -0.5867521 -0.36123455 -0.46889108 -0.12785186 -0.18341967 0.08960552 0.14741519 -0.42143735 -0.4715289 -0.31071714 -0.14946355 -0.23437417 0.04229446 -0.11180013 0.22698708 0.056450896 0.030010762 -0.11355357 -0.13701136 -0.117828056 -0.13606763 0.5610629 0.3201839 -0.07728177 -0.07652642 0.07173385 0.10582895 0.5147929 -0.53263193 -0.3566356 -0.107020944 -0.018174253 0.07002439 -0.33683273 0.41281152 -0.75597227 -0.08020654 0.06369195 -0.12587515 -0.1426712 0.22561944 0.3094675 0.30350304 0.08832494 0.33151677 0.38974607 0.23756817 -0.0017291639 0.3196681 0.2292407 0.52879006 0.1216697 0.29843506 -0.25789136 0.22738642 -0.34929678 0.21996129 -0.15313283 0.17217414 -0.41242397 -0.29209334 -0.39250013 -0.12690675 0.22134404 0.1649185 -0.25221467 0.06355062 0.09444118 -0.118357345 -0.35415184 0.011531945 -0.16881984 -0.21215552 -0.32924008 0.2732995 0.2505762 0.07528545 -0.31739372 0.4123938 -0.11945502 -0.10098474 -0.21881838 -0.22792517 -0.04838713 -0.038839452 -0.1826504 -0.08093979 -0.99154437 -0.021715254 -0.36717868 0.20600134 -0.074919716 -0.16104302 0.4758813 -0.0035079508 0.5499409 -0.39680433 -0.101788916 0.017616222 -0.008897142 0.0026762865 0.025608433 -0.09342784 -0.48010743 0.43886766 0.5479504 -0.29372984 0.43158084 0.38836455 -0.14338787 0.052175354
322 0.04738932 -0.20702972 -0.16777295 -0.06283908 1.0005925 -0.46861225 -0.019972414 -0.18863061 -0.2289726 -0.17253271 0.013711614 0.13330248 0.49617064 -0.3356634 0.002736216 0.38241735 0.020448036 -0.44842356 -0.4469847 -0.31261835 -0.11695859 -0.0014066717 0.3945316 -0.3288873 -0.34845832 -0.8498842 -0.62203705 -0.08651296 -0.15435131 0.09744356 -0.5362165 0.0698871 0.25954837 0.15989846 -0.11865007 -0.17945942 -0.22295466 0.036802877 0.39551303 0.3793909 -0.06980513 -0.08999135 -0.0102613 0.31746355 0.7594191 -0.36107457 -0.053342115 -0.043882437 0.110830314 -0.1530296 -0.5450787 0.50492203 -0.50797325 -0.111202724 -0.03352712 -0.04649411 -0.13915692 0.12040409 0.21400636 0.14197442 0.16228206 0.19613102 -0.035974395 0.22936699 0.08209076 0.28397784 0.15831836 0.5474918 0.29574773 0.43095034 -0.32121733 0.16534677 -0.2474228 0.37371936 -0.13277003 0.09954759 -0.39890438 -0.18511328 -0.41912735 -0.28547776 0.087701194 -0.026741913 -0.32190114 0.42176312 -0.00614381 -0.34600666 -0.42319828 0.21396413 -0.055443656 0.024144288 -0.25889808 0.3177484 0.29100734 0.033041276 -0.36777067 0.24855387 -0.16028549 0.23071787 -0.14684121 0.006134921 0.009534613 -0.121833 0.12986551 0.035642933 -1.0279272 0.13920161 -0.23777348 0.24791896 -0.1889015 -0.38556322 0.26718944 -0.10831869 0.22024658 -0.24478604 -0.03801038 -0.050899718 0.21941091 0.018535405 0.2177571 -0.0888401 -0.3777434 0.31934193 0.38688776 -0.10197334 0.3492318 0.32051075 -0.14313169 0.28171995
665 0.14127082 -0.08566407 -0.40425137 0.09137668 0.32293296 -0.5623815 0.36705318 0.28614846 -0.5482336 0.27702996 -0.47316498 0.24598259 0.27110195 0.14138684 -0.11481818 0.23784284 0.06904496 -0.3762455 0.14320934 -0.3257398 0.10350782 0.010351591 0.08527161 -0.110994905 0.20484452 -0.36864206 -0.09835759 -0.4098759 0.14059742 -0.2082174 0.1337886 -0.27554458 -0.015733607 -0.006525773 -0.11304714 -0.23011813 -0.28627986 -0.32091606 0.118104905 0.52547246 -0.5968787 -0.67789274 0.002695698 -0.11818303 -0.15854321 0.1238855 -0.27193034 -0.37645596 0.062601544 0.5031382 -0.11410473 0.09164337 -0.22932634 -0.12012332 0.15473023 -0.20405306 -0.12167319 0.14930345 0.34546348 0.0699269 0.0782219 0.021135882 0.17685454 0.06085079 0.2373538 -0.48076776 -0.11226655 0.05288696 0.48701197 -0.046316493 0.11403676 -0.35621443 -0.42497388 -0.01930688 -0.1650598 0.17465088 -0.11153803 -0.26480684 -0.18707529 -0.016319765 -0.47219753 0.11530464 0.2931359 0.117513046 0.13004562 -0.09181206 -0.31215283 -0.50003064 -0.045057997 0.1688431 -0.15273465 0.58720094 -0.35081068 -0.18488795 0.04962277 0.089032695 0.064753994 -0.18040907 -0.020582564 0.12837978 -0.10206371 0.09750874 -0.5312154 0.28820822 0.092971 0.53259665 0.22969781 0.23364511 0.60974556 0.154106 0.24835947 -0.16324654 0.49570107 -0.039117772 -0.34539175 -0.52667636 0.319584 0.43552637 0.5877801 -0.22278053 -0.036515746 -0.41265884 0.5364183 -0.10090498 0.08573382 -0.17840385 -0.16589022 0.8432583
659 0.25827134 -0.013412022 -0.28129107 0.120760106 0.49345553 -0.9643721 0.46238592 0.5334785 -0.41601148 -0.01518913 -0.48265967 0.29161534 0.47304127 -0.10317784 -0.50345 0.72566664 -0.096232496 -0.16056497 -0.0034843942 0.0030373817 0.24774516 0.3968606 0.029279217 -0.4795509 0.2526916 -0.16023156 -0.18668263 -0.20618822 -0.12441592 0.15338553 0.01740874 0.094536185 0.08278819 -0.22439256 -0.25561416 -0.2685569 -0.3107158 -0.6059333 0.49652264 0.33480734 -0.4582737 -0.44419685 -0.3393026 0.010216248 0.08199502 -0.07117286 -0.41763178 -0.39845973 0.20875841 -0.11142647 -0.15098117 -0.010420702 -0.33075833 0.14876403 0.12091614 -0.1928078 0.2543515 0.011877986 0.12711744 0.29509446 0.0038881733 -0.38081336 0.08295184 -0.13059774 0.13307121 0.03564427 0.033818323 0.013435942 0.19408625 -0.17727958 0.16868353 -0.28308502 -0.2931423 0.015499248 -0.033716835 0.04401789 -0.16600537 -0.46954617 -0.3311457 -0.089843675 -0.5475678 -0.013804004 0.30563197 -0.30292344 -0.099516384 0.30200768 -0.19747104 -0.16706896 0.57655394 -0.11306604 0.027888235 0.689561 0.17056823 -0.3304805 0.26548195 0.6161482 0.27362183 -0.35665473 0.4403087 -0.25563285 0.19501832 0.07982033 -0.57106584 0.20620038 0.16013077 0.42473984 -0.106949754 -0.21869461 0.024713308 -0.075615615 0.43373415 -0.33440202 -0.044209376 0.0053400644 -0.11692625 -0.26078343 0.14929897 0.23234783 0.07424413 0.2071638 0.009438804 -0.13100028 -0.0040133903 -0.09457093 0.36485633 -0.01979174 -0.057467025 0.37005442
759 0.533982 0.29760265 -0.5284079 0.03455215 0.47132793 -0.6016015 0.43746248 0.2565889 -0.3698475 0.6108859 0.17186593 0.37316942 0.56352466 -0.20295778 0.07824763 0.46326822 0.17517078 -0.33572584 0.09494203 -0.07359314 0.14564216 0.034309827 -0.034570497 -0.3012766 0.40945363 -0.19627048 -0.7774831 -0.16652651 0.17528315 -0.52338976 -0.08123055 0.029373763 0.017750213 -0.18190956 -0.27072966 -0.16677205 0.314523 -0.04384777 0.018245101 0.58930504 -0.6593993 0.050366078 -0.002885494 0.032648705 0.25473225 -0.21348625 -0.020991955 -0.2654651 0.19799243 -0.012597995 -0.35433513 0.2114892 -0.12307026 -0.17955548 0.3349598 -0.20317756 -0.19139622 0.13302363 -0.059662104 0.15521985 -0.4146968 -0.13083506 -0.13990793 -0.1254983 -0.055989917 0.17317912 -0.449609 0.062541805 0.23908094 -0.11134819 0.10953066 -0.21023166 -0.4409042 -0.31124243 -0.018073743 -0.019980462 -0.14851065 -0.324713 -0.51287264 0.15583056 -0.51146436 0.2042494 0.26709014 0.0709367 0.14931986 0.15989707 -0.3754808 -0.14496912 0.33315358 -0.2944111 0.05204244 0.6709516 -0.32334748 0.21108165 0.31114352 0.30146554 0.33246222 0.4461672 -0.38107812 0.07698068 0.16122684 0.38163224 -0.4155842 -0.14755923 0.13102223 0.7385642 0.087310255 -0.28286642 0.19297205 -0.45661032 0.2574635 -0.38882756 0.07193989 0.1075347 -0.15581857 -0.0035274217 0.2628467 0.2631093 -0.025127426 -0.01204705 -0.40567464 -0.06392621 0.10448119 -0.14573292 -0.020326413 -0.10262582 -0.14359324 0.5823569
607 0.3128186 -0.14717583 -0.29979798 0.49554318 0.18384008 -0.8575659 0.32455292 0.3029795 0.09873755 -0.18986242 0.18854828 -0.28080654 0.4190812 0.006456333 0.24881186 0.33283544 0.16449773 -0.25661942 -0.1313285 -0.4168536 0.06143224 -0.091778606 -0.4954554 -0.015484003 0.3056814 0.12904844 -0.28047732 0.3935514 -0.46165314 0.3744922 -0.018474659 0.15671012 0.070662186 0.06519513 -0.08013807 0.21640907 0.021477235 -0.07783285 0.2778077 0.4773418 -0.45260057 -0.12651959 -0.018596986 0.47971138 -0.34006426 0.05810688 -0.09434099 0.20629798 0.3004118 0.33594036 -0.23417765 0.33050764 -0.4588387 0.025008425 0.06226112 -0.11374608 -0.09995505 0.14970616 -0.025035335 -0.24966088 0.013413728 0.30339745 -0.16321008 0.11185695 0.26520064 0.17369044 0.31644857 -0.5166823 0.04808083 0.11132274 -0.4313173 -0.7717909 -0.44150203 -0.16068806 -0.33662626 0.11371202 -0.16712335 -0.47067168 0.21344045 -0.15262537 -0.049041256 0.09773353 0.023423893 -0.13794872 0.10974092 -0.060978487 -0.72481406 -0.063405335 -0.12559056 -0.35801986 -0.45887756 0.5313413 -0.27288517 -0.047490373 -0.5773883 0.08592825 0.39178154 -0.28219655 -0.0127622485 0.08492156 -0.122408286 -0.09916408 -0.4340501 -0.06889529 -0.52098435 -0.16999023 0.04702231 0.4494436 -0.30430928 -0.6078132 0.047402587 0.038364615 -0.41417247 0.18590282 0.025942855 0.34621558 -0.1386587 -0.40876496 -0.024210198 0.09449367 -0.1846371 -0.02953674 0.31885996 0.20374912 -0.15845342 0.6694677 -0.35974306 0.729214
459 0.29924864 -0.013849055 0.054224923 0.37468538 0.28111398 -0.67744774 0.25111878 0.47247607 -0.28213236 0.035849515 0.31305146 -0.065024845 0.22669317 0.023713864 0.069521055 0.30454308 0.22612558 -0.35232443 -0.06896324 -0.23218203 0.1874996 -0.16866072 -0.32087246 0.01986096 0.1637259 0.09139166 -0.16265896 0.37400898 -0.49771282 0.16356212 -0.31415516 0.115788125 0.08154051 0.053675413 -0.07632724 0.20773385 -0.18352091 -0.038611595 0.21625045 0.400779 -0.54026085 -0.15148391 0.041649543 0.3991391 -0.33113554 0.23572707 -0.1444717 -0.05608294 0.1921289 0.32732618 -0.2558602 0.41231367 -0.2514299 -0.13586111 -0.1359324 -0.09592299 0.058697402 0.17163676 0.04114377 -0.0434162 0.1905012 0.5246577 -0.022759287 0.13007979 0.20781617 0.2668329 0.19711071 -0.4610308 -0.028345076 0.03600175 -0.45484444 -0.61208284 -0.1070401 -0.08583093 -0.42324197 0.019898666 -0.15267107 -0.5205848 0.38761368 -0.026041353 -0.11398714 -0.06607342 -0.08347559 -0.21063258 0.1550943 0.08933759 -0.5793309 -0.0010891468 0.10832892 -0.2265502 -0.36221942 0.23470552 -0.07703729 -0.21757676 -0.46637112 0.06372832 0.49935716 -0.1723687 -0.029668815 0.3508615 0.17209294 -0.04357185 -0.3133817 -0.042013 -0.63849115 -0.19998331 0.27309674 0.5885608 -0.049826838 -0.49909803 0.04966642 0.123661436 -0.2627802 0.27078658 -0.15220195 0.19611703 -0.013288919 -0.46065596 -0.0036833317 0.21241978 -0.169664 -0.013930909 0.38675916 0.014430042 -0.28159618 0.77434725 -0.33317268 0.8011446
351 0.019329265 -0.2363631 0.0794217 0.006433235 0.77392507 -0.011326208 -0.2655116 0.29021087 -0.27896556 0.10735126 -0.0005295474 -0.2692182 0.051873647 -0.2886611 -0.07535361 0.20989132 -0.0019851092 -0.46724826 -0.3578786 -0.4049123 -0.16691877 -0.16014437 0.058144253 0.11760167 -0.3040053 -0.54784226 -0.4591739 -0.28332207 -0.3150698 0.060853783 -0.20417614 0.32022125 0.3479782 -0.18574904 -0.2661744 -0.07046582 -0.60474193 0.20361689 0.42003813 0.1514367 -0.1582294 -0.1549832 -0.46713844 -0.03638993 0.25627604 -0.15639478 -0.284993 0.021709532 0.43154392 -0.4010934 0.08347984 0.5074885 -0.69573987 -0.09097201 0.006759818 -0.06369817 -0.2611178 -0.25835374 0.21904351 -0.31251276 -0.4228971 0.33753276 0.28410032 0.2784854 0.26891112 0.15669118 0.21543233 0.15888575 0.34779927 0.52209526 -0.3578268 0.1349459 -0.2517399 0.07022722 -0.20125026 0.18031007 -0.35601565 -0.21821381 -0.19264401 -0.056952074 0.08557168 -0.17208794 -0.036650136 0.50818044 0.30813846 0.1331479 -0.07304724 -0.28156665 -0.035729863 -0.11721823 -0.25799006 0.8513852 0.26047575 -0.4121831 -0.35332334 0.19763187 0.2654423 0.2853735 -0.12179396 0.04018748 -0.08339478 0.28976348 -0.14707924 -0.14978072 -1.134384 0.12980758 -0.5067204 0.08502867 0.13845056 -0.35751566 -0.15543422 0.271437 0.3378027 0.011043098 -0.046361156 -0.36005312 -0.014457368 0.09924606 0.2607864 0.4153101 -0.09721483 0.12568733 0.54433954 -0.15710752 0.37192208 0.057137635 0.18192928 0.5288187
704 0.393024 0.32916406 -0.5161608 0.034379262 0.427155 -0.71077263 0.26137748 0.25133878 -0.33462566 0.42514163 0.14876612 0.48199135 0.4524708 -0.06937712 -0.11774797 0.57037157 -0.045954376 -0.34367687 -0.037848007 -0.02573591 0.20311339 0.17350075 0.18376239 -0.26959935 0.2585202 -0.31205538 -0.73117554 -0.07766877 0.12418477 -0.35020527 0.016903006 0.021632573 -0.019356692 -0.19813201 -0.08079806 -0.06787888 0.099771164 -0.08140189 0.0672303 0.6005261 -0.63928306 -0.16616173 0.026387986 -0.1431408 0.23685578 -0.09818918 0.2101602 -0.17437679 0.42107624 0.28334302 -0.18124877 0.24053213 -0.14030662 -0.09153019 0.43513495 -0.3273498 -0.011053946 -0.11601681 -0.15382032 -0.14631861 -0.20510922 -0.020110471 -0.16447169 -0.009308648 -0.123495005 -0.07346368 -0.5538966 -0.1187871 0.16084372 -0.06638893 0.041108474 0.00023858342 -0.39988166 -0.29466897 0.15130548 0.07468494 -0.09368894 -0.3615322 -0.42543483 -0.004098804 -0.34083346 0.08681543 0.37679532 0.07225517 0.18380387 0.23604763 -0.30698687 -0.09452164 0.30700317 -0.36952218 -0.13360053 0.7209144 -0.18133484 0.3083032 0.29194483 0.44583485 0.28655764 0.17451747 -0.2367204 0.1357151 0.20918424 0.60030943 -0.47531986 -0.031281166 0.12962072 0.74447906 0.1820469 -0.20679218 0.27020904 -0.45798638 0.16752891 -0.4305829 0.17924333 -0.025729746 -0.22656278 -0.14481895 -0.039184466 0.030254146 -0.009718346 0.013122582 0.03724782 0.03823662 -0.031995296 -0.34421474 0.18690188 0.032424465 -0.107013375 0.7408426
333 -0.07217811 -0.046754323 -0.39921468 0.033561558 0.7486876 -0.10908793 0.042973816 0.08555789 -0.38758707 0.024015198 0.04054746 0.0067208516 0.34084752 -0.24542452 0.06431033 0.09144587 0.2180782 -0.35537332 -0.528083 -0.22939675 -0.2194808 -0.06546105 0.09563685 -0.27243882 -0.07006294 -0.76720035 -0.59853506 -0.37374032 0.13074516 0.037265632 -0.23368908 0.015457328 0.14516787 -0.107217066 0.092689425 -0.045182697 -0.4129294 -0.110708274 0.2112558 0.48110527 -0.33676088 -0.04336351 0.023082059 0.17970115 0.43671116 -0.3682794 -0.28345132 -0.14704026 0.26855174 -0.13200629 -0.31769657 0.20962533 -0.14693892 0.31850347 -0.13469556 0.36642262 -0.16419952 0.2206046 -0.10485995 -0.1392737 -0.23136981 0.23808666 0.10295608 0.28082415 0.26447624 0.16541132 0.2303855 0.2800861 0.22399947 0.16997012 -0.6140087 0.09601888 -0.36137474 0.47226185 -0.13391432 0.15487193 -0.7498464 -0.08736211 -0.49407864 -0.40650195 0.09374161 0.030169997 -0.22762959 0.5707616 0.28070405 -0.072036564 -0.15129262 0.21722475 0.0105046 0.17950869 -0.29623607 0.37296125 0.36056897 -0.114355035 -0.41322923 0.2535764 0.10579156 0.34746984 -0.25465137 -0.049551178 0.08529618 0.14296608 0.04447047 -0.19182642 -1.1905583 0.2004736 -0.35962918 -0.049763065 -0.0566855 -0.5317015 -0.21795636 -0.1444355 0.544571 -0.019300507 0.09201818 -0.2537181 0.41039377 0.046601858 0.1968796 0.008070027 -0.44780216 0.608395 0.6328438 -0.023711728 0.3341826 0.19298553 -0.10877427 0.5649464
356 -0.16028097 -0.2040716 0.25321338 0.20227174 0.77801263 -0.015825672 -0.1475367 0.462193 -0.16162863 0.010911984 0.050244816 -0.2286483 -0.18365918 -0.34944978 -0.16817304 0.23056519 0.10425685 -0.5576218 -0.46349078 -0.33575338 -0.38822526 -0.06124312 0.04113493 -0.08587743 -0.15510173 -0.5930494 -0.49575597 -0.116321884 -0.38320765 0.07230609 -0.07447939 0.3547251 0.15677385 -0.13170344 -0.25724724 0.04311499 -0.58747977 0.122680925 0.57400435 0.11116408 -0.13505289 -0.3235374 -0.26996994 0.014671941 0.17223765 -0.19502468 -0.31872115 -0.10624664 0.38962504 -0.14326131 0.12079365 0.43572953 -0.68909043 -0.15944481 -0.15801315 -0.17062013 -0.04955504 -0.30335224 0.07709879 -0.26866126 -0.449668 0.5897596 0.3698671 0.25538144 0.17988965 0.2999167 0.20893975 0.031110309 0.525431 0.37117836 -0.060397353 0.06918209 -0.22595729 -0.080112785 -0.19520088 0.28286982 -0.41446474 -0.10704827 -0.22856615 0.13994013 0.1351641 -0.19821602 0.16204993 0.71760035 0.13810849 0.24449176 -0.00892487 -0.23976032 -0.18819202 -0.03725431 -0.089707986 0.6800288 0.42598265 -0.5071037 -0.25417504 0.37266356 0.38097915 -0.06923625 -0.059248496 0.02913136 -0.061781082 0.18581381 -0.0110024735 -0.20710938 -1.2399822 0.16620201 -0.48371285 0.30473316 0.08422223 -0.26772618 -0.17016825 0.33617133 0.4809799 0.068873554 -0.0703757 -0.60907894 -0.114234656 0.16621487 0.4762808 0.33060715 -0.16157843 0.16759744 0.7059034 -0.04979759 0.3544527 -0.025539957 0.090709284 0.31110367
31 0.14920658 0.31681508 -0.19145665 -0.46144706 0.46599102 -0.6922301 0.07628799 0.20133238 -0.36789906 -0.13970038 0.49090165 0.26786917 0.058855828 -0.2672629 0.10660822 0.6190912 0.16823146 0.06771168 -0.34542212 -0.20495155 -0.20105068 -0.39481238 -0.5079872 0.4007849 -0.047475614 -0.030321367 -0.33045793 0.11250732 -0.2393558 0.030639466 -0.004318675 0.16454427 -0.40360177 0.033772156 -0.027885135 -0.2869592 0.21659161 0.21420777 0.42413446 0.43184832 -0.27919415 -0.010420657 0.4323886 0.1986514 0.27326784 -0.15420824 -0.123978525 -0.17836082 0.6807873 -0.45558807 -0.6282895 -0.017647421 -0.95500714 0.6018285 -0.088636495 -0.088247515 -0.27595207 -0.22529145 0.31922618 0.20162153 -0.03186443 0.49193943 -0.11958911 0.3671862 -0.024915809 0.010080851 0.597782 -0.053135935 -0.1361189 -0.34003028 0.35318416 -0.4217657 0.2701711 0.92743886 -0.284891 0.1211511 -0.31251574 0.13328913 0.090012126 0.09081665 0.33802238 -0.46509624 0.538114 0.18004036 -0.26573315 0.072971076 0.062082414 -0.050786514 -0.09416206 0.21364705 0.17523824 0.46878335 -0.23518854 -0.23921925 0.023405014 -0.12606253 0.26232526 0.11348009 0.23121141 -0.3932347 0.353265 -0.4452766 -0.5667291 0.07790779 0.024284706 0.27964187 0.029237753 0.3977515 0.20403248 0.23738815 0.38740343 -0.27205715 0.09895301 -0.19620593 -0.46979266 -0.3618843 -0.079139985 -0.16388327 0.2477192 -0.028401505 -0.40562862 0.11105191 0.40943727 0.0679348 0.2078333 0.0006000581 -0.0657321 0.41838324
309 0.25266552 -0.09866315 0.086515345 0.04366664 0.4601691 -0.011434074 0.2861161 0.4564016 -0.6885779 0.07791046 0.35200033 -0.28819197 0.05386962 -0.082083866 0.104934946 0.773825 0.097899765 -0.84268975 -0.26896694 -0.15965274 -0.078116 0.060580757 -0.20930982 0.07039632 0.12707274 -0.3186409 -0.4851384 -0.2533266 -0.5607141 0.041921943 0.17043635 0.017310768 0.45946008 -0.40136424 -0.106935285 -0.3829121 -0.08055461 -0.122869916 0.16223274 0.3831375 -0.12186744 0.04798492 0.058135625 0.60436296 0.32133535 -0.64940023 0.009255878 0.004329413 -0.0498324 -0.46557453 -0.27683955 0.2778155 -0.6814747 0.37287503 -0.21746403 -0.0256789 0.005857775 0.4217508 0.40094373 -0.2542875 -0.18592937 0.59706753 0.50158864 0.8971346 0.35163713 0.1000313 0.2157071 0.20168224 0.04708672 0.2733989 -0.19913854 0.23074183 0.34095356 0.20958002 0.016159786 0.13325207 0.03221242 -0.20017572 -0.46910328 -0.48855355 -0.05581135 0.16156979 -0.04260174 0.42133802 0.24675149 0.035321545 -0.6851056 -0.42975533 -0.038949847 -0.31772706 -0.31820294 0.16525926 0.046642434 -0.28579724 -0.16616642 0.31251067 -0.19976969 0.21522607 -0.4685178 -0.1207518 0.26705587 -0.25547817 -0.18091892 0.07465484 -0.92692864 0.5277184 -0.4101877 -0.088681996 0.009959678 -0.23275746 -0.46643248 -0.35631725 0.6005819 -0.14440398 -0.06927081 -0.46504256 0.075850144 0.116549954 -0.14145325 0.17810723 -0.05820814 0.18883994 0.2778955 -0.054617003 0.26127023 0.1627856 -0.2837017 0.72869164
302 0.13640523 -0.37308303 -0.2776717 -0.13214494 0.96516657 -0.038430374 0.16956723 0.3007149 -0.31036717 0.22191751 -0.06389021 -0.009234347 0.14996937 -0.26167703 0.02272456 0.12283871 -0.024976738 -0.53315467 -0.348873 -0.44421506 -0.11469504 -0.08262631 -0.07472229 0.123782046 -0.3663541 -0.45108223 -0.34453106 -0.3126374 -0.26378053 0.11874271 -0.16865359 0.16912651 0.18179078 -0.014448766 -0.09738616 -0.13767844 -0.14148444 -0.044748425 0.45782977 0.21467659 -0.0996056 -0.037969302 -0.20634197 0.109805584 0.36073214 -0.5803789 -0.50916076 -0.0040769693 0.26549074 0.06670002 -0.44984674 0.3129144 -0.7627189 0.14387567 0.19462384 -0.052518297 -0.12535019 -0.004765571 0.29856423 0.27966613 0.00788528 0.29244056 0.66162217 0.2606527 -0.06407536 0.20241478 0.13492288 0.2222355 0.19958636 0.18814012 -0.25399798 0.20592262 -0.48741755 0.09530053 -0.201537 0.2718467 -0.18450925 -0.4697917 -0.29467165 -0.09818795 0.18697478 0.19294015 -0.15870675 0.23183624 0.22613078 -0.29302323 -0.3950603 0.074672915 -0.17775796 -0.40256524 -0.44237274 0.39751446 0.11635719 0.018201603 -0.28633696 0.5058544 0.016160198 0.01009914 -0.27162656 -0.40055546 -0.1909912 -0.069276355 -0.08751098 -0.12763923 -1.1202027 0.03317251 -0.287664 0.12791212 0.0023290196 -0.2517301 0.06328178 -0.10190396 0.53104144 -0.34287837 -0.32329094 -0.16383831 -0.108432844 0.123222485 -0.055906452 0.08714838 -0.40861598 0.5081228 0.52626634 -0.18870631 0.2890982 0.23701416 0.040326346 0.08420513
548 0.25197527 -0.07292728 0.19530204 0.35137093 0.3364393 -0.7043226 0.27533314 0.66344255 -0.33348042 0.22732115 0.29523823 0.16726567 0.08519814 -0.061983276 -0.095230594 0.2385349 0.1862442 -0.46842083 -0.01646897 -0.041104827 0.13539211 -0.25571164 -0.17668343 -0.18478142 0.037922133 0.0795351 -0.23395641 0.28476816 -0.19799267 -0.011684059 -0.39177725 0.08413167 0.17691903 0.024360528 -0.06407467 0.15487191 -0.2061113 0.014950677 0.12951875 0.3349513 -0.5897063 -0.10904141 0.121924765 0.4978708 -0.38431156 0.34082153 -0.22827567 0.005014449 0.06563814 0.47908908 -0.39142936 0.40276757 -0.3808038 -0.010855142 -0.071674995 -0.18943873 0.18611082 0.28221637 0.15772961 -0.082825474 0.24216543 0.3926764 -0.093004316 0.27315196 0.29480404 0.22676128 0.27442572 -0.4925608 -0.008668764 0.07668919 -0.44236782 -0.50763434 -0.14392567 -0.1453882 -0.503774 -0.09748494 -0.38125873 -0.5856142 0.27006385 0.15860486 0.017722815 0.07686246 -0.19172375 -0.19339357 0.11825634 0.24616788 -0.5671561 -0.04171164 0.06569533 -0.0830478 -0.37453794 0.1036328 -0.08952357 -0.059518877 -0.5513009 -0.032027893 0.4757624 -0.2056667 -0.108173594 0.51701975 0.20450212 0.081009746 -0.16284198 0.065700226 -0.45139632 -0.25519517 0.17936347 0.40972528 0.1742505 -0.4327243 0.0211013 -0.02995616 -0.28445536 0.34285015 -0.10986083 0.24982241 0.07906626 -0.45587802 0.0035889687 0.15092942 -0.28782058 0.17757703 0.36993206 0.058202535 -0.12502123 0.5800019 -0.0439908 0.8842753
610 0.50827736 0.037236102 0.02880681 0.41510022 0.4325084 -0.3600669 0.050540715 0.35481066 -0.26398537 -0.22683956 0.16151561 -0.4019244 0.19834507 0.008414901 0.08978247 0.61977065 0.03814429 -0.2218596 -0.58838946 -0.021719798 0.089026734 0.16185044 -0.5154743 -0.2409532 0.11664464 -0.040600136 0.11427065 0.4688056 -0.5849632 0.14643477 -0.2409809 0.034903858 0.021303706 -0.0872212 -0.02796656 0.03465778 0.25807834 -0.061638504 0.04186149 0.7564599 -0.31506836 -0.05219589 0.017238613 0.3115946 -0.19551209 0.11200861 -0.24067838 0.113400675 0.13882169 0.088521756 -0.40303406 0.28654888 -0.6298279 -0.006593162 0.049738713 0.09910177 0.25271255 0.15637498 0.13766506 -0.0099353455 0.11122913 0.13592972 -0.10885734 -0.067761764 -0.16562891 0.33961546 0.255143 -0.7852469 -0.08367346 -0.12840098 -0.28355747 -0.42237514 -0.028132692 -0.043175224 -0.10228336 -0.3018593 -0.43387878 -0.52829057 0.16839518 0.31673518 -0.018182803 0.19172801 -0.21888582 -0.17696573 0.19154148 0.25106123 0.016094854 -0.05976988 0.63005495 0.22414699 0.042976905 0.6280174 -0.29772127 -0.008621206 -0.64176977 0.017802738 0.14853118 -0.042662535 -0.0138787385 -0.017715462 0.07551479 -0.425223 -0.33175844 -0.032342598 -0.4522312 -0.13590173 0.10804605 0.49050003 -0.32552975 -0.622088 0.13227014 0.22611031 0.07490237 0.8057543 -0.2551731 -0.14861786 0.2768547 -0.16796 0.07423513 0.20342174 -0.1364138 0.05864624 0.3428189 -0.0034510805 -0.19803838 0.57724917 -0.15800375 0.98761916
2 0.35236079 0.46111965 -0.4233794 -0.07829692 0.31621423 -0.5378764 0.12518913 0.23424211 -0.03413255 0.051826805 0.22114263 0.35172725 0.062002767 -0.13236855 -0.083441965 0.6241948 -0.059382245 0.2631557 -0.41619948 -0.0872785 -0.012167311 -0.36074328 -0.0021187626 0.2269265 0.05480915 0.0018381506 -1.0437623 0.12195508 0.029083315 -0.035318658 -0.49051076 0.048024762 -0.44772136 -0.08578193 -0.21451502 0.019936046 0.17414853 -0.018166091 0.23559655 -0.035113983 0.1121255 0.392973 0.00712104 -0.03718034 0.53094107 -0.12204202 0.052292984 0.08401964 0.36708647 0.12671106 -0.4017413 -0.05707987 -0.54463804 0.17248219 -0.11413553 -0.047909882 -0.35837945 -0.5755292 0.2723288 0.41206864 -0.44932225 0.36076766 0.36534205 0.54472375 0.4101943 0.22823057 0.38606972 -0.107959114 0.33175394 0.24906775 0.43912834 -0.67544276 -0.101286255 0.72454715 -0.2900282 0.43117255 -0.07143122 -0.03511845 0.30358928 0.32929468 -0.052191738 -0.24191925 0.45040804 0.22069511 -0.02489051 0.05614983 -0.1718519 -0.27664462 0.18494695 -0.16335891 -0.0917716 0.32830715 -0.04609751 -0.36640668 -0.15569314 -0.16586055 0.28455088 0.15637918 -0.30237722 -0.25069273 0.31110388 -0.21166188 -0.44926286 -0.27866808 0.13223599 0.19789325 0.28911176 0.5306831 0.09603863 -0.15325381 0.25121614 -0.25978693 -0.13832296 0.14374876 -0.35046682 0.16345394 -0.18962938 -0.2361933 0.1834982 -0.18718077 -0.44474944 -0.030777287 0.50553656 0.06611215 0.6104574 0.07269676 -0.32468244 0.61805534
867 0.39791617 0.37692395 -0.6537236 0.3167968 0.48216 -0.6249573 0.47567108 0.27838194 -0.25160182 0.43899938 -0.019402979 0.41674498 0.39678687 0.039179344 0.0053362534 0.52884275 0.06556165 -0.46987888 0.07557176 0.04122656 0.3600457 0.20522873 0.07233784 -0.19828126 0.4124329 -0.4180147 -0.7529649 -0.15324655 0.15108332 -0.391657 -0.044761386 0.016923843 0.0364388 -0.35449335 -0.08009399 -0.19454646 0.10966477 -0.15599628 0.06661752 0.56944865 -0.68214536 -0.02264682 0.1340856 0.07532878 0.24754632 -0.07634705 0.22667411 -0.23305067 0.34651744 0.16167061 -0.17172329 0.17216435 0.07292234 -0.023708422 0.3288963 -0.3087645 -0.15718183 -0.021343617 -0.0025978496 -0.1105683 -0.21471523 -0.17236818 -0.12466743 -0.058590658 -0.06799812 0.066674426 -0.49072516 -0.06696311 0.3163993 -0.18526797 0.23105128 -0.12357753 -0.494985 -0.3339427 -0.19349569 0.120466456 -0.13774328 -0.4718495 -0.522924 0.11573555 -0.15122351 0.11154469 0.24895327 0.20921065 0.20915638 0.074654005 -0.24545424 -0.044395827 0.3062071 -0.2575546 -0.021329543 0.789914 -0.10623536 0.20653278 0.1997884 0.36890727 0.18514898 0.24368924 -0.44729567 0.14867973 0.0043762214 0.52798426 -0.3470982 -0.07449075 0.17514275 0.70226103 0.0781527 -0.1853075 0.19089402 -0.5153193 0.4022592 -0.3427465 0.11612015 -0.00057300186 -0.2975193 -0.08578635 -0.0008049863 0.15961768 0.024185935 -0.05768822 -0.1980004 -0.030375147 -0.051577337 -0.39934143 0.06251443 -0.08608335 -0.041655105 0.6842935
515 0.51324105 0.10146435 -0.08098913 0.3375445 -0.021718688 -0.68756145 0.34898704 0.32477453 -0.23668605 0.07120499 0.23711245 -0.19181933 0.04390454 -0.07598039 -0.11806192 0.5546502 0.20214355 -0.44307834 -0.66761035 -0.3188286 -0.023397902 -0.037331175 -0.34859416 -0.54508567 0.13586195 -0.09182747 -0.26366267 0.24227205 -0.09688772 0.038465276 -0.20271717 0.14650859 -0.19221805 0.010247296 -0.037890177 0.2480553 0.06922988 -0.17131828 0.35142964 0.35158825 -0.6011267 -0.2224355 0.04799069 0.31995696 0.15660176 0.14459255 -0.28795922 0.41031173 -0.10897712 0.073041566 -0.008752318 0.44725645 -0.43208468 0.02340345 0.35646352 -0.028947303 0.119302265 0.21690366 0.037616927 0.036090434 0.12300411 0.47064218 -0.19515172 -0.021250553 0.046934184 0.37222797 0.19271715 -0.57704675 0.23930085 -0.101779684 0.09012426 -0.36422685 -0.2306079 -0.06597274 -0.3584892 0.03643983 -0.29144177 -0.49205703 0.21314892 0.41677627 -0.11394646 0.42727613 -0.33722454 -0.015882252 -0.0796105 0.23358901 -0.6632607 0.04669288 0.18776555 0.010414784 -0.48364615 0.24877028 -0.11121342 0.042453058 -0.629802 0.34842208 -0.102798596 -0.06334279 -0.26949936 0.36848164 -0.050788075 -0.41270727 -0.36934403 -0.018786248 -0.44656786 -0.25704768 0.24397992 0.39273086 -0.053324424 -0.31498814 -0.34948108 -0.12076557 -0.048460223 0.77276814 -0.012563585 -0.06805064 -0.15436874 -0.35086027 -0.068711735 0.07082704 -0.32461402 -0.10920052 0.19928578 0.092716 -0.1791902 0.28331158 0.22955409 0.91203713
813 0.39762023 0.37957373 -0.22100684 0.08749879 0.45240766 -0.7551131 0.39618248 0.5853532 -0.20408349 0.3236883 -0.37796876 0.040438313 0.44082394 -0.09143169 -0.3971679 0.47547537 0.1733208 -0.17740612 0.35893154 -0.01262316 -0.1860332 0.36248332 0.26171073 -0.35818312 0.29014724 0.014395823 -0.3507444 -0.20417413 0.076158926 0.124925636 -0.10008468 0.20751853 -0.11326574 -0.085905276 -0.13572292 -0.12265336 0.22600594 -0.43667725 0.39755657 0.57839364 -0.3976748 -0.29589894 -0.10135196 -0.12405609 0.30182704 -0.08194666 0.17269646 -0.4692463 0.19234276 0.11026015 -0.41831502 0.09251898 -0.39750898 -0.2302406 0.22693743 -0.074611954 0.052729294 0.01778825 0.3039557 0.06957931 -0.111411355 0.037398614 0.06053361 -0.24247208 0.075566225 0.28831166 0.07690997 0.1930948 0.75351965 -0.43562028 0.30347866 -0.13490298 -0.31477118 0.05418046 -0.39975384 -0.0046440205 -0.12260028 -0.40663558 -0.21438378 -0.32781124 -0.6860104 0.012076927 0.273171 -0.18831207 0.06785972 0.2664518 -0.45488346 -0.11434358 0.6786345 0.16227928 0.11482492 0.63667125 0.30175322 -0.3647839 0.10024577 0.36540845 0.36757693 -0.28862152 0.4860487 -0.16504152 0.23165981 -0.028047325 -0.525484 -0.13553376 -0.3990059 0.42363116 0.18629013 -0.00040323604 0.16002317 -0.22301973 0.27468812 -0.1838491 0.16042021 -0.1574219 0.4593985 -0.28300792 0.12644774 0.14701973 -0.2426625 0.29618907 -0.35608557 -0.34021613 0.2571967 -0.46610546 0.38668576 -0.089055866 -0.19233452 0.3198216
660 0.13632867 -0.048132036 -0.3875217 0.19554062 0.44195 -0.91039366 0.473111 0.54241574 -0.35222927 -0.040429935 -0.5278109 0.35820055 0.4941752 -0.05196905 -0.52822876 0.66306 -0.164574 -0.17897138 -0.065340325 -0.046982314 0.25832313 0.36753893 0.010070121 -0.41916746 0.19786778 -0.17219041 -0.14650656 -0.17580378 -0.059932742 0.11436331 0.03737736 0.10447149 0.04887986 -0.3067709 -0.24000236 -0.19942856 -0.38562933 -0.4900183 0.4288289 0.24505052 -0.46512386 -0.37597808 -0.36362082 0.0744393 0.07860945 -0.10362976 -0.47838148 -0.43581688 0.23855522 -0.103700325 -0.044923104 0.028157957 -0.25738597 0.18545334 0.115297556 -0.15321577 0.18294229 0.05801008 0.094795436 0.28619087 0.07351811 -0.44164258 0.08136695 -0.07611302 0.1983862 -0.17729844 0.033797674 -0.018359082 0.12543774 -0.04545777 0.12701327 -0.40210572 -0.30333582 0.086314805 0.05455659 0.03833113 -0.21580236 -0.390619 -0.44237843 0.028441476 -0.47278303 0.04785838 0.30237076 -0.23795101 -0.013030417 0.2113957 -0.17493661 -0.23917967 0.49291608 -0.1551564 0.050599895 0.6523863 0.26038507 -0.26971713 0.2223161 0.64992434 0.34574935 -0.28085047 0.30930045 -0.20678137 0.14762682 0.101472355 -0.47351488 0.2960486 0.24068727 0.45100978 -0.12346455 -0.19805591 0.09305368 -0.09441005 0.44005227 -0.282313 -0.023655688 0.08081895 -0.20705412 -0.27271757 0.11373983 0.2583023 0.13581845 0.16991055 0.016687814 -0.015250504 0.0017626347 -0.034221414 0.27812752 -0.013913916 -0.11894901 0.5072142
661 0.29416686 0.36750293 -0.10573413 0.15397577 0.4710386 -0.7654186 0.42030472 0.57179445 -0.20392518 0.23939449 -0.45856974 0.07143509 0.44129428 -0.16604567 -0.49513933 0.5306756 0.20421992 -0.12102907 0.26578966 -0.04377968 -0.08684994 0.45635462 0.1820717 -0.34906593 0.30761665 0.061302353 -0.25064236 -0.19497313 0.05744076 0.16971555 -0.11925355 0.23739119 -0.11927978 -0.15409908 -0.24987529 -0.24328695 0.071592525 -0.5833317 0.42217377 0.5115295 -0.45613268 -0.3680237 -0.2132213 -0.08478219 0.2184791 -0.092057206 0.022127341 -0.50238323 0.22916473 0.017475046 -0.4186926 0.03428805 -0.50654805 -0.084587365 0.23053755 -0.11801132 0.0812311 0.08026952 0.27173352 0.101148285 -0.07966092 -0.026306963 0.10690783 -0.3021978 0.18121387 0.21312991 0.020585673 0.1328845 0.5906805 -0.42968762 0.27704054 -0.1407815 -0.2796345 0.0824811 -0.23037474 -0.015305733 -0.18994735 -0.37261346 -0.18248492 -0.28462496 -0.7846438 -0.05970612 0.3067039 -0.17087778 0.057526693 0.3355835 -0.41266915 -0.17252113 0.7010603 0.0972367 0.087286755 0.7422844 0.24725159 -0.39764407 0.20321786 0.5038941 0.29362395 -0.24401812 0.51195985 -0.16692531 0.28606945 -0.025205743 -0.4806295 -0.08552437 -0.20131364 0.3424515 0.094060615 -0.08547541 0.121461496 -0.12613504 0.25400105 -0.16901572 0.14212207 -0.053751413 0.37755567 -0.25542635 0.08031945 0.21341942 -0.109448425 0.26206723 -0.27687985 -0.26518697 0.19713415 -0.3534585 0.34223223 -0.071031906 -0.07030451 0.32415262
658 0.28966355 -0.12874097 -0.57670796 -0.052381255 0.2759744 -0.5999438 0.35628906 0.55465984 -0.7465994 0.40281343 -0.1984439 0.515221 0.11416687 0.026646541 -0.012816583 0.38743263 -0.093138434 -0.038420938 -0.05611867 -0.41263813 0.059195086 -0.010571612 0.37813422 -0.32306245 0.31429073 -0.14737113 -0.3467558 -0.14578067 0.4439961 -0.32999033 0.016307058 -0.19214818 0.03382078 0.06631377 -0.18417066 0.17574763 -0.21200715 0.1576087 0.3762556 0.37222394 -0.2927759 -0.43368682 -0.3267561 -0.07496885 -0.03877743 -0.026534108 -0.31148344 -0.20587566 0.15315872 0.24795727 -0.01762004 -0.12903665 -0.13751754 0.05895903 -0.2708902 -0.039350603 -0.13581657 0.25215355 -0.0011524934 0.25429684 0.08986317 -0.077110946 -0.0701739 0.11871876 0.0189788 -0.5109054 0.018512215 0.3276362 0.29759666 -0.44156152 0.22868581 -0.1946382 -0.5950565 -0.1517962 -0.088475406 0.17711104 -0.36902547 -0.2379584 -0.18115817 0.09628505 -0.123074204 0.12917195 0.09492295 0.26880863 0.046167485 -0.25087488 -0.29379958 -0.1460967 0.5517671 0.15354276 0.030588731 0.8525652 -0.46143258 0.007968688 -0.088137895 0.2582999 0.43933913 -0.30241388 -0.12458162 0.041400127 -0.119453184 -0.009104626 -0.7539828 0.7204208 -0.32663706 0.5847747 0.25021148 0.085113876 0.24887508 0.13930817 0.2863345 -0.20415123 0.36572582 0.057211347 -0.36466283 -0.5045811 0.21273556 0.47956616 0.30628005 0.07879943 -0.22009419 -0.5404695 0.44132915 0.07897307 -0.058596093 -0.32914576 -0.4020652 0.60301733
589 0.47725147 -0.2754154 -0.06539541 0.34021544 0.3909038 -0.20429707 0.42707837 0.45653927 -0.45663586 0.12398128 0.10346915 -0.1534497 0.034845714 0.13142264 -0.14038804 0.82259417 -0.1139279 -0.21643047 -0.26216343 0.050595183 0.102456175 -0.10908633 -0.46730137 -0.28998417 0.544351 -0.14825375 -0.3909757 0.42049548 -0.14134158 0.024795683 -0.39692673 0.3197581 -0.012771756 0.26454717 0.07669801 -0.15776512 -0.25409657 -0.17147817 0.18410964 0.80216336 -0.39766383 -0.17239833 0.005196412 0.38082796 -0.34916654 0.03832397 -0.390836 0.089037165 0.37156537 0.21206082 -0.34569597 0.74475217 -0.9409123 0.39086244 0.038012244 0.33929408 0.085011914 0.2169248 -0.06597952 0.05171316 0.058825146 0.425145 0.17989306 0.26319915 -0.094677284 0.42230442 -0.07653689 -0.40526903 0.18736276 -0.16358301 -0.4047928 -0.47710124 -0.2280512 0.09221035 -0.26224992 0.060886584 -0.14171354 -0.27561006 0.14251322 0.020884631 0.12399642 0.07247305 -0.099660225 0.023626551 -0.099161126 -0.10880687 0.17982286 -0.18625501 0.17333357 0.5081844 0.033565074 -0.122336745 0.03662195 0.14761828 -0.43200555 0.03338297 -0.032097075 0.11101313 -0.036600526 0.55710614 -0.20737769 -0.19804455 -0.7107752 -0.21669552 -0.31798244 0.08591869 0.4403573 0.48995396 0.07161732 -0.67311096 0.23712808 0.12373006 -0.1905008 0.35791516 0.014078147 0.09716815 -0.31052908 -0.35839194 0.17386945 0.3445128 -0.027987586 0.04037311 0.28896254 0.18154964 -0.39878988 0.38507333 0.28438345 0.5743454
698 0.6868087 -0.16264464 -0.60166764 -0.11621742 0.16128299 -0.4892568 0.5020659 0.35108784 -0.5280727 0.34594527 -0.4439633 0.24072413 0.29017523 0.023480665 0.015659364 0.50099 0.0046518394 -0.18164404 -0.10295612 0.032117035 -0.020770935 0.08871302 0.44227567 -0.07069144 0.28931493 -0.31813815 -0.3465739 0.02910043 -0.22330137 -0.09379125 -0.022535218 0.1676089 -0.14468838 -0.028243665 0.020300124 0.13038076 -0.23591432 0.13774514 0.29610533 0.7111429 -0.46247008 -0.5998234 0.07975641 -0.027155709 0.31614667 -0.08844235 0.31702226 -0.01389307 0.24438466 0.11959097 -0.14095697 0.32600018 0.029671494 0.048948575 0.10565491 -0.09896408 -0.07967188 -0.046511296 0.19269967 0.16555578 0.11008761 0.10190085 0.28305835 0.07364028 0.2183881 0.15932386 0.07474855 0.2619659 0.6891098 -0.0095813535 0.32869032 -0.38479432 -0.17968209 -0.6101376 0.20658267 0.03578639 -0.36236235 -0.38234255 -0.5372571 0.226175 -0.19602908 -0.17636573 0.06475659 0.05753111 0.09860489 -0.05591248 -0.17596938 -0.41940567 0.52284116 -0.20077652 -0.21899392 0.8430568 -0.21377271 -0.25081512 0.3302706 0.21218066 0.06516585 -0.3068328 0.013894802 -0.21425685 -0.08759914 0.33214673 -0.49864203 0.5926056 0.23597504 0.68539864 0.14427632 -0.0028837717 0.23873307 -0.15486664 0.21845452 -0.14559267 0.27010491 0.016449425 -0.1894093 -0.38258004 0.39968225 0.22421777 0.17555615 0.3719199 -0.15688586 -0.49406272 0.19225666 -0.34583667 0.011161692 -0.28235847 -0.2667432 0.59404975
303 -0.005203589 -0.5132013 -0.38869962 -0.019804679 0.78272223 -0.27829623 -0.17735441 -0.150559 -0.5299222 0.05140603 0.11041315 -0.12624621 0.544463 -0.17469084 0.034598295 0.18225574 -0.115084395 -0.4324443 -0.56884986 -0.28693005 0.0069876392 -0.23727334 0.26822424 -0.04642317 -0.4466539 -0.86992633 -0.54018736 -0.18760866 -0.034753438 0.033712257 -0.30624077 0.26423565 -0.099503174 0.03689446 -0.33193293 -0.08138175 -0.22547106 -0.10296834 0.30619422 0.5531217 0.053920206 -0.058418494 -0.0006885653 0.068484515 0.5902001 -0.39711732 -7.9470614e-05 -0.0461425 0.05823003 -0.090664916 -0.29188478 0.36169645 -0.4562473 -0.085660875 -0.0568057 0.11466064 -0.057090815 0.34450585 0.17350674 0.20360622 -0.36466858 0.0069695567 0.19316874 0.26641354 0.0018865861 0.3024492 0.29077896 0.355152 -0.091007024 0.28554454 -0.54082245 0.16844617 -0.19628197 0.253172 -0.1910817 0.18629274 -0.530311 -0.08016926 -0.53466 -0.3041101 -0.078077234 0.12484408 -0.23386638 0.30745602 0.34393707 0.03712669 -0.21053456 -0.19955607 0.2864214 -0.083630435 -0.27338868 0.40181613 0.38306487 -0.06662407 -0.4528733 0.2677362 -0.2471011 0.10648166 -0.24509387 -0.06900209 0.120508365 0.026191628 -0.03171652 -0.21534966 -0.8259105 0.16172788 -0.48580232 0.16361874 -0.057704702 -0.3838795 0.0904583 -0.049966194 0.33365166 -0.29736668 -0.09550521 0.14103585 0.16579396 -0.08391438 0.18167387 -0.054589696 -0.47837874 0.46047097 0.53425395 -0.1412145 0.46435812 0.26360887 -0.11794805 0.38036773
192 -0.016593976 -0.08088594 -0.22233544 -0.3633657 0.087174624 -0.61792165 0.070270024 0.21763186 -0.32815585 -0.16985059 0.6626174 0.5702008 0.11922455 -0.40283796 0.02582415 0.72566164 0.11410212 0.010471402 -0.64348894 -0.23730102 -0.19820367 -0.36935648 -0.33905017 0.2858102 -0.14160466 -0.17679588 -0.62402546 -0.032169 -0.33477405 0.1391937 0.04012844 0.2526887 -0.3006977 0.12202537 0.022920065 -0.5139523 0.019440291 0.07870752 0.2834691 0.4436519 -0.1408398 -0.11623036 0.31370986 -0.2603152 0.27332774 -0.08785221 -0.21864583 -0.036930926 0.48935533 -0.45022994 -0.64877766 -0.074250266 -0.88627774 0.43352726 -0.1019491 0.089739986 -0.14358656 -0.08958188 0.3657021 0.0635951 -0.26867247 0.33146572 -0.025999727 0.44286755 0.17962575 -0.0016113746 0.4590975 -0.12919575 -0.29826048 -0.24494438 0.38590035 -0.42583224 0.40884036 0.74876094 -0.56942767 0.04038663 -0.49024567 0.12330569 -0.044164725 0.17012426 0.4439038 -0.29488006 0.5102313 0.2350114 -0.3182174 0.12279022 -0.06901862 0.06505113 -0.07971662 -0.07520291 0.19954337 0.6168387 -0.14248079 -0.2145066 0.06657548 0.03219921 0.23201732 -0.0646388 0.3287595 -0.3297662 0.42613903 -0.31247884 -0.24544545 -0.005238611 0.26132083 0.39967388 0.20141743 0.15983333 0.2902895 0.07625385 0.22944826 -0.37342283 -0.08620622 -0.055990666 -0.2989564 -0.2696797 -0.005579685 0.112889886 0.13251266 0.13221478 -0.40912604 0.101057306 0.7062381 0.044342186 0.037367783 0.08926287 -0.06757561 0.46423852
325 -0.053732757 -0.2229556 -0.17700796 0.09565079 0.8461821 -0.21926755 0.24883392 0.2502227 -0.07685383 0.055324405 0.036162775 0.05134606 0.21201307 -0.21759841 -0.08372848 0.21137561 -0.0035594725 -0.55581045 -0.3278355 -0.4487443 -0.023154335 0.13926297 0.22083181 -0.12100163 -0.33767194 -0.6942115 -0.5209618 -0.23418719 -0.34217796 0.03263179 -0.28007084 0.03055249 0.21561052 -0.025661552 -0.12141394 -0.27789402 -0.05225404 0.13431685 0.37693256 0.25593278 0.07178776 -0.04201997 -0.018737428 0.18982404 0.51522684 -0.49420696 -0.32951573 0.075668044 0.08728509 -0.059706848 -0.5244989 0.32775217 -0.57656026 0.066660315 0.14461361 0.003747696 -0.14066786 -0.02519505 0.23273505 0.043061223 -0.040192068 0.34656224 0.59575254 0.19374178 -0.017508779 0.2837758 0.15252957 0.12007741 0.15701322 0.27572602 -0.15617536 0.30176628 -0.38624185 0.09849448 -0.28243044 0.3727978 -0.1282979 -0.21449211 -0.343328 -0.20874715 0.059000775 0.066351056 -0.2992615 0.5304045 0.14048633 -0.4027836 -0.5430436 0.17609654 -0.03931658 -0.2983674 -0.32865593 0.38821733 0.1915256 -0.21501635 -0.35206568 0.55997527 -0.048263106 0.0897193 -0.21153766 -0.32185704 -0.15117067 -0.11153965 0.018857608 -0.3149684 -1.1624317 0.11832923 -0.18086864 0.14767796 -0.047211915 -0.28939736 0.13548972 -0.07096726 0.4421813 -0.34246087 -0.40002748 -0.15318133 -0.032033697 0.24737774 0.09175813 -0.02952082 -0.51700944 0.42742312 0.34913215 -0.1555485 0.3244353 0.10785677 0.12927844 0.2425751
751 0.556047 0.13598397 -0.44169304 -0.0070436853 0.5801933 -0.6523549 0.034908358 0.14040272 -0.47767872 0.59035164 -0.10468138 0.6700554 0.6330149 -0.058989555 -0.20119616 0.46006015 0.01623289 -0.54164946 -0.0557294 0.13756041 0.20454507 0.1120483 0.30473924 -0.15186803 0.5361811 -0.31354 -0.7549956 -0.11897869 0.39067793 -0.17825322 -0.027272558 -0.08828035 -0.22072567 0.023125675 -0.09172428 -0.099492274 0.12327178 0.013004273 0.2749495 0.7713682 -0.4722997 -0.48125502 0.13721077 -0.16424225 0.1591782 -0.34947783 0.15451632 -0.095014155 0.21048643 0.39828286 -0.41659358 0.067177474 -0.2401042 0.01800721 0.42052484 -0.58228886 -0.055992745 -0.13142696 -0.28998515 0.04183741 -0.0123757925 -0.07710798 -0.2252579 -0.096127234 -0.16946898 0.0673183 -0.36545464 -0.20937936 0.255254 -0.0073705115 0.14657262 -0.17652026 -0.42590427 -0.14745423 -0.0137215955 0.2570978 0.1607932 -0.23226 -0.350377 -0.11015195 -0.5433561 -0.09002325 0.07690316 -0.104491755 -0.018050265 0.23605958 -0.11227815 -0.14585003 -0.0094954185 -0.202676 -0.13497509 0.72077155 -0.28819475 0.21670094 0.21649678 0.38512918 0.22889045 -0.15449618 0.1241686 0.10293313 0.21455659 0.5744479 -0.3623158 0.19316487 0.10727643 0.7434086 0.23931618 0.00947514 0.3674249 -0.52939385 0.35902306 -0.31536415 0.07190866 -0.08168797 -0.32096273 -0.23895054 0.11952441 0.26297668 -0.019347629 0.11131874 0.06596067 0.1771815 -0.031659324 -0.12605442 0.099326566 0.023904666 0.005994896 0.42139456
662 0.40271255 0.37419292 -0.2831728 0.13936312 0.45262718 -0.86222905 0.37552428 0.60816807 -0.23498951 0.38133818 -0.34863767 0.054769736 0.5035552 -0.085718155 -0.34485 0.50144875 0.12386761 -0.22013699 0.3541987 0.032718226 -0.1456091 0.38271257 0.30208385 -0.32871985 0.36181363 0.0053382 -0.34603855 -0.18240686 0.2300851 0.10715858 -0.07826845 0.16505828 -0.09898128 -0.036641277 -0.09401794 -0.11935784 0.29064482 -0.419499 0.4058799 0.56378454 -0.43638337 -0.25974435 -0.09970529 -0.12933998 0.24253069 -0.027354209 0.17452797 -0.4823206 0.20639375 0.080709584 -0.4309463 0.028760154 -0.4128431 -0.20283876 0.27423504 -0.07836474 0.057363167 0.107583456 0.19321561 0.111364186 -0.05697561 0.037740134 0.005683394 -0.31224936 0.049049724 0.24085903 0.054802705 0.22466123 0.66962385 -0.4732002 0.33420545 -0.17290308 -0.3292385 0.1234775 -0.4100972 0.034569945 -0.123014055 -0.4152015 -0.16170423 -0.33065104 -0.7085861 0.021881787 0.23231238 -0.19619718 0.0020306015 0.288752 -0.3683343 -0.1226537 0.709164 0.18916635 0.17750213 0.6438952 0.24111833 -0.32297033 0.07009822 0.3968869 0.40218207 -0.2882986 0.5458805 -0.20795724 0.2609415 -0.031787995 -0.5137383 -0.09582215 -0.36955583 0.40532446 0.2021275 0.014002262 0.19946294 -0.24380095 0.2794352 -0.2546531 0.19330181 -0.13726111 0.452354 -0.20911072 0.19526987 0.17869216 -0.21411891 0.19307518 -0.36053216 -0.31586918 0.27940628 -0.3917641 0.36668205 -0.11510306 -0.14909844 0.29443723
243 -0.09691799 -0.28617743 -0.48771518 -0.122200504 0.93054193 -0.2891593 0.27642527 0.5934348 -0.39552933 0.38442206 0.10530912 -0.10125396 0.24703476 -0.3352028 -0.34376702 0.13720274 0.38461298 -0.86869305 -0.7485869 -0.19085167 -0.54432744 0.20730263 -0.04404318 0.1853434 0.28195268 -0.56536 -0.2569083 -0.11521229 -0.048954837 -0.10218078 -0.22450842 0.28282386 -0.0051326673 -0.12753896 -0.2198323 0.18599395 -0.23615402 -0.10265746 0.20389044 0.20654386 -0.15570828 -0.3273931 -0.104889244 0.30337688 0.40291426 -0.5684853 -0.083109334 -0.36774588 0.30904505 -0.23528741 -0.3066266 0.40366173 -0.2997548 0.13135847 -0.1946049 -0.15489142 0.16520537 -0.047086727 0.12421992 -0.03650385 -0.5515025 0.39357784 0.40997484 0.48975274 0.038340498 0.48800758 0.36274058 0.14207655 0.0830529 0.15948822 -0.38108099 0.028690841 -0.32289594 0.30205682 -0.07420968 0.08018007 -0.26618406 -0.57938457 -0.42148826 0.01250787 0.44418573 0.12927254 -0.0040023373 0.7104381 0.18019098 0.26034582 -0.25520033 0.21814337 0.16991442 -0.025820004 -0.4584684 0.22433512 0.3851479 -0.34481338 -0.3564059 0.35726845 0.30586466 -0.21653529 0.09016459 -0.18225892 -0.21547773 -0.19609645 0.021228831 -0.33284056 -0.9854432 -0.024232816 -0.28550696 0.20753378 0.11952696 -0.41554242 -0.10974998 -0.043326735 0.59660023 -0.19466661 -0.2263289 -0.2920388 0.08621029 0.2257219 -0.1282783 0.10712667 0.18500972 0.60796237 0.3387989 0.09988791 0.054914456 -0.35323972 -0.15385729 0.025327165
606 0.55973756 0.073951356 -0.023183508 0.22143653 -0.13202983 -0.54890794 0.5104624 0.1769547 -0.24684443 -0.052280817 0.26503322 -0.3455155 0.14873722 -0.019160245 -0.12867397 0.5523897 0.30107304 -0.47943118 -0.61092937 -0.16197382 -0.043057583 0.014276832 -0.17554113 -0.45003003 0.07628289 -0.1011602 -0.2239353 0.055859577 -0.13508251 0.09075549 -0.23445354 0.4012285 -0.12314028 0.042222954 -0.1712606 0.096712604 -0.01146166 -0.13861813 0.2195053 0.3325277 -0.4912025 -0.21482226 0.11642699 0.20318373 0.16187872 0.13313167 -0.17424427 0.3909695 -0.040127914 -0.059228726 0.13181888 0.45836496 -0.61383545 -0.022645585 0.23744346 -0.103697374 0.124359116 0.21300931 0.14772244 -0.041309882 0.34860107 0.60946876 -0.19676274 0.027092231 -0.030868553 0.3844261 0.03643796 -0.7174492 0.31646386 0.012392058 0.04239997 -0.4246222 -0.25354952 -0.086112484 -0.18031876 0.05209607 -0.20968835 -0.6175858 0.18623313 0.4110388 0.09370255 0.40401465 -0.43298435 -0.04710056 -0.22157305 0.14630078 -0.5624563 -0.17839558 0.1793633 0.0021049574 -0.3903802 0.45961285 -0.27680412 0.022221835 -0.56104124 0.25352597 0.100821495 -0.026780432 -0.14201112 0.43352675 0.014949622 -0.47947845 -0.48339537 0.026182018 -0.45207876 -0.19391137 0.07978991 0.3789652 -0.015321065 -0.26841357 -0.23673108 -0.08503934 -0.016724152 0.66195315 0.13892235 0.049468532 -0.1739737 -0.3566991 -0.14593859 0.28726885 -0.084976524 -0.014373211 0.29883733 0.19376986 -0.17077076 0.23217893 0.236485 0.9927711
25 0.22074021 0.073573686 -0.34588942 -0.3012929 -0.000665379 -0.7854646 -0.18508871 0.09638134 -0.23801638 0.10585473 0.47347683 0.44816485 -0.090695605 -0.3764931 0.0067369924 0.604703 -0.37613466 -0.17640693 -0.44993967 -0.33323207 -0.2546378 -0.28693113 -0.46690863 0.17788422 0.030897385 -0.38567045 -0.65621275 0.06182367 0.057771128 0.32153633 -0.16915686 0.08929766 -0.50927573 -0.083223216 -0.20262614 -0.12959905 -0.099300824 -0.1071339 0.37652463 0.6715954 -0.41354606 0.04435204 -0.30315748 -0.030714685 0.39219946 -0.31085658 0.16796929 0.10754262 0.69630015 0.06625763 -0.5669098 0.15969962 -0.50560725 0.058496762 -0.16499203 0.2020939 -0.19395208 -0.059912298 0.36995032 0.26565444 -0.116874635 0.63992923 0.17797323 0.24845026 0.40428466 -0.5021569 0.35642585 -0.0277547 0.15286486 0.25400674 0.19001387 -0.6900711 0.63268095 0.62830305 -0.19916838 0.25991568 0.10685948 0.29348484 -0.14179398 0.21261123 -0.051325 0.0434906 0.070882335 0.25464317 0.33771637 0.3363745 -0.25965 -0.06522551 0.25914237 -0.17012987 0.35526502 0.33501107 0.021857146 -0.47900692 -0.024787368 -0.07121598 0.4247999 -0.4227906 0.15560244 -0.25859421 -0.03906971 -0.33475366 -0.3803067 -0.31929883 0.26003125 0.43636346 -0.107434735 0.6270632 -0.13070528 0.09038487 0.13406095 -0.26156557 -0.31102464 0.0721685 0.114412755 -0.020932712 -0.22723724 0.17105699 -0.059881546 0.14328316 -0.40264127 0.32226285 0.4698419 0.540401 0.39501548 -0.25063154 -0.025011163 0.5100465
23 0.10945439 -0.016465345 -0.26416114 -0.50267076 -0.120612845 -0.48878744 0.011963298 -0.017959896 -0.082848825 -0.08763368 0.53960294 0.6517918 -0.11511822 -0.18791926 -0.061131667 0.3560043 0.010787075 -0.15855356 -0.5398413 -0.33418617 -0.03051715 -0.18435761 -0.35127455 0.20959894 -0.090848505 -0.45897132 -0.6861824 -0.06430061 -0.14487627 0.38183418 -0.20996399 0.19408742 -0.24539012 -0.011787119 -0.015469965 -0.31170726 0.10990778 -0.1377383 0.38481283 0.64886546 -0.07185742 -0.087409385 0.028878773 -0.07029525 0.2708745 -0.26173687 -0.06434769 0.021321556 0.4208344 -0.1281394 -0.5707247 -0.035626817 -0.71757144 0.21021666 -0.24593063 0.3570914 -0.24015713 -0.40687987 0.37277603 0.3021009 -0.23346469 0.6151009 0.19873358 0.43205822 0.5134297 -0.50093675 0.19899401 -0.17487298 -0.21565361 0.14626218 0.09814189 -0.60243315 0.6289431 0.67790717 -0.16503501 0.03956426 0.003241098 0.005331199 -0.23447011 0.24437419 -0.06984947 0.05557982 0.26468626 0.3101243 0.16818558 0.06145549 -0.23270193 -0.2376704 0.0656737 -0.29247957 0.2880657 0.6491405 -0.08685754 -0.42293462 0.017025698 -0.04580509 0.41638353 -0.28777382 0.23489812 -0.46039534 0.10220121 -0.34828636 -0.45350096 -0.27426708 0.11634364 0.54814285 -0.06575343 0.6238567 0.20166399 0.057357565 0.13748203 -0.32819736 -0.13925342 0.068327904 -0.040770758 -0.2330334 -0.2922818 0.23014896 -0.104844354 0.014115767 -0.5816508 0.27565747 0.652515 0.39706904 0.19683965 -0.23804368 -0.39580393 0.5292324
485 0.520984 0.04747162 -0.18082067 0.40954426 -0.035264548 -0.6852068 0.46412003 0.35932627 -0.21503365 0.085428685 0.21054044 -0.31636658 0.040161382 -0.16933262 -0.30338278 0.731745 0.25883007 -0.4311769 -0.80335575 -0.09289784 -0.052378703 0.21049048 -0.18783587 -0.50460213 0.1674687 -0.05714755 -0.33851162 0.1804468 -0.045071468 0.28087574 -0.29097274 0.3382363 -0.2445966 -0.005782541 -0.046386465 0.043454885 -0.04380198 -0.15411143 0.39021233 0.27780873 -0.4299988 -0.018264577 0.3450181 0.0930259 0.07115709 0.11104526 -0.079966694 0.2669762 -0.033899833 0.03094426 0.2043652 0.31213146 -0.5763549 0.10619502 0.095253475 -0.2435148 0.21219102 0.31802967 0.15177739 -0.1176214 0.13046075 0.6324408 -0.090810046 0.032725137 0.0042941943 0.32368642 0.3276199 -0.8062391 0.34050593 -0.24847177 0.046518903 -0.45101205 -0.09988813 -0.041070946 -0.0023616357 0.060732733 -0.26882526 -0.51061535 0.3809159 0.2168679 -0.1908939 0.46956992 -0.40494618 -0.015174033 -0.1142272 0.12564173 -0.3610226 -0.029406335 0.24269211 0.07677783 -0.48659375 0.3958072 -0.35977453 -0.09005421 -0.5992398 0.2142642 0.02337999 -0.078102596 -0.21885666 0.3679639 0.0572861 -0.41315475 -0.20166714 -0.011356019 -0.4929929 -0.15722568 -0.08934242 0.36681762 -0.051937018 -0.31517646 -0.12841238 0.04909082 -0.079079546 0.72845 0.042164013 0.0344915 -0.009971184 -0.43041342 -0.22987834 0.26033646 -0.20376699 0.115912154 0.33125776 0.19816774 -0.33555427 0.12344724 0.32304388 0.8133107
85 0.1164339 0.017671905 -0.5132475 -0.36268407 -0.10257646 -0.84350306 -0.17473298 0.040299483 -0.13548422 -0.072474346 0.4691106 0.4981658 -0.037420183 -0.36228013 -0.084002435 0.52519274 -0.19565023 -0.21435045 -0.5495527 -0.27377507 -0.26011562 -0.26177314 -0.4573415 0.21355893 -0.014863276 -0.44523278 -0.7136117 -0.00084419263 -0.08514834 0.39868313 -0.15567563 0.15965539 -0.54760927 -0.06361542 -0.2379225 -0.18577085 -0.043281734 -0.102764696 0.37196752 0.6800065 -0.2123668 0.05874326 -0.23996376 0.030082421 0.24393897 -0.32324225 0.094428435 0.06586696 0.5867862 0.09153306 -0.54280365 0.067796476 -0.56615144 0.043063205 -0.07608231 0.25179866 -0.2334275 -0.09845349 0.2822072 0.36529675 -0.26015386 0.58474463 0.14286001 0.31801718 0.40471295 -0.3962014 0.4490677 -0.0518628 0.10913942 0.17317465 0.079200074 -0.60698926 0.55062884 0.6810981 -0.22445814 0.27172023 0.06826341 0.20386092 -0.033181977 0.32068637 -0.04612997 0.05150793 0.20822938 0.3669079 0.13638857 0.23272052 -0.15090202 -0.23397493 0.25497264 -0.107222795 0.41937742 0.42897204 0.077498525 -0.42526293 0.056429107 -0.08640169 0.33980504 -0.38590565 0.19856487 -0.3610644 0.023666685 -0.22510166 -0.39305088 -0.22960144 0.17163485 0.56543875 -0.0037504307 0.72903997 -0.020464016 0.15390894 0.16263399 -0.23892364 -0.2459054 -0.064991154 0.09409134 -0.18698995 -0.23988134 0.12823176 -0.002525514 0.11288515 -0.3486967 0.28928158 0.59760934 0.49800843 0.29476213 -0.315201 -0.028911732 0.4610909
364 0.037313297 -0.0084568765 -0.08160082 0.011888364 0.7330298 -0.17061783 -0.29348254 0.034540433 -0.3301564 0.2879346 0.029877992 -0.28396446 0.07737772 -0.30218425 -0.090499625 0.18507619 -0.12785639 -0.6532931 -0.32479808 -0.15423036 -0.10972217 -0.21816985 0.14720833 -0.09179189 -0.23562758 -0.63056815 -0.5933714 -0.21825537 -0.48010734 0.24602681 -0.42811972 0.3878002 0.5247085 -0.28118685 -0.13951737 -0.31517595 -0.31997025 -0.19237316 0.2906381 0.02451774 -0.07551876 -0.062392935 -0.19747037 0.16881695 0.45448738 -0.26113588 -0.1307912 -0.05368432 0.41722673 -0.5756218 -0.41967127 0.7590128 -0.5491252 -0.14041075 0.07561008 -0.2361357 -0.09051378 -0.14924388 -0.017475255 -0.043267496 -0.19007148 0.40214178 0.08669576 0.5834386 0.2204112 -0.0802004 0.27529278 0.5100903 0.5535227 0.42422816 -0.41688156 0.0033725167 -0.19033176 0.16072705 -0.14862552 -0.026222676 -0.34139603 -0.5113401 -0.25065872 -0.19861133 0.15213205 -0.12675263 -0.2073395 0.6150014 0.3307473 -0.13021123 -0.3121545 -0.40352264 -0.21067405 0.07440899 -0.42801657 0.73017585 0.051898677 -0.2284775 -0.26204628 0.37578464 0.050934944 0.21957396 -0.21747304 -0.14850864 -0.04642464 -0.26169717 0.14099754 0.0025126932 -0.7864623 0.15787774 -0.17355137 -0.079832554 0.052616995 -0.3897976 -0.025372557 0.085825205 0.13010277 -0.3926769 0.09693853 -0.12604348 0.23958603 0.037739124 -0.015540613 0.28883463 0.07770554 0.37699053 0.24739215 -0.11244756 0.30266154 0.046727292 -0.021755384 0.3537191
72 0.15523955 0.23884135 -0.106628805 -0.25370717 0.46513093 -0.605298 0.12421211 0.34440652 -0.19462526 0.13667221 0.0542507 0.121367574 -0.40919852 -0.15321086 0.3884425 0.888779 -0.34009978 -0.0040762546 -0.3463277 -0.17319876 -0.024821416 -0.28456277 -0.43289542 0.16729102 0.15426402 -0.16133967 -0.64506745 0.0044191633 0.1676338 0.2544362 -0.22225556 -0.088925004 -0.23629081 -0.16374177 0.08493527 -0.30608627 0.073344804 0.0018171679 0.4756974 0.34148973 -0.33063325 -0.17303258 -0.1236729 0.03884371 0.44136402 -0.22568515 0.09304971 -0.0042266664 0.53885454 -0.112987526 -0.5450386 0.33023557 -0.596681 0.1565134 -0.24977802 -0.091649376 -0.4003168 -0.49172598 0.37607312 0.17674088 0.11183857 0.6664428 0.23654374 0.14269206 0.5663903 -0.3367154 0.14736785 -0.17055406 0.1600761 0.12125894 0.16355903 -0.5645559 0.32045755 0.7640171 -0.18248777 0.16060346 -0.18144311 0.17765062 -0.070038155 0.516924 0.04827287 -0.30453765 -0.2853106 -0.098962635 0.30442107 0.34250462 -0.27141362 -0.17864138 -0.11593805 -0.06230772 0.18895757 0.3795397 -0.07778792 -0.4529459 0.068497345 -0.2610547 0.31247595 -0.1822769 -0.17470853 -0.17306837 0.33192134 -0.36532825 -0.69279 -0.25727397 0.31351116 -0.1592966 0.12188118 -0.045997962 -0.32947707 0.021580089 0.23381855 -0.18246317 -0.02054773 0.119446605 -0.24834369 -0.028714051 0.077259436 -0.085473165 -0.12194979 0.059612226 -0.59564525 0.36388725 0.03481224 0.38449636 0.3316178 -0.09911723 -0.12196591 0.5226957
164 0.22533952 0.3389923 -0.05176782 -0.21922246 0.54149663 -0.61833227 -0.1830171 -0.048887193 -0.18534014 0.1580938 0.62806815 -0.0968249 0.11791798 -0.0910456 0.04423342 0.52330035 0.24490184 0.23205324 -0.4484131 0.10384882 0.2507531 -0.34284902 -0.33841985 0.18313314 0.22521229 -0.5456405 -0.41184342 -0.150095 0.016646426 -0.14217925 0.13756578 -0.17674996 0.13660605 -0.3713023 0.01370778 -0.07091909 0.21944003 -0.027972333 0.5739098 0.3721081 -0.54694813 0.07975038 -0.015290745 0.49122235 0.3444003 0.2874948 0.14795381 0.042763546 0.95879906 0.004900739 -0.4167711 0.23540433 -0.49643224 0.6998625 -0.029043762 0.105132155 -0.5154983 -0.6714437 -0.087639384 0.16332032 -0.25616103 0.51083314 -0.11936548 0.043411188 0.18503538 0.14422658 0.35112146 0.26939166 -0.14791943 -0.27629676 0.35683787 -0.47927225 0.05865106 0.49845666 -0.16259502 0.20818537 -0.023398196 -0.2207125 0.13272855 0.4199308 0.09484696 -0.14747111 0.20608804 -0.025091555 -0.010296856 0.37380826 -0.33391115 -0.43932056 0.24362855 -0.13734236 0.17398533 0.6393209 -0.23346151 0.04601408 -0.109930284 -0.20393889 0.2306421 0.2121866 -0.44771814 -0.46946254 0.41360205 -0.1442891 -0.44070593 -0.3354139 -0.2844527 0.019791136 0.032008447 0.38172725 0.34567994 -0.018576099 0.799677 -0.3727943 0.00051872316 -0.016542222 -0.33839208 0.08932693 0.078528605 -0.016121339 -0.16371655 -0.61221635 -0.40538523 0.45964062 0.2969559 0.5723551 0.6240734 0.20934841 0.024834933 0.54826677
472 0.56883425 -0.46992394 0.017929401 0.19326341 0.052019652 -0.30241832 0.0011657899 0.5148265 -0.26533777 0.111072086 0.14209071 0.012997133 0.32739088 0.3765437 0.29289734 0.68165195 -0.15865025 -0.36839518 -0.4643547 0.0030516468 -0.087433994 0.020971185 -0.5177995 -0.4179173 0.34922034 -0.19238392 -0.3760736 0.1578238 -0.31648314 0.06864832 -0.21875405 0.40552118 -0.019729916 0.077460915 0.32866737 -0.02814892 0.088059254 -0.010035914 -0.03775492 0.7526655 -0.6840129 0.1633283 0.05468856 0.45473287 -0.31858608 0.079033 -0.22255386 -0.10611614 0.2335139 0.09292773 -0.3163944 0.43936995 -0.80992734 0.1793642 -0.018718138 0.27933717 0.28635937 0.46386254 -0.12699324 -0.25300395 0.12353566 0.22172123 0.022945799 -0.06632783 0.09763972 0.34316015 0.37637326 -0.46545845 0.30735686 -0.14628614 -0.10246221 -0.2757221 -0.37464178 -0.0038949146 -0.042759977 -0.057536453 -0.33514464 -0.52039945 0.31364954 0.10607011 0.10738512 0.25570163 -0.2621273 -0.14019819 -0.27397865 -0.00870869 -0.0290919 -0.41911876 -0.058713105 0.14770746 -0.12120167 -0.12023155 -0.16891438 -0.04087837 -0.62792325 -0.063244276 0.49641055 0.05309009 0.19327417 0.18205264 0.10428411 -0.1576138 -0.22220099 -0.2947174 -0.4088382 0.2614156 0.23649448 0.2089327 0.06612139 -0.47879592 0.122975476 -0.0059046317 -0.23763303 0.17349137 -0.14492884 0.036342412 -0.35565996 -0.17306775 0.36439577 0.13096327 -0.27346244 0.21680085 0.20429727 0.19528352 -0.12608361 0.41616607 0.1410072 0.8313169
687 0.6769131 0.3600294 -0.59159034 0.06683872 0.50954235 -0.7005651 0.43224317 0.23536468 -0.4487445 0.64748544 0.22724034 0.32574213 0.48078358 -0.16370888 0.115009345 0.5358234 0.22944498 -0.38040364 -0.026866106 -0.11888136 0.32227743 0.048189215 -0.11035053 -0.29991135 0.41336167 -0.23049828 -0.8549249 -0.17079222 0.14112324 -0.6239313 -0.037624985 -0.03750539 0.20505862 -0.21128915 -0.27353445 -0.20612165 0.1886797 -0.1699873 -0.04574363 0.5633559 -0.7926552 0.07073589 -0.03491986 0.090191774 0.16994515 -0.11503395 -0.019412562 -0.27557588 0.26420477 0.08481911 -0.22963838 0.29516008 -0.1862674 -0.13082728 0.3560551 -0.28409573 -0.17721428 0.09850154 -0.15931445 0.010594928 -0.52101207 -0.02007093 -0.13438581 -0.014180492 -0.065562405 0.20728213 -0.5230558 0.03589553 0.2259829 -0.12065018 0.04817792 -0.09999704 -0.519734 -0.3497959 0.0037629872 0.050780185 -0.14548634 -0.5171844 -0.4027135 0.19029418 -0.36422876 0.27292 0.34891886 0.087933674 0.09838539 0.18953346 -0.4330948 -0.07606726 0.34712464 -0.42007822 -0.049022652 0.66422987 -0.45043877 0.3157532 0.21068971 0.36095783 0.27082604 0.604967 -0.5255412 0.14073741 0.23647137 0.43470627 -0.39557776 -0.19680531 0.03320003 0.729303 0.08780391 -0.23760822 0.2468723 -0.4645698 0.1752947 -0.5240775 0.09283984 0.124925725 -0.3785254 0.09544438 0.1802723 0.19486757 0.076765805 -0.14414847 -0.24507783 -0.017788498 0.02677052 -0.17476195 0.046940867 -0.0302306 -0.044536706 0.71645087
647 0.25688112 0.269641 -0.40589103 0.2057207 0.40768236 -0.8737661 0.3997808 0.52647984 -0.050303426 0.031671297 -0.2737536 -0.07219076 0.42747554 0.027386451 -0.27737322 0.56040466 -0.0878014 -0.23594551 0.22428146 -0.09268709 -0.18343727 0.3861791 0.27618298 -0.29779568 0.18340695 0.039180417 -0.39326328 -0.18052614 0.17557985 0.10842572 -0.12721106 -0.010257104 0.042208236 0.012675326 -0.027076252 -0.079676405 0.23679693 -0.42750853 0.29463997 0.5249735 -0.39045942 -0.28966287 0.008270947 -0.15341556 0.26716274 0.109181896 0.023327783 -0.42942828 0.13168159 0.16695072 -0.18771791 0.081838645 -0.3086537 -0.21280845 0.31461444 0.072493866 0.045870516 0.07820068 0.18439282 0.10583215 -0.010027219 0.03438309 0.07643372 -0.24444519 0.07009484 -0.038507283 0.064115554 0.24911158 0.6333837 -0.3614582 0.18707025 -0.24057892 -0.17775404 0.15129331 -0.24394113 0.061476566 -0.04504535 -0.512915 -0.28704694 -0.3328692 -0.52296627 0.16446707 0.4258276 -0.2530959 0.04508522 0.37453216 -0.41483095 -0.09759812 0.62888336 0.1768363 0.11213282 0.6347762 0.41386756 -0.23088877 0.06575256 0.31591302 0.49665326 -0.31343788 0.3731048 -0.16774328 0.17530027 -0.07775159 -0.56764334 0.062398408 -0.27727878 0.45434257 0.32062548 -0.063782886 0.4168686 -0.115188256 0.18944785 -0.40236852 0.2784109 -0.08547477 0.3742218 -0.3266793 0.24405785 0.20604405 -0.08515688 0.11239141 -0.32510352 -0.44598845 0.3456036 -0.37834924 0.40279636 -0.12780425 -0.21713181 0.4293691
802 0.3431839 0.08850738 -0.40896958 -0.023421409 0.28018087 -0.9441685 0.25188446 0.7137294 -0.38677844 0.103060536 -0.5183795 0.2547982 0.6817165 -0.047184758 0.0010192323 0.48343337 0.23687619 -0.32153267 -0.12064376 0.04611812 0.31928945 0.32265407 -0.035280973 -0.24938822 0.2605749 0.03772759 -0.54620236 -0.05615777 -0.0077493642 0.35939845 -0.2736737 0.27887517 -0.041786272 0.06133402 -0.027361816 -0.06424381 -0.1893527 0.18444942 0.110016815 0.7367324 -0.66875803 -0.41503698 -0.23926376 -0.008603 0.24558644 0.0407903 -0.11017556 -0.35445827 0.35772946 0.033941727 -0.041025985 0.19190866 0.018204344 0.11358096 0.4932466 -0.31601053 0.120164305 0.19894063 0.11392496 0.2917188 -0.08289975 0.15878594 -0.14633203 -0.1553451 -0.12830283 -0.14777358 -0.15329792 0.2272027 0.08254484 -0.22057125 0.10128542 -0.37004775 -0.063393645 -0.022894643 0.21067743 0.107573494 -0.067745626 -0.32935303 -0.5603927 -0.22312194 0.0540124 0.2245627 0.33763498 -0.07547917 0.35049468 0.2818025 -0.070082135 -0.37872696 0.17235516 0.23163238 0.39437574 0.59416586 0.0798745 -0.20283319 0.1760903 0.0009936157 0.34271526 -0.3512857 -0.28731763 -0.42368677 -0.12056467 0.1918451 -0.27374944 0.34445798 -0.16225499 0.59411883 0.4623868 -0.0895157 0.48244524 -0.12361114 0.34729418 0.034892663 0.28626704 -0.13443094 -0.2992619 -0.21649645 -0.15159367 0.16637163 0.13969952 -0.12574765 -0.093157955 -0.35434207 0.20326987 -0.3054601 0.05512258 -0.060172208 -0.3616378 0.4557634
191 0.06463901 0.005091788 -0.22669722 -0.37135547 0.09630583 -0.5332255 -0.029774217 0.13680649 -0.2567923 -0.08538519 0.6549709 0.49388856 0.020019969 -0.2879705 0.1508115 0.623563 0.10872632 0.054291956 -0.45252112 -0.18495838 -0.21534802 -0.36219943 -0.36811146 0.23672351 -0.109459065 -0.004447058 -0.6651831 0.060051493 -0.3634095 0.042173035 0.038097393 0.24322093 -0.18376528 0.08507791 -0.005100212 -0.45868278 0.13626541 0.11519115 0.24760132 0.37349465 -0.24980584 -0.14896682 0.38212615 -0.10129471 0.32176426 -0.034162916 -0.22679205 -0.014606431 0.5733709 -0.50479794 -0.57520235 -0.036052674 -0.78772134 0.52402765 -0.13315433 0.15511745 -0.26474565 -0.33184204 0.36364776 0.01989893 -0.2715854 0.42289937 0.0075607593 0.5157555 0.21096532 0.043365397 0.4004659 -0.16169311 -0.34266236 -0.27255633 0.39724398 -0.5343353 0.30091116 0.71492416 -0.4590552 0.025309999 -0.4207788 0.0355233 -0.105068676 0.29214135 0.30091575 -0.2956124 0.5335436 0.070025414 -0.29688886 0.04465808 -0.12517346 0.03835896 -0.059165157 -0.16733105 0.2351606 0.6379078 -0.34076643 -0.20172875 0.08403269 0.07055551 0.32203466 -0.030037086 0.21069372 -0.36799762 0.4587396 -0.365097 -0.43372712 -0.12153589 0.23823717 0.40564874 0.11179775 0.088870935 0.23438044 -0.10745447 0.24308234 -0.46006998 -0.23834927 0.13582058 -0.51243925 -0.22918116 -0.13385682 0.16255045 0.14852187 0.13259286 -0.4025873 0.122939095 0.59578943 -0.011560971 0.068766 0.11628301 -0.17150792 0.5273936
533 0.5236319 -0.22361033 -0.39999935 0.36723927 -0.042756204 -0.73398244 0.4781246 0.20545614 0.022375137 -0.34171814 0.2289253 -0.1561733 0.5062594 -0.24265264 0.37023616 0.31257865 0.35865572 -0.2887244 -0.26914108 -0.20962855 0.04145183 -0.22547697 -0.5074047 0.026345087 0.22892453 0.11801418 -0.12710395 -0.0262931 -0.5126108 0.45192713 4.7979956e-05 0.48502398 -0.04308899 0.14720653 -0.095704645 0.19520645 0.07503749 -0.34819272 0.45413086 0.5253327 -0.3654485 -0.39867586 0.0047017424 0.31642157 -0.0572539 0.051674526 -0.081071146 0.16452926 0.34331048 0.11398093 -0.49810645 0.18423055 -0.6909813 0.011826589 0.03249977 0.10922774 0.003271576 0.3614018 0.045945343 -0.15879251 0.01645446 0.21975365 -0.23383947 0.11531994 0.17643291 0.02013067 0.36757568 -0.53289384 0.23529361 0.16203292 -0.53608257 -0.81611145 -0.550795 -0.28750384 -0.2621009 0.03237154 -0.19031243 -0.55986655 0.17342305 0.04233243 0.17118049 0.2527388 0.045370635 -0.033495314 -0.08115051 -0.12808621 -0.70990723 -0.14981267 -0.026448948 -0.1912251 -0.56959796 0.41325337 -0.26286966 -0.17950228 -0.49928337 -0.17600183 0.34449786 -0.2934113 0.19081397 0.18192661 -0.21904753 -0.3802131 -0.16310284 -0.09554845 -0.21071747 0.1331033 0.04823493 0.32777193 -0.29575294 -0.44201067 0.12937419 -0.110754766 -0.2462387 0.46806148 0.24828412 0.42397758 -0.024893234 -0.23080894 0.11492669 0.063278355 -0.039449725 0.055012297 0.47270942 0.34175876 0.1820303 0.5638604 -0.49709627 0.7613221
648 0.18987049 0.3123046 -0.51892525 0.060180128 0.3503515 -0.7512517 0.31365967 0.28449106 -0.3374265 0.24930872 0.1357134 0.4407224 0.4090364 -0.06514615 -0.27376848 0.5158493 -0.15788215 -0.24801092 -0.003907613 -0.1326427 0.08722385 0.09082816 0.35965523 -0.32492566 0.20246904 -0.22093235 -0.6124905 -0.18473637 0.10908823 -0.3484873 0.10258554 0.0053680935 0.00018644096 -0.20126525 0.05502068 0.081218824 -0.011310273 -0.063970596 0.18442471 0.54309523 -0.64124084 -0.22559929 0.016087072 -0.24176584 0.3042741 0.06404222 0.2522281 -0.19943908 0.4999758 0.36992627 -0.008571786 0.17441016 -0.11381304 -0.09198202 0.33092606 -0.18163295 0.027720321 -0.11766689 -0.021516591 -0.09844335 -0.16429658 0.07758429 -0.14492075 0.07919101 -0.049281135 -0.32913098 -0.50042397 -0.03598272 0.29278827 -0.12489113 -0.007819971 -0.0641131 -0.38354346 -0.266521 0.12591703 0.07826216 -0.18291005 -0.28673536 -0.3422053 -0.07111613 -0.13867493 0.19019105 0.49398693 0.043707356 0.40833703 0.13242412 -0.3034635 -0.089339145 0.45655474 -0.3940003 -0.08704472 0.56877416 0.03068483 0.31401172 0.2006281 0.44973695 0.31972116 0.026574034 -0.16903098 0.10938321 0.1682455 0.65259135 -0.55242586 0.0693802 -0.040496632 0.6287687 0.35127676 -0.07044053 0.35834593 -0.37892136 0.11697561 -0.38288462 0.29370937 0.06214122 -0.1411302 -0.27849737 -0.1696985 0.13098635 -0.041490715 0.119196765 0.18797714 -0.1269063 -0.041493803 -0.41867828 0.23841624 0.078727 -0.268039 0.8105915
63 -0.088517316 0.16597745 -0.09872294 -0.33524197 0.4738016 -0.6110957 -0.2839344 -0.09008898 -0.1957623 0.10065573 0.49341387 0.17556334 0.00041047295 -0.19307029 0.049605645 0.41202474 0.12890205 0.20475343 -0.5639096 0.03560285 0.03561695 -0.20609516 -0.2717041 0.059132073 0.0019381627 -0.30179033 -0.50926036 -0.10536347 0.007887008 -0.0064359903 0.058903888 -0.15107694 0.028772587 -0.23017909 0.086856626 -0.111169584 0.25803807 -0.05506972 0.47812182 0.11449699 -0.5876438 0.05368368 0.09764654 0.31961408 0.4510979 0.20694605 0.03196369 -0.0127819665 0.7957277 0.032618944 -0.42406875 0.26120347 -0.53672713 0.7112339 -0.14479578 0.2192251 -0.39290872 -0.608421 0.0046666167 0.31495142 -0.18231633 0.5585687 0.06654931 0.1623499 0.27931303 0.04240581 0.44919062 0.11394872 -0.036569517 -0.2545209 0.17139028 -0.57650447 0.03127751 0.5070716 -0.17420451 0.1936442 -0.016069049 0.03628188 0.09804192 0.5445693 -0.11266408 -0.2208712 0.07628441 0.051862698 -0.114443794 0.03309729 -0.17728956 -0.47658178 0.40617403 -0.027130099 0.25492644 0.603386 -0.2410865 -0.119698085 0.0032058612 -0.21028534 0.26953825 0.05631264 -0.3224329 -0.5711537 0.48180768 -0.20156653 -0.31629494 -0.4781983 -0.1003376 -0.04852296 0.020932622 0.37294176 0.22818357 -0.03692824 0.68398297 -0.47522593 -0.13580929 0.16700266 -0.30168334 -0.15580711 0.015668929 0.056515776 -0.18364005 -0.43060577 -0.5039496 0.2487367 0.2914208 0.64386666 0.43458056 0.15056597 -0.009426279 0.50988954
291 -0.047269084 -0.11317916 -0.16090812 -0.056720126 1.048604 -0.44347185 -0.119587235 0.045859654 -0.0894173 -0.23823124 0.0617488 0.14504635 0.15633097 -0.34335467 0.02639218 0.22232203 -0.3781655 -0.5670442 -0.53627044 -0.43724823 -0.23047993 -0.117973916 0.33165368 -0.51389414 -0.47008684 -0.48024374 -0.6568907 -0.44220853 -0.0513509 0.2032387 -0.3087472 0.39275068 0.09557448 0.17788938 0.16732013 -0.25630486 -0.048201684 -0.1196672 0.5603653 0.5353053 0.20072965 -0.026877029 0.01950298 0.21536623 0.71582305 -0.6095625 -0.33290645 -0.034227297 0.0005744485 0.01415788 -0.7131378 0.42685938 -0.5307138 0.20168139 0.069428496 -0.048863318 -0.1772276 0.2867037 0.28642094 0.39244592 0.16718505 0.27512178 0.1794883 -0.011902629 0.058261365 0.1427717 0.08682289 0.38177124 0.066368215 0.112480156 -0.29469764 0.08713782 -0.43621418 0.31104577 -0.39987978 0.026241705 -0.2694914 -0.082414865 -0.44540587 -0.14120099 0.15832382 0.15554824 -0.20335828 0.26649135 0.22834373 -0.27680072 -0.42532516 0.15053606 -0.10447927 -0.03498575 -0.22397631 0.5518955 0.20123895 0.052463077 -0.30929646 0.5102488 -0.1260422 -0.27369183 -0.10405341 0.01847365 0.27167195 -0.0848241 -0.0678045 0.008986009 -0.98505616 -0.060734633 -0.43035442 0.2694861 -0.17563362 -0.27700883 0.2875426 -0.13695444 0.28258213 -0.34473002 0.12140026 0.07769544 -0.2047686 -0.018724296 0.22387989 -0.13607907 -0.32250556 0.46104693 0.53314376 -0.13135004 0.37866446 0.64179885 -0.34243664 0.12309216
227 -0.015949601 -0.20975576 0.14807974 0.20897214 0.72685564 -0.094109446 -0.068012394 0.32617235 -0.2527583 -0.1603404 0.05268445 -0.16306971 -0.1732905 -0.36860842 -0.12872559 0.08085861 0.2260732 -0.53860086 -0.42880496 -0.3693371 -0.29040942 -0.041083544 0.01749571 -0.1816099 -0.10880835 -0.6411962 -0.49123773 -0.21653646 -0.24606289 0.048950806 -0.036104247 0.16330275 0.16481522 -0.23256642 -0.11602693 -0.05464182 -0.47501758 -0.12851994 0.47362986 0.08535247 -0.119143724 -0.13498648 0.011656053 0.15476343 0.21996814 -0.36221355 -0.28486362 -0.13436021 0.30383348 -0.00063431007 0.08205055 0.44716057 -0.6423017 -0.11633401 -0.19765303 0.0053648357 0.080433495 -0.0618746 -0.01605768 -0.31459382 -0.34906796 0.6634525 0.49646637 0.2941419 0.06600635 0.23295823 0.04475083 -0.008063216 0.4479173 0.2511308 -0.17670664 0.15664633 -0.15938321 -0.11816207 -0.099303715 0.3985683 -0.5123609 -0.056929372 -0.34254068 -0.010842972 -0.01913362 -0.059140377 0.09269416 0.6297998 -0.016676765 0.20651735 -0.1809935 -0.122516915 -0.23103769 -0.071718425 -0.05891589 0.28501433 0.39694628 -0.37950307 -0.16795649 0.43618554 0.32404155 0.010108844 -0.30134472 -0.1610371 -0.07488761 0.004458228 -0.04510408 -0.20836084 -1.1719521 0.2463215 -0.42375344 0.19076231 -0.08386417 -0.3123475 -0.1793597 0.09580982 0.6653704 -0.010815628 -0.10811535 -0.5860171 0.07364727 0.19851512 0.40238836 0.16555059 -0.40713364 0.36232293 0.6898586 0.084718905 0.4006728 0.15593316 -0.030724585 0.16083644
521 0.43096834 -0.43377566 0.06915096 0.068307474 0.18074363 -0.62583715 0.3033579 0.65576553 -0.21776275 0.011854252 0.09282189 0.12507513 0.17355989 0.09746745 0.04460187 0.7038694 -0.019376913 0.003210808 -0.3826319 -0.14636636 0.20838629 -0.13164759 -0.34385824 -0.2017678 0.24983415 -0.08802411 -0.12493144 0.38281977 -0.5768962 -0.01942363 -0.2393035 -0.065288104 -0.075519025 -0.03285905 0.19389571 -0.2083684 0.15582964 0.022372648 0.12071788 0.40799984 -0.6685109 0.09558749 0.032498643 0.35975534 -0.53251207 0.20162925 -0.066681094 0.6571047 0.024479792 0.58113146 -0.27032274 0.44072628 -0.53726244 0.31348768 -0.05031073 -0.043850332 0.15288112 0.2210193 0.18360731 -0.08626073 0.118443 0.19361962 0.01600917 -0.041326407 0.0010402257 0.30642128 0.59092075 -0.6661062 0.23185302 0.022880401 -0.28692937 -0.49599606 -0.19463584 -0.12162166 -0.13609548 0.080931075 -0.22273028 -0.56432235 0.10474925 0.41023803 -0.07752752 0.17109308 -0.19944459 -0.0016915173 0.27943796 0.21012762 -0.3048782 -0.10879341 -0.04616073 -0.006549024 -0.22832614 0.4602063 -0.17591919 0.27110708 -0.6641393 0.107927926 0.34934157 -0.26256245 0.065962106 0.20595768 0.23709312 0.008820693 -0.21294206 -0.00736843 -0.782584 0.065810375 -0.023059528 0.3524511 -0.21502611 -0.4120952 0.3689402 0.22463012 -0.16471869 0.22977318 0.08310918 0.022326902 -0.070247166 -0.32592997 0.37131575 0.20042367 -0.31727117 0.18595754 0.05230699 -0.16346875 -0.22137393 0.57693696 -0.4689403 0.76615804
577 0.31089345 -0.103552796 0.35494927 0.24740803 0.22434285 -0.47094807 0.44791532 0.647244 -0.278158 -0.085689984 0.20081651 0.05970373 -0.02539326 -0.22437365 -0.048176702 0.25651112 0.29652604 -0.34804866 -0.0882026 0.21748984 0.035843812 -0.19329892 -0.24973983 -0.2291642 0.17471293 -0.023386097 -0.21039252 0.28203586 -0.26948294 -0.08101447 -0.29864496 0.16724865 0.15713952 0.17783795 0.038968585 -0.07295105 -0.19402537 0.011428554 0.2640186 0.5150169 -0.3669565 0.018323783 0.20604004 0.4460415 -0.4085656 0.2781981 -0.018206952 0.09669697 0.056141872 0.4087376 -0.38328883 0.26494685 -0.51510674 0.047543555 -0.14386778 -0.023401333 0.41094422 0.3063987 0.22690268 0.063484654 0.36657667 0.4031151 -0.15587582 0.37421006 0.16757706 0.08625549 0.24557379 -0.55373794 -0.04786019 0.20724352 -0.56275195 -0.57498366 0.06973624 -0.1495404 -0.19682151 -0.08664472 -0.28458613 -0.86062956 0.35240355 0.30752948 -0.008476879 0.06476324 -0.079373986 -0.030617967 0.14091249 0.30468017 -0.44315696 -0.20957932 0.25270945 -0.01859828 -0.28664592 0.39182723 -0.19881585 -0.02223187 -0.5376201 -0.14862518 0.577301 0.032883175 -0.13045292 0.4337149 0.26800945 -0.11389822 -0.2172465 0.02569205 -0.5029736 -0.1301325 0.006974183 0.53542507 0.29560828 -0.6572795 0.13426559 -0.08047875 -0.18222967 0.4330163 0.03573958 0.080178656 0.018208932 -0.32709196 0.103885695 0.27667728 -0.16704197 0.31448582 0.16854762 -0.046911493 0.07206605 0.5037802 -0.07220648 0.8571627
838 0.17809565 0.017045997 -0.27674675 0.16271566 0.7851434 -0.3060834 0.3416201 0.4585208 -0.7172358 0.056758318 0.35834885 0.29243827 0.04360961 -0.23607431 -0.012309722 0.5638545 0.15302564 -0.84034085 -0.05834269 0.27362114 0.37133604 0.4445202 -0.15424985 0.041054744 0.6396483 -0.0060477643 -0.5789274 0.21012971 -0.55925226 0.2997872 -0.054792512 0.2637437 -0.30868435 0.027622055 -0.27294388 -0.19162054 0.2616135 -0.16764691 -0.08580321 0.7513901 -0.42461357 -0.3989261 0.077853896 -0.060015336 0.31412882 -0.5224046 -0.38187957 -0.123594455 0.07213126 0.42796317 -0.6091429 -0.21742146 -0.39016828 -0.08189179 0.27385417 -0.4009203 0.1490479 0.101236574 0.522117 0.016170744 -0.03790925 0.16541249 -0.2761017 -0.30837154 0.08891109 -0.12340651 0.16579698 -0.17222333 0.49359354 0.23906352 -0.20865676 0.17949478 -0.15315138 0.049941666 0.1147996 -0.2968091 -0.3645444 -0.39582133 -0.43645892 0.021598918 -0.07361298 0.15784723 0.20777856 0.06548955 0.3562402 -0.061406434 0.10776787 -0.3918452 0.23463933 0.62595004 0.0765107 0.9532509 0.19413501 -0.35847524 0.25400674 0.46557552 0.3441528 -0.310468 -0.35194513 -0.1497219 0.45966288 0.13666883 -0.8869047 -0.31665355 -0.21692155 0.850533 0.13884903 -0.1846949 0.4521143 0.29751554 0.26527312 0.32383913 -0.01185614 -0.23500954 0.28908724 -0.47339728 -0.11451276 -0.062228486 0.43960223 0.21148364 -0.32269567 -0.046760954 -0.09285181 0.13932447 0.3635349 -0.43620202 -0.09266731 0.52479184
587 0.2402924 0.050996702 0.45627713 0.247316 0.32577989 -0.42749 0.4547251 0.79603374 -0.28257775 -0.048190504 0.16988786 0.14246625 -0.03427336 -0.35512137 -0.062374104 0.113854155 0.40744781 -0.4963694 0.11488958 0.10653228 0.06413959 -0.31777084 -0.34855095 -0.2698319 0.34410208 -0.061791327 -0.36985946 0.36882803 -0.10346631 0.0014595169 -0.29735774 0.14863254 0.20257673 0.19029976 0.044959847 0.012496492 -0.3017751 -0.029489936 0.4943773 0.5102395 -0.44998327 0.00436823 0.1946151 0.5038627 -0.38999492 0.33129266 -0.0038161816 -0.12338138 0.03222898 0.47944528 -0.4146467 0.31871384 -0.42847422 0.039096635 -0.24921544 -0.050556682 0.4217947 0.3099999 0.1765671 0.10043857 0.33401066 0.3218388 -0.062117457 0.45691568 0.2946732 0.026093278 0.2264187 -0.3999203 -0.10432486 0.30283338 -0.5897908 -0.61971277 0.19766095 -0.11854605 -0.24635828 -0.08468041 -0.39562175 -0.8967789 0.43311894 0.15559906 -0.005154887 0.024575187 0.034379765 -0.14914855 0.07014157 0.29062814 -0.54379797 -0.101832114 0.26550314 -0.11152515 -0.4446875 0.49334323 -0.09671445 -0.12968016 -0.6171696 -0.3358496 0.48979673 0.12148061 -0.29494342 0.506615 0.15976012 -0.055205848 -0.21103773 0.028097784 -0.32399854 -0.09949156 -0.050845653 0.54112345 0.40308797 -0.7464178 0.02283534 -0.084919155 -0.08336226 0.19721489 0.04570486 -0.035892818 0.043739952 -0.44620997 0.042035494 0.17123857 -0.29353094 0.1241774 0.23661174 -0.081707105 0.08893713 0.4987046 -0.030135049 0.99350697
179 0.3790401 0.45023245 -0.1297038 -0.22379336 0.5328249 -0.73607635 -0.048284087 -0.01967594 -0.23049216 0.068617195 0.69826055 -0.1600633 0.1577815 -0.076100275 -0.033520035 0.5059258 0.32816884 0.27546114 -0.43297753 0.079199605 0.3017513 -0.45462817 -0.3907927 0.27890295 0.19014893 -0.6139357 -0.30352804 -0.16647585 -0.07590135 -0.10398954 0.11677032 -0.051361647 0.105433606 -0.2636603 -0.011391408 -0.03206714 0.17058608 0.059522912 0.7484983 0.5839288 -0.5184857 0.06134018 -0.04949621 0.46996763 0.28091335 0.286079 0.15026936 0.017357519 0.9261561 -0.036748216 -0.44464263 0.17318304 -0.60092044 0.6525177 -0.0483958 0.08952678 -0.51775897 -0.67621654 0.044944406 0.06491235 -0.16479875 0.5416925 -0.16155663 0.016173856 0.16070844 0.10001971 0.321882 0.27376157 -0.24893719 -0.29060596 0.37023413 -0.5182678 0.088466235 0.5099286 -0.11506323 0.10611572 0.025147097 -0.26746017 0.17403522 0.27810815 0.21806437 -0.20483026 0.319818 -5.973166e-05 0.057120014 0.47499728 -0.33305788 -0.39948317 0.25335637 -0.04130801 0.14723144 0.6558375 -0.2456333 0.060965516 -0.08964078 -0.17836861 0.13769692 0.17309305 -0.38668576 -0.4677676 0.3244306 -0.18001084 -0.53970486 -0.16287792 -0.23485938 0.15283343 0.101880684 0.4427656 0.40190274 0.09609045 0.8210945 -0.32463306 0.09126404 -0.16889241 -0.256811 0.069016814 0.08713025 -0.039356597 -0.08244457 -0.5895417 -0.33878762 0.4247301 0.29933426 0.4449819 0.5506121 0.20635124 -0.07605051 0.4746947
185 0.06042833 0.16087611 0.081079066 -0.3580379 0.7989763 -0.68506646 0.35382697 0.56347317 -0.04507675 0.046691142 -0.07667989 0.038102705 -0.47472712 -0.030954747 0.4988468 0.95770556 -0.22414745 -0.14241762 -0.34759712 -0.099446274 0.09090456 -0.19576187 -0.5131292 0.09434891 0.111000024 -0.2179743 -0.69831365 -0.17121384 0.21022914 0.31379017 -0.34232673 0.06345271 -0.16684249 -0.099121064 0.062374715 -0.45941645 0.18373749 -0.15330534 0.49651563 0.40911773 -0.03145132 -0.22717965 -0.09629677 -0.02715585 0.27724123 -0.18979566 -0.0036669346 -0.10776595 0.26579615 -0.15229498 -0.6002694 0.3208418 -0.8492172 0.15921183 -0.2515149 -0.02007705 -0.44987553 -0.66045827 0.3906099 0.09257612 0.07565333 0.60800976 0.25952518 0.2240668 0.6916758 -0.29328355 0.18057701 -0.43158484 0.1340306 0.10383926 0.15630041 -0.38117924 0.20069382 0.7393356 -0.1583859 0.2122999 -0.33270648 -0.081326015 -0.05220633 0.64278305 0.024407623 -0.32402557 -0.34011194 -0.14842886 0.31965807 0.121472165 0.0049407175 -0.26801652 -0.45623365 0.06608723 0.3062614 0.52864826 -0.055603918 -0.56416154 0.16228326 -0.3954834 0.24421504 -0.14306712 -0.16439146 -0.32420576 0.4686173 -0.13691846 -0.90163606 -0.25402272 0.17750672 -0.24193326 0.2708845 -0.22660667 -0.15182456 0.070671536 0.17373346 -0.108326815 0.08951054 0.18098243 -0.38940084 -0.26266938 0.0654425 -0.14292224 -0.044111528 -0.04440212 -0.6705543 0.4429144 0.06016495 0.28319672 0.2392365 -0.21681735 0.019292865 0.5844196
219 0.4156186 -0.24298957 -0.07427215 -0.29339838 1.142535 -0.20772651 0.026196573 0.015125042 -0.5147232 0.61030304 0.14930178 -0.22758669 0.18449953 -0.6636023 0.29487783 0.31104568 0.1822962 -0.184288 -0.5289334 -0.2916932 -0.07942728 -0.27232504 -0.43395397 -0.063422315 -0.1636322 -0.32391965 -0.35574895 0.020495366 -0.11444432 -0.033581495 -0.21741834 -0.2816256 0.23077795 -0.08763744 0.16742879 -0.32904848 -0.08761681 -0.15797634 0.25934163 0.29148176 0.046022978 -0.2576265 -0.6262769 0.08913278 0.33009055 -0.22340299 -0.2028367 -0.22948739 0.37235978 -0.24508306 -0.10185095 0.03719087 -0.89719933 0.0012755053 0.1351424 0.2127686 0.43590802 -0.11484946 0.19181499 0.14583497 -0.30092928 -0.17127456 -0.13661341 0.8809109 -0.54640335 -0.21248804 0.1897079 0.0108614005 0.5809182 0.15570256 0.054330405 -0.10124227 0.0065529053 0.05807135 0.20710629 0.1923928 -0.42854556 -0.08070055 -0.55669236 0.15891401 0.04738044 0.41520455 0.249808 0.48899686 0.17496069 -0.22828294 -0.6955704 0.19222862 -0.30407494 -0.5097917 -0.3700429 0.8453937 0.2348741 0.29420072 -0.2267066 0.470072 0.3559799 0.13511845 -0.31939247 -0.33939028 0.060532685 -0.43354836 0.03691287 0.008072704 -0.8549822 0.100740954 -0.26977715 0.29000524 -0.15497702 -0.6995857 -0.26082745 -0.3323535 0.17991088 0.3002268 -0.67835027 -0.17120865 0.07237845 0.45085698 -0.21545348 0.20827155 -0.37308407 0.356864 0.8501135 0.03572639 -0.0015279452 0.5094431 0.15053432 0.24146026
663 0.18136661 -0.0794613 -0.52610236 -0.010719537 0.36485696 -0.6930495 0.25209278 0.5190256 -0.8280642 0.4026735 -0.03848122 0.40632313 0.23051794 -0.1212658 0.16768193 0.31320304 -0.13751127 -0.25889415 -0.19377159 -0.22074446 0.21838005 -0.013777011 0.30251732 -0.312957 0.40954334 -0.34642422 -0.1013975 -0.21852009 0.52224237 -0.19442247 0.1615658 -0.37303752 -0.07249753 0.12841795 0.0567556 -0.026458608 0.06509561 -0.11669145 0.2406428 0.382435 -0.5130708 -0.48730662 0.014286885 -0.06005539 -0.32059705 -0.093097486 -0.31450042 -0.07768352 0.27065414 0.2673387 -0.26959518 -0.1780139 -0.3584019 -0.0038600776 0.032533046 -0.2877596 0.002568467 0.35020247 0.10795827 0.14849676 0.08703632 -0.19777463 -0.2826647 0.09295975 0.12370591 -0.5090431 -0.130523 0.3549433 0.33159155 -0.41162628 0.26358283 -0.04382794 -0.58778286 -0.042488426 -0.03914373 0.08726592 -0.33223146 -0.26722586 -0.12702274 0.059965614 -0.32405397 0.058444787 -0.00498235 0.27254686 -0.04435677 0.020827461 -0.18481056 -0.24869129 0.22289427 0.050933767 0.053772476 0.7945519 -0.46058613 0.059015274 0.07884212 0.2059941 0.2713166 -0.3171018 0.108765066 0.10332985 -0.05407559 0.28263927 -0.7778589 0.40860045 -0.04771394 0.49535507 0.38305825 -0.033368725 0.47344548 -0.01284066 0.14371571 -0.39485747 0.62833726 0.030716779 -0.19040522 -0.32580185 0.11472301 0.50857174 0.404556 -0.16798602 -0.13413586 -0.34812054 0.37660322 0.07145497 0.16612232 -0.11061576 -0.36724013 0.55558753
693 0.27469498 0.12838307 -0.4772843 0.1195092 0.4132552 -0.8443243 0.2484484 0.6722456 -0.14939846 -0.0142988805 -0.24594037 0.10879594 0.70520824 -0.10878072 -0.008242904 0.57956165 0.06938142 -0.38303065 -0.08774375 0.10381033 0.18590115 0.4734178 0.094546765 -0.31245774 0.18744479 0.11576477 -0.6553869 -0.034548417 0.16635641 0.32179698 -0.29582176 0.24287477 -0.035069715 0.12636073 -0.072807856 -0.11299611 0.1108477 0.20501918 0.040711578 0.67917156 -0.47084936 -0.38165665 -0.15149532 -0.082752086 0.25065306 -0.032365635 -0.30551016 -0.31880578 0.2435542 0.03561627 -0.050804447 0.1893987 -0.058579177 -0.1352485 0.502685 -0.2031127 0.16135876 0.12922072 0.26082078 0.33575338 -0.048217993 0.023592848 -0.2561021 -0.25995606 -0.08881828 -0.20734484 0.008193122 0.15449986 0.255511 -0.06614496 -0.14447525 -0.24226853 -0.044887498 -0.088319965 9.808599e-05 -0.082271405 0.07375178 -0.40208519 -0.54292166 -0.07791641 -0.1505649 0.19422323 0.41861042 0.021022923 0.24041848 0.40026477 -0.06309991 -0.26324242 0.1508903 0.3849798 0.33668837 0.73976713 0.26749286 -0.0882759 0.2514026 0.10301139 0.38458174 -0.32472497 -0.24597947 -0.22502455 -0.1201292 0.15262277 -0.2334289 0.311481 -0.08873278 0.6398624 0.4075139 -0.25033918 0.56512797 -0.113545775 0.22179894 0.04526787 0.22843087 -0.11283413 -0.035742447 -0.29387456 0.024150006 0.032307502 0.17813355 -0.098761424 -0.27553695 -0.31273785 0.29507348 -0.16699262 0.15710506 -0.10228985 -0.41958869 0.38389865
718 0.31604952 -0.14604427 -0.3219902 -0.08573809 0.50274664 -0.7551725 0.17326298 0.4111239 -0.351475 0.28139082 -0.3593862 0.22498354 0.32264817 -0.104592755 0.06032967 0.21699497 0.023692682 -0.32919204 0.26308304 -0.152154 0.208847 -0.18238844 -0.07773939 -0.29098573 0.406082 -0.11139439 -0.19321024 -0.42944875 -0.16292557 -0.3621705 0.29309648 -0.2267169 0.018855454 -0.2831329 -0.0030997708 -0.24817577 -0.080515616 -0.29882854 -0.04166863 0.427584 -0.7544342 -0.46429962 -0.15470748 -0.097309515 0.026741417 0.12604448 -0.41694018 -0.37288436 0.12606356 0.2818454 -0.22954041 -0.012222191 -0.10405904 -0.013584197 0.2587639 -0.248719 -0.21215016 0.04216926 0.39491153 0.34420925 0.018164255 -0.060822412 -0.022107076 0.10252102 0.111227244 -0.10498521 -0.30724645 0.04814849 0.50411403 -0.01968148 0.04774152 -0.43992925 -0.3106203 -0.05028633 -0.2197774 -0.105388336 0.05874211 -0.35205045 -0.32354 -0.12653688 -0.5610055 0.40237048 0.3861817 -0.018354371 0.044608578 -0.17457822 -0.22960606 -0.40700555 0.08747338 -0.07245944 0.16287933 0.6153434 -0.18892914 -0.18269324 0.1704873 0.07127865 -0.039447516 -0.09839496 -0.114344515 -0.011868359 -0.09732794 0.4346365 -0.5051706 0.028616732 -0.093030535 0.57276076 0.07291821 0.14984417 0.587588 0.054528452 0.41164607 -0.17488201 0.2746232 0.12887123 -0.30013904 -0.23878606 0.18395053 0.500947 0.47696877 -0.30376726 -0.16670886 -0.16576754 0.32575217 0.13694015 0.014545001 -0.22110188 -0.1996364 0.77571523
605 0.59287715 -0.09184504 0.0022791892 0.76855165 0.44254723 -0.8466444 0.16376609 0.21942271 -0.3691569 0.09332955 0.12169399 -0.17206983 0.06877353 -0.1950511 -0.046951085 0.36542735 -0.09528028 -0.24389535 -0.67238647 -0.04470735 0.038304895 -0.19482268 -0.2700268 -0.39994264 0.019762374 0.12866066 -0.15837029 0.49841672 -0.46981114 0.085624024 -0.22750561 0.38078034 0.12156811 0.18378182 -0.21866602 0.0964726 0.07329163 -0.0036337583 0.10454177 0.91596013 -0.37065935 0.1554096 0.42737955 0.2553365 -0.13736981 0.15847994 -0.3370034 0.21268038 0.14522363 0.44593292 -0.55996144 0.16252963 -0.5622969 0.34848335 0.29311368 -0.014844938 0.04949925 0.15031531 0.07826382 -0.074469455 0.071885824 0.1835634 -0.251206 -0.04943406 0.09695896 0.13418876 0.4434503 -0.45639068 0.27488244 -0.1346818 -0.5083315 -0.5440382 -0.23595996 -0.3595664 -0.692459 -0.33453336 -0.49695215 -0.25420216 0.339765 0.17279045 -0.16505732 0.30167025 -0.07452288 0.1850066 0.08895815 0.052968223 -0.35189813 -0.243644 0.38525316 0.36830997 -0.03751344 -0.010589915 -0.25472093 -0.15675707 -0.45531523 0.13046214 0.34114915 -0.46024287 0.1807029 0.086811125 -0.028361937 -0.40766257 -0.0345551 0.04201413 -0.2912139 -0.25425407 0.47246948 0.19548944 -0.0784079 -0.32312128 0.009469039 0.26924378 -0.12346984 0.64704895 -0.2812623 0.1716903 0.27549365 -0.38841856 -0.17246558 0.02870066 -0.14078513 0.36313862 0.14466357 0.19975692 -0.32077712 0.17061487 -0.014023289 0.8244929
830 0.44511336 0.015813468 -0.47082683 -0.00962799 0.5047095 -0.476594 0.285243 0.5133307 -0.55269444 0.32971457 -0.25855356 0.16007423 0.28683764 -0.15273881 -0.1898594 0.22062792 0.12642963 0.036929946 0.12932973 -0.18433511 -0.0045835604 -0.07881414 0.19664586 -0.51359206 0.24955346 0.04745291 -0.49456573 -0.103231825 -0.18798006 -0.3004123 -0.22172603 0.003057501 -0.22511593 -0.24147165 0.0029195473 0.19144726 -0.2245018 0.11579704 0.20690452 0.49253172 -0.39637572 -0.56262696 -0.2519829 0.14265712 0.20035082 -0.33594033 -0.012867761 -0.29958943 0.2738476 0.27451232 -0.13052674 0.109751105 -0.008488321 -0.0031058344 -0.019449512 -0.21801487 -0.24590048 0.019988952 0.2927944 0.47301772 -0.06460876 -0.10648147 -0.14880782 0.11050727 0.2182575 -0.25548542 -0.022853734 0.1866989 0.5486925 -0.40534472 0.11899243 -0.44401833 -0.3421938 -0.3901856 0.044051863 -0.22284546 -0.07094323 -0.03982183 -0.3901836 0.02289088 -0.3702443 0.16860351 0.21245342 -0.14860621 0.32858077 -0.07826925 -0.44395423 -0.2680473 0.33662212 -0.07334019 0.029469855 0.8255955 0.21662313 0.04806281 0.2558177 0.27657667 0.06150136 -0.15739664 -0.07091115 0.045244925 -0.1234424 0.41306633 -0.49513075 0.4294951 -0.20950618 0.5561441 0.13139774 -0.0052295863 0.32896304 0.37631705 0.17943889 -0.1295091 0.30673683 0.22587384 -0.21208005 -0.3522346 -0.0981665 0.5221858 0.022884406 0.2738962 -0.20969187 -0.38617632 0.0980132 0.049180176 -0.050185144 -0.09461861 -0.35581538 0.7483985
769 0.241392 -0.049369927 -0.37796992 0.09214105 0.41443422 -0.6554296 0.25669697 0.31666836 -0.71544355 0.3641434 -0.14643878 0.40082714 0.547873 -0.27590972 0.07622064 0.2202367 -0.13884605 -0.38592818 -0.2344866 -0.023899812 0.28399375 -0.07661565 0.34920886 -0.4013928 0.5194489 -0.3313761 -0.25347224 -0.17415388 0.4878884 -0.25684455 0.0911218 -0.33152816 -0.16092107 0.103578724 0.06600255 0.00921541 0.09433053 -0.085016616 0.3202981 0.4029604 -0.4175734 -0.60951257 0.17419189 -0.042873543 -0.15401082 -0.15388107 -0.1871596 -0.05814955 0.30150896 0.19523653 -0.3139357 -0.09106959 -0.26976246 0.024919234 0.15197796 -0.472305 0.013654612 0.282526 0.052345578 0.31239483 -0.035905182 -0.23146376 -0.35984462 0.10933695 0.12773558 -0.354047 -0.1071573 0.30663309 0.34384042 -0.30953732 0.17778683 -0.19166854 -0.36165074 0.027752897 0.069788456 0.09441308 -0.14676656 -0.21650098 -0.23346652 -0.028748201 -0.33588228 -0.031136617 0.029137572 0.078750186 -0.022030132 0.18161616 -0.123455554 -0.2225477 0.018129723 -0.17433658 0.03094566 0.74478376 -0.16630524 0.15194045 0.04184203 0.19661953 0.19652164 -0.35483295 0.2355615 0.005987591 -0.01713604 0.5346706 -0.69400245 0.46881884 0.068402894 0.47671866 0.37206185 -0.024295636 0.61778486 -0.1855554 0.20405273 -0.3609679 0.5917655 0.03652779 -0.14322357 -0.23404248 0.024931753 0.63525593 0.21671455 -0.145984 0.011877725 -0.06046604 0.24728844 0.112564266 0.31472266 0.035164867 -0.28720307 0.5644806
781 0.2928412 0.1613002 -0.22030336 0.1489874 0.5706472 -0.1369188 0.47549736 0.5562952 -0.6197821 0.19892885 0.09859415 0.14709833 -0.032214545 -0.35041097 0.0031785797 0.3762046 0.3652483 -0.6423017 0.09027755 0.0899424 0.18804333 0.29102972 -0.017735532 -0.04016435 0.6645046 0.0060661254 -0.48955783 0.0876374 -0.46739385 0.1355236 0.124182545 0.22199301 -0.36299378 -0.10779462 -0.17609856 -0.13927169 0.17805476 -0.16543642 0.057872545 0.6411092 -0.47965235 -0.4174894 -0.08801334 -0.11600963 0.14846171 -0.38544312 -0.02241226 -0.169322 0.27105352 0.28296226 -0.6225456 -0.22990975 -0.24896349 -0.0351823 0.37124428 -0.47330174 -0.05368167 0.02367152 0.44400862 -0.13310732 0.06430037 0.06333368 -0.4072749 -0.30902204 -0.02358369 -0.0650976 -0.030142242 0.057831835 0.5074009 -0.14546174 0.07005098 0.086084686 -0.25009507 -0.019427946 0.1773862 -0.23001185 -0.37502784 -0.36660242 -0.37951246 -0.14283071 -0.24747582 0.21291827 0.17249726 -0.14379428 0.27029663 -0.16692051 0.15384649 -0.35429278 0.28442538 0.30268076 0.13559218 1.009592 0.106513314 -0.2883462 0.25806084 0.56946504 0.4120287 -0.20708452 -0.17726366 -0.19056897 0.5076509 0.1966955 -0.82051736 -0.23881456 -0.30403787 0.6915511 -0.03314641 -0.101362035 0.2950257 0.1670656 0.21122395 0.327589 0.14993192 -0.23143989 0.35701767 -0.3958996 -0.16672695 -0.06450081 0.21423984 0.28701887 -0.3157089 -0.16367555 -0.08739055 -0.07277191 0.2737518 -0.50952035 -0.13515975 0.49376348
94 0.034621432 -0.024466705 -0.5532265 -0.421623 -0.10608535 -0.6089735 -0.08079332 0.02278204 -0.019662883 -0.113226555 0.47195336 0.6332543 -0.2500833 -0.21105863 -0.15294456 0.43690002 0.08283173 -0.11155146 -0.67126733 -0.28455734 -0.14347327 -0.12370432 -0.42196643 0.33694708 -0.04254969 -0.5201447 -0.8071394 -0.088189565 -0.047772292 0.32904744 -0.20583434 0.040853113 -0.40108636 -0.08226548 -0.1744056 -0.2961948 0.09021554 -0.04070492 0.36509106 0.43182042 -0.054162096 0.115935676 0.011740351 0.13673565 0.2268607 -0.26929122 -0.013806175 0.102695264 0.41468048 0.135203 -0.44768998 0.10094053 -0.6014669 0.08771943 -0.024993427 0.18030928 -0.31982723 -0.48404625 0.26863295 0.5479756 -0.369825 0.7339761 0.1986801 0.43287313 0.5350375 -0.44853142 0.29797232 -0.034162387 -0.09260162 0.19568944 -0.093249336 -0.48229438 0.35127494 0.64065737 -0.18166156 0.24206582 0.05839807 0.05760646 -0.06765718 0.49081543 -0.25804475 -0.0077318507 0.1244172 0.49215615 0.074544854 0.11224303 -0.16400923 -0.3508352 0.14406171 -0.21815488 0.24969617 0.47867295 0.035897903 -0.28807452 0.09884777 -0.17023507 0.3480549 -0.23248194 0.06661348 -0.4294509 -0.00270993 -0.14205518 -0.37712023 -0.20158698 0.22364895 0.4502279 0.19580749 0.6660993 0.104710706 0.09832876 0.19116387 -0.2675013 -0.11755674 -0.078162245 -0.09486397 -0.20016773 -0.3223418 0.15994458 0.018094469 0.057256073 -0.38330498 0.21495189 0.6963153 0.48774993 0.096169114 -0.21302214 -0.2793056 0.45787454
