425 128
41 -0.3337545 -0.06588854 0.43899524 -0.20186688 0.34551278 0.1854864 -0.17328109 0.58591163 -0.66026944 0.32084334 -0.26916993 0.14533831 0.19509412 0.1388056 0.3331082 -0.6371412 -0.3182355 0.031456318 -0.103150256 -0.016800726 -0.37313664 -0.14491521 -0.027344698 0.4138577 -0.29068685 0.32024324 -0.43510744 0.016844368 0.47977266 0.38219026 -0.13859919 0.017664539 0.589539 -0.006012266 0.3780777 0.31846002 -0.2223125 -0.35078725 0.34071994 -0.0946942 -0.0048317676 -0.23143876 -0.40670925 0.40639815 0.03849701 0.27311397 0.19171736 0.12342904 0.21824904 -0.23462346 0.44755057 0.08165166 -0.03988301 0.34113595 -0.30855745 0.32493073 -0.0816423 0.015954461 0.18490903 0.07953242 -0.15353656 0.12860727 0.33098167 0.05718834 0.024493266 -0.47162038 -0.1554073 0.17543337 -0.16369444 -0.19975705 0.64974034 -0.031954534 0.14103913 -0.14585936 -0.6353868 -0.30511495 -0.3030255 -0.325862 -0.36389688 -0.2138406 0.11171983 -0.36502814 -0.13243073 0.20442066 -0.44437477 -0.104078874 0.8755604 0.19285335 0.57603955 -0.1604506 0.07045155 0.34225473 -0.25166124 0.093070194 -0.05642429 0.5072535 -0.10090557 -0.1510983 0.48894784 -0.12036355 -0.020414118 0.0663925 -0.33921817 -0.16457658 -0.14130053 0.47010425 -0.37522823 0.34666353 -0.0531641 0.08659945 -0.21390659 0.26464215 0.24022438 0.3507704 0.1809499 -0.30204687 0.05044578 -0.102393314 -0.1390323 -0.1591638 0.44431296 0.4743765 -0.2682223 0.20641737 0.3365812 -0.2511883 0.29441255 -0.26564884
1067 -0.18923005 -0.24183017 -0.008645811 -0.28957295 0.17777517 -0.03862109 -0.31531486 0.27167237 -0.5280438 0.4608747 0.048198614 0.25587258 0.107791334 0.010825577 -0.052571103 -0.5421516 -0.10202024 -0.01796189 0.018058533 0.65595686 -0.4900295 0.37148994 0.068005405 -0.2277291 -0.41436854 0.44065705 -0.4500562 0.017302316 0.2147086 0.21906845 -0.13106048 0.16608842 0.48946074 -0.45588332 0.22866347 0.22508827 -0.3483995 0.17055614 0.0043269987 -0.10631152 -0.27442107 0.272148 -0.37344024 0.27131313 -0.23091173 0.25376278 0.346874 -0.19230889 0.17164308 -0.19540969 0.4718796 -0.23243988 -0.32077232 0.49389523 -0.32827652 0.20923059 -0.08334455 -0.11646806 0.28862053 -0.06860832 -0.2157485 0.3314642 0.66849643 -0.042977292 0.08089838 -0.32186976 -0.22184826 0.28939202 -0.15158767 -0.26585087 0.5863939 0.40313208 -0.27590978 0.05888119 -0.6087755 -0.06763505 -0.09520943 -0.32795808 -0.49320096 -0.17430073 -0.22990894 -0.27315527 0.17355144 0.36297545 -0.6041383 0.3244114 1.0311191 0.22027022 0.6628139 0.33843517 -0.47657916 0.4360442 -0.29792407 0.058179963 -0.1466975 0.41535464 -0.06925719 -0.015861697 0.29457805 -0.19464612 0.122456536 -0.30049855 -0.095138416 -0.175187 0.10593609 0.40315565 -0.1754463 0.04758985 0.26649192 0.18035376 0.22453815 0.26781085 0.26710042 0.36429363 0.13573568 -0.33340818 0.27889338 -0.2708148 -0.27104318 0.13496172 0.47089413 0.38634807 0.09749622 -0.12483703 0.037125453 0.17973365 0.14891963 -0.17225775
2514 -0.31572935 0.21935394 0.29174754 -0.78793883 0.4034234 -0.10839515 -0.12707648 0.17908339 -0.90420765 -0.1144297 0.395618 0.21867095 0.15164079 0.23795775 0.25079864 -0.5199788 0.14886998 0.16869582 -0.14698227 0.44672287 -0.18227847 0.26300442 0.20496793 0.24076489 0.17228352 0.5245442 0.30341324 0.34378585 0.42367914 0.2318889 -0.06971803 0.33036986 0.11297759 0.49757135 0.57562333 0.27964497 -0.4628356 -0.07826032 0.6116324 -0.07592796 -0.7307115 -0.1980582 -0.29423127 0.21869595 -0.65833277 0.11337051 -0.36548597 -0.047607057 0.052838005 -0.3480329 0.18490201 0.12909567 0.316479 -0.061067116 -0.59069264 -0.105750225 0.44560266 -0.18270169 0.86391115 0.19267741 -0.30524594 -0.06716606 0.8402019 0.124756135 -0.32415298 -0.029542357 -0.030999107 0.6378376 0.0039193872 -0.34953737 0.62061894 0.25566694 -0.39813086 -0.032425325 -0.08762167 0.29377216 -0.24370094 -0.28289613 -0.2703449 -0.37401816 -0.3805669 -0.1265809 -0.27007407 -0.12704732 -0.27289194 0.4250117 0.1795154 0.22722574 0.1083412 -0.05296299 -0.2823515 0.44632244 -0.37605628 -0.26522583 0.13590543 0.40325382 0.35310018 0.004677634 0.040098302 -0.21014948 -0.11089595 0.3529409 0.08056849 0.11916702 -0.15246567 0.11757543 -0.2401209 0.034669686 -0.10256135 -0.41604593 0.1489162 -0.72546697 -0.5312746 0.34852603 0.07474509 -0.025087183 0.5297198 -0.18482311 -0.1207123 -0.3125357 0.32881185 -0.37056097 -0.83604705 0.2679432 -0.039223563 0.08169794 0.36189055 -0.079584025
1769 -0.29000416 0.2125448 0.2571115 -0.74481726 0.36633134 -0.12409465 -0.116718516 0.17291062 -0.88613683 -0.14403692 0.399403 0.20950869 0.13538256 0.21254577 0.270115 -0.50189143 0.15287131 0.14769363 -0.16367792 0.45874494 -0.16901822 0.24631742 0.2138591 0.2392706 0.15662664 0.50803435 0.3097413 0.33128962 0.43118575 0.23349199 -0.11211657 0.3327458 0.09031541 0.52560157 0.59243065 0.26577923 -0.4560635 -0.10238935 0.5784022 -0.047800478 -0.7013682 -0.20209758 -0.31747895 0.21530288 -0.6667349 0.1035582 -0.39004105 -0.046578184 0.051624212 -0.33085486 0.15654531 0.1388189 0.33453313 -0.06618565 -0.5884687 -0.10607615 0.4605851 -0.18389869 0.8379304 0.18982294 -0.28289434 -0.08598481 0.80405784 0.11256527 -0.35810924 -0.039267015 -0.034353327 0.6323062 -0.004481431 -0.35900506 0.6220585 0.27281475 -0.37721255 -0.037401866 -0.086997606 0.295324 -0.26642174 -0.25725937 -0.30499318 -0.38767037 -0.3697298 -0.12834857 -0.28330326 -0.11552358 -0.25278246 0.43091974 0.18242131 0.22192137 0.13071279 -0.0527524 -0.25193554 0.4324158 -0.37649336 -0.24871564 0.13440682 0.4012248 0.34645534 -0.03264286 0.0152381705 -0.18872768 -0.1255404 0.38847125 0.10697547 0.10995552 -0.09825725 0.058668505 -0.20779192 0.020165814 -0.10151283 -0.4164575 0.13490815 -0.7658084 -0.55633396 0.33525267 0.09049798 -0.018490313 0.50345236 -0.20273775 -0.08810506 -0.32935974 0.34322885 -0.37895378 -0.8351381 0.29108998 -0.044019025 0.07079705 0.39733025 -0.090438664
1229 -0.64902514 0.69264394 0.15586974 -0.09990078 0.3686965 0.17803212 -0.46764484 0.56099445 -0.23908873 0.11150441 -0.34784326 -0.28043374 0.5476146 -0.7798774 0.24926396 -0.27924612 0.12044413 0.24422964 0.22687337 0.36107057 0.1441535 0.2712255 0.20001577 -0.008249997 -0.21126217 0.95508134 0.16728625 0.020968575 0.20624994 0.027339093 -0.58936787 -0.13622272 0.30369395 -0.25617334 0.80104536 0.77126503 -1.0836036 -0.21742365 0.15367545 0.27034834 -0.39644033 -0.24884224 -0.5788876 0.39777735 -0.3591038 0.29484022 -0.30401397 0.10275215 0.214062 -0.1432338 0.35728282 0.15279467 -0.21121095 0.037286215 -0.028659135 0.49067113 0.51201975 -0.66181105 0.69650096 0.34022608 0.12221008 0.1267897 0.49334422 0.082100786 -0.41591588 -0.58955973 0.26430115 0.60326433 -0.4470127 -0.2306195 0.20504457 -0.04254531 -0.17700528 -0.63094443 -0.19415934 0.3305032 -0.70080096 0.20072125 -0.55746365 0.13543187 -0.7425518 -0.03260832 0.30684087 0.30357376 -1.1103326 -0.018258872 0.58486444 0.43046865 0.34598497 0.29245347 -0.31775245 0.031696666 -0.40336218 -0.013632103 -0.4623222 0.02140784 0.19695301 -0.15180998 0.08470834 0.45703587 0.5728019 0.0105333105 0.15218332 -0.120682776 0.42518282 0.58333784 0.30501348 0.08031788 -0.0069819754 -0.36217028 0.3475201 0.07688016 -0.4128212 0.39832 0.6336797 0.47716922 0.26333836 -0.47865382 0.09914889 -0.045972407 -0.25480202 0.09779732 -0.6704233 0.41624653 0.77584606 0.29330608 -0.16304213 -0.11051755
581 -0.40882486 0.5806826 0.2872577 -0.42849934 0.45907184 0.37789416 -0.6455027 0.31095272 -0.45014307 0.20547378 -0.074121855 0.17337482 0.29892358 0.13311309 -0.06345657 -0.76046145 0.33222365 0.65004104 0.3876715 -0.19342083 0.018680144 0.41762862 -0.7218703 0.3420927 -0.060355976 0.49296972 -0.39605737 0.6397654 1.0482609 -0.30191514 0.130668 0.06490119 0.5514407 -0.14561158 0.3465315 0.004060023 -0.59739757 0.723798 0.57863575 0.33182505 -0.61347556 -0.17672442 -0.1615105 -0.062847905 -0.02855706 -0.090282366 0.1057742 -0.15643406 0.36333537 0.3694562 0.22887312 -0.41957578 -0.2053167 0.85641164 -0.37573692 0.341275 -0.33534977 -0.53526455 0.6439992 0.07383196 0.03041062 0.28478882 0.6410765 0.59157705 -0.2059104 -0.26813066 0.8746386 0.30823484 -0.18956977 0.20663808 0.114668295 0.1746941 -0.23663433 -0.08113114 -0.7898632 0.45445275 -0.5215508 -0.108798936 -0.6990541 0.25318438 -0.13603655 0.4316116 0.04360878 -0.2686118 -0.5508074 -0.0007987242 0.13080817 0.21247847 0.35570568 -0.7676661 -0.17859046 0.38623795 0.19901133 -0.16239591 -0.4097795 0.32580045 0.6934334 -0.40376964 -0.3355834 0.5277155 0.22898345 -0.17811982 -0.29837275 0.13026704 -0.04572881 0.24731146 -0.04316541 -0.35761744 -0.16379231 -0.12587485 -0.32761723 0.56163925 -0.5021949 0.37417987 -0.55989784 0.11958663 0.7097398 0.09969444 -0.53334534 0.016758336 0.013266501 0.1729587 -0.38168627 0.20724529 -0.051272806 0.17753051 0.21285616 -0.24886559
1311 -0.060532756 0.12031931 0.19822046 -0.37061888 0.45799422 0.38539222 0.09895611 0.6420417 -0.2582699 0.5666371 0.37649062 0.16283238 -0.015883457 -0.06293654 -0.33911225 -0.41194367 1.0663058 0.060736172 0.2892858 0.5693946 -0.38953292 0.48045707 -0.096077144 0.056933805 -0.05382634 0.48447055 -0.13675745 0.28614455 1.0887269 0.22145997 -0.45806864 0.30476284 0.43541947 -0.34090617 -0.20026578 0.6241446 -0.17677177 0.34770632 0.34825662 0.58908314 -0.9777634 -0.6653589 -0.80442923 -0.21278413 -0.642784 0.2130596 -0.060126867 0.23552942 0.58532774 -0.19331394 -0.2907354 -0.07745046 -0.03219232 -0.39718133 0.07176336 -0.24783093 -0.017769331 -0.37614995 0.1933995 -0.4528199 -0.22771186 0.05071484 0.5914578 0.101308 -0.27359694 -0.23483324 0.55523974 0.31227148 -0.132553 -0.2558626 0.21102332 -0.003897934 -0.2561401 -0.10361265 -0.4971818 0.12009698 -0.85542846 0.3324825 -0.68291867 -0.21497048 -0.44003943 0.064747594 0.18097219 -0.28792116 -0.5659563 -0.19856502 0.462164 0.5639712 0.49996606 -0.1494398 -0.62149894 -0.20038475 -0.027965592 -0.2383214 -0.09375477 -0.3653817 -0.22169997 0.06489898 -0.3086681 0.10628975 0.21321584 -0.43320385 -0.3441129 -0.010038863 -0.57288045 0.6663813 -0.4021622 0.006579847 -0.20235068 -0.085600935 -0.37173024 -0.30898455 0.25055715 0.33237374 0.18077323 0.49230978 0.43192127 -0.45672387 -0.3360378 -0.35558 0.21101086 -0.37334025 -0.18188776 0.18244603 -0.20051487 -0.23678888 0.020036364 -0.1353077
33 -0.35505974 -0.071515486 0.5108429 -0.12799647 0.32174358 0.23367032 -0.24685393 0.67275226 -0.59934604 0.40218392 -0.20802881 0.18227084 0.11709796 0.06707808 0.3582587 -0.6228816 -0.17280614 -0.06582079 -0.034330606 -0.00299879 -0.3182478 -0.18947294 -0.112649314 0.5296144 -0.2453102 0.41593453 -0.452007 -0.068083964 0.523094 0.39122337 -0.11586673 0.06705223 0.56079304 -0.075133085 0.41684058 0.3685868 -0.18112653 -0.24774857 0.5633155 -0.09837259 -0.058287032 -0.2597433 -0.4832528 0.44880074 0.018203057 0.24211001 0.2564751 0.0992693 0.26933593 -0.21625423 0.5234852 -0.0379544 -0.1235952 0.31077114 -0.24937457 0.2850244 -0.08915331 0.03599127 0.27515027 -0.059263352 -0.24267997 0.06676876 0.4187462 0.18588647 0.03884646 -0.49618614 -0.0461116 0.11822304 -0.23622382 -0.15231685 0.5659591 -0.2296719 0.13969882 -0.062544726 -0.6503012 -0.338267 -0.40467846 -0.3471766 -0.34064108 -0.21317679 0.035103776 -0.32386792 -0.003052323 0.18034345 -0.36322376 -0.14817008 0.87764066 0.19290704 0.63152546 -0.16351427 0.054477707 0.36549807 -0.26927748 0.10300451 -0.048564103 0.41067842 -0.10096521 -0.00043303077 0.45992643 -0.15383577 0.11334501 -0.05355143 -0.38629067 -0.09058463 -0.33226493 0.5501746 -0.6777051 0.3479468 -0.1252722 0.22013637 -0.22340523 0.1796587 0.09409726 0.43894 0.24195178 -0.1911203 0.13153014 -0.06824309 -0.16567232 -0.2560786 0.48224726 0.5066031 -0.4144559 0.2228714 0.3360513 -0.2480275 0.17464304 -0.24462442
2439 -0.29270816 0.22173811 0.21110985 -0.69387835 0.32316807 -0.18409988 -0.05052897 0.19506548 -0.98674804 -0.14608006 0.40280613 0.1346503 0.1493887 0.2190261 0.33189073 -0.5097269 0.14980938 0.16452698 -0.2101825 0.53407574 -0.074455395 0.3136523 0.24763164 0.19874553 0.064760275 0.49656472 0.30644566 0.29957458 0.5059227 0.19931763 -0.17826504 0.33638638 0.09055976 0.47346574 0.5963883 0.27828813 -0.47415996 -0.1423116 0.51600015 -0.014402801 -0.67724365 -0.15812573 -0.2845728 0.23554319 -0.67121375 0.123271845 -0.36953315 0.01054674 0.023352444 -0.40634695 0.15616687 0.1374838 0.33683327 -0.06935367 -0.6127844 -0.050587516 0.4413568 -0.23773423 0.8254927 0.20188446 -0.2906228 -0.12856397 0.79439706 0.038861446 -0.45923716 -0.061899107 0.08656169 0.7397091 4.313336e-05 -0.38187796 0.7235709 0.3472436 -0.34456354 -0.051388867 -0.12616827 0.2573437 -0.24015608 -0.22931701 -0.40074152 -0.39030793 -0.3930964 -0.17578581 -0.32303846 -0.123245746 -0.2158886 0.5042104 0.20018622 0.24866605 0.15490337 0.007963877 -0.22866537 0.46696326 -0.38291463 -0.18643543 0.10440025 0.4332126 0.3661785 -0.07537805 -0.0013076918 -0.16617858 -0.15089968 0.45238551 0.10195006 0.08361438 -0.024881175 0.028644616 -0.14444955 0.08013315 -0.11414842 -0.38752788 0.07163374 -0.75732833 -0.5147706 0.3163608 0.09568607 -0.062180188 0.40479064 -0.21906203 -0.095780015 -0.373777 0.37907633 -0.39202666 -0.78470325 0.28991428 -0.06269265 0.05363645 0.43261397 -0.17382458
113 -0.3265692 -0.063905254 0.42730683 -0.098729976 0.2739128 0.27065623 -0.22914681 0.67562336 -0.56936854 0.35011545 -0.24172832 0.12158968 0.12945074 0.07477814 0.34498668 -0.5825756 -0.15910617 -0.06333945 -0.027920302 -0.029487478 -0.29452354 -0.18381235 -0.12207899 0.50464034 -0.24403618 0.31530485 -0.42822766 -0.04368409 0.54060644 0.36406034 -0.094690695 0.020656059 0.5209214 -0.08297794 0.38808754 0.34089902 -0.17658825 -0.26180476 0.47975388 -0.10159838 -0.06802849 -0.24393052 -0.4572816 0.40820357 0.042736314 0.26349354 0.23108923 0.134778 0.2669591 -0.22922976 0.46770018 0.01034153 -0.08176834 0.31719646 -0.23889992 0.273133 -0.093045756 0.03443619 0.21565428 -0.0520854 -0.18605746 0.025864089 0.3800519 0.1369527 0.017706301 -0.45097682 -0.01740719 0.15295465 -0.19386262 -0.15648066 0.57718354 -0.21626163 0.15687124 -0.122588456 -0.627309 -0.33813116 -0.3649811 -0.2934361 -0.31684396 -0.19978487 0.062441114 -0.28633597 -0.042371783 0.17795241 -0.34414303 -0.13477464 0.82775396 0.17128488 0.5836232 -0.1857507 0.094813235 0.35757875 -0.26197806 0.08112987 -0.058507934 0.40015063 -0.061865453 -0.041467495 0.41155854 -0.12698221 0.05658405 -0.015622961 -0.3850964 -0.08771562 -0.30021393 0.5283052 -0.62338066 0.36952105 -0.103872 0.19768512 -0.22229914 0.1941808 0.14152557 0.3902242 0.21245772 -0.1748393 0.12787335 -0.08746281 -0.17183949 -0.26713595 0.48115167 0.4879454 -0.37836024 0.20775163 0.3486846 -0.27531132 0.18465784 -0.2574159
1191 -0.7518219 -0.08064869 0.29856774 -0.65718246 0.5242401 0.2606431 -0.5721517 -0.0096602095 -0.8049779 0.20430571 -0.2773092 0.37490433 0.08395613 -0.3820255 0.5436955 -0.6076239 0.47415724 0.035261884 0.16308908 0.21654047 -0.25602046 0.20065245 0.024127478 0.53695947 -0.16337389 0.11803653 0.5579974 0.07843771 1.0620186 -0.45791396 -0.34662756 0.004488575 0.622071 -0.5595435 0.042853057 0.02172133 0.005154452 0.0008337253 -0.14294904 0.008340748 -0.8829057 0.027250115 -0.60732085 0.21436411 -0.76476955 0.38262612 -0.0006145916 0.030142225 0.51757085 -0.14229512 -0.0656682 -0.3074925 0.4545518 0.4199279 0.1030675 0.36888692 0.2000951 -0.9017567 0.5774772 0.470616 0.31476954 0.26905483 0.34512752 -0.103362955 -0.06858696 0.046184577 -0.5349398 0.59577024 0.4365042 0.2348866 0.4473996 0.3100836 0.39107022 -0.0017099994 -0.5536646 -0.025088567 -0.6130883 0.013549189 -1.2936058 -0.2727907 -0.32241496 -0.32737327 0.15612109 -0.56313807 -0.3099086 0.3874293 0.49717638 0.39153734 0.01784928 -0.15819395 -0.4275695 0.24657801 -0.14144729 0.23530927 0.06599443 0.35357383 0.14359318 -0.1691294 0.2175626 0.9053463 0.44748554 0.034732502 -0.5463409 -0.18977131 -0.4353284 0.22493252 0.15904653 0.082640864 0.22522293 -0.07364498 -0.29960606 -0.07355263 0.12667303 0.41627225 0.39599544 -0.29670477 -0.041995782 -0.010745094 0.48688817 -0.31077397 0.093939476 0.24918887 -0.57631314 0.22751014 0.032021273 0.04532714 -0.39449507 0.14134137
1390 -0.74566144 0.13783978 0.14127865 -0.19098595 0.503115 -0.051476244 -0.561506 0.2510528 -0.76412773 0.044741407 -0.41508502 0.6341058 0.062128995 -0.38692498 0.51189524 -0.45172936 0.832547 0.21103276 0.08315461 0.3436732 -6.380075e-05 0.3948125 0.0075026075 0.32091478 -0.07797949 0.0002422557 0.5594365 0.27244854 0.8799618 -0.32213292 -0.16944815 0.37495923 0.36195672 -0.21276647 0.30021903 0.54161054 -0.20360324 -0.18239067 0.24128394 -0.052548766 -1.0231785 -0.15758143 -0.6581926 0.3136692 -0.6986077 0.44243744 0.34618768 0.21708557 0.40859583 -0.05260686 0.16948374 0.101048455 -0.0044739954 0.26978433 -0.035660163 0.45177662 0.117359385 -1.1686946 0.6950095 0.4581133 0.25458393 0.2814571 0.117645 -0.15246359 0.06579708 0.14846745 -0.21813989 0.3149803 0.18386593 0.29154876 0.3983436 0.22626501 0.23292395 -0.11861716 -0.524915 0.10967043 -0.5230242 -0.00086545566 -1.0190501 -0.53334904 -0.07928997 -0.32118213 0.048349727 -0.8136683 -0.37650883 0.51306194 0.28642347 0.1738432 0.09937239 0.45743546 -0.285528 -0.1493728 -0.21241017 -0.008879197 -0.031937674 0.37949273 -0.12242841 -0.1723428 0.45680204 0.7030334 0.5999519 0.261817 0.086966 -0.08571333 -0.5315803 0.399154 -0.14692982 0.106742665 0.10925067 -0.08440859 -0.20055462 -0.031052053 0.17559445 0.15464908 -0.00574793 -0.104251705 0.034226175 -0.016218662 0.45032623 -0.26352897 0.024469668 0.06063893 -0.66729 -0.03150571 -0.036913462 -0.23619808 -0.18646465 0.31108415
50 -0.18220058 -0.04911423 0.15856141 -0.23249952 0.31062624 0.121664755 -0.20845209 0.53248674 -0.5952214 0.34724537 -0.23480788 0.10419286 0.23432079 0.155522 0.2544207 -0.5385583 -0.24658163 0.011811047 -0.025816454 0.303554 -0.4545011 0.049440477 -0.040069573 0.105266914 -0.43968156 0.20856102 -0.46607566 -0.0229926 0.4866282 0.34757477 -0.10883526 0.030184029 0.50968856 -0.24207419 0.3116652 0.35666776 -0.31476378 -0.1926368 0.18431103 -0.077189945 -0.14614995 0.009217505 -0.4810458 0.4191472 -0.004559415 0.43628368 0.27015904 0.045604724 0.14435527 -0.25207025 0.3732925 0.035384897 -0.14243887 0.44614214 -0.28590843 0.29089525 -0.048703752 0.048246983 0.111561514 -0.037072606 -0.11374571 0.03472443 0.45096302 -0.038091924 -0.00072805147 -0.38170534 -0.13411893 0.27960333 -0.13377756 -0.24254842 0.6806175 0.18704419 0.07083286 -0.15831468 -0.712323 -0.23620735 -0.20297687 -0.2381408 -0.3779428 -0.17888656 -0.024832213 -0.18611524 -0.049353875 0.341204 -0.4093981 0.16254467 0.89701 0.22029361 0.5542888 -0.010865277 -0.026724795 0.46854603 -0.31659508 0.054480307 -0.10121374 0.4681165 -0.000545603 -0.06580514 0.2985014 -0.16865359 -0.10661015 0.018940065 -0.2942962 -0.18384363 -0.106080756 0.4110221 -0.3354789 0.34001487 0.09739982 0.21004732 0.016824003 0.34684607 0.40898064 0.30398047 0.04518414 -0.2348869 0.179261 -0.29151258 -0.38029906 -0.21109402 0.49016315 0.43110546 -0.038357474 -0.07031147 0.29974768 -0.21804912 0.25177315 -0.23804736
42 -0.18017259 -0.010704322 0.17541428 -0.21878377 0.35296246 0.1573057 -0.21626908 0.49624828 -0.5691996 0.36958987 -0.2636618 0.11632477 0.2353503 0.15489368 0.2846081 -0.51465195 -0.24315037 0.05146226 -0.02123491 0.31107906 -0.4855925 0.056048192 -0.07053361 0.07382225 -0.42705214 0.2349446 -0.4584627 0.0035751339 0.45484072 0.3616091 -0.11451465 0.009042112 0.53120726 -0.2589934 0.35635358 0.39787298 -0.33441043 -0.18685062 0.20106083 -0.02091168 -0.14311658 0.051274534 -0.5362448 0.45415375 -0.0687701 0.4798015 0.25657034 0.044549912 0.111062646 -0.19118302 0.3659558 0.041266605 -0.18238601 0.4160829 -0.26570028 0.29637378 -0.03386342 0.006682843 0.110656485 -0.047532443 -0.095568284 -0.009200991 0.39930913 -0.041099813 0.0409796 -0.3677527 -0.17432944 0.30297676 -0.13524793 -0.22579062 0.6444974 0.22538348 0.06899973 -0.12531932 -0.69907975 -0.24119908 -0.18578383 -0.2140353 -0.38378772 -0.18351783 -0.03248888 -0.14958571 -0.04229418 0.37369654 -0.41075596 0.20364942 0.84899837 0.22855584 0.5118383 0.0075082458 -0.017004602 0.4873176 -0.31761023 0.05209124 -0.10188025 0.46888676 -0.008299975 -0.06821377 0.3126149 -0.13533196 -0.109802514 0.04500441 -0.2893324 -0.17114957 -0.106180735 0.3883381 -0.32439962 0.34183544 0.093242586 0.2217918 0.07477195 0.363844 0.41067293 0.29479995 0.043089386 -0.27745408 0.19970521 -0.3042674 -0.37541944 -0.27270997 0.49449092 0.42057297 -0.004982993 -0.116687976 0.3103016 -0.25873563 0.25440466 -0.2065557
45 -0.22904044 -0.11514731 0.20103969 -0.24025825 0.38534412 0.0549803 -0.21450855 0.43764088 -0.56895995 0.38470766 -0.21919772 0.19059654 0.19407684 0.099269815 0.24939021 -0.4990009 -0.25809184 0.036737356 -0.018577497 0.3397106 -0.4342142 0.044583093 -0.028229099 0.072866105 -0.45733342 0.2799892 -0.48483828 -0.044924732 0.39677426 0.35295892 -0.13881671 0.04735179 0.48020834 -0.22701176 0.33837545 0.35002214 -0.315267 -0.21974006 0.1928179 -0.08083683 -0.14240463 0.008069508 -0.51425767 0.43237242 -0.057457298 0.43163112 0.27837133 0.018256005 0.11318843 -0.22954188 0.4142537 -0.0106263105 -0.19294325 0.43842083 -0.2847845 0.31206694 0.0008572598 0.035442766 0.16611303 -0.033206772 -0.14480805 0.075678505 0.4490524 -0.02456504 0.027399166 -0.3787755 -0.16858232 0.28768772 -0.09924172 -0.2282654 0.6445151 0.18996823 0.061366566 -0.10130611 -0.7012631 -0.21849012 -0.22908588 -0.25841743 -0.39510477 -0.22313087 -0.08732268 -0.24727958 -0.007669439 0.35183707 -0.44440225 0.1705932 0.86794955 0.24599305 0.52713484 0.07072675 -0.059855588 0.44205397 -0.30489764 0.07500799 -0.058624424 0.4202337 -0.0625321 -0.044000905 0.34499615 -0.1664173 -0.07884764 -0.039933223 -0.27808174 -0.18667051 -0.11751218 0.39106643 -0.3205528 0.33243284 0.07340665 0.23661646 0.07544278 0.35949117 0.36732602 0.33973485 0.09694184 -0.24958077 0.18594292 -0.28980717 -0.36176398 -0.1853082 0.44636345 0.45111418 -0.04641703 -0.13303566 0.29340193 -0.1999843 0.23368777 -0.19619806
2413 -0.24941905 -0.0023343598 0.2750395 -0.16607009 0.363943 0.14231569 -0.18613496 0.5262485 -0.56146926 0.44231385 -0.3056959 0.15617703 0.20165676 0.10672208 0.34024915 -0.49990848 -0.24000128 0.044204682 -0.00039859928 0.13218491 -0.36419302 -0.11950116 -0.09543901 0.21490753 -0.40370277 0.3407113 -0.61747766 -0.011949178 0.4621714 0.37885055 -0.119810976 -0.0479171 0.52063483 -0.1347506 0.39607635 0.39527553 -0.34309852 -0.25749037 0.3121209 -0.08161104 -0.1158579 -0.07699585 -0.5740263 0.44085962 0.027971547 0.46404332 0.26421243 0.13546413 0.17374268 -0.18061666 0.3972203 0.063111946 -0.18407142 0.34677863 -0.26512408 0.30363807 0.037999664 0.11230729 0.17991103 -0.17342773 -0.1661807 0.006906294 0.46925643 0.10816299 0.034923717 -0.44875327 -0.094624795 0.2092511 -0.13254972 -0.22087182 0.63026106 0.0084442515 0.16143146 -0.15191056 -0.6724319 -0.24531846 -0.26211432 -0.26973385 -0.32372835 -0.22212574 0.0008582831 -0.25203428 -0.0027699717 0.3910538 -0.43283963 0.04952829 0.8020577 0.21521787 0.5614598 -0.03903418 0.0521704 0.42297712 -0.23640515 0.053975947 -0.045308724 0.4107703 -0.015242981 -0.09705497 0.3597258 -0.21369296 -0.05973447 0.038611267 -0.3806034 -0.15693307 -0.22576801 0.44995892 -0.51270014 0.35886958 -0.04395507 0.29342782 -0.00986589 0.39052284 0.32790512 0.36623162 0.06500103 -0.21825285 0.22012812 -0.28501675 -0.41451982 -0.33234856 0.52108216 0.42205086 -0.11988357 -0.079048716 0.42471915 -0.34464926 0.20586449 -0.2583856
62 -0.3455357 -0.08318411 0.45103973 -0.11794905 0.31946316 0.34152523 -0.26595592 0.7271562 -0.63864356 0.27615684 -0.19106674 0.075659074 0.13834836 0.11683979 0.3412278 -0.6419705 -0.13955787 -0.046141494 -0.045500364 -0.029544786 -0.38351473 -0.12040873 -0.054929443 0.55918247 -0.18666878 0.2746225 -0.3254772 0.009166449 0.5945767 0.37043014 -0.10258715 0.026243016 0.54824406 -0.11688445 0.4071576 0.3381647 -0.14652015 -0.28217527 0.45160025 -0.07407122 -0.07924247 -0.28642073 -0.40382546 0.38156912 -0.033179503 0.26387563 0.16070722 0.15432484 0.26835215 -0.28448847 0.50134003 0.029425157 -0.031392403 0.2954091 -0.231831 0.30824992 -0.15613784 -0.055804763 0.23002072 0.08218926 -0.12304087 0.010914337 0.2703591 0.08310619 0.025079537 -0.45167753 -0.03055673 0.18990853 -0.19181931 -0.14301305 0.598642 -0.15908645 0.11437037 -0.14882645 -0.5960231 -0.37915328 -0.3300024 -0.28716677 -0.33032298 -0.1946591 0.10611005 -0.25134698 -0.11970762 0.10180034 -0.3096825 -0.13853185 0.8310436 0.14010546 0.57131004 -0.19223934 0.07755957 0.3630043 -0.31863838 0.03016248 -0.071392745 0.45030758 -0.069408484 -0.06899448 0.41038403 -0.042608544 0.046692286 -0.025540588 -0.32524598 -0.06670262 -0.25255886 0.53227246 -0.5918233 0.36472815 -0.10492314 0.12835652 -0.24468054 0.13252887 0.16615847 0.34247512 0.26340678 -0.1929465 0.05611625 -0.061174747 -0.0495435 -0.21043584 0.39748472 0.50534725 -0.40918797 0.25906175 0.31870317 -0.23555598 0.23615624 -0.238749
2093 -0.2946936 -0.4173955 0.5140629 -0.040336527 0.4899285 0.3216295 -0.5801963 0.004873805 -0.014605835 0.03924139 0.1738863 -0.32799977 -0.05046347 -0.1924205 -0.06988536 0.1911687 0.49593544 0.20665985 0.31284925 -0.22073433 0.33187023 0.46388543 -0.45572677 0.38763818 -0.053156435 0.7134359 -0.4044818 -0.032953516 0.2803497 -0.075718954 -0.7236038 0.074253194 0.34489527 -0.49237943 0.62501156 0.27715114 -0.36610892 0.14314315 -0.34045064 0.34645945 -0.1642893 -0.687113 -0.4175759 0.0027996127 0.25168276 0.5350702 -0.15944794 0.2547721 0.9794756 -0.065312736 0.09503958 0.07312696 -0.18717767 -0.24714649 -0.46150035 0.19264394 -0.22248232 -0.64842534 -0.34754726 0.13470845 0.2556647 -0.29782254 0.56652796 0.10063386 -0.22867367 -0.4508156 0.66995233 0.40934634 0.183385 -0.30345473 0.3870093 -0.13106726 0.0066215293 -0.36702982 -0.5131897 0.47419596 -0.7707312 -0.24518907 -0.47440407 -0.15494387 -0.26847532 0.055098906 0.45963764 0.2865856 -0.72486407 0.1401329 0.74459213 -0.2037799 1.0158666 -0.5276871 -0.65119994 0.13083565 -0.4875918 0.3815029 -0.6423719 0.4335911 -0.02409238 -0.31379136 -0.13004428 0.15813965 0.44674167 0.61461014 -0.08392638 -0.10320006 0.027783653 0.41352925 -0.5514516 0.011968117 0.11087199 -0.5933442 -0.039529976 0.055879332 0.17045532 0.09862189 0.09076261 -0.286391 0.44069362 0.22547951 -0.12807976 -0.28975672 0.65994394 0.409505 -0.4531582 -0.020124327 0.25646296 0.7265604 -0.11885053 -0.4185649
1066 -0.13191533 -0.21664628 -0.04141706 -0.3630989 0.13159737 -0.064421706 -0.30980757 0.22722782 -0.50645775 0.45178172 0.06670363 0.19076174 0.16028899 0.001402445 -0.017960973 -0.48267233 -0.050293196 -0.019454045 0.026765808 0.7837097 -0.5014199 0.4677699 0.06618596 -0.3036414 -0.43531093 0.44849706 -0.37621248 -0.008490693 0.18945041 0.19085348 -0.1652578 0.19234064 0.53972495 -0.48153123 0.24014165 0.28412962 -0.39379448 0.23911032 -0.028022578 -0.073474936 -0.29492825 0.31285793 -0.34164798 0.31025025 -0.23755154 0.2764097 0.35206828 -0.27524337 0.15376538 -0.24254853 0.50614345 -0.21775103 -0.29905486 0.46282077 -0.32355416 0.18301553 -0.13141839 -0.21970183 0.24853261 -0.03941617 -0.20510007 0.26610932 0.74563366 -0.13304986 0.09612178 -0.25276673 -0.21611209 0.36737648 -0.11148264 -0.28504553 0.5960054 0.46805263 -0.31035286 0.052273326 -0.6368282 -0.021095626 -0.056860995 -0.32853958 -0.57008576 -0.20230624 -0.31871337 -0.2583393 0.22145893 0.36018825 -0.57694054 0.4610984 1.0415485 0.25310415 0.67116207 0.31951898 -0.5370657 0.47413158 -0.35890445 0.11948018 -0.1585241 0.46041358 -0.011398289 0.025760492 0.29207957 -0.19970492 0.1515771 -0.22665386 -0.064311884 -0.21124975 0.08445357 0.3983323 -0.1245299 0.09645524 0.35915807 0.08350152 0.26218233 0.28672597 0.28537297 0.29960674 0.08279773 -0.35873717 0.2848515 -0.27494335 -0.3240105 0.092589505 0.50527406 0.35879615 0.1556507 -0.18939976 -0.0033792646 0.22869259 0.13634633 -0.1659877
2195 -0.3366131 -0.0528854 0.45632827 -0.08434834 0.33340013 0.15146694 -0.19621244 0.5921085 -0.4864613 0.37415117 -0.30165297 0.14332122 0.10856153 0.026439399 0.35521743 -0.52163327 -0.22455029 -0.039592437 -0.025243115 -0.0022998017 -0.25540116 -0.22391352 -0.07710547 0.40602574 -0.25459135 0.40037444 -0.4652731 -0.11028183 0.42930752 0.3580166 -0.09407817 0.003977455 0.58373046 -0.07626013 0.38512185 0.353541 -0.2071519 -0.2585087 0.47283813 -0.10982061 0.005396192 -0.2511892 -0.45954052 0.45985562 0.08462239 0.22795446 0.26418754 0.11681811 0.26823896 -0.2205281 0.44045416 -0.029974205 -0.10595612 0.29429793 -0.22953779 0.2148204 -0.006526317 0.085198045 0.1707361 -0.098317936 -0.18905908 0.038516913 0.40235907 0.18936421 0.022181958 -0.4567427 -0.07658695 0.054251716 -0.14010462 -0.18137535 0.53703094 -0.19632459 0.20149632 -0.073604055 -0.60946417 -0.32800573 -0.38997132 -0.2929433 -0.34941736 -0.22767904 0.086277194 -0.34228724 0.051577136 0.2308049 -0.34367302 -0.13730675 0.82823914 0.22074677 0.59033775 -0.20626272 0.107343875 0.3906267 -0.18837225 0.13029405 -0.027648272 0.3858983 -0.09118533 -0.049134042 0.41894805 -0.1793209 0.11441849 0.0094907675 -0.36863416 -0.18907721 -0.31216568 0.52577114 -0.597114 0.33861682 -0.1281093 0.18693304 -0.17702842 0.29088724 0.16031995 0.4138431 0.18499604 -0.17453821 0.15309659 -0.09836155 -0.24370694 -0.30421093 0.4977522 0.47563377 -0.2893286 0.16395801 0.36369836 -0.3016886 0.1762941 -0.23267241
1467 -0.098752625 0.011183716 0.1283114 -0.1631464 0.23954065 0.15156369 -0.18073489 0.5558971 -0.5679375 0.347361 -0.21881893 -0.014243694 0.20101649 0.100059114 0.25266245 -0.3950307 -0.10893884 -0.03702321 0.0240286 0.505658 -0.46879154 0.10714735 -0.11385517 -0.06213434 -0.5013217 0.14931226 -0.33559924 -0.086938284 0.4522378 0.34254247 -0.042903785 0.05058293 0.509284 -0.40909907 0.37855422 0.45855308 -0.35982764 -0.0990405 0.15848674 -0.071326114 -0.21120375 0.11434989 -0.47077608 0.5557333 0.009455554 0.4464478 0.32691047 -0.064861394 0.12117219 -0.25099745 0.48716715 0.045553863 -0.24422333 0.4829134 -0.21968669 0.1973364 -0.06228892 -0.118976586 -0.032941286 -0.04069571 -0.08202248 -0.13397306 0.41966832 -0.1229141 0.046777572 -0.28959316 -0.013417046 0.3403973 -0.02152973 -0.310947 0.6480762 0.28082797 -0.025420265 -0.123974554 -0.7262694 -0.2819095 -0.06516631 -0.108003 -0.44718617 -0.14000848 -0.10133506 -0.048771188 -0.013426331 0.47226933 -0.38938916 0.38309646 0.9042706 0.2572612 0.50705516 0.020796753 -0.0914401 0.56697893 -0.40858805 0.090355136 -0.18667655 0.5345407 0.06961684 -0.012674572 0.2738589 -0.1279615 -0.042244118 0.084922366 -0.2278353 -0.17401408 -0.17077021 0.34871054 -0.27279922 0.35909295 0.22427908 0.15907285 0.061040394 0.3750179 0.48806238 0.23428787 0.0077496264 -0.3049437 0.22504316 -0.27582613 -0.35584012 -0.35941705 0.5273633 0.43203464 0.083707206 -0.16082212 0.17542289 -0.21938607 0.23405781 -0.19641691
1736 -0.2927428 0.22395633 0.22935574 -0.7144036 0.33374152 -0.18806319 -0.06291838 0.22238009 -0.96147335 -0.17174055 0.43535784 0.1316829 0.15641752 0.23565292 0.3294474 -0.5096496 0.14100888 0.16153409 -0.17060815 0.49801973 -0.07744314 0.30744663 0.20512702 0.21604162 0.07987493 0.5018162 0.2956632 0.31347406 0.48577586 0.19896384 -0.15882185 0.3024686 0.09726945 0.42797494 0.62190205 0.2638829 -0.48577195 -0.12604322 0.48670402 0.004958096 -0.65384865 -0.16831109 -0.29530323 0.15758966 -0.64960253 0.1406893 -0.37371427 0.028019698 0.05409633 -0.42315498 0.17340864 0.11301529 0.32763177 -0.09865802 -0.57888967 -0.06205691 0.4022012 -0.17408648 0.8301319 0.23089859 -0.3111826 -0.13648225 0.850835 0.04236994 -0.43919408 -0.069119714 0.08121406 0.749957 -0.019527499 -0.37435156 0.7310474 0.30364835 -0.35859114 -0.10468312 -0.12048659 0.26085353 -0.28821096 -0.23066215 -0.31280187 -0.37439156 -0.43120003 -0.1553814 -0.3161884 -0.13538164 -0.2155295 0.48776096 0.20132215 0.2402294 0.12259404 -0.023454428 -0.22571956 0.45394272 -0.4070644 -0.19247957 0.09327077 0.38032258 0.37014717 -0.04670969 -0.02914288 -0.1704408 -0.13487692 0.434489 0.08359303 0.09220871 0.0035846627 0.06923774 -0.20089948 0.10786395 -0.10355726 -0.40097907 0.080639906 -0.7400568 -0.5020575 0.30464593 0.10419812 -0.029512592 0.42756894 -0.18102922 -0.12255166 -0.3347524 0.36285546 -0.3741056 -0.79686826 0.28871894 -0.05231927 0.038774934 0.40960753 -0.16534673
1062 -0.26997343 -0.3931163 0.53782254 -0.0116668325 0.44066015 0.3627968 -0.53711283 0.0070345653 0.008408402 0.040055804 0.1889154 -0.35482666 -0.06518624 -0.15665779 -0.06712965 0.18732172 0.52674407 0.19213481 0.33323002 -0.22132456 0.33961472 0.45154396 -0.44723663 0.36846536 -0.021842858 0.72215694 -0.4264009 -0.050720196 0.31033605 -0.07903784 -0.72050977 0.08082529 0.37365025 -0.4693304 0.6048632 0.2782939 -0.36648214 0.17279531 -0.30003273 0.3522786 -0.14370221 -0.7175184 -0.40263528 0.0080496995 0.26393947 0.5395965 -0.16110443 0.28590032 0.95412505 -0.02903638 0.06764229 0.09827581 -0.2121462 -0.25256163 -0.4732662 0.20219347 -0.23767264 -0.6825908 -0.3525352 0.09463915 0.25805983 -0.31216103 0.5373169 0.124648266 -0.21265844 -0.46012634 0.70865655 0.39779463 0.1745229 -0.30709234 0.35125744 -0.16399477 -0.012271841 -0.3585976 -0.4825212 0.48766714 -0.72145474 -0.21729177 -0.4667091 -0.16887334 -0.25402823 0.061388735 0.45169976 0.33454704 -0.7279948 0.11085788 0.7424148 -0.23612453 1.06531 -0.5055078 -0.6623819 0.12768613 -0.49125513 0.37899587 -0.6826296 0.4191085 -0.049030967 -0.31553662 -0.13557112 0.16225871 0.42989618 0.5924979 -0.09598993 -0.051991902 0.011266806 0.3808364 -0.51972955 0.01101495 0.10364636 -0.550526 -0.06605071 0.056290846 0.1492164 0.10103787 0.08719441 -0.304264 0.4366933 0.19545735 -0.11980988 -0.2804064 0.6344282 0.39964256 -0.46618167 -0.043464325 0.23759952 0.7575905 -0.10455348 -0.46985757
1435 -0.13111635 0.8398854 0.6646888 -0.60009205 -0.0738468 0.5832218 -0.039493337 -0.23065047 -0.058701415 0.14678821 -0.6207041 -0.17912233 0.44743225 0.03863582 0.064584635 -0.506387 0.3775698 0.29075804 -0.24737671 0.28953725 -0.31888032 0.17801994 0.13064224 0.11600021 0.31207758 0.24718614 0.056022197 0.17054601 0.6759568 0.06123655 -0.16131264 0.37852082 0.89711297 0.48625913 0.19158377 0.320219 -0.63778317 0.5674648 0.32862633 -0.09244422 -0.892481 -0.6858188 -0.524023 0.9802737 0.0525906 0.5936972 0.194449 -0.04996933 0.35899848 0.23692825 -0.37613672 0.9695197 -0.122515045 0.22475497 -0.63226616 -0.052828666 0.094162166 -1.0767989 -0.42321277 -0.20013231 0.11219045 0.48174247 0.28775302 -0.012274393 0.08287664 0.02926961 0.051815107 -0.0033205014 -0.029520335 -0.19492474 0.233119 0.36608803 -0.0636173 -0.23587349 -0.5542954 0.081748456 0.29601353 -0.3858003 -0.59348005 -0.3020907 0.18101273 -0.501547 0.28979868 0.24935497 -0.8179848 0.12254121 0.15747859 -0.004516195 0.52846915 0.18601732 -1.0482928 -0.42713088 -0.15438846 -0.15108937 -0.4187153 0.69054973 0.30775565 -0.45621386 0.43946502 0.012829781 -0.16501239 0.27951956 -0.26313928 -0.45893863 -0.37496203 0.16833721 -0.08872255 -0.2874216 0.23684683 -0.2579394 -0.5211658 -0.059476558 0.32488632 -0.05514044 -0.11742533 -0.4234145 0.099266276 0.0005504794 -0.12108083 -0.10067372 0.48055625 -0.18220316 -0.11964353 0.15817067 0.42538193 -0.08449256 0.24366753 -0.52789116
1582 -0.18851711 0.48504364 -0.041482493 -0.83483803 -0.026650462 0.33715826 -0.008058682 0.5527878 -0.2080483 -0.047223225 0.10956922 0.20644358 0.6168781 -0.10271422 0.59861344 -0.21900728 0.40667456 -0.06722925 -0.41563517 0.525466 -0.54865015 0.15906824 -0.5822816 0.4810167 -0.35096258 0.07499517 -0.024214633 -0.113214195 1.0604209 0.18447083 -0.1512929 0.29876387 0.6051885 -0.1178326 0.22264695 0.11776665 -0.26609275 0.4626457 0.43564665 0.22689143 -0.5469163 -0.012193591 0.16459839 0.17299576 -0.016977552 0.6010079 -0.12036255 0.08393432 0.59907746 -0.32969177 0.44518647 -0.09729643 0.1510715 0.1091317 0.32559082 -0.06453109 -0.32853884 -0.5526679 -0.10443963 -0.40216267 -0.4413916 0.36079833 0.8727876 0.1628424 -0.067234784 -0.65795934 0.23791797 0.7427407 -0.6111092 -0.10181373 0.30663934 -0.1816763 -0.17306066 -0.33864638 -0.43757692 -0.02213671 -1.0062335 0.46577698 -0.49794888 -0.25689217 -0.23514125 -0.6480093 0.17880611 -0.5018808 -0.1932331 0.7168403 0.14778171 0.28577513 0.18879883 0.56672144 -0.17200352 0.4446958 -0.19551675 0.19805971 -0.66913956 0.019051192 0.62564534 0.2967081 -0.1637109 0.20477025 0.5830119 0.15717594 -0.05816329 -0.14199315 0.051883474 0.23293611 -0.08986706 0.055741213 0.0303773 -0.5612911 -0.19678442 -0.6610171 -0.26320556 -0.18816485 -0.14909674 -0.40623325 0.6147139 0.3112137 0.045886867 0.065412864 -0.28497404 0.08862969 -0.22183454 0.539299 0.070225574 0.15833673 -0.13055065 -0.24806033
1291 -0.730326 0.24411765 0.36440122 -0.57848257 0.8240409 -0.16018122 -0.8238224 0.7928018 0.4386018 0.53025836 0.42115456 0.33006424 0.44810727 -0.075850785 0.27433965 -0.5636425 0.32140568 0.32055515 -0.4566816 -0.29059967 -0.65540874 0.28117943 -0.109906845 0.048630085 0.030568123 0.51604646 -0.21824536 0.59529966 0.6133356 0.29616022 0.1315685 -0.11443189 0.9367325 -0.49356976 0.51932794 0.38972133 -1.0702964 0.025832798 0.9378547 0.22057834 -0.5407723 -0.12069175 -0.34683254 0.012033418 -0.24738607 0.62434393 -0.14399782 -0.1634088 -0.022725722 0.0076882048 -0.018317103 0.15902644 0.14405169 -0.3742364 -0.2125366 0.2474908 0.06980836 0.18777607 -0.3556967 0.56065464 -0.52047145 0.004178211 0.25604486 0.48296368 -0.20183034 -0.059755612 0.15556705 0.9521443 -0.46519268 0.27263093 0.21661064 -0.07477624 -0.3363921 0.013667997 0.088774845 -0.2213726 -0.66051877 0.09793116 -0.2977791 -0.22690511 -0.03386234 -0.07522265 0.33908787 -0.6950356 -0.22327343 0.13409391 0.5002802 0.35202825 0.25655344 0.015475391 -0.39877132 -0.00023395424 -0.532444 0.5388797 -0.19820085 -0.31174797 0.17901568 0.24740331 0.22076438 0.5411186 0.610358 -0.3664391 -0.31169686 -0.52828556 -0.20934536 0.47148028 0.11968877 -0.10688749 0.107509024 -0.20925216 0.702448 -0.26131195 -0.27580777 0.2631018 0.30852216 0.06080668 0.32076854 -0.13746278 0.476615 -0.14000234 0.3022228 0.10813966 -0.47173935 0.32001802 0.020582397 -0.01946932 0.018470759 0.41821748
255 -0.4147958 0.27685988 0.44490764 -0.8830102 0.57135224 0.5436301 -1.0042695 0.06869452 0.0019774057 -0.10745216 -0.13021928 -0.0030175638 0.77698493 0.29434478 -0.042456232 -0.57468593 0.11291154 0.00099275 0.10043288 0.06513801 -0.48564246 0.5863531 -0.11322661 0.25955418 0.41214556 0.32377553 -0.13261959 0.3681435 0.33152956 -0.22767188 0.10418876 -0.34963435 0.76817966 -0.48832974 0.49863178 0.34051153 -0.01445887 0.82821053 0.623304 0.35345623 -0.42684507 -0.073743016 -0.54258156 0.47372547 -0.5653753 0.23932129 -0.1292352 0.27402914 0.44843954 -0.07768438 -0.32619604 -0.014037448 0.05999363 0.18556912 -0.41516677 0.3141369 0.13099419 -0.1378187 0.33940825 -0.13094212 0.78175026 -0.1951999 0.4375797 0.37656847 0.23047861 0.2556636 -0.566162 0.10457738 0.5385855 0.3523247 0.49069458 0.38414744 -0.419869 -0.15131554 -0.7175656 0.27792093 -0.81790704 -0.45183852 -0.13917835 -0.7915557 0.29660672 -0.23572034 0.28039968 -0.7218854 -0.22396304 0.25338107 0.45579433 -0.039571416 0.8037596 0.28549954 -0.32862374 0.4153438 -0.19536178 -0.30915534 -0.40215462 0.13052005 -0.07330605 0.5689183 -0.45466903 0.04996987 0.14440377 0.097440705 -0.025376085 -0.13044858 -0.39910328 0.66294414 -0.32287982 -0.060571015 -0.09559802 0.014100187 0.5828863 0.0018327828 0.26200676 -0.061689567 -0.22176097 -0.096114285 0.7512392 -0.09081047 -0.18101692 -0.05453106 0.048303187 0.37847674 -0.40873978 -0.0011205 0.60295564 0.75965804 0.07990009 -0.20466283
2532 -0.24283801 0.43867835 0.30573788 -0.45787987 0.3704108 0.1401148 -0.33741474 0.25329083 -0.43948147 0.24040832 -0.14743103 0.45931384 0.38575742 -0.13076131 0.02188877 -0.1893923 0.4332495 0.23407254 0.12913345 0.42337447 -0.40996432 0.16211532 -0.08686404 0.20745814 -0.0807506 0.43505344 -0.013775948 0.2375986 0.68381315 0.19521728 -0.334538 0.23749371 0.58111656 0.033783592 0.42621246 0.45223835 -0.5422879 0.12535822 0.53227717 0.20565774 -0.59780055 -0.16157648 -0.5823226 0.34926465 -0.2949995 0.4108663 0.016898476 0.12504153 0.38557225 0.064670764 0.17063305 0.08625752 -0.06834331 0.23877828 -0.27190104 0.08300433 0.25126636 -0.43282524 0.32338342 -0.022517273 0.02231028 -0.0778286 0.52861106 0.15062588 -0.15249932 -0.060256273 0.06381307 0.40575325 -0.098951526 -0.02855013 0.28974128 0.07389824 -0.23039076 -0.14301012 -0.46739548 0.077291965 -0.7618103 0.07821418 -0.5724422 -0.42416677 -0.17895004 -0.1926189 0.13862082 -0.0927391 -0.6589419 0.21963918 0.52954084 0.19004622 0.48557234 -0.03514671 -0.6229649 0.19726226 -0.27928063 0.03790797 -0.2345221 0.26513276 0.19414337 0.14285342 0.10155587 0.08994453 0.35082403 0.119098485 -0.066705205 -0.34024423 -0.22895445 0.2160757 -0.19702426 0.09778445 0.013284485 -0.27004066 -0.16879816 0.003088105 -0.08685671 0.30697262 0.054616854 -0.34128186 0.3815496 -0.012716073 -0.07327384 -0.32663646 0.29516032 0.032924283 -0.5229446 0.35082498 0.1503321 -0.1429659 -0.06737648 -0.1477862
1531 0.17716168 0.11538853 0.45453385 -0.6308045 0.38144103 0.030520467 0.36370987 0.18789738 -0.090212464 -0.16353343 0.008450231 0.6090915 0.3962503 -0.13591528 -0.23389669 0.250606 -0.21638262 0.10234565 -0.5045336 0.5299155 -0.4818274 -0.054192953 -0.12619749 -0.3682369 -0.75212616 0.3263098 -0.5326551 -0.09378623 0.06516212 0.4629567 0.009587041 0.3207384 1.4251324 0.6034628 0.046666827 0.21838786 -0.7036569 -0.29238272 0.08392569 0.03669062 -0.39254233 -0.17922558 -0.065831944 -0.101301916 0.11885919 0.14010297 0.47023192 0.093485795 0.615691 -0.09262757 -0.33037305 0.5936739 0.1422207 0.33999252 -0.83066285 -0.7014876 0.046532974 0.0852297 -0.95947045 -0.25283965 0.3634725 -0.09695303 -0.05217914 0.021997226 -0.32800964 -0.08983455 -0.68094426 0.47900465 0.2364216 -0.3740174 0.3015066 -0.20690319 -0.27957892 -0.030796034 -0.18732034 0.008539752 -0.48607528 -0.1470521 -0.37819567 -0.8017717 0.16448289 -0.4868011 0.42329824 0.33600613 -0.5439886 0.18469544 0.79802346 0.22465193 0.993507 -0.63949513 -0.6513466 -0.01080985 -0.31971067 0.4072067 -0.11191444 0.5947562 0.35921907 0.30606535 -0.1368831 -0.45611328 -0.3769393 0.5718812 -0.4553404 -0.9619835 -0.878339 -0.34045312 -0.07038894 0.13790135 0.29126 -0.77204555 -0.10503321 0.36120397 -0.21970625 0.17389873 -0.124982804 -0.55293775 1.0187485 -0.37287307 -0.712941 -0.18056688 0.77407 0.035591878 -0.44552103 0.26283827 -0.1950749 -0.23405291 -0.12809709 -0.05518061
1211 -0.36173227 -0.3039893 0.36561233 -0.37105265 0.41801053 0.12077269 -0.32913128 0.0070381486 0.36927614 0.12666929 0.08324506 0.7630371 0.7902144 -0.43142954 -0.029750505 0.58036566 0.32729658 -0.40531248 0.07038991 0.38816455 0.040788554 0.7469564 0.04593018 0.12432644 -0.14713192 0.063042484 -0.59064794 0.22654058 -0.18149936 -0.22740562 -0.32556832 -0.065772764 0.68418515 -0.5264519 0.11716801 0.221472 -0.47744563 0.34154084 0.0503781 0.117067344 -0.6515916 0.06886649 -0.51992214 -0.022473197 0.11905278 0.6418475 0.08622684 0.3197953 0.6030419 0.20627128 -0.54851776 0.47600132 0.15193896 -0.007460164 -0.24700347 -0.46413207 0.029155852 -0.43611282 0.073096365 0.14387058 0.5322162 -0.3964054 0.36638233 0.058122307 -0.09729316 0.079932965 0.055991977 0.7408647 0.42808428 0.03496534 0.19313723 0.012831051 0.037217584 -0.2816551 -0.43800572 0.27564374 -1.0195338 0.45413533 -0.2637654 -1.0208882 -0.22611168 0.05951628 0.7684418 -0.5224523 -0.59843856 0.0034686162 0.682997 0.8752085 0.6756435 0.10847129 -0.99582046 -0.24283536 -0.12047908 0.5181832 -0.5353959 -0.084870964 -0.032062877 0.40269887 -0.7213986 0.3867267 0.23978516 0.059363 -0.048963416 -0.7655604 -0.6376533 0.27462387 0.11703025 -0.06788153 0.034481887 -0.69630873 0.33495507 -0.28087124 -0.15096587 -0.1389097 -0.15790181 -0.27355218 0.81129175 -0.7462809 0.015340267 -0.28470656 0.1743033 0.24963091 -0.6785229 0.12875322 0.06999021 0.27588806 -0.24542856 0.27571157
2515 -0.30971786 0.27308676 0.42743152 -0.27447754 0.43230104 0.260279 -0.3201576 0.25143373 -0.29762262 0.13058667 0.069636315 0.40976682 0.28009108 -0.19209304 0.098675884 -0.17934762 0.32468078 0.15315913 0.037456743 0.14904217 -0.18805416 0.25981557 -0.21403192 0.37845004 -0.2652994 0.35991168 -0.1513301 0.23564897 0.38414997 0.09175294 -0.09220892 0.003060387 0.45591116 -0.096591175 0.29755133 0.309687 -0.5880859 0.06639053 0.36591977 0.34022117 -0.4991154 -0.19456962 -0.3850351 0.11479278 -0.17807183 0.38953614 -0.089689806 0.08857749 0.48980692 0.23668431 -0.014749197 -0.12281538 -0.006770124 0.16408476 -0.2766794 -0.06992234 0.04990041 -0.32241356 0.21047933 -0.03309233 0.18964683 -0.011132379 0.4844608 0.38012004 -0.1264446 -0.2951897 -0.029079828 0.49121538 -0.04739673 -0.089655586 0.33724385 -0.07385578 -0.27591762 0.011471839 -0.27832702 0.10022527 -0.74286926 0.21295963 -0.42842048 -0.37837106 -0.22417922 -0.040833205 0.1453681 -0.02386635 -0.6647432 0.11271127 0.5707191 0.36933365 0.6506689 -0.19263974 -0.48216933 0.2318506 -0.2768981 0.23043968 -0.2322222 0.2257231 0.062492203 0.05426101 -0.091453664 0.26089448 0.26166818 0.052292343 -0.30165344 -0.04841381 -0.2969333 0.1297466 0.018206272 0.099048756 0.042242747 -0.28210926 0.17971705 -0.21140012 -0.27841347 0.44021627 0.10621229 -0.28020173 0.7197994 -0.1259665 -0.04541572 -0.277342 0.31889898 0.041567553 -0.7997477 0.470343 0.10631416 0.083997205 0.15134338 -0.08425146
1865 -0.3264345 0.41276035 0.4577201 -0.41893739 0.44352132 0.3093515 -0.31754 0.32443622 -0.40132436 0.166496 0.017155038 0.38752154 0.36445424 -0.14957581 0.1081144 -0.25015542 0.38421175 0.26952064 0.035838254 0.26401725 -0.40711442 0.21759832 -0.16589212 0.24012578 -0.15321055 0.46963778 -0.11517892 0.3293997 0.5553389 0.14927234 -0.17743117 0.07170782 0.75671333 -0.0036247517 0.43772084 0.29760197 -0.6973833 0.15113254 0.3992855 0.2262492 -0.50961185 -0.20518439 -0.46171573 0.20464881 -0.23124476 0.38902223 0.06329792 0.09074375 0.4920992 0.07829582 0.12881921 0.077658504 -0.03879698 0.18548417 -0.3397589 -0.03415946 0.11106397 -0.3933341 0.1797584 -0.030214323 0.17980541 0.033081975 0.5343716 0.26753387 -0.040637128 -0.20446345 -0.023029791 0.49000636 -0.09483682 -0.0911038 0.40117562 -0.028964324 -0.25360736 -0.08280944 -0.41516218 0.12748316 -0.62113893 0.02018369 -0.5867269 -0.46738335 -0.11515631 -0.18241285 0.23885924 0.05049448 -0.65764433 0.16365719 0.62944216 0.2771238 0.7119591 -0.13899112 -0.62886685 0.24875341 -0.38579795 0.10358464 -0.26968428 0.4202889 0.249475 0.0064882105 -0.03091805 0.25097948 0.33301088 0.15035205 -0.2488408 -0.28016132 -0.34600163 0.26951215 -0.211693 0.012992598 0.07166899 -0.37605906 0.06434826 -0.06624611 -0.21098192 0.37054425 0.07008934 -0.46856505 0.5662635 -0.12422803 -0.14018923 -0.2671968 0.3667761 0.13635652 -0.6578171 0.3727062 0.16449527 0.032593384 0.025224403 -0.063906446
2068 0.13129827 0.29717228 0.45382917 0.26210755 0.21109957 0.3725991 -0.41913244 0.29013324 -0.06616715 0.49085176 -0.10566072 0.73486006 0.038528953 -0.4860395 0.32527322 -0.21453223 0.09398383 0.41978577 -0.38495234 0.1810897 -0.63505274 0.04879521 -0.76771826 0.34266672 -0.3605923 -0.090948746 -0.57421875 -0.035322323 0.33859408 -0.21856834 -0.49688753 0.24211974 0.9160011 -0.3480892 -0.003168505 -0.0011534016 -0.07574086 0.048778895 0.019295672 0.2559815 -0.29828566 0.22219798 -0.5048107 0.21611458 0.26361156 0.2331021 0.405382 -0.09568407 0.9048829 0.8224936 -0.1557378 0.013172414 -0.05014681 0.556281 -0.15619536 -0.6081258 -0.41804776 -0.70633155 -0.50358623 -0.10968323 0.8393298 0.36852583 -0.12805742 0.239726 0.14623258 -0.52989364 0.0027616334 -0.21278512 -0.7193154 -0.19932286 0.23817244 0.25891578 0.03654826 -0.15042013 -0.88881916 0.13440324 -0.2520498 0.115234084 -0.87240344 -0.038431853 0.2152589 0.008039757 0.91000736 0.35791013 -0.43136445 -0.20283267 1.0682684 0.3567693 0.5724581 -0.37178078 -0.829371 0.44151926 -0.14558451 0.46360603 -0.54720414 0.74553907 0.42376924 -0.49274057 0.05722681 0.42364937 0.030459996 0.33196104 -0.14119178 -0.62569153 0.0025640125 -0.08727744 -0.40750843 -0.5352678 0.19216666 -0.88365436 -0.07842463 0.15563484 -0.20611782 0.08450771 0.050359253 -0.719883 0.28556284 -0.11463726 0.24551207 -0.10948741 0.4308751 0.22629346 -0.06810268 0.56258047 0.054973535 -0.22329262 -0.031666253 0.39944005
475 -0.2273821 1.2075555 0.403632 0.1418635 0.03358902 -0.059848037 0.3964005 0.8066588 -0.1521697 -0.15277809 0.33829355 0.16628861 0.33385038 -0.55899775 0.6752992 -0.21394768 0.33728078 0.19143443 -0.44943005 0.4982787 -0.07836861 -0.18196207 0.119052075 0.20049708 -0.6962387 0.5690332 -0.59482247 0.031266246 0.41786456 -0.49856392 -0.015027622 -0.14990067 0.9435365 -0.19938456 -0.008113217 0.20919457 -0.9604168 0.10347557 0.61714053 0.14704724 -1.0099485 -0.42001423 -0.54235995 -0.28596535 -0.028996404 0.5946636 0.1554612 0.2320098 0.12618463 0.023871986 0.037829794 -0.122310735 0.1728727 0.30256966 -0.38670677 0.20604502 -0.050191946 -0.32032186 0.27227035 0.0026783026 0.3288851 0.08413362 0.66290087 0.46519908 -0.69726497 -0.6881398 0.22828394 -0.01020153 -0.4394063 -0.39074588 0.2520975 -0.24804479 0.004331363 0.6668653 -0.19929226 0.40596196 -0.70086515 0.09904902 -0.62426555 -0.5611835 0.083004296 0.048097488 0.27539033 -0.36601928 -0.26041514 -0.22137047 0.53763396 0.118585415 0.59535277 0.37356985 -0.47772828 0.06190498 0.11186113 0.22919662 -0.39326236 -0.0002652142 0.7022222 -0.15435167 -0.22300702 0.18869619 0.6007445 0.23342803 -0.07213109 -0.14694203 -0.213558 0.28145003 0.45219254 -0.31653303 -0.403435 -0.13414311 0.40691113 -0.34790587 -0.5621924 0.13405134 -0.29059836 -0.29545084 0.40655944 -0.92684543 -0.6316184 -0.6803909 0.55523187 -0.6874568 -0.92949927 0.802848 0.3533501 -0.5518573 0.14562765 0.20052527
1158 -0.42903715 0.40877956 0.5256154 -0.10960486 0.27307516 0.4407029 -0.7441818 -0.073990874 -0.3296393 0.1261861 -0.11773285 0.17797095 0.43723664 -0.27131778 0.07640853 0.0821751 0.7117131 0.30566487 0.082762256 0.10056924 -0.91614276 -0.16305834 -0.040135324 0.32696307 0.24772544 0.8400145 -0.1420793 0.0835038 0.369474 0.2733926 -0.5980641 -0.5175811 0.24954715 -0.63236755 0.7495148 0.35094488 -0.3405191 0.46180043 0.74293095 0.23172675 -0.9811768 -0.73646164 -0.062513106 0.12390069 -0.5912908 0.24661432 -0.4280558 0.08551207 0.4512728 0.48654017 0.6474261 -0.14483462 -0.20469671 -0.2421491 0.30658907 0.28697848 -0.0026010524 -0.6182498 0.75011414 -0.035546206 0.015138172 -0.20517814 0.35649803 0.7947525 0.21398538 -0.39266822 0.078496404 0.11676015 0.25794312 -0.41742164 -0.26016584 0.2411478 -0.25808245 0.2805291 -0.07215642 0.059426416 -0.85347176 0.087813646 -0.592477 -0.43137336 0.08288437 -0.17440629 0.18887676 0.25060472 -0.38869226 0.69724494 -0.1349903 0.15770525 0.70952404 0.4729092 -0.118540585 0.57477915 0.19736473 0.17523609 -0.17804474 0.32027337 0.085337356 -0.120433524 0.19462669 0.5047647 0.68453413 0.45471138 -0.09288876 0.18438743 0.22048227 0.43530136 -0.4921919 -0.18828619 -0.1478505 -0.009762942 0.16332385 -0.22243771 -0.15967208 0.1729518 0.0044905636 -0.69841945 -0.0057836357 -0.27916867 -0.08171808 -0.4305874 0.1064426 0.51908076 -0.2730496 0.50433826 0.2393562 -0.14863151 0.42453152 -0.29014257
88 -0.3331487 0.4140787 0.7178018 -0.4663801 0.5440807 0.4525231 0.19595487 -0.1871912 -0.0719146 0.33820793 0.29346433 0.5318717 0.63795215 -0.19947524 0.5417558 0.09109586 -0.18557613 0.4532768 -0.33548087 0.32528803 -0.47360656 0.2316484 -0.19328904 -0.23242061 0.16674726 0.70829266 -0.33442873 0.38943484 0.10551999 0.24666208 -0.018753786 -0.059284978 0.9656329 0.3058011 0.68665093 0.22378343 -0.19764096 0.13210714 0.42505872 0.49332398 0.16679074 -0.018842807 -0.051293626 0.47246537 0.22556308 0.26897174 -0.20726453 -0.31990573 0.3599726 0.44480845 0.23637891 -0.061932344 0.661027 -0.13044332 -0.6150226 -0.27834752 -0.12615266 -0.40787357 0.06795385 -0.3642291 0.31002277 -0.016259294 0.3650652 0.26230365 0.61027646 -0.034870468 -0.8122322 0.050241962 0.119104214 -0.189 0.57266164 -0.16670243 -0.42309892 0.64694643 0.044051666 -0.10425744 0.08399706 -0.18557929 -0.3532678 -0.8674202 0.06406046 -0.39851972 0.7823857 0.29904342 -0.19166216 0.19649914 0.54290074 0.47738573 0.5152087 0.20198706 -0.12853892 0.57344496 -0.14318734 0.4367846 0.2094929 0.5793109 -0.3206393 -0.41412517 0.5515945 -0.12574734 0.23580721 0.05186229 -0.021997565 -0.69564587 -0.45526886 0.26076388 -0.3908553 -0.57220143 0.13070269 -0.48557946 0.5591714 -0.28922725 -0.7634427 -0.0585536 -0.09639868 -1.3995787 0.45824793 -0.082561426 -0.2722938 -0.7202287 0.7893539 -0.043582927 -0.33075106 0.49764654 0.013005146 0.05662964 0.52808595 -0.18307033
2652 -0.021418536 0.21082324 0.32483074 -0.17497621 0.6207817 0.7263013 -0.5522707 0.5373107 -0.31890666 0.16041464 0.1909775 0.5175142 0.32119766 0.28717476 -0.08540514 -0.86206996 0.09921399 0.14271143 0.04660681 0.32478678 -0.8561459 0.15136847 -0.42314842 0.49599686 0.21060698 0.7518179 -0.1233178 0.859288 0.31590715 0.29171178 -0.2832398 -0.061201822 0.6499809 -0.119559 0.9226813 0.5526028 -0.52050626 0.10588145 0.15398759 1.0046923 0.21240148 0.066233136 -0.2201578 0.15940605 -0.6414864 0.24234462 -0.30697653 0.056653194 0.6864984 0.12238243 -0.3374306 -0.40508175 -0.04969185 -0.2860609 -0.13277769 -0.22372185 -0.072101526 -0.39605296 0.45529526 0.25834754 0.6347821 0.16781159 0.04911334 0.32370257 0.46434224 -0.6708853 -0.7265734 0.2077358 -0.758522 -0.14449055 0.5401865 -0.21115541 -0.33251342 -0.66209227 -0.30064243 0.14284652 -0.32826948 0.039145816 -0.40379137 -0.30126846 -0.15627182 0.23147814 0.060319886 0.3280043 -0.60205954 -0.1340976 0.7351211 -0.37889934 0.25178114 -0.3660291 -0.15074764 0.34014732 -0.4501358 -0.1561558 0.009943814 0.49985844 -0.014175316 -0.36905423 0.020129435 0.4368014 0.30945954 -0.10951562 -0.55526805 0.36813757 0.13664988 0.19785002 -0.89443105 -0.12830518 0.31759 0.18033502 0.4967795 -0.27771693 -0.43056244 0.725074 0.66208553 -0.86177677 0.4191124 0.12734562 0.43530583 0.17503934 0.09030301 0.1714639 -0.5690551 0.61986303 0.030690916 0.44052312 -0.3634289 -0.14617072
900 -0.22168936 0.2014559 0.44351548 -0.3046459 0.5306261 0.59963685 0.14914206 0.42225373 -0.36831778 0.10699544 0.3124339 -0.3879598 0.58458465 0.09108222 0.05552834 -0.1856494 0.6429816 -0.05320339 0.0043231095 0.0016064375 0.23070031 0.77886504 -0.061105095 0.3188372 -0.25529867 0.635641 -0.14085303 0.7858392 -0.17631508 -0.041993935 0.17410393 -0.11252041 0.7100445 -0.45898557 0.4536976 0.41741714 -0.7944382 0.0762599 0.072289556 0.4998258 -0.29059827 0.29815134 -0.48851067 -0.45421508 -0.40808046 0.23316136 0.31548655 0.32898903 0.3117925 0.11333343 0.5033437 -0.19416644 0.103308044 -0.8231185 -0.29598862 -0.08104384 0.06779983 -0.19869007 -0.03527413 0.021460349 0.3408855 0.03776243 0.41975138 0.1376776 -0.25319314 -0.57515687 0.11402624 1.0445853 -0.32539108 0.39351147 0.6618375 -0.6565859 0.24482599 0.26639923 -0.471206 -0.2890172 -0.6254366 -0.24661271 -0.19097391 -0.28390256 -0.119295605 -0.0843239 0.4497176 -0.18671703 -0.557218 -0.32691437 0.08177858 0.29866493 0.95334095 0.07991644 -0.40358946 -0.32799023 -0.46452352 0.17613187 -0.040538978 0.20314611 0.34297365 0.0013521345 -0.335895 0.14952938 0.12871683 0.014579981 -0.6649634 0.06641231 -0.3305002 0.54256386 -0.45882148 0.27537444 -0.015919883 0.22327462 0.43004033 -0.17590326 -0.30086333 0.08273754 0.26669317 -0.6006402 0.60863024 -0.11599313 -0.44259724 -0.040419906 0.011282002 -0.013541103 -0.7835826 0.5381187 0.44426736 0.23373954 -0.3708977 -0.14401944
979 -0.7394065 0.027900573 0.17232743 -0.29741642 0.5282952 0.06376733 -0.56795555 0.18567185 -0.7496636 0.08926213 -0.34140474 0.5349533 0.063800685 -0.40520912 0.5226313 -0.47954735 0.7628979 0.14706309 0.11035685 0.29155102 -0.045865644 0.36801594 0.007735546 0.38943428 -0.062263016 0.05940062 0.58434504 0.21543746 0.9248462 -0.39277086 -0.23864323 0.2679223 0.4457901 -0.31652504 0.21330261 0.4005717 -0.11931312 -0.0939761 0.13296059 -0.0115210395 -0.98964494 -0.10475868 -0.6393242 0.26961285 -0.738598 0.4108028 0.26258168 0.15879536 0.43966743 -0.08701427 0.08099549 -0.024375942 0.113118686 0.2619799 0.004354901 0.43239775 0.1351798 -1.1027161 0.6640259 0.4601828 0.28243035 0.24117556 0.19776346 -0.11412587 0.04432187 0.11164781 -0.2834025 0.3654196 0.2687567 0.30443653 0.38321552 0.2301311 0.2844438 -0.046560854 -0.50174624 0.09324433 -0.56721514 -0.0017735355 -1.0970144 -0.4233623 -0.1473449 -0.30176133 0.10479413 -0.7880765 -0.31159776 0.45708072 0.33718613 0.2131795 0.06600953 0.28922707 -0.3254814 -0.050673213 -0.19101185 0.05645482 -0.011744945 0.35319972 -0.040352695 -0.1685938 0.35969195 0.7738847 0.5992228 0.2185199 -0.09717898 -0.08507338 -0.5282988 0.3773594 -0.048623208 0.08990395 0.14226833 -0.06800492 -0.2154328 -0.04527356 0.15906696 0.22640952 0.09045476 -0.16606076 -0.007669724 -0.0009275992 0.4768727 -0.27472737 -0.0062864963 0.11091273 -0.6347716 0.021221932 -0.03835152 -0.10110714 -0.2775562 0.26922145
109 -0.31284595 -0.05761748 0.4212437 -0.14075579 0.36172238 0.16583444 -0.24609248 0.6103845 -0.5265723 0.41623464 -0.27533743 0.17932014 0.14899811 0.013667254 0.36668035 -0.5648039 -0.22529405 -0.01622703 -0.03508201 0.074639656 -0.35258973 -0.17839038 -0.10357226 0.37273267 -0.34776574 0.4072703 -0.4772204 -0.089010775 0.46322155 0.36034304 -0.14328052 -0.0011342708 0.5801553 -0.15130715 0.39163646 0.399848 -0.23705831 -0.27500418 0.42179185 -0.08049882 -0.04496167 -0.18608725 -0.48923433 0.42988455 0.0523454 0.2787892 0.28223586 0.08241053 0.24771947 -0.22538638 0.45593756 -0.067988105 -0.12678677 0.3348084 -0.2203875 0.2620329 -0.028076934 0.09353247 0.215058 -0.063636124 -0.1880193 0.07136227 0.41532743 0.16140558 0.019726608 -0.47805128 -0.1309403 0.10681482 -0.21973838 -0.1807129 0.5879897 -0.16644803 0.19392352 -0.096016124 -0.6679726 -0.29501095 -0.41972306 -0.29462764 -0.35860974 -0.1967621 0.024938185 -0.32305136 0.055567067 0.23473984 -0.36526278 -0.09725218 0.8597932 0.22902548 0.5774604 -0.15081735 0.07785347 0.41091892 -0.23045793 0.13622542 -0.004505051 0.395034 -0.08362075 -0.017565342 0.41299295 -0.17449301 0.07955674 -0.019834636 -0.3710547 -0.19129749 -0.2592889 0.5342779 -0.6180888 0.3393779 -0.07249435 0.22554642 -0.111784235 0.30764124 0.1567326 0.42023823 0.19875143 -0.19690514 0.11998796 -0.1404282 -0.2855881 -0.28065032 0.4891112 0.504405 -0.26329786 0.11822838 0.38535604 -0.29278904 0.14811558 -0.19624843
1233 -0.75054383 -0.10280448 0.30043554 -0.7059488 0.53117406 0.29168916 -0.5924292 -0.048771173 -0.82886267 0.20090629 -0.2559138 0.36675426 0.081403054 -0.3627701 0.5414315 -0.6006634 0.45138925 0.013556227 0.18915161 0.23821144 -0.2372744 0.22183928 -0.008704471 0.5386408 -0.18135847 0.13287878 0.52729726 0.08662285 1.0748423 -0.44836405 -0.35706955 0.006806355 0.620694 -0.5840059 0.031293705 0.010216289 0.024938883 0.03846612 -0.16317566 0.025092596 -0.844077 0.0131738195 -0.56639874 0.19980259 -0.7451076 0.36474138 -0.011136755 0.05512438 0.52491903 -0.15693049 -0.007645744 -0.3147814 0.48017445 0.4300577 0.06936512 0.3629011 0.18530887 -0.86740315 0.5728622 0.42945257 0.2811462 0.2698308 0.38873506 -0.09236362 -0.06434331 0.033707526 -0.49083793 0.65196353 0.45371827 0.23212864 0.44365782 0.28012407 0.37957147 -0.05520812 -0.5806477 -0.028850006 -0.6389914 -0.0012875848 -1.2531185 -0.2919046 -0.35599717 -0.3357036 0.15972999 -0.54532856 -0.29949436 0.4194617 0.48862544 0.41860098 0.03209355 -0.21605091 -0.39903778 0.30161014 -0.14669287 0.23939434 0.05514465 0.35957035 0.14599755 -0.18116131 0.19759539 0.8723713 0.41343394 0.015865503 -0.5539253 -0.17915986 -0.4360523 0.21621951 0.09652456 0.110808246 0.24565178 -0.066278666 -0.30720595 -0.049895395 0.09038238 0.39800093 0.40229365 -0.28454334 -0.024250513 0.005425777 0.46230224 -0.29492456 0.0821181 0.28367424 -0.53790027 0.21449037 0.014424521 0.077448905 -0.38743442 0.07640048
1754 -0.347992 -0.12688345 0.47488448 -0.09667483 0.30426443 0.24188848 -0.21349092 0.6787815 -0.6520754 0.33982608 -0.14234105 0.13388593 0.08008458 0.061576687 0.31200412 -0.59195256 -0.13876502 -0.06648229 -0.05947211 -0.0022785172 -0.3065229 -0.18806192 -0.0804565 0.54816073 -0.24876331 0.3778572 -0.38478553 -0.055451103 0.5742943 0.39245602 -0.143907 0.0654665 0.47070688 -0.054863516 0.42993957 0.3387499 -0.17969213 -0.3164566 0.52019596 -0.09388459 -0.07340586 -0.3333654 -0.4254402 0.408355 -0.007631904 0.265371 0.21864302 0.12413895 0.27960917 -0.25223997 0.54911196 -0.021351194 -0.070652805 0.27859333 -0.24317038 0.2824614 -0.085712686 0.017812638 0.23430689 0.012108474 -0.22201748 0.045770343 0.30559042 0.17332636 0.0008227308 -0.4893306 0.032007977 0.20123199 -0.18606722 -0.14983055 0.5594734 -0.28522137 0.13405989 -0.098843716 -0.60198694 -0.39320952 -0.39519632 -0.3143042 -0.34003624 -0.22227085 0.03387129 -0.31068444 -0.054035097 0.14682221 -0.33944649 -0.16493283 0.830607 0.15565322 0.6355363 -0.18834549 0.095481314 0.32342207 -0.30647698 0.10766036 0.006774773 0.43557966 -0.099644326 -0.04149933 0.4493417 -0.10999357 0.07354889 -0.08272823 -0.3939229 -0.05143188 -0.33083 0.4845144 -0.6531928 0.37836954 -0.14706591 0.20566629 -0.27611628 0.11428543 0.07526843 0.42108494 0.29334646 -0.19062075 0.046779104 -0.059685174 -0.11487581 -0.2418215 0.4349032 0.52393097 -0.4808766 0.27035838 0.27180138 -0.27008042 0.18095295 -0.26460925
2091 -0.42278025 0.7351129 -0.041482605 -0.64615196 0.30939147 0.22245803 -0.8078566 0.47650555 -0.98376983 -0.19368148 -0.119197555 0.46833354 -0.0931314 -0.08382907 -0.14740896 -0.3665259 0.839744 0.27692488 0.80709577 0.3228517 -0.49991548 0.10745238 -0.13355519 0.04062498 -0.42839354 0.28695717 0.20147449 0.5613472 1.2492771 0.03262654 -0.41035572 0.0791684 0.11446582 0.12612674 0.8685187 -0.1258444 -0.7166841 0.2961484 -0.13109344 0.6148626 -0.048720844 -0.38559622 -0.5853913 -0.17074847 -0.47298363 0.65757316 0.24229169 0.037876368 0.10601045 -0.14551148 0.43967018 -0.14414708 -0.06766611 0.61535394 -0.116356246 0.3089337 0.5683589 0.20148055 -0.025473692 -0.43181404 -0.11968811 0.12567621 0.083417304 0.23467575 0.24437949 -0.0043593207 0.20953397 0.6982589 -0.13122332 0.18117231 0.29839396 -0.5259811 -0.45355502 -0.36119798 -0.17114016 -0.11290472 -0.5423153 0.33229962 -0.35172793 -0.5994963 0.03260432 -0.17241512 -0.14629142 -0.10975337 -0.60051465 0.53314084 0.29509884 -0.26340148 0.8135166 0.05206919 -0.14135323 0.5352618 -0.72460425 -0.23935772 -0.011601809 0.014902591 0.02793407 -0.19694419 -0.31285092 0.84120816 0.5487804 -0.5052526 0.012718404 -0.028494287 -0.27522978 -0.14335917 -0.5029991 0.2561741 0.0006043722 0.169625 -0.16394529 -0.034086775 -0.16542153 0.7396902 0.18874799 -0.25848988 -0.023794243 0.1689413 0.15291949 -0.38551208 0.4077424 0.30740333 -0.57088846 0.33835796 0.10261513 -0.5847882 0.029989839 -0.4139185
1832 -0.73565483 1.0323074 0.106977925 -0.1793496 0.24132442 0.3613126 -0.4936666 0.114622965 -0.4607687 0.55685025 -0.0446963 0.91253567 0.69927514 -0.7118841 -0.3172809 -0.10191205 0.12412596 0.27704385 -0.081241086 0.6133475 -0.124035634 0.16664276 0.046022322 0.12648918 0.21050633 0.4403997 0.07812061 0.5964205 0.6924218 0.3710195 0.060212478 -0.12174841 -0.020750782 -0.2696523 -0.10150906 0.37107742 -0.61004084 0.33911625 0.43754548 0.16246197 -0.8754703 0.11686667 0.11019573 0.124008484 -0.35228387 0.32313564 0.04512952 0.3939719 0.42209575 0.55158895 0.089836374 0.29322037 0.30447024 -0.01571875 -0.28716585 -0.84038514 0.11452426 -0.28595248 0.30482683 -0.124962844 0.04921443 -0.15523927 0.12692863 0.87162626 -0.13785958 0.35476202 0.22529083 0.33268955 -0.09118661 -0.40982476 -0.15174335 -0.18548799 -0.26509145 0.10348262 0.08561365 0.07824027 -0.29355937 0.41419664 -0.2047126 -0.3648705 0.07709433 0.22490671 0.35540992 -0.0058530658 -0.5896222 0.48725304 0.5759692 0.17661628 -0.12084187 -0.38773033 -0.580972 0.37828112 0.28386176 0.099977024 0.32932627 0.6248032 0.54969627 -0.19332941 -0.034779392 0.060236435 0.7297541 -0.257841 -0.2094743 -0.386028 -0.45632377 0.031659402 -0.092903644 -0.2859994 -0.1328371 -0.38554847 0.14507256 -0.048798904 -0.7010444 0.13301058 -0.06557314 -0.24641238 0.58732283 -0.38679296 0.027280752 -0.5784226 0.037386227 -0.21643217 -0.6748864 1.0552514 0.14594366 -0.43419468 -0.14898095 0.21029025
1098 0.46190658 0.8214103 0.26609242 0.08268912 -0.45067683 0.82882524 0.3689545 -0.10513589 -0.13333781 0.06156392 0.25095406 0.76932335 0.69014496 -0.05528351 -0.0016826941 0.09737687 0.2024902 0.178118 0.24775703 0.53931075 -0.20679986 0.031103961 -0.18024847 0.43097886 -0.06819422 0.19524243 -0.29789978 0.100107424 0.28984115 -0.36413977 -0.25544444 0.24016322 0.7302155 0.31374133 -0.28174445 0.06791758 -0.6924435 0.49085963 0.64702356 0.40037844 -0.2007318 0.23955467 -0.1349306 -0.16812117 -0.11473891 0.020821625 0.1506952 0.15329611 0.4655672 0.267812 -0.51734895 -0.21263112 0.34358755 0.19740647 0.0081089195 -0.42478648 -0.771564 -1.1441095 0.60284334 -0.43890816 0.45081702 0.34392825 0.6465331 -0.015958034 0.22410974 -0.42802683 -0.42140785 0.16881074 -0.38889655 -0.3326888 0.120723434 -0.07702225 -0.024052825 -0.015724374 -0.39136752 0.79560864 -0.59619105 0.3273253 -0.5628656 -0.6029059 -0.22373125 0.15644471 -0.019840667 0.67464375 -0.6793102 -0.2869313 0.43709892 0.47021934 0.8078795 -0.2509181 -0.5094141 0.21072896 -0.012138075 0.1549665 -0.16041632 0.48666534 0.091156445 0.07713704 -0.6487011 0.15905401 -0.061021358 0.14386299 -0.441805 -0.072626404 -0.18802424 0.22024234 0.04929995 0.23950367 0.34753895 -0.3534414 -0.101232655 0.09496257 -0.7579371 0.27798674 -0.070978366 -0.5760527 0.66283387 -0.49902555 -0.47679636 -0.08145787 0.30321568 -0.20182753 -0.602369 0.504646 0.21617259 0.38185084 -0.22480433 -0.31858936
2154 -0.29199117 0.19450668 0.2051674 -0.6978894 0.3407197 -0.18825549 -0.06456731 0.1967995 -0.9552481 -0.16959725 0.39523262 0.13560358 0.15485716 0.2402429 0.3003167 -0.49199194 0.14161265 0.15856452 -0.18939492 0.51297843 -0.10114259 0.3094965 0.2278764 0.23425876 0.09241949 0.4655605 0.31985116 0.30272317 0.4906025 0.20575806 -0.15562688 0.30090278 0.07648067 0.4607396 0.624849 0.25283605 -0.45668918 -0.13857178 0.52176887 -0.008308891 -0.67198884 -0.19045626 -0.30739307 0.22043285 -0.65270597 0.12811765 -0.36899552 0.00852619 0.050611928 -0.3944169 0.16175288 0.12884201 0.34136266 -0.071820855 -0.5897984 -0.058269423 0.43144688 -0.19735567 0.8094754 0.1943008 -0.29107672 -0.12952419 0.8058234 0.05336622 -0.43457943 -0.06990184 0.07153237 0.72794914 0.023280967 -0.36955097 0.698582 0.34229007 -0.3403011 -0.07149204 -0.14440222 0.25269905 -0.288718 -0.2227864 -0.34129637 -0.40210277 -0.39670908 -0.1567712 -0.3173989 -0.124370135 -0.23294443 0.4994349 0.19650534 0.2628709 0.15663847 -0.022818502 -0.22814246 0.4336816 -0.38830277 -0.19776295 0.0890958 0.41033986 0.35594139 -0.046573 -0.028070934 -0.14643903 -0.14451641 0.43394154 0.10884748 0.06588682 -0.035203263 0.03445673 -0.16772129 0.09956282 -0.12884319 -0.4221917 0.07188101 -0.7395405 -0.483831 0.29705992 0.089864805 -0.046453226 0.42130193 -0.19655894 -0.09762683 -0.34453192 0.357758 -0.3520013 -0.80032957 0.29647088 -0.0515299 0.07158801 0.4427329 -0.15845078
382 0.4313199 0.79454434 0.27775264 0.11458026 -0.40903407 0.84081095 0.3595034 -0.035647888 -0.15366787 0.1000537 0.24720818 0.7087202 0.66699284 -0.048510112 0.029831221 0.041501306 0.15331364 0.20080031 0.2328316 0.5288733 -0.17930232 0.016762102 -0.16181654 0.45202428 -0.061144903 0.27551404 -0.340874 0.046313033 0.3271534 -0.31025365 -0.23130602 0.25041884 0.721809 0.27384782 -0.26273865 0.10443916 -0.68901974 0.49759862 0.68172204 0.40590623 -0.19205658 0.20041583 -0.13675942 -0.10482287 -0.12596804 0.033351853 0.17397884 0.17248881 0.4739949 0.23926684 -0.40415004 -0.19843325 0.30323273 0.21667066 -0.010638333 -0.4241198 -0.77479464 -1.1912624 0.6059191 -0.4199039 0.4244558 0.3133301 0.65634185 -0.008869355 0.23889725 -0.4778367 -0.33873424 0.16737717 -0.40344292 -0.38070336 0.13262376 -0.08169761 -0.023732396 0.0064696427 -0.40741295 0.75193024 -0.5286428 0.26813278 -0.5724503 -0.59126496 -0.24479645 0.18009105 0.016159385 0.761091 -0.72319746 -0.28060198 0.5256627 0.48897123 0.82776994 -0.23287554 -0.489779 0.27268434 -0.04020633 0.15677617 -0.17601353 0.52906686 0.12562034 -0.0024748514 -0.59514546 0.13943468 -0.06807102 0.11489133 -0.49329016 -0.058938086 -0.1941512 0.26382393 0.020456951 0.246007 0.28797388 -0.3099732 -0.11247673 0.12914155 -0.75842154 0.2810223 -0.0749344 -0.5600341 0.66434056 -0.51604086 -0.4909579 -0.121450424 0.30691364 -0.16148323 -0.5939762 0.48643652 0.21248053 0.4058057 -0.23529768 -0.34670487
1828 -0.7662786 0.95367366 0.10840028 -0.1895024 0.2696261 0.39230973 -0.48778802 0.0445382 -0.43640947 0.50992846 -0.022655873 0.8859505 0.67420316 -0.7627098 -0.29299998 -0.05096878 0.14734803 0.27511021 -0.11054416 0.5986663 -0.052009363 0.18388207 0.022161277 0.12760927 0.2527234 0.44815663 0.06957231 0.58522373 0.67726135 0.3133849 0.03480089 -0.14858739 -0.06535279 -0.28538117 -0.12146949 0.3297594 -0.53404266 0.36084992 0.41952804 0.161629 -0.9293609 0.073187776 0.15264657 0.15512986 -0.35781342 0.2677075 0.056642175 0.38586316 0.47453704 0.5560298 0.042165022 0.27424696 0.31554207 -0.0043730135 -0.2849199 -0.8630071 0.14507997 -0.36901754 0.284963 -0.12738714 0.097081676 -0.17662069 0.088188864 0.86725295 -0.13595325 0.36769056 0.23912263 0.31904477 0.011212164 -0.38564146 -0.18252832 -0.18458065 -0.26348683 0.10446322 0.07716201 0.090115584 -0.3073418 0.4207079 -0.26901343 -0.38271922 0.0830842 0.21016426 0.40018666 -0.03627378 -0.5687797 0.5014597 0.5499767 0.18825594 -0.17427443 -0.3899372 -0.5684835 0.38146976 0.318983 0.093755595 0.30911225 0.64502424 0.54295594 -0.23645622 -0.037270226 0.09929171 0.7296674 -0.24227798 -0.21017891 -0.38547528 -0.4871781 -0.0018771157 -0.03907697 -0.3444223 -0.1546686 -0.44537482 0.123843595 -0.088087104 -0.7301149 0.07213673 -0.050648265 -0.23578045 0.6130804 -0.34535375 0.074622124 -0.6208842 -0.0056185964 -0.23277326 -0.6853314 1.0367776 0.12884702 -0.3773584 -0.14428526 0.22400066
1190 -0.42196813 0.71630126 -0.036119264 -0.67369926 0.31774315 0.2111014 -0.78499764 0.48482054 -1.0211185 -0.23067918 -0.10123103 0.4541851 -0.07338869 -0.0669885 -0.14420976 -0.3807612 0.8258052 0.2671066 0.8053952 0.3545971 -0.5118481 0.09124123 -0.12758932 0.010805255 -0.44097427 0.27054784 0.21966289 0.56472695 1.2566892 0.048552096 -0.41189858 0.07574365 0.12037939 0.12118895 0.8753264 -0.10673059 -0.7346521 0.27489683 -0.16404212 0.6006617 -0.04587934 -0.39722657 -0.5838793 -0.18001725 -0.4954216 0.6431743 0.2558237 0.03297218 0.11239371 -0.17637502 0.43282396 -0.13389985 -0.06495183 0.6194858 -0.13009468 0.31155738 0.58405757 0.2015113 -0.019933015 -0.41434163 -0.10333549 0.12157037 0.078635454 0.23586479 0.23922655 0.011389711 0.18918888 0.71184283 -0.11830128 0.17155683 0.34178004 -0.5267145 -0.45608526 -0.4084964 -0.19785543 -0.13986711 -0.54725325 0.3245175 -0.33304432 -0.61821663 -0.0006435055 -0.17872186 -0.15315418 -0.11507568 -0.62238526 0.53012717 0.2993044 -0.2622658 0.7940764 0.043726128 -0.12266787 0.537591 -0.7483685 -0.24708688 0.023890153 0.032321766 0.05368875 -0.19573028 -0.3189362 0.82721204 0.5177964 -0.49410805 -0.0004474565 -0.042447425 -0.2774644 -0.1421185 -0.526603 0.27270862 0.013142873 0.18181095 -0.17805228 -0.03144993 -0.16687644 0.73725975 0.21219535 -0.24724792 -0.028893238 0.16124588 0.12986644 -0.39581302 0.40849805 0.32321143 -0.56381345 0.3167095 0.10037764 -0.61045873 0.033277754 -0.40548047
1338 -0.24277186 -0.15440263 0.13441023 -0.27150065 0.3437696 0.074012585 -0.2715231 0.38391444 -0.58192176 0.46008807 -0.18337238 0.22020735 0.1756119 0.08371733 0.17522222 -0.6172694 -0.26893076 0.040852882 -0.005144702 0.38415107 -0.45164466 0.1949426 0.045695677 0.0077685025 -0.43880454 0.36581954 -0.530274 0.026781157 0.31764993 0.31504837 -0.170123 0.062331334 0.489858 -0.2833475 0.2954428 0.28970468 -0.28968462 -0.06797396 0.08274316 -0.0660124 -0.14330232 0.10948218 -0.47659117 0.30537271 -0.1870834 0.37149635 0.25065076 0.0009176216 0.10038247 -0.17814404 0.4408028 -0.096447505 -0.21445009 0.41789025 -0.29402205 0.35262096 -0.056823496 0.0012943955 0.282952 -0.02006724 -0.17415425 0.22820807 0.5014042 -0.07933167 0.060221147 -0.39269432 -0.25006446 0.2800707 -0.18778963 -0.21883464 0.6107907 0.28393936 -0.04057216 -0.032728795 -0.65430504 -0.16375428 -0.19430616 -0.34965158 -0.42688364 -0.18924311 -0.10273169 -0.32442042 0.041327912 0.28790548 -0.53620934 0.18804891 0.9061388 0.2077847 0.57259935 0.21605927 -0.19180791 0.40295532 -0.26720577 0.02451192 -0.10008643 0.4044048 -0.113352075 -0.08377209 0.3702129 -0.19622372 -0.035418216 -0.15880959 -0.1900291 -0.17976573 0.042716324 0.42561188 -0.23740375 0.20969674 0.09154235 0.23092611 0.13746119 0.34542468 0.3307321 0.3210158 0.12898836 -0.27152225 0.19338867 -0.2782309 -0.30425215 -0.024139488 0.4483738 0.4324882 0.044070788 -0.12375599 0.26644614 -0.0696067 0.2198901 -0.18896815
887 -0.18265754 0.24447115 0.046017706 -0.08435711 0.49835277 -0.0080646165 -0.12165821 0.5272207 0.030160394 -0.01758679 0.13054837 -0.59848785 0.17225613 -0.23081146 -0.06604386 0.10589348 0.27840492 0.55924994 -0.24634056 -0.017947495 -0.11762456 0.21446258 0.349222 0.2892117 -0.29609194 0.14539114 -0.027622819 0.059696853 0.3140229 0.26186007 0.423642 -0.08052058 0.7204394 -0.042773884 0.6671718 -0.15217786 -0.52666825 -0.01864239 0.56861943 -0.033042427 -0.5756605 -0.40997 -0.39591447 0.5016731 0.42160103 0.34119934 0.3767125 0.13868858 0.25600007 -0.15486178 0.64171463 0.6210641 -0.04359982 -0.00992033 -0.6618143 -0.40941083 0.84176284 0.014361924 -0.44365442 -0.14595269 0.5289565 -0.27641258 0.48341158 0.18396282 -0.5301501 0.05060893 1.0028723 0.637594 0.26847342 -0.22389603 0.63301915 -0.08878265 -0.51797235 0.17343874 -0.049014937 -0.10257689 -0.10386432 0.05962802 -0.6996197 -0.34252855 0.62854874 -0.18603638 0.532478 0.4811656 -0.7716013 -0.036391832 0.6839553 0.42101422 1.0289196 0.2687288 -0.8509384 0.07293661 0.11217545 -0.19110684 -0.48237616 0.45466986 0.5937843 -0.38121969 -0.565188 0.078747705 0.050470084 0.2740447 -0.16414002 -0.5783432 -0.20055439 0.41846657 0.31405497 -0.13152859 -0.31955528 -0.7332205 -0.08494713 -0.097635366 -0.018465478 0.39352977 -0.17089136 -0.41280246 0.7967699 -0.18995067 -0.3608867 -0.029718706 0.33991456 -0.0123943845 -0.41002193 0.74234927 0.29864007 0.3003724 0.37370044 -0.041649405
1259 -0.15398729 0.239386 0.068359375 -0.08737293 0.5024371 -0.006561647 -0.14344577 0.5519822 0.03796433 -0.0015774367 0.14119372 -0.5966366 0.16872583 -0.23453769 -0.07053655 0.114168435 0.30927515 0.5301702 -0.26164064 -0.02300471 -0.14175597 0.21601608 0.34044996 0.28916186 -0.3074605 0.15916906 -0.04853446 0.047966562 0.33220366 0.31100306 0.4073649 -0.072437346 0.6855722 -0.068261966 0.69977844 -0.14570229 -0.5080649 -0.011150613 0.60233545 -0.03375721 -0.56722754 -0.44693837 -0.40268677 0.5144679 0.42058218 0.35471213 0.3722017 0.13493559 0.253769 -0.17828137 0.6719862 0.637551 -0.059624583 -0.007736619 -0.63797 -0.3963305 0.8197769 0.038994152 -0.46710676 -0.1432067 0.51060456 -0.32586917 0.4524959 0.1558021 -0.5339879 0.06328927 1.0218282 0.6641671 0.25461227 -0.24681017 0.6363539 -0.101890385 -0.5411953 0.13555726 -0.06330867 -0.13650969 -0.12971327 0.07762926 -0.6889837 -0.3566122 0.6307876 -0.19848768 0.5278714 0.48667908 -0.7754639 -0.032219365 0.7175139 0.39697865 1.0481865 0.25752667 -0.86753434 0.10145051 0.09833226 -0.21000588 -0.5023107 0.42093158 0.5971835 -0.3398383 -0.56961185 0.053302363 0.034227863 0.28495932 -0.1462035 -0.5885014 -0.2232715 0.40893093 0.27250278 -0.11496601 -0.32918236 -0.76246154 -0.116126314 -0.09000536 0.023943173 0.39937884 -0.15221398 -0.4065008 0.8026615 -0.15537521 -0.34511316 -0.038851574 0.35415453 0.021112012 -0.43550393 0.744849 0.31179124 0.29665917 0.3818059 -0.048156444
1061 -0.27884 -0.38512415 0.52170515 -0.014929006 0.4547449 0.34887683 -0.55459315 0.039069086 -0.0023633877 0.054704618 0.20480521 -0.33711788 -0.063761 -0.1524997 -0.041295845 0.15899779 0.49075806 0.20224911 0.31532443 -0.22860596 0.34422463 0.46324825 -0.4665194 0.39247808 -0.035674274 0.718963 -0.42430225 -0.04667 0.28521308 -0.057675626 -0.71498436 0.07412852 0.35459298 -0.43995792 0.5986248 0.29989812 -0.36828822 0.18155518 -0.30746084 0.35534742 -0.14391729 -0.6914839 -0.39418033 0.013182582 0.2427372 0.52365863 -0.1634566 0.2654451 0.94083685 -0.037620887 0.11794043 0.07666842 -0.20772879 -0.24538897 -0.4601951 0.18133944 -0.24367093 -0.65536374 -0.33684605 0.10223669 0.22896056 -0.30695355 0.57378805 0.103650875 -0.2192691 -0.47184318 0.7281609 0.442576 0.12089339 -0.30963293 0.33827808 -0.16949902 -0.014553594 -0.35166344 -0.47586095 0.4542575 -0.7276275 -0.22672294 -0.46427628 -0.1283154 -0.2862363 0.08461092 0.44829535 0.31618264 -0.7061198 0.12180698 0.73404646 -0.20940688 1.0273144 -0.5133929 -0.65346396 0.16508219 -0.49069718 0.38555163 -0.6591455 0.4142175 -0.0084740855 -0.31561166 -0.11795132 0.15872264 0.42521584 0.5791041 -0.109195046 -0.03395346 0.015561131 0.39273345 -0.5485829 0.012138186 0.10337953 -0.5689539 -0.053905956 0.050436676 0.11285175 0.09664011 0.06578374 -0.27363372 0.4632143 0.21129742 -0.109961286 -0.28135374 0.6261932 0.37871894 -0.45483774 -0.038924277 0.23773475 0.74270016 -0.13925147 -0.4375277
95 -0.3750638 -0.023469632 0.4303757 -0.14725424 0.3842707 0.5444258 -0.27093983 0.7920903 -0.69517046 0.13038093 -0.25906643 0.058463186 0.28045008 0.28088754 0.3407741 -0.74205357 -0.24040394 -0.010318251 -0.03747934 -0.1430561 -0.47866628 -0.018891515 -0.0058323373 0.6806146 -0.0767132 0.037578866 -0.30670884 0.23602922 0.6800979 0.3742186 -0.11769993 0.0051120464 0.5874491 -0.03959202 0.34049806 0.36720142 -0.15442955 -0.31010222 0.28959984 0.0019798994 -0.05018775 -0.23222062 -0.33608025 0.2861188 -0.049178462 0.39448217 -0.03463143 0.3401797 0.31962582 -0.30779576 0.3740033 0.14486463 0.14739656 0.23190579 -0.2934926 0.38823557 -0.2979149 -0.10587325 0.21329202 0.21369687 0.057321303 -0.09110551 0.1904795 -0.060158182 -0.019948741 -0.38870162 -0.12531824 0.23528567 -0.22842601 -0.13859272 0.6950389 0.0039647534 0.09688326 -0.3325254 -0.53852665 -0.39203194 -0.25932866 -0.2504434 -0.20982483 -0.16807018 0.24556571 -0.15571432 -0.33376712 -0.07016815 -0.2373632 -0.12164064 0.8218475 0.04959525 0.43819514 -0.2964243 0.08640428 0.35350522 -0.36691144 -0.13029902 -0.1456445 0.4966138 -0.08452723 -0.22432795 0.35972127 -0.00934381 -0.1406407 0.07760621 -0.22642161 -0.06798576 -0.079431966 0.53954405 -0.448246 0.36069354 -0.11249504 0.0055402857 -0.16427909 0.09484102 0.33200213 0.19898368 0.1857598 -0.19048806 0.043091893 -0.061970014 -0.0013385278 -0.1230692 0.38223845 0.46544376 -0.37857133 0.29833212 0.41602662 -0.28635398 0.3729641 -0.2577587
1249 -0.12941636 0.91621846 0.5159231 -0.30256736 -0.011559165 0.21963608 0.20172228 0.5728671 -0.109225266 0.42159283 0.12042554 0.49072826 0.20212504 -0.44421056 0.08483774 -0.3647946 0.6266437 -0.09304526 0.07792002 0.34458032 -0.4095868 -0.0621685 0.032569353 -0.16709548 0.15795998 0.8660475 -0.13952208 0.25258622 0.8795624 0.10585541 0.027251264 0.35778612 1.1755476 0.5352199 0.45576623 0.01536314 -0.4270777 0.51955974 1.3382221 -0.18257114 -0.110197395 0.36340016 -0.34832093 0.34173733 -0.46679938 -0.30343872 0.411995 -0.22695395 0.30066907 0.412124 0.21282601 -0.103792235 -0.36465934 0.3008202 -0.063194685 0.029477594 -0.27819514 -0.36319983 0.056753654 -0.73769766 -0.2753677 0.06664078 0.28712714 0.29928938 0.21265121 0.3360021 -0.27547905 0.090645194 -0.3502939 0.21137993 0.12393692 -0.18985137 -0.5961439 0.65759146 -0.39426747 0.11430793 0.08830901 -0.09630725 -0.75279367 -0.28252488 0.2946587 -0.35391 0.33597448 -0.041906156 -0.27389923 -0.2649655 0.4497162 0.32841203 0.80178416 -0.15196279 -0.66458964 -0.056435417 -0.36804903 -0.2202191 -0.53150135 0.30854633 0.009069918 0.41076273 0.46700987 -0.2433913 0.32755914 -0.0598347 0.22514825 -0.48579708 -0.8310867 0.14810541 -0.175414 -0.4995822 -0.1546653 -0.042347006 0.0069058025 0.11313406 -0.26404467 0.075641595 0.00898814 -0.3329409 0.37091675 0.19894719 -0.22566049 -0.622738 0.49877474 0.03957673 -0.65231264 0.14356726 0.00052641646 -0.41893488 0.10211754 0.07283561
129 -0.23048007 -0.011065369 0.22989689 -0.24465533 0.38549352 0.17005655 -0.22286898 0.53670055 -0.6442724 0.3843942 -0.3067649 0.14284892 0.27450895 0.15009893 0.31747732 -0.5678283 -0.26241907 0.058934506 -0.0029350559 0.22482361 -0.43410972 -0.037546307 -0.08942946 0.15742679 -0.43626747 0.27196586 -0.5526547 0.03710615 0.50691974 0.34222686 -0.12860443 -0.01831761 0.5517564 -0.21139517 0.37921885 0.40973294 -0.3271689 -0.22029105 0.2057014 -0.054676436 -0.14373854 0.003238218 -0.5728545 0.4269817 -0.014771167 0.46473205 0.2806831 0.094247356 0.16719376 -0.18905604 0.3917297 0.035911463 -0.16063295 0.42456537 -0.27290818 0.32479686 0.0018589181 0.05254758 0.1867285 -0.09634387 -0.08314104 0.02981979 0.4369576 0.036817923 0.045032572 -0.41197655 -0.15266116 0.24247093 -0.12075883 -0.2221347 0.70487225 0.13085628 0.14344819 -0.15818766 -0.74179804 -0.2417647 -0.23541853 -0.28064516 -0.36252242 -0.21485496 0.019312752 -0.19537207 -0.03624394 0.3373593 -0.43460768 0.12855527 0.85217494 0.21099037 0.51721495 -0.02222551 0.043032367 0.4625586 -0.26465288 0.013920086 -0.05675275 0.47734103 0.003948884 -0.1080465 0.32639512 -0.17875421 -0.10648709 0.044086408 -0.34958735 -0.17800814 -0.1377916 0.4453337 -0.44373965 0.3357845 0.026944341 0.2749058 0.013623384 0.4193762 0.39753783 0.32462174 0.039239287 -0.26250976 0.18795666 -0.29298818 -0.43847767 -0.28123912 0.51130015 0.46300298 -0.06951323 -0.09302109 0.4038519 -0.3199008 0.22494636 -0.2299844
473 -0.09012886 -0.145255 -0.022952672 -0.18057056 0.046440177 0.0965136 -0.2637819 0.4464034 -0.52920616 0.34630555 0.049777992 0.04542981 0.12514916 0.07120899 0.028865771 -0.45872593 0.016993428 -0.1161186 0.08147622 0.7527518 -0.5564118 0.35475492 -0.02785189 -0.19819613 -0.3846106 0.32674596 -0.30924067 -0.062495705 0.35162982 0.26030776 -0.09171699 0.2015467 0.58280784 -0.5521599 0.3012185 0.3631253 -0.3323659 0.18837726 0.09015823 -0.06938148 -0.24779034 0.26414973 -0.32140967 0.43079054 -0.15990007 0.31159836 0.37174615 -0.22852786 0.21381612 -0.32279778 0.5712695 -0.13831748 -0.31036156 0.4620457 -0.26918823 0.1549983 -0.25670785 -0.25826535 0.07458796 -0.015502799 -0.16956964 0.03411721 0.5990368 -0.15000649 0.10913778 -0.2790679 -0.07197503 0.3360725 -0.12250049 -0.28327712 0.6031544 0.38904035 -0.270179 -0.043364666 -0.6699369 -0.16556351 0.028429445 -0.22137323 -0.49552733 -0.13798912 -0.21979198 -0.10038972 0.12685491 0.40139183 -0.43164775 0.43165982 1.1073959 0.19010277 0.6647765 0.16050543 -0.41856351 0.56484705 -0.47640532 0.08927357 -0.24264199 0.54372996 0.035552513 0.034840744 0.29639602 -0.13385056 0.15894409 -0.15547721 -0.062201038 -0.15153243 -0.046784554 0.39808807 -0.28724313 0.20213154 0.3426691 0.12035226 0.15007436 0.27167013 0.37013137 0.2692655 0.09059953 -0.3462376 0.2507871 -0.23073342 -0.22516842 -0.059766468 0.5352086 0.43739232 0.12452592 -0.13329402 -0.042674076 0.11788565 0.13619083 -0.19885702
1065 -0.29361555 -0.41588256 0.5500394 -0.021222673 0.47809747 0.38910076 -0.56832355 0.028848287 0.038358316 0.051705386 0.16036075 -0.3708579 -0.046948675 -0.14397539 -0.0059957923 0.12344255 0.48038548 0.1929319 0.3052411 -0.22301051 0.35986376 0.47774604 -0.44534254 0.40056384 -0.015703956 0.74536425 -0.43487418 -0.03761526 0.3088661 -0.09796269 -0.6942388 0.008897758 0.380656 -0.47504342 0.6072326 0.2833843 -0.3394683 0.21510921 -0.3112357 0.36938885 -0.13238941 -0.75004166 -0.42704946 0.05949853 0.189547 0.5286723 -0.18055822 0.29118142 0.9757125 0.00041979481 0.094436325 0.07359399 -0.22296008 -0.22889467 -0.4673092 0.23024869 -0.21445724 -0.71235394 -0.32533178 0.09352975 0.30183804 -0.29835257 0.5176433 0.15147541 -0.16735181 -0.46427703 0.70584065 0.4117083 0.18838058 -0.2785012 0.3395262 -0.14382336 -0.01305722 -0.33151037 -0.5456387 0.47431466 -0.73300266 -0.25232646 -0.48242342 -0.16198765 -0.26835838 0.07829821 0.46988237 0.2926369 -0.7101019 0.114409454 0.7517098 -0.17877229 1.0624571 -0.4761485 -0.6457963 0.18839991 -0.49916226 0.3592854 -0.68020654 0.44039425 -0.045246616 -0.33888227 -0.09725085 0.19550996 0.42955694 0.5456948 -0.14750105 -0.01360776 0.009136917 0.40757775 -0.5155027 -0.011357872 0.059367135 -0.5398072 -0.030074412 0.068636164 0.11748233 0.051476102 0.074787535 -0.2783552 0.49764195 0.1816165 -0.09506695 -0.30558273 0.5888916 0.43263865 -0.49828842 -0.0902499 0.25102633 0.7941717 -0.10276332 -0.41462392
2301 -0.13378327 0.89248925 0.4958064 -0.3106272 0.0011074694 0.20336476 0.21313861 0.56279016 -0.12356321 0.421886 0.12173716 0.4708545 0.1980541 -0.43412632 0.091978945 -0.3568731 0.62235206 -0.11625898 0.06702832 0.3487059 -0.39954397 -0.04084513 0.05616035 -0.16518998 0.16281317 0.8822813 -0.14226961 0.26145858 0.87500626 0.113972455 0.04421206 0.35742414 1.1901351 0.5230292 0.47763062 0.050684832 -0.41638517 0.51954406 1.3575749 -0.16029567 -0.089914344 0.39114663 -0.36060682 0.3407021 -0.47935143 -0.32437903 0.4007922 -0.21147309 0.28882405 0.4302392 0.22308624 -0.1290808 -0.3675473 0.27246118 -0.082155295 0.04078785 -0.29204968 -0.35567993 0.07900626 -0.75557417 -0.28194794 0.056359906 0.27104262 0.32464603 0.19847326 0.33376256 -0.2991878 0.083152406 -0.3694199 0.21872698 0.12414462 -0.17210627 -0.58863974 0.7011114 -0.40721324 0.11123395 0.079525866 -0.11632389 -0.75534207 -0.28584322 0.28860208 -0.35539314 0.33982953 -0.05874619 -0.2582175 -0.261109 0.46010375 0.33921355 0.8272236 -0.14849454 -0.6132495 -0.076264285 -0.35837644 -0.21357726 -0.5165584 0.3169605 -0.040558577 0.4190006 0.4543604 -0.27693418 0.31363654 -0.07253273 0.23178706 -0.49220294 -0.8337575 0.15588185 -0.1787863 -0.49925166 -0.18525317 -0.010583008 0.026982762 0.10300886 -0.25946912 0.084918655 0.016582405 -0.32673794 0.38036636 0.16728023 -0.23295003 -0.6305034 0.52230716 0.03790364 -0.6679799 0.15015726 0.0009699589 -0.4042177 0.12105791 0.029131731
1959 -0.35338998 -0.10187953 0.4678048 -0.10821702 0.33764064 0.216757 -0.24506693 0.6709011 -0.602545 0.34473035 -0.15793535 0.14906143 0.08804649 0.07943827 0.32122198 -0.5946163 -0.14850065 -0.049134772 -0.045185342 -0.032972585 -0.3362615 -0.17580137 -0.057485044 0.54714245 -0.22938105 0.40542862 -0.38175383 -0.06717471 0.5332779 0.4029716 -0.12923773 0.06317313 0.51405275 -0.07448498 0.4116057 0.32462263 -0.16584036 -0.2861189 0.5268034 -0.07967062 -0.06993974 -0.3194463 -0.4595883 0.42080775 -0.021181896 0.26400247 0.22171378 0.12575004 0.2664004 -0.26132777 0.5203399 -0.03512787 -0.103249684 0.26116642 -0.2324522 0.28494135 -0.07023368 0.060814142 0.24059404 -0.0007819149 -0.22325571 0.05351232 0.3601453 0.17446718 0.01386637 -0.48608756 -0.014667705 0.17654303 -0.21249187 -0.14087726 0.5536904 -0.25442573 0.14125237 -0.09345229 -0.5925043 -0.36430693 -0.41699457 -0.33461028 -0.33086485 -0.20784967 0.038904592 -0.32821548 -0.022807833 0.14545645 -0.32927957 -0.17098713 0.8178809 0.15368053 0.6414003 -0.17511018 0.06538793 0.3430892 -0.3014851 0.08837219 -0.008144153 0.36983734 -0.0944218 0.011355929 0.44077972 -0.1258419 0.09882073 -0.073248066 -0.3784885 -0.069491126 -0.3267556 0.52835435 -0.6691389 0.37902734 -0.14497557 0.20530754 -0.22805375 0.1296807 0.09863711 0.43303388 0.2677132 -0.16177318 0.07419686 -0.051789813 -0.12539233 -0.2198567 0.4264767 0.5075043 -0.451905 0.24285689 0.3021928 -0.23225862 0.15913269 -0.24464515
664 -0.13801679 0.8765422 0.5011697 -0.32054555 0.0060692616 0.22200109 0.21577838 0.57095724 -0.13379385 0.43827042 0.12241022 0.44708806 0.19131392 -0.42398307 0.093121454 -0.3773616 0.6503524 -0.101233914 0.077138774 0.34050035 -0.4157477 -0.035592664 0.042733435 -0.1743988 0.18053481 0.884147 -0.13951926 0.2799569 0.9003308 0.09934002 0.03943041 0.38182154 1.1986377 0.5152116 0.47014236 0.041413046 -0.408848 0.5293371 1.3260956 -0.15345639 -0.09940954 0.39072642 -0.359738 0.35003874 -0.47158745 -0.31739384 0.41386837 -0.22265455 0.30128503 0.4137145 0.2265638 -0.12375558 -0.38223195 0.26041332 -0.073454656 0.055277336 -0.2823036 -0.38387015 0.066160254 -0.7599698 -0.27893573 0.07732524 0.2745074 0.3216908 0.20870145 0.3285009 -0.2852778 0.07771961 -0.3701022 0.22423545 0.1310271 -0.16868062 -0.57914287 0.66890377 -0.40242484 0.106032155 0.11041672 -0.13540792 -0.7632684 -0.2513751 0.2987944 -0.35572755 0.35808542 -0.05305334 -0.2606986 -0.27105197 0.4438902 0.3246408 0.8003081 -0.14780347 -0.63887477 -0.08303697 -0.34902525 -0.23230834 -0.51758575 0.3184561 -0.02348686 0.39220414 0.46578595 -0.2630288 0.31281096 -0.08062022 0.22982885 -0.4801929 -0.8271172 0.16093256 -0.20376155 -0.5129844 -0.17720225 0.01610267 0.010110292 0.11280142 -0.2604296 0.08562851 0.016897889 -0.33194217 0.3587614 0.18583082 -0.2330803 -0.60038894 0.5006479 0.027821753 -0.6369408 0.13812523 -0.0008967401 -0.3945626 0.09450791 0.020917498
1764 -0.34459433 0.17877448 0.40777227 0.05569992 -0.001926001 0.9499891 -0.3462156 0.44547135 -0.3220853 0.39752266 0.6057533 0.45277885 0.09433892 -0.3742611 0.17651072 -0.23304106 0.79189557 -0.039089028 0.001389172 0.17134692 -0.20171691 0.036980994 -0.5074513 0.45968688 0.44788322 0.5360585 -0.1456868 0.47659215 0.704627 -0.07170932 0.017453346 -0.007964402 0.6536862 -0.001559136 0.09663494 0.030756805 -0.5315846 0.41283602 0.5987353 -0.22062828 -0.41758746 -0.14239252 -0.13575692 0.28092 -0.079555176 0.27784792 0.10321247 0.24668662 0.41362113 0.22787534 -0.59247446 0.6888022 -0.15912318 -0.5797074 -0.18049024 -0.120127864 -0.45164222 -0.6068804 0.14175405 -0.8808571 0.09291025 0.016903749 0.089536816 0.93261486 0.09151708 -0.4222142 0.11694961 -0.12374209 -0.540834 -0.030735953 -0.09378868 -0.51286393 -0.3044048 -0.29718545 -0.23881818 0.45295307 -0.100225344 0.11672527 -0.22624533 -0.24762176 -0.08342025 -0.11185933 -0.16162251 0.62298447 -0.5230023 -0.0053626713 0.5565248 0.044629082 0.57906175 -0.45922804 -0.46467173 0.5650331 -0.44018674 -0.41198787 -0.30501795 0.5132281 0.39298838 0.11037093 0.16048929 0.046134006 0.7781568 0.065366276 -0.31852314 0.17464018 -0.6137701 0.5470436 -0.6116421 -0.2440396 0.048001856 -0.3646335 0.25786975 0.048424374 -0.54763204 0.578994 0.4670354 -0.2335086 1.1931481 -0.1270461 -0.0843802 0.23132692 -0.33036023 0.5374626 -0.81229424 -0.11017272 0.37492585 0.24773997 -0.07154915 -0.2501499
1039 -0.07714108 -0.24240728 0.5849601 -0.13925879 0.30692554 0.6427356 -0.48851895 -0.30907223 -0.121838145 0.44427493 -0.001584899 0.19510947 0.5030455 -0.20066695 0.13171901 -0.090547174 0.17588097 0.9360834 -0.5700346 -0.29951409 -0.53746194 0.068071954 -0.46445826 0.20627084 -0.09388192 0.44482514 0.31538665 0.48295757 -0.17258379 0.7998517 -0.31541643 -0.47670677 0.4029405 -0.039541624 0.6841419 0.3901561 -0.88127553 -0.008069259 -0.17148152 0.46609858 -0.41729227 -0.44420806 0.2538671 0.43340048 -0.00081622537 0.09301869 -0.5343962 0.0026471205 0.61341804 0.17787647 -0.29811847 0.33320308 -0.31766763 0.046737976 -0.022431353 -0.50649095 0.38172343 -0.85621023 -0.32880992 0.40415266 0.38082248 0.18712237 0.012723071 0.08608045 -0.13182785 -0.3535487 -0.20161442 0.5366088 -0.44719 -0.5055751 0.4599778 0.0669239 -0.27134573 -0.556528 -0.3088807 0.0028828045 -0.5351739 0.24292028 -0.6962151 -0.23842037 -0.39215794 -0.19189848 0.017896732 0.60003185 -1.0980444 0.008867609 0.47219795 0.22916216 0.41795978 -0.3132063 -0.71074164 0.35037243 -0.30929065 0.4276989 0.16750358 0.66870797 0.15583646 -0.37509468 0.06953926 0.36777836 -0.026831971 0.31098953 -0.75353044 -0.21744147 0.7133458 -0.09678484 0.5885446 0.04912735 0.2841116 -1.1947658 -0.18892784 -0.22822182 -0.36540103 0.4215676 0.50907034 -0.6623835 0.72085106 0.27490744 0.25640228 0.07345424 0.16168171 0.028585384 -0.42429712 0.52389264 0.3592772 0.48535663 0.2049943 0.1537132
415 -0.342268 0.4433404 0.4991612 -0.47304147 0.48748955 0.337392 -0.33261812 0.30937013 -0.45223764 0.16892889 0.014728696 0.42478633 0.38966686 -0.16808663 0.1201673 -0.25907823 0.42567208 0.30964357 0.025586925 0.3059935 -0.4355546 0.20877771 -0.17635815 0.24567376 -0.16592923 0.518293 -0.11346385 0.36725935 0.57841456 0.16161536 -0.20396626 0.066805564 0.7980673 0.028851142 0.48175085 0.31234896 -0.76203066 0.15040876 0.41581288 0.2574285 -0.56079113 -0.24244703 -0.4764147 0.2305964 -0.23906347 0.38345376 0.06942215 0.06849348 0.51966196 0.10268842 0.09939251 0.07149879 -0.025388943 0.19498743 -0.40337306 -0.05677679 0.13424073 -0.44660076 0.19704597 -0.026435005 0.20112048 0.044734042 0.5456947 0.29410276 -0.035955384 -0.20694971 -0.033840943 0.50639576 -0.08588918 -0.11454222 0.4323366 -0.03563156 -0.28708354 -0.106188014 -0.44435608 0.15286493 -0.65358096 0.02666151 -0.62747216 -0.51334566 -0.12988678 -0.19906613 0.25328085 0.053393174 -0.7367321 0.18941632 0.6561779 0.28168076 0.76617986 -0.1565518 -0.6720654 0.2806011 -0.39245063 0.12815449 -0.25687653 0.48147747 0.23798066 -0.027585398 -0.047521137 0.27939254 0.33661634 0.15814957 -0.27541178 -0.30030972 -0.37407577 0.26051977 -0.20004 -0.004974034 0.06579312 -0.41157073 0.07043667 -0.09484943 -0.25845534 0.4355485 0.085497394 -0.51131326 0.61419237 -0.12426669 -0.14063948 -0.2916722 0.39391097 0.14857453 -0.70322853 0.39495248 0.17329672 0.027149126 0.044739272 -0.075251155
1759 0.10592929 0.29931253 0.19693962 -0.40836918 0.5850964 -0.11042605 -0.08520433 0.6174374 -0.42087036 0.08383831 0.022248609 -0.038105562 0.72329766 0.009736008 0.26048037 -0.5840742 -0.22145659 0.46667525 -0.3668916 0.39945883 -0.77994794 0.7789576 0.5621965 0.09520881 -0.6839477 0.21186946 0.53810376 -0.12609833 0.5944953 0.29532763 -0.4917812 0.31264699 0.925237 -0.049239006 0.19037831 0.33538917 -0.55714136 -0.105744354 0.040810462 0.69110334 -0.19193287 -0.15098076 -0.11622528 -0.04360679 -0.29482546 0.38263923 -0.061961588 -0.12741219 0.111140095 -0.20005639 -0.041296173 -0.046849098 0.5137038 0.21676946 -0.19574815 -0.070303395 0.044200893 -0.06825687 -0.2785884 0.79027474 0.55835414 0.14415912 0.3181742 -0.37506452 -0.5304021 -0.3513533 -0.287188 0.81920075 -0.6150917 -0.10844844 0.6856007 0.18758659 0.09862101 0.22243126 -0.39280894 0.044024955 -0.94433063 0.042351495 -1.0897157 -0.27847275 -0.06266898 -0.16781498 0.26579314 -0.3552776 -0.40118307 -0.11901907 0.540643 0.48859578 0.9837823 -0.3423902 -0.37971088 0.14622594 -0.30088645 0.5935908 0.016910817 0.4541169 0.23034601 0.30128208 -0.2547831 0.32375342 -0.08160278 0.1513651 -0.028420364 -0.6886558 0.19467112 0.036894374 0.7967926 0.2046716 0.019886062 -0.8279605 0.10534071 -0.3162695 0.0066863005 0.21483257 0.03839211 -0.23493373 -0.16733494 -0.1584765 -0.42998302 0.23690344 0.17638019 -0.03586448 -0.44999173 0.8877102 0.001993598 0.27097797 0.25296336 0.26636386
1103 -0.011319837 1.1657802 0.28012767 0.13863923 -0.12139958 -0.051857688 -0.015090772 0.20225736 -0.35041496 0.719461 -0.22332925 0.53903735 0.2988385 0.1897696 -0.13142613 -0.2571399 0.7607698 0.064321324 0.3944415 0.19250938 -0.7442889 0.078341626 0.48903754 0.394718 0.22145897 0.36639503 0.36039734 0.81706804 0.65796196 0.37069398 -0.019492105 0.32124102 0.7636004 0.14746422 0.6097601 0.024704082 -0.5456668 0.31647044 0.8560376 0.08292421 -0.47698858 -0.047477525 -0.31597462 0.045962434 -0.37747896 0.39140704 0.2643703 0.29071045 -0.12552124 -0.09711132 0.69250554 0.711704 0.1547986 0.074165456 -0.31428912 0.11827382 0.059743658 -0.026495524 0.6486773 -0.35730833 -0.31378946 -0.0005081189 0.6653941 -0.2915239 0.1477712 0.032341983 0.06419436 0.50231034 -0.3744638 -0.05370863 0.02873206 0.0834388 0.07082533 -0.39103422 -0.30084208 0.15594319 -0.07478157 0.059020087 -0.28585127 -0.720618 0.29949582 -0.1468869 -0.17935166 0.12335213 -0.3798636 -0.015189284 0.28702545 0.3118307 0.85753834 -0.07683323 -1.2065691 -0.15420571 -0.12511426 -0.25134304 -0.27847135 0.053880297 0.42617226 0.47042724 0.15490845 0.14115633 0.29459715 0.16639678 0.038094204 -0.51475936 -0.39930618 0.5579848 0.05163027 0.55258304 0.39722311 -0.5865417 0.15528637 0.14196937 0.33076763 0.398905 0.20287828 -0.6109683 -0.12052389 -0.36816 -0.21777818 0.3128739 0.4518532 0.07716292 -0.6397095 0.31526786 0.1817201 -0.0549015 0.34253666 -0.31105843
1041 -0.08961527 -0.21589927 0.5952621 -0.14932142 0.32324448 0.6620529 -0.4907415 -0.3322364 -0.117184564 0.41475192 -0.0072981333 0.17573754 0.4961175 -0.2104346 0.15628928 -0.094818056 0.20911364 0.94293934 -0.562896 -0.28597388 -0.56756246 0.059213486 -0.44517398 0.19338821 -0.09974185 0.45929044 0.30043402 0.49971935 -0.18097 0.77689683 -0.3284818 -0.50728667 0.4235532 -0.0135510005 0.7265405 0.40066746 -0.8820995 -0.016965393 -0.19068682 0.48893258 -0.39391932 -0.45722422 0.26546013 0.42940518 -0.0068085873 0.10441544 -0.528133 0.0007408603 0.6141931 0.18025175 -0.28978914 0.32841313 -0.300346 -0.002363001 -0.02288182 -0.4964274 0.3978714 -0.8559618 -0.3253547 0.38086668 0.39319873 0.19294214 -0.02808091 0.10117627 -0.09851667 -0.36291817 -0.2333083 0.5056925 -0.4719831 -0.48402798 0.45471877 0.057689685 -0.27957252 -0.5464066 -0.28018275 0.0072750207 -0.5327066 0.2488182 -0.6831293 -0.24336964 -0.36413413 -0.22400433 0.032688793 0.58789515 -1.0752381 0.023327267 0.45561662 0.20781517 0.42004246 -0.26900113 -0.6722015 0.33959615 -0.31166127 0.39902467 0.18127467 0.6875866 0.14897701 -0.3790823 0.060906388 0.36311033 0.01801862 0.30998385 -0.7418428 -0.19454007 0.7131365 -0.111327544 0.57412475 0.033804394 0.24908495 -1.157892 -0.16548213 -0.27113023 -0.3891047 0.43515855 0.5084402 -0.6910336 0.6848309 0.2790447 0.27785638 0.038532652 0.15819725 0.020534547 -0.41859972 0.535697 0.3588125 0.46112183 0.19717743 0.15020265
1002 -0.28815895 0.37231067 0.4053993 -0.38779742 0.40680936 0.27216733 -0.29369146 0.262782 -0.3960021 0.13643736 -0.0016704913 0.35352844 0.33581978 -0.13676813 0.09554517 -0.23579308 0.34546235 0.249701 0.03007898 0.23884536 -0.35646752 0.17004839 -0.14589067 0.21093298 -0.12840371 0.43507183 -0.090228215 0.30050263 0.5110437 0.11762136 -0.17468461 0.06676723 0.6693876 0.011160982 0.4077121 0.2619482 -0.62121284 0.12882075 0.3507983 0.21203205 -0.45256367 -0.2002057 -0.40619627 0.19240049 -0.21950386 0.3322511 0.047737896 0.070742846 0.44840083 0.0734926 0.09199603 0.054960925 -0.030607158 0.17914487 -0.31219408 -0.021910729 0.1072782 -0.37577873 0.17545095 -0.032868415 0.16409014 0.027211199 0.45082197 0.2532049 -0.030752884 -0.17323121 -0.042887267 0.4066771 -0.06955871 -0.07388085 0.37667334 -0.015074558 -0.23828241 -0.09073797 -0.3880274 0.11260711 -0.54099196 0.0020039473 -0.5215676 -0.41596046 -0.11165654 -0.15883224 0.20038173 0.02806048 -0.61066 0.1524656 0.54826725 0.22309254 0.6404581 -0.14443721 -0.5429693 0.23077631 -0.34966648 0.096993506 -0.21606757 0.38176292 0.2025242 -0.011006727 -0.01405116 0.21876806 0.29743192 0.14379835 -0.22667804 -0.2510832 -0.3069392 0.24555004 -0.1771154 0.006645071 0.07009293 -0.32258192 0.051714238 -0.06157133 -0.19738628 0.3449723 0.063767776 -0.3999463 0.49052864 -0.106389664 -0.12273401 -0.23730667 0.33818802 0.1332775 -0.59432775 0.32162216 0.14820133 0.013566356 0.014210705 -0.07206179
