2639 128
163 0.1787846 -0.14410208 0.2901581 0.096526586 -0.09472482 0.330755 0.014262679 -0.3498562 -0.04502493 0.0056467815 -0.0899943 -0.08370419 0.03353134 0.49783406 -0.08142795 -0.2493711 -0.42979577 0.17083833 0.36652434 0.26070252 0.28982583 0.049139537 -0.09846078 -0.07252253 -0.0065839323 0.0073705637 -0.12099516 0.18340142 0.19397064 -0.24360178 0.07418788 -0.078358434 0.30897447 -0.3184543 -0.24303758 0.1589315 -0.4247297 0.10125663 -0.3538241 0.18434829 0.03906489 -0.060552664 0.45121008 0.79063135 0.3728395 0.14014101 0.16731808 -0.40529227 -0.061958436 0.20199667 0.25279528 -0.3155795 0.1554507 -0.015792605 0.2665989 0.0016308153 0.027463699 0.6772404 0.024474775 -0.03401865 -0.31358957 0.23150128 0.24894856 -0.07456727 -0.4004564 0.052233376 -0.08377516 0.025404219 0.37882984 -0.17856158 -0.03744341 -0.2964503 0.49103546 0.1551835 -0.298309 -0.5040069 0.09014811 -0.30243045 0.023101974 -0.003319477 0.053062387 -0.28511873 -0.026862225 -0.07186288 -0.21042138 0.16832924 -0.17607248 0.17949109 0.04490399 0.009106068 0.008479676 -0.5155856 -0.32922837 0.41035113 -0.07444784 -0.23265567 0.34180716 0.20332132 -0.1271536 -0.10767852 0.46369895 -0.15820916 -0.03520229 0.5103791 0.20818345 -0.2580073 -0.15143576 -0.1942139 0.05400723 0.22109213 -0.1631552 -0.4100167 -0.12451316 0.2213618 0.54220647 0.26900232 -0.19795255 0.18563259 0.055333942 0.19028455 -0.30017278 -0.10661597 0.17747913 0.32505995 0.11041424 0.095869735 -0.20829587 -0.08315323
747 -0.24028145 -0.17040025 -0.22049747 -0.057188958 0.30344534 -0.18553369 -0.035474986 -0.2736882 -0.1390773 0.11866751 0.05617688 -0.15820675 0.33630273 0.51285386 0.19104496 -0.62687665 0.21871963 -0.32233706 -0.017721 -0.4307402 -0.03786847 0.05499158 -0.15270187 0.16528893 0.0659415 0.116206065 -0.1563156 -0.21825711 0.01979105 0.042840548 -0.06798896 0.19223672 0.42975378 0.28246558 0.0814758 0.41900766 -0.42007178 0.7132877 -0.2703888 0.053438343 -0.038572058 -0.16306399 0.11944659 0.43896282 0.23420215 0.358073 0.024120206 0.14314254 -0.28059176 -0.056351528 0.12871172 -0.2522426 -0.07922546 0.09696603 0.22658613 0.21098806 0.092336334 0.2249876 0.12598406 -0.23005483 -0.3434259 -0.120576605 -0.3981932 -0.54571086 -0.27341247 0.3202732 0.8775318 -0.18711786 0.046871625 -0.54848427 -0.051940653 0.24015594 0.29806122 0.2928147 -0.012696446 -0.040179286 0.29503208 -0.1146653 -0.21455543 0.2887948 0.20966473 -0.37963644 -0.3438307 0.032505505 -0.33478868 0.22968148 -0.12736037 -0.08052932 -0.29654384 0.19247755 0.1525745 -0.18080805 0.409814 0.22263643 0.16024812 -0.07741522 0.23084216 -0.52885807 -0.10928491 -0.26857308 0.020364396 -0.225325 -0.19306107 0.31919882 0.27114084 -0.1042524 0.34668565 -0.33829412 -0.2818825 0.037968457 -0.6673534 -0.45777968 0.07379764 -0.20830376 0.29421464 -0.16647418 -0.011555029 0.011446805 0.008863749 0.2123487 -0.25336254 -0.13381526 0.46297428 0.25100273 -0.417349 0.14248101 0.5300852 0.07429463
565 0.009690936 0.52108777 0.120353304 0.29635325 0.7832947 0.22071949 0.49875703 -0.3104654 -0.36528364 -0.059722718 -0.23255193 -0.37015784 0.015250009 0.8193881 0.06806632 -0.43048242 -0.035783414 -0.23957604 0.1860265 0.07078148 0.33087987 -0.05596635 -0.509947 0.29633245 -0.08542746 -0.102097936 -0.41698632 -0.24491614 -0.2095873 -0.63096744 0.3255255 0.29527205 0.3077712 0.036448717 -0.31639996 0.27368575 -0.11358277 -0.09499514 -0.20679906 0.07116282 0.28071818 -0.27701017 0.5749609 0.24412382 0.28103605 -0.060640506 0.08896026 0.17262103 0.05524763 -0.24833892 0.21332467 0.13034604 -0.14158398 0.26074 -0.26723436 0.42551744 -0.036280703 0.13664198 0.11032096 0.11757141 -0.20098339 -0.11082262 -0.5065977 -0.0340958 -0.36472452 0.26966286 0.47486508 0.039712884 -0.25963965 -0.08641155 0.04131865 0.18799672 0.09621053 0.38335472 -0.27454588 -0.53242 0.29112843 -0.48349226 -0.27785763 -0.057802685 0.10400152 -0.18456852 -0.1981819 0.16003792 -0.53316015 -0.0447152 0.03206523 0.14826691 -0.10173003 -0.09391257 0.09846641 -0.20524527 0.20902948 0.12747929 0.1965049 -0.21685576 0.13642597 0.43326026 0.25415224 0.4908735 0.20884798 -0.21737951 -0.30590498 0.05184863 -0.028502136 -0.20099258 0.41192183 0.25073233 -0.18774557 -0.03183204 0.24885862 -0.2826924 0.23959304 -0.16136502 0.29958642 0.0065181158 0.00072852697 -0.13915002 0.26005036 -0.039827753 -0.1526126 -0.10157294 -0.26028872 -0.09074035 0.15925255 0.09817891 0.25752643 -0.14677487
427 -0.3070237 0.3972188 -0.27112865 0.0016149533 0.30057213 -0.088146605 0.489437 -0.0706492 -0.03858075 0.22439165 0.1693352 -0.30086893 0.25431988 0.23721789 0.040661298 -0.83753055 -0.5678244 0.4417823 0.030788157 -0.33629197 0.465801 0.28090736 0.050582785 0.18643364 0.1804138 0.05944673 -0.43779317 -0.055188507 0.27801493 -0.16364717 -0.034547877 -0.15185693 0.07483922 -0.22977906 0.13816588 -0.40854096 -0.12656945 0.25629225 -0.4221649 0.2366956 0.22045468 -0.02101746 0.05002652 -0.12092618 0.03664643 0.26275402 -0.08239893 0.19280906 -0.5457282 0.010136001 0.34642354 0.13104334 0.11908541 0.5233857 0.3613212 0.037525065 0.0059203897 0.22921118 0.024770815 -0.36641395 -0.32295573 0.09112887 -0.25899312 -0.5485279 -0.4615471 0.24815382 0.042291507 -0.11267335 0.28832892 -0.16134994 -0.0795504 0.3179594 0.14337645 0.0509363 -0.15391725 0.06568271 0.3847865 -0.19148684 -0.15073085 0.32499936 0.3172779 -0.1956259 -0.43919122 0.3090996 -0.18240725 0.5044741 -0.5049562 0.20675647 -0.4529913 0.20999776 -0.15274228 0.105460115 0.113421194 0.20587844 0.30654427 0.120081455 0.15896459 -0.10513146 0.2464912 -0.04194427 0.33597657 -0.04122546 0.1054242 0.47455883 0.41909105 -0.3627468 0.16055457 -0.1396275 -0.14547753 -0.124078624 -0.33206072 -0.512243 -0.046900455 -0.24567729 0.13764782 0.18295495 -0.07355844 0.27263898 -0.12272358 0.18750337 -0.3360904 0.10016459 0.3854453 0.034313634 -0.033598214 -0.14723992 0.5673024 -0.073580585
611 -0.8361144 0.47552985 -0.31015387 -0.17552295 0.061671827 0.24083106 -0.13996951 -0.5678105 -0.1060309 0.21794096 -0.42483225 -0.325192 0.40058687 0.43455276 0.5222131 -0.28330573 0.1808492 -0.3105817 -0.091101825 0.1301533 0.26680955 -0.2144825 0.18871962 0.21051311 -0.48829052 0.44469997 -1.1259139 0.053772654 0.14464875 -0.2632866 0.028493444 0.026422217 -0.081663765 0.022476682 -0.22841656 0.17938183 -0.17411241 0.1726094 -0.21350977 -0.39697927 -0.4146555 0.037046812 0.27528805 0.38210863 -0.35555547 0.070658535 -0.35619196 0.526553 -0.19592713 0.2847367 0.3902481 0.037314933 -0.21749306 -0.13979205 0.17071174 -0.22898856 0.3245879 -0.037268687 0.14884996 -0.32977408 0.21952268 -0.14901173 0.050987806 -0.29720506 -0.3976219 0.5482423 0.38963822 0.20605464 0.16631266 0.095647074 -0.17885794 0.25279778 0.020525897 0.18517798 -0.064571165 0.0044717295 0.218255 -0.5747361 -0.028023154 -0.11009683 0.41123557 -0.22195026 -0.20946321 -0.121130146 -0.076137975 0.50531936 0.020026973 0.16521259 -0.40329236 -0.016696539 -0.25532523 -0.4069076 0.24341135 0.24488857 0.006681513 0.47169557 0.49778885 -0.29434004 0.22737022 -0.0018106964 0.09539476 -0.20352574 -0.0140635455 0.21173261 0.41994894 -0.15964966 0.056365117 -0.44432995 0.00214891 -0.031990595 0.14330378 -0.12189409 0.03956181 -0.5229036 0.56025165 -0.20330317 0.056698587 -0.081365496 0.11424974 0.076718025 -0.15666598 -0.031643733 0.19165334 0.1549873 -0.10509988 0.36406055 0.2300123 -0.24926385
430 -0.09586722 0.015995953 0.460344 0.44094086 0.3484619 0.035596937 0.23391142 0.25958806 -0.19475448 0.20840806 0.005851326 0.38999465 -0.30928394 0.03057131 -0.21522175 -0.2688538 -0.5009716 -0.14096366 0.1314107 0.6097448 0.29595235 0.2739288 -0.30311394 0.49598852 -0.1994436 -0.17134157 -0.686609 -0.15509637 -0.017826704 0.038778048 -0.17575273 0.12596747 0.4202414 0.3144029 -0.0688066 -0.04381787 0.061346307 0.33605203 -0.71317077 -0.10578279 -0.28645378 -0.17466488 -0.23660581 0.33858502 0.03532992 0.28525198 -0.15217559 0.3206242 -0.2933027 0.32504866 0.21616887 -0.37519905 0.4177933 -0.115950845 0.56097895 -0.26439115 0.5178481 -0.37768647 -0.3519124 -0.069771394 -0.11205669 0.55033785 0.041650224 -0.2821162 -0.36128277 0.3906413 0.34235933 -0.041000202 -0.029780898 0.21943451 0.29339594 -0.12925328 -0.14328125 0.16770321 -0.30655974 -0.21442923 0.031928547 0.054125097 0.03844071 0.46423048 0.060695764 -0.020687245 -0.6527063 0.021011014 -0.12854236 0.3112672 0.11534824 0.24939129 -0.39142585 0.25481132 -0.11110932 0.006208128 0.021829989 0.60351396 -0.23012456 -0.26639277 0.22522894 0.5846794 0.22974944 0.04533961 -0.07700045 -0.06795924 -0.13363549 0.67761546 0.30128714 0.11819097 0.35828343 0.17472918 -0.12911081 0.004852279 -0.2665406 -0.23448724 -0.14986223 -0.05715036 0.3218437 -0.08158647 0.01554973 0.06700646 -0.47655138 0.49292043 -0.099954665 0.058534354 -0.3218257 0.3097097 0.34138986 0.21934037 -0.17552634 -0.08624687
552 -0.17519915 0.72386706 0.1894692 0.2694233 0.40262783 -0.0659438 0.2888043 -0.31112206 -0.08547233 -0.039419167 -0.13132532 -0.10843601 0.03082683 0.8485898 0.16276023 -0.71682376 -0.10602055 -0.42098406 0.18589334 0.1590525 -0.038383756 -0.15940681 -0.54711884 0.22149262 0.021550056 -0.08417579 -0.36267066 -0.13826543 -0.21807632 -0.33865294 0.2442993 0.23910281 0.503448 0.27869076 -0.063987166 0.24857569 0.023097523 0.41660756 -0.42844635 0.14828336 0.46399727 0.0342625 0.4011775 0.5325662 0.42100123 0.14795229 0.22747123 0.35421792 -0.06900905 -0.009669726 -0.0061379354 0.099447444 0.15439272 0.24844207 -0.017747585 0.36877218 -0.120345786 0.23035614 0.68035585 -0.5021112 -0.18897128 -0.091117494 -0.23835596 0.20296048 -0.33855557 0.09942104 0.54237914 -0.09413332 -0.44220352 -0.23215364 -0.55897164 0.22578679 -0.08831473 0.1828312 -0.21811788 -0.5879201 0.18984821 -0.5589223 -0.24716616 0.16785546 0.29985338 0.11732308 -0.41460618 0.26519853 -0.5506696 0.18844453 0.18319032 0.20859073 -0.22212534 0.03888286 -0.1165546 -0.23899724 -0.20220208 0.03335926 0.06617386 0.07836075 0.08356815 0.3152163 -0.052852385 0.5525819 0.4498587 -0.0794776 -0.14657407 -0.14114325 -0.5480319 -0.03918828 0.58150476 0.04872884 -0.16879296 0.13497368 0.24704283 -0.07824632 0.16793086 0.06403146 0.43729082 -0.086446345 0.21737146 0.44232777 0.030871857 -0.099033214 0.16254897 -0.073867634 -0.47235382 -0.049737725 0.00611613 -0.219018 0.022273127 0.2817768
638 -0.32844222 -0.17213328 0.28701085 -0.03333692 0.5102415 -0.0017205386 0.058298633 0.11964015 -0.19626504 0.099848986 -0.112244345 0.23172261 -0.2317416 0.5556291 -0.19853675 -0.32799298 0.28127164 -0.24676149 -0.19297746 0.22837423 0.19778746 -0.088121586 -0.27892828 0.07340904 -0.10444809 0.39896324 -0.22055854 -0.18477537 -0.15523629 0.22734846 -0.29446515 -0.04865189 0.35725662 0.41256195 -0.5783058 0.40713617 -0.30878356 0.7132768 -0.33969653 -0.2690416 -0.24124245 -0.32388037 0.002085797 0.30901605 -0.100273825 -0.22536154 0.00859474 -0.0032851964 -0.0020293246 0.33239684 0.43830776 0.124920525 0.11607505 0.38433293 -0.1056773 0.32998434 -0.25610822 0.18954691 0.07857904 -0.26027498 -0.15944226 0.5234004 0.0029947227 -0.28526017 -0.42333072 0.47695717 -0.072202876 -0.09181527 -0.44656503 0.14286418 0.1382643 0.06277708 0.2288135 -0.36260292 -0.002989393 -0.072529934 0.12880592 -0.1851742 -0.23255454 0.30921024 0.022062685 -0.058671713 -0.5278333 0.03867232 -0.31004855 0.14401484 0.49792433 0.121486604 -0.07651651 0.26473337 0.41413864 -0.068930306 -0.08163313 0.45361796 0.13947815 0.13170175 0.43890852 0.5729672 0.17075714 0.36248195 0.1534685 -0.21794704 0.10593346 0.21011999 0.46591073 0.05495142 0.3776468 0.2852383 0.027381686 0.57415694 -0.3527595 -0.2541392 0.5231285 0.54666746 0.18996182 0.27552 -0.059624005 -0.06314663 -0.17906359 0.068886 0.26710737 -0.42421347 0.1346028 0.5181932 0.13422611 -0.10326862 0.26331592 0.1331915
74 -0.2142857 0.3733283 0.122981966 0.094174236 -0.044198047 -0.14470218 0.10988927 -0.22982553 0.07452111 0.21114703 -0.390357 0.021849282 0.169134 0.09549058 -0.40488598 -0.5299778 -0.1570765 0.35448733 -0.43444085 0.020702798 0.47346845 0.05498378 -0.25145558 -0.21515402 -0.6517009 -0.45791328 -0.5967686 -0.26163566 0.16916491 0.27899873 0.07776843 0.13004671 0.45441827 -0.05810665 -0.15587912 0.06841614 0.013325423 -0.08149644 0.015410855 -0.26359266 -0.24806651 -0.59455705 -0.1103156 0.24705721 -0.062692456 0.11090535 0.1806771 0.08441781 -0.10527133 0.16902621 0.4609077 0.05186918 -0.070118405 0.10031257 0.26679477 0.30497774 -0.0975187 0.017156955 0.13934004 -0.12440709 -0.15808265 0.22496857 0.24056368 0.027108554 -0.51799864 -0.0058919243 0.69302976 0.11694996 0.40231922 -0.17881611 -0.2032778 0.036929987 0.14603814 0.20291612 0.36487597 -0.10793711 -0.31059644 -0.4524987 0.15603092 0.052752886 0.47494072 0.09481936 -0.8459974 0.08609746 -0.360084 0.64575785 0.21506605 0.26541212 -0.13534257 0.22962506 0.031265344 0.3444933 0.17373322 0.18059193 0.08631263 -0.26183414 0.14695384 -0.10055059 -0.07893431 -0.25329953 -0.05747432 -0.045854576 -0.07943402 0.48756227 -0.03937532 0.099660225 0.2748215 -0.49446213 -0.13871233 0.14313088 -0.10888247 -0.33821875 -0.06978783 -0.7134244 0.42427647 -0.34944144 0.3005692 -0.09860635 -0.04960589 -0.28293428 0.104627796 -0.34930393 0.3280209 0.13927442 0.3704889 0.6455959 0.65565604 -0.22743012
157 -0.6766126 0.43318096 0.10521544 0.0011068746 -0.046553392 -0.19535753 0.021927942 -0.27812365 -0.20427121 0.18612158 -0.5860958 -0.091968425 -0.11720223 0.0046926755 -0.13551244 -0.46731755 -0.02081612 0.17250761 0.12080457 -0.24268734 0.00462419 0.444689 0.14573814 0.2778803 -0.26575392 0.015071491 -0.85256875 0.07291385 -0.21562177 -0.09160113 0.09518153 -0.3926297 0.24714494 0.7600058 -0.36743692 0.06656314 -0.2772172 0.17586055 -0.08281553 -0.10946938 -0.019942446 -0.526249 0.3932539 0.29248217 0.15154707 0.044029124 -0.33895025 0.4233907 -0.23560633 0.56370527 -0.49331564 0.3339135 0.48294652 -0.02096154 0.3949447 -0.18726276 0.7407646 -0.3360112 0.33752283 -0.06472084 0.0026937518 0.077013426 0.1241016 -0.45659274 -0.53488415 0.15737617 -0.027991282 0.19808923 0.3713558 -0.2459493 -0.15250777 0.27139384 0.017220085 -0.22230124 0.30237865 0.2535004 -0.3280658 -0.052397694 -0.30082944 -0.14054678 0.25682145 0.01921788 -0.30667344 -0.18679039 -0.32575017 0.6480395 -0.3111799 0.07998165 0.03381786 0.16304336 0.07069092 -0.074138984 0.18848702 0.22254437 -0.06823173 -0.20907182 0.5441858 0.055228595 0.40077573 0.034422964 0.34010473 0.06236421 -0.046055228 0.6020074 0.036178496 -0.6587621 0.33917168 -0.13674545 -0.45218113 -0.016115805 0.03543862 -0.08561959 -0.056859586 -0.09525424 0.69457275 0.036610287 -0.17435999 -0.10671871 0.30952144 -0.0023616848 0.078325145 -0.52617073 0.028615408 0.0130650895 -0.39683688 -0.07476387 0.4014836 -0.34831968
294 -0.2763048 0.056608777 0.09812293 0.41554242 0.84636617 0.07338578 0.13047698 -0.41501546 0.011368909 0.10031118 0.18590957 -0.48153767 0.05698455 0.5099055 0.11438926 -0.8332878 -0.07888871 -0.28958672 0.25837946 0.4023037 0.4674702 -0.24140741 -0.39618427 0.23214917 -0.2952958 0.18375394 -0.36608303 -0.40074158 -0.33337677 -0.38085398 0.014244486 0.41541255 0.36153996 0.06585939 -0.2550943 0.40828386 -0.2871029 0.3024956 -0.22319238 -0.10571867 -0.09050786 0.070209555 0.49151975 0.070730425 0.03260533 0.16278172 -0.029124945 -0.055300973 -0.42345253 -0.30036724 0.5721325 -0.21522729 -0.08634567 0.04268485 -0.011845666 0.2869982 0.1314338 0.23339759 0.65750945 -0.19633397 -0.07486064 -0.08140181 -0.12875307 0.051325638 -0.3425904 0.120443545 0.35434684 -0.19717583 -0.2401098 -0.23110153 -0.29490444 -0.40313065 0.31693974 0.104736924 -0.143432 -0.23337358 0.24153478 -0.32498875 -0.15467973 0.08628798 -0.39197668 -0.3537141 -0.24196722 0.1017972 -0.48292187 0.12550576 -0.087991364 0.026149008 -0.608003 -0.0957126 0.088033445 0.26211348 -0.09968966 0.53716946 0.48233575 0.23951767 0.27922022 0.00878715 0.28302523 0.06277029 0.25330782 -0.2617892 -0.18936299 0.14162162 -0.09719392 -0.225395 0.48985818 -0.12806807 0.004715739 0.16325864 0.037400357 -0.434968 0.45939967 0.13502245 0.18107551 -0.17244978 0.11599509 0.013496504 0.23756151 -0.021833844 -0.1912643 -0.25161785 -0.2503196 -0.07769589 -0.19281447 -0.0590004 0.48963144 0.027392091
523 -0.03062828 0.11105439 0.32510838 0.1239154 0.38735443 0.39737248 0.1797779 -0.5182174 -0.09833564 0.26387012 0.15621193 -0.4353383 -0.20926514 0.48562753 -0.38050878 -0.5467386 0.2583429 0.0085713295 0.03207382 0.19741327 0.103520975 0.098928906 -0.64986175 0.49962378 0.08520405 -0.121157214 -0.1776222 -0.264424 -0.36720422 -0.20649342 0.24050102 0.13384165 -0.058891878 -0.21446617 -0.14061266 -0.054535415 -0.25883874 0.20431858 -0.07633705 0.12490063 0.4376781 -0.33053803 0.5063075 0.24226275 0.16154712 -0.3298512 0.3281611 0.000935323 -0.34985065 0.16965827 -0.23818101 -0.031584974 -0.14692898 0.26493937 -0.12543726 0.09055693 -0.028434495 0.49590927 0.20778444 0.11801052 -0.5258807 -0.06985474 0.03346163 0.16578938 -0.11656435 0.28540096 0.25746232 -0.24624275 -0.2831337 -0.4776152 0.1791989 0.2765181 0.47478932 0.71316504 -0.088419504 -0.45413044 0.5576967 -0.37484634 -0.14177558 -0.057838928 -0.101767294 -0.5513033 -0.5661072 0.14850579 -0.45895115 0.0667847 -0.3169867 -0.04291155 -0.3424998 -0.6336264 -0.13803862 -0.30812502 -0.24352366 0.25712442 -0.2815452 -0.32347766 0.15782267 0.13984984 0.2514272 0.27303326 0.2775144 -0.2654782 -0.050759155 0.26243874 0.36152175 -0.09013389 -0.07562788 -0.010901863 -0.397547 0.034971498 -0.12559858 -0.14402737 0.4198225 0.17367372 0.3395216 0.20128416 -0.124180146 -0.10559898 0.04885935 0.45269427 -0.062466394 -0.092252865 -0.23949252 -0.15192682 0.0727983 0.2569489 -0.41934937 -0.032391924
745 -0.71628815 0.13094465 -0.028772675 0.030096207 -0.10210895 0.49810168 -0.09196324 -0.16954687 -0.14476843 -0.17608063 0.2544799 -0.2050721 -0.009187349 0.89174026 -0.2774186 -0.35781437 -0.07495865 -0.25672305 -0.026391404 -0.10688616 0.30602685 -0.19187479 0.05129482 0.15846075 0.11814207 0.29360804 -0.28363174 -0.33525226 0.029893512 -0.2285497 -0.13738371 0.09144815 0.11300208 -0.033320386 -0.11470757 0.4134757 0.23139238 0.6562799 -0.46389875 0.0892721 0.421833 -0.11811697 0.3529546 0.25227302 0.05320941 -0.14605886 -0.1254194 0.50642675 -0.2793851 0.13497652 0.443358 -0.07892657 -0.106016085 -0.31638876 0.16838491 0.054371405 0.30848423 0.46390983 0.12470574 -0.5533568 -0.20842454 -0.3493006 0.1509279 -0.028617922 -0.3755792 0.028828533 0.3578309 0.230726 0.351526 0.09284762 0.12862822 0.2459683 0.48645195 0.2070489 -0.036128577 -0.30160925 0.31119075 -0.5140045 -0.08314511 -0.19941548 -0.0066520954 0.0058710985 -0.30241296 0.018057367 -0.013453918 0.30225667 0.045092337 0.2885909 -0.4513611 0.43776187 -0.2859586 0.012059317 0.33961046 0.29896584 0.3835337 0.17563656 0.375051 -0.78455114 -0.09293568 -0.2211084 0.093135074 -0.0859872 -0.08365212 0.25378627 0.35461503 -0.10063009 0.4111777 0.04475665 -0.2610761 0.2492568 -0.8060468 -0.18874224 -0.06861044 -0.39639443 0.37815344 -0.34729865 -0.033113677 -0.098941684 0.17616335 0.04330212 -0.42710957 -0.04178482 0.3355551 0.4701628 -0.56755525 0.28011551 0.7258975 -0.0899072
566 0.1978981 0.21810709 -0.025376992 0.5216298 0.4578235 -0.0012708434 0.05041723 -0.35821 -0.28954884 0.004145499 0.19030146 -0.3657964 -0.21675408 0.54919684 0.3908867 -0.54134583 0.2111137 0.029345827 -0.136439 0.113838956 0.20140584 0.13300034 -0.24707875 -0.16125919 0.17355296 -0.21989653 -0.307457 -0.28371912 -0.24651122 -0.3002702 0.0038724516 0.00096486765 0.5456493 0.3708258 -0.47514617 0.019915124 0.09786479 0.28736627 -0.43785375 0.018149586 0.26341656 -0.3010919 0.8049694 -0.13823162 0.2598834 0.1812067 0.06425068 0.25648898 -0.26145616 0.23770063 0.35061434 -0.3100608 -0.22694153 0.10555286 0.7074158 -0.024758285 -0.21557505 0.03350132 0.53680366 -0.43657416 -0.17753166 0.052136756 -0.38696465 0.24638002 -0.45544332 -0.002206066 0.24905632 0.0035685261 -0.22375439 -0.45653015 0.050060123 0.019940779 0.0139846215 0.37803462 -0.16246864 -0.2214376 0.42964736 -0.5836052 0.05724528 0.13308473 -0.03156213 -0.15066758 -0.23848957 0.14668645 -0.36994892 0.062460404 -0.28904685 -0.11875641 0.14141248 -0.16888489 -0.24012575 -0.1496337 -0.013679966 0.18617645 0.05060294 0.01331649 0.21478893 0.19372329 0.13028628 0.12858321 0.23885912 -0.18810628 0.017537553 -0.14863057 -0.61900795 0.10055378 0.6240933 0.5242122 0.14423995 -0.019422878 -0.03063259 -0.2152715 -0.00539631 0.008296885 0.59806424 0.060144406 0.3845096 0.116649225 0.28448832 0.39253375 -0.34632617 -0.46322653 -0.02912642 -0.19878574 0.024264622 0.10635523 0.39018542 0.27743432
344 -0.30744928 0.1886585 0.1283263 0.24681945 0.1363593 -0.044479795 -0.016536644 0.025835566 -0.018054374 0.2974649 -0.48776764 0.1422091 -0.038349718 0.6245029 0.13931091 -0.43737933 -0.19595568 -0.20022202 -0.33152458 0.32008928 -0.06740229 -0.3917213 -0.12953074 0.18409356 0.17228238 -0.25112942 -0.017044527 0.1652441 0.104397856 0.06133448 0.009556081 0.17168842 0.5335009 0.033314385 -1.0744243 -0.08510253 0.27953827 0.39829186 -0.011414011 0.41110954 -0.32965103 -0.28142023 0.10529106 0.33807424 0.32914734 -0.3617172 0.25819737 0.40237367 -0.08142071 0.252201 0.31389064 -0.097023636 0.34647098 -0.2785773 -0.27322957 -0.17899723 0.17176929 -0.35090312 0.085658185 -0.08556079 -0.28260678 -0.06494068 -0.18258965 -0.5272823 -0.4783878 0.10434957 0.53911114 0.35077617 -0.34502983 0.07226662 0.27349526 0.11104897 -0.32348326 -0.24885435 0.34352165 -0.08954178 -0.036675245 -0.1572347 0.4507887 0.20839976 -0.17882288 0.005552627 -0.6197072 0.31459415 -0.5191721 0.09490176 0.16242827 -0.0068592126 -0.5999932 0.44720763 0.24263541 0.29014987 -0.3888127 0.77325886 0.09398622 -0.26474735 -0.17736085 0.6821277 0.4069348 0.10772868 0.5483355 0.29059038 0.62712824 0.045195777 0.22835551 -0.2379038 0.20513608 0.0008707554 0.46864334 -0.40957507 -0.75708306 -0.49644193 0.31999427 0.12450481 0.12846495 0.36415488 0.217441 -0.26560047 0.17946236 0.30783194 0.31186795 -0.12082639 -0.2546316 0.5415275 0.32978338 0.1047696 0.250245 -0.24605744
1354 0.17313506 0.33886984 0.029882412 0.03229132 0.19160601 -0.20561726 -0.08347378 -0.443047 0.22318426 0.5900497 -0.3620829 -0.3062766 -0.120203 0.3730446 -0.3523531 -0.39330876 -0.061745066 0.034884002 -0.06876046 0.18065517 -0.14914455 -0.22616668 0.37326312 0.6082013 -0.13180321 -0.64958185 -0.5899403 -0.21289133 -0.10816035 0.2548704 0.24447434 -0.06887362 0.598153 0.6795619 -1.0427063 -0.39664507 0.20295523 0.16761576 -0.23945795 0.7521246 -0.06378843 -0.19528107 0.58892214 0.5565105 0.11327035 -0.34936574 0.008828739 0.017862324 -0.17062962 -0.014395389 -0.050387353 -0.11196731 -0.03709138 -0.17366551 0.20908839 -0.48746994 0.26122445 -0.6122282 0.001266394 -0.03557826 -0.785971 -0.23264305 -0.069195084 0.3006493 -0.021011835 0.15073496 0.42285168 -0.25015652 -0.207594 0.28033513 0.24278621 0.52911013 0.17351991 0.054643873 -0.080384865 -0.8730375 0.36677542 -0.40003794 0.13916865 0.09477715 0.017327355 0.6042672 -0.67573696 0.09297487 -0.59901357 0.42547646 -0.6209858 0.12641846 -0.051532105 -0.08575312 0.016929729 -0.32893652 -0.5551898 0.15335521 -0.09212202 0.01885135 0.22334987 0.41323844 0.39822555 -0.37357518 0.24042735 -0.15857571 0.36158845 0.16426264 0.18078192 0.24455012 0.04888641 -0.1039699 0.049150128 -0.001376907 -0.19504233 0.085604236 0.32657126 -0.023193866 0.3755601 0.30138925 -0.009841327 0.38113782 -0.40816337 0.002728717 0.15434414 0.24634859 -0.2285273 0.67958647 0.25008655 -0.43629938 0.021720847 0.06332493
378 -0.5530339 0.026245127 -0.1574886 0.23691577 0.11559423 0.048661724 0.16920836 0.01168361 -0.45644632 0.53051376 -0.29496497 0.115861796 -0.228237 0.29810587 -0.22784957 0.01840988 -0.56842834 -0.3404762 -0.44618705 0.2378335 0.21205282 0.07652485 -0.20738623 0.25620672 -0.16756032 -0.7214029 0.21253227 0.05807485 -0.18994911 0.3839338 -0.0869734 -0.07129152 0.753008 0.06587978 -0.6115856 -0.14094315 -0.059665307 0.258844 -0.019699711 0.27498597 -0.28009656 0.10746881 0.5528234 0.21517488 0.11757557 0.3586294 -0.019558052 0.06285666 -0.36201662 0.12595595 -0.2647144 -0.32741356 0.46382987 -0.025036817 0.2382081 -0.15904996 0.19206466 -0.05229302 0.10926041 -0.05600589 0.030075796 0.18315795 -0.36680144 -0.4197032 0.056806587 0.07988973 -0.34809282 -0.11060015 -0.42203173 0.10003974 0.14352432 0.057651244 0.20740126 0.27683815 -0.14150052 -0.10349914 0.09855979 -0.32956824 0.015953083 0.27528727 0.22205669 -0.081458226 -0.3568596 0.14581987 -0.66803837 0.2486195 -0.011375424 0.8890506 -0.23271455 0.59445757 -0.046139583 -0.3414263 0.23530757 0.1719489 0.007506231 0.22907679 0.3722611 0.6443861 0.19174345 0.5613461 0.1952417 0.35488704 0.37631512 0.1565691 0.41817376 -0.4634762 0.31534693 0.14904702 0.58983094 0.17917086 -0.39008278 -0.0035412705 0.3930719 0.13943985 0.25825527 -0.38928524 0.31838405 0.057893153 -0.37777498 0.6253332 0.27072936 0.037734 0.19672245 0.62803304 0.38227847 0.12218302 -0.031099882 -0.13725382
576 -0.7358246 0.53893954 0.18616462 0.003795456 -0.0011446544 -0.3261702 -0.07944738 -0.39932004 0.0722189 0.015110032 -0.16728725 -0.6603904 0.5734753 0.54595524 -0.16266893 -0.3618763 -0.5805491 -0.5550075 0.06269903 -0.26262906 0.03323564 -0.38297457 0.14387518 -0.13278316 -0.5128052 -0.07039837 -0.43448472 -0.005248751 -0.057570774 -0.22106154 -0.04160977 0.62530154 0.6308776 0.61522156 -0.19928063 -0.20325683 -0.03201914 0.2977779 -0.5355689 -0.1907476 0.2630849 -0.533535 0.17443317 0.6041107 0.2573419 -0.23477958 0.020112555 0.34976947 -0.19668202 0.2003268 0.26452446 -0.2647231 0.29264525 0.12678695 0.648816 -0.23051985 0.107327975 0.05670832 -0.53458846 -0.6475965 -0.52875715 -0.29784644 -0.13721995 -0.32267553 -0.4503467 0.27659333 0.3059386 -0.18494847 0.30255967 -0.37047902 0.14400628 0.30158377 -0.009599597 0.11405933 0.11099729 -0.0006711787 0.27702737 0.2647662 -0.25818697 -0.33368772 0.10464561 0.25324994 -0.19168028 0.18221204 -0.22489882 0.06619112 0.19223976 0.16588558 -0.3072006 -0.017751519 0.10592996 0.07190077 0.0022293974 -0.13868268 -0.113400854 -0.06522187 0.5427273 -0.25600615 0.057580534 -0.41285133 -0.110524915 0.08927778 -0.26992095 0.3052695 0.7397059 -0.3577197 0.25630242 -0.6452181 -0.27720535 -0.45364752 -0.58316255 -0.40634474 0.19196483 -0.14806987 0.12421883 0.3457989 0.2160866 -0.07298983 -0.09835013 0.118736476 0.0039078463 -0.24361956 0.67092746 0.6330079 -1.0487319 0.6526967 -0.18761645 -0.20907599
793 -0.083001845 0.12556142 0.30193838 0.14794816 -0.052505434 0.376258 -0.33832073 -0.42297906 -0.45998004 0.29935804 -0.20601356 -0.18168268 -0.11573853 0.9381669 -0.18325672 -0.22294182 -0.29191583 0.44639343 0.27350956 0.23034857 -0.027960557 0.2196175 -0.10720458 0.27996576 0.15322234 0.12745084 -0.002347589 0.51235175 0.21139789 -0.013841776 0.6253595 -0.506496 0.23290612 -0.18232705 -0.31481534 0.13282764 0.0126635805 0.1800431 -0.33144766 0.15946406 0.02282242 -0.15722522 0.7181071 0.6901029 -0.10269001 -0.281897 0.14696795 -0.53295267 0.18596496 0.1844912 0.14705439 -0.13944036 0.34518415 -0.099204294 0.29051426 -0.24537957 0.28776598 0.54507357 0.12791155 -0.3057644 -0.12863337 -0.10434545 0.5130059 -0.110852785 -0.26225504 -0.11751565 0.054914337 -0.09027585 0.27074385 0.07467615 -0.14723547 -0.18722981 0.3929394 0.69638354 -0.1883621 -0.7638494 0.08419368 -0.478022 0.08309524 0.027495077 0.3818837 -0.33190113 -0.26301226 -0.21227384 -0.37359333 0.15258376 0.20660877 -0.07598091 -0.09640446 0.049510386 0.31383613 -0.6070845 -0.07616148 0.50419134 0.21629785 -0.2820675 0.18847977 0.11080103 -0.27378616 -0.40259337 0.58258146 -0.06996245 0.20405965 0.8410968 0.25906447 -0.08599282 -0.20008464 -0.4951876 0.003966013 0.06669725 -0.18439819 -0.490845 -0.1588974 0.18246716 0.30671227 0.36928782 0.16031681 0.14318685 0.06188448 0.2702138 0.10794569 -0.23643626 -0.0068606404 0.11388013 -0.41112295 -0.1764621 -0.2759537 -0.17414384
910 0.17247373 0.3411803 0.5134244 0.52353454 0.12252145 0.18791072 -0.31343612 -0.36252922 -0.25593773 0.7014573 -0.048898235 -0.4114245 -0.45547724 0.68076307 0.023809247 -0.47293895 -0.02328138 -0.25081676 0.56567955 0.29507205 0.40549874 -0.39298877 -0.35967213 0.46346536 -0.11526799 -0.15704061 0.010905435 0.20572755 0.044632357 -0.13139151 0.28276274 -0.25114444 0.3245029 -0.026720308 -0.08707366 -0.42264882 -0.27393925 -0.09588521 -0.052244313 0.1369447 0.33211955 -0.16133209 0.46629983 0.55103356 0.38518736 0.0018011981 0.18278398 -0.17957096 -0.065103926 -0.28357592 0.06974967 -0.12402947 -0.14634027 -0.15696204 -0.28546524 0.012911081 -0.048654303 0.7072082 -0.03210631 0.016180413 -0.4187236 0.041733216 -0.30225724 0.17693862 -0.35511082 0.080648966 0.17173982 0.53297114 0.058379684 -0.33462322 -0.4569352 0.23849717 0.2610327 0.16291991 -0.30423182 -0.6374022 0.2986946 -0.43981108 0.038669586 0.11910255 -0.27851564 0.054483104 -0.509495 0.3274886 -0.550844 -0.004119427 -0.058268953 -0.42930904 -0.15703881 -0.14212635 0.19177878 -0.80487186 -0.1897926 0.02513923 0.08753165 -0.5401015 0.36561185 0.28328943 -0.029959472 -0.12830457 0.3149984 0.06106098 0.27112967 0.21451342 0.16011517 -0.1295162 0.35766375 0.27917132 -0.14416122 0.16770679 0.15397929 -0.20216078 0.17242722 -0.0020567337 0.35721496 -0.07263208 0.07940638 -0.034098476 -0.025950275 0.18580541 -0.11389144 -0.41258174 -0.494796 0.25111294 -0.030535435 0.2817081 -0.081982054 0.11195097
453 -0.5601835 0.37677032 -0.6124062 0.24908963 0.07131467 -0.36439958 0.016018484 -0.21310687 -0.0031563693 0.2061303 -0.59691125 -9.7012846e-05 -0.42518538 0.49283028 -0.28524518 -0.116074994 -0.57092327 0.0059673483 -0.008159161 0.023087034 0.49911904 -0.073011905 -0.5065683 -0.24886362 -0.08334744 -0.47759897 -0.24303931 -0.13523342 -0.018240958 0.35217 -0.099898696 -0.01761095 0.69898623 0.23548174 -0.36610064 0.14444791 0.36266482 0.6583078 0.43519527 0.1921817 0.18457638 -0.3160712 0.41111374 0.5167531 -0.30820978 -0.084311314 -0.20409088 -0.05693848 0.16555409 0.35792646 -0.22547491 0.095629536 -0.25720644 -0.14828815 0.3314624 -0.20938246 -0.33295515 0.18157631 0.6331233 0.3609253 -0.13670188 0.046662692 0.14554727 -0.33139592 0.018447917 0.50256974 -0.13194162 -0.026221521 -0.1676377 -0.29167122 0.29640907 0.19646859 0.010271046 -0.45180207 0.32035753 -0.36026332 0.057551134 -0.21091957 -0.25175932 0.123454854 0.12667054 -0.28766888 -0.33156767 -0.014611427 -0.16949984 0.34308493 0.32054308 0.42211366 -0.40392882 0.27926067 -0.06710439 0.2627224 -0.19087957 0.34214717 -0.024926614 -4.763685e-05 0.85934573 0.22752675 0.43617162 0.12917763 0.3358982 0.15996838 0.43570608 0.72770053 0.051004365 -0.46795988 0.065919794 0.24370731 -0.019981403 -0.2445973 -0.02195206 0.5392378 -0.053943254 0.20790964 0.34123927 0.46752873 0.46234965 0.074373454 -0.122847214 0.5375939 0.39661658 0.25173208 -0.19599742 0.13127275 -0.124561876 0.1260375 -0.024465734 -0.09836739
672 -0.4022526 0.4068978 -0.04620992 0.55692345 0.2806146 0.32430923 0.31542167 -0.07540668 -0.23326077 0.118958406 -0.50999796 -0.1356827 -0.062930636 0.5106805 -0.064025976 -0.40108466 -0.32354635 0.5022197 -0.34000573 0.3191378 0.13274801 -0.0725786 -0.20474343 -0.14192684 0.05248784 0.009821044 -0.74171275 -0.25746083 -0.046964373 0.033073213 0.10181625 0.2499556 0.5167722 0.33909214 -0.88995284 0.0454901 0.46722385 0.5956394 0.14728877 0.12794921 0.3428748 -0.21224314 0.2715926 0.6408708 -0.16554394 -0.4532595 -0.09727243 0.36227018 0.6191508 -0.14320557 -0.13295971 0.4367043 -0.47395435 -0.13002874 0.3208622 -0.044423394 0.038824975 -0.11943437 -0.056846928 0.06276443 0.14347586 0.28590262 0.16794387 0.06369396 -0.04794808 0.25315434 0.03538572 -0.0405962 -0.19358121 0.07897004 0.121039145 -0.07682836 -0.26725456 -0.016975751 0.08459254 -0.08775004 -0.38432658 -0.3237372 -0.29844612 0.26903796 0.057144754 -0.30308336 -0.4098721 -0.15434758 -0.37586823 -0.2250494 0.16378342 0.09727262 -0.43899244 0.0943647 0.22113314 -0.33606747 -0.05558219 0.6331327 0.06883302 -0.058059286 0.3888475 0.037401665 0.28163967 -0.6171532 0.67386335 -0.16829741 0.57384104 0.51702905 -0.043382388 -0.31679747 0.14156617 0.04794608 0.09765475 -0.021692755 -0.14750272 0.5233356 -0.38235083 0.23174174 0.058200695 0.29465535 0.139206 0.41504723 0.013399529 0.41405964 0.39152673 0.087659195 -0.17662731 0.23226155 0.100778565 -0.04137691 0.19194023 -0.22790512
109 -0.20428115 0.52473617 0.01081141 0.2720129 0.29003364 -0.02491047 0.17359218 0.31013682 -0.500182 0.12822016 -0.6119177 -0.20359683 -0.5055923 0.42153743 -0.49852335 -0.16757998 -0.41657338 0.0774562 -0.028189646 0.104124725 0.25908852 -0.3471258 -0.24375841 0.05483007 -0.3706739 -0.124769814 -0.5460393 0.05080746 0.07149024 -0.20515548 0.28019556 0.27899176 0.25033456 0.36768445 -0.2708168 -0.02362196 0.12579909 0.57123554 -0.23449594 0.4117731 0.04254796 -0.47715697 -0.07024389 0.60587317 -0.2248132 0.14508064 -0.19120312 -0.08757443 -0.2606785 0.29405653 0.0874622 0.028322086 0.04619171 0.39280248 0.07522269 -0.23104177 -0.05447565 0.071113594 0.14633258 0.10310902 -0.19983557 -0.024152193 -0.08025994 -0.25429416 -0.29431817 0.842242 -0.075572826 0.24638794 -0.2640722 0.18860286 -0.079769075 -0.1444927 -0.3158594 -0.5482564 0.39204213 -0.26463228 -0.23869446 -0.6220093 -0.07290954 0.5293437 -0.20943654 0.1558063 -0.7069621 -0.30124953 -0.3255103 -0.15699685 0.24638721 0.19935514 -0.20948182 0.31251693 0.020640146 -0.45426366 0.0045524444 0.3391485 -0.17254773 -0.08458168 0.6291921 0.017883407 0.2480765 -0.41417792 0.42243317 -0.06783188 0.3161057 0.5056813 -0.15952328 0.13962418 0.4824183 0.5063988 0.020585638 -0.0803399 0.051712386 0.45921862 -0.27080336 0.36717707 0.28091785 0.19406745 0.39529157 0.513766 0.3292254 0.4290684 0.46790147 -0.05667051 -0.40342155 0.119007304 0.07779941 0.2894135 0.16803189 0.11947941
569 -0.6857834 0.26209056 -0.11930419 0.05635061 0.20531677 -0.3298153 -0.11102083 -0.12902258 -0.18773817 0.778906 -0.41068384 0.07903426 -0.64815617 0.2037415 -0.41270772 -0.124131955 -0.47116318 -0.055737592 -0.025758674 0.3176547 0.2013398 0.3610402 -0.63911957 0.021258196 -0.08415222 -0.6506586 0.09722075 0.15200481 0.5409052 -0.08373786 0.21288455 0.03202481 0.55808336 -0.39965662 -0.32355115 0.14391696 -0.0004768869 0.5407698 0.46786532 0.1418149 -0.1533113 -0.26274192 0.096993946 0.28289866 -0.0028134428 -0.016076088 0.016588878 0.23264548 0.13735645 0.482748 -0.053809807 -0.07105974 0.06141774 -0.035393305 0.17333968 -0.37077335 -0.2223557 0.0804706 0.60023415 0.1633461 0.13057512 -0.027241936 0.17592509 -0.27927878 -0.24511991 0.40533176 0.10060687 -0.1308796 0.11623644 -0.02448329 -0.17499126 0.36299682 0.1900357 -0.21373352 -0.17386167 -0.7338954 0.08953015 0.022403803 -0.3120289 0.19654855 0.22466326 0.21090057 -0.27666464 0.16786078 -0.049239706 0.1838101 0.50579625 0.8307301 -0.37615094 0.34814063 0.26529756 0.28817967 -0.076031685 0.27831307 -0.31871575 0.46072692 0.84253645 0.28690216 0.20255974 0.21928225 0.17854573 -0.14388564 0.36948612 0.63383675 0.018291136 -0.27179843 0.097345635 0.2329592 0.10849457 0.36567765 -0.08698667 -0.045893144 -0.070486255 -0.16296846 0.3973179 0.29654968 0.021334503 0.2137442 -0.02314289 0.112675555 0.01817973 0.15988036 -0.25593078 0.14555724 -0.019228484 0.43337363 0.1827032 -0.08415769
635 -0.053343583 -0.27074128 -0.10034074 0.26523456 0.20459266 0.07192582 0.23130506 0.3973797 -0.4412346 0.11180642 0.08576764 0.30545613 -0.4976073 0.15239084 -0.51217324 -0.07193477 -0.51806134 -0.12543124 0.044680715 0.27040207 0.032512885 0.045463488 -0.31991306 0.29086405 -0.557477 0.12381844 -0.5210618 0.010902278 0.24515261 0.15892391 -0.0061992584 0.026339706 0.26892033 0.3712533 -0.0350441 -0.1446922 -0.049014937 0.6438242 -0.7041931 0.26670694 -0.17206684 -0.1776439 0.06928622 0.41206345 -0.25757894 0.23234613 -0.45194268 0.1401619 -0.13000363 -0.09943178 0.3161587 -0.003850647 0.016842572 -0.21756582 0.07446621 -0.29235175 0.27441627 -0.14977716 -0.14510596 0.087571904 -0.20503438 0.0065983464 -0.21715663 -0.19486316 -0.34230742 0.55955 0.13515212 0.09405464 -0.116247006 0.16287397 0.28227913 0.17532183 -0.1573226 -0.15796424 0.08854587 -0.45335373 -0.19538042 -0.16819373 -0.03830379 0.5189721 0.01547344 0.16113071 -0.74612325 0.18403739 -0.11267764 0.07578437 0.12608007 0.039387282 -0.38161483 0.467359 -0.008188863 0.1882528 -0.07519269 0.6436857 -0.023529267 -0.28710788 0.4518537 0.13492982 0.5382316 0.044916492 -0.27375832 -0.08861652 0.042454068 0.7762504 0.10141747 0.16563086 0.5664808 0.4609405 -0.07431873 0.35917276 -0.19177876 0.005888749 -0.31399524 0.3422747 0.44310954 0.13370757 0.002015423 0.24636714 -0.13805966 0.71248806 -0.03623389 0.005097648 -0.4392505 0.021923387 0.4800866 0.2561009 -0.0017165222 0.07666998
1713 -0.44815883 0.15093674 -0.22880775 0.30999333 -0.17094555 0.07719702 -0.2096182 -1.0515262 -0.024611821 0.11845094 -0.67124224 -0.3591567 -0.18790801 0.9672098 -0.39462173 0.024223791 -0.0935635 0.119096525 -0.030464789 -0.22572967 0.3154206 0.07827707 -0.5250691 -0.3410693 -0.3734305 -0.6102202 -0.12156694 -0.8134181 0.62836015 -0.19590892 0.1825872 -0.070320986 0.05473839 0.20832846 -0.6736981 0.04763828 0.38021338 0.22280748 -0.20844391 0.8487074 0.21667749 0.0656551 -0.24606444 0.32785267 0.36079326 -0.22120416 0.168348 0.3762479 0.21691123 -0.3199336 0.067085415 -0.42431462 -0.1443162 -0.2996263 0.18789406 -0.6494671 -0.29351977 -0.26160103 -0.33081678 -0.90962774 -0.4662611 0.2639592 0.21314216 0.045915324 -0.22930473 -0.17644222 0.44880092 0.7901724 0.47472396 -0.34375662 -0.085393645 -0.40271187 -0.5063738 0.108367436 0.08967447 -0.14752898 0.068999074 -0.71436185 -0.1728602 0.37159315 -0.23856878 -0.16305129 -0.59630764 -0.044859007 -0.9905374 0.49721023 -0.1355286 -0.09908414 -0.5635258 0.30220154 0.028418286 -0.14091343 -0.006100495 0.52600133 -0.032787878 0.13913307 0.60580754 -0.13923857 0.18853283 -0.11037141 -0.21801868 0.052553937 -0.029446222 0.31011644 0.2925678 -0.049064737 0.9217286 -0.73843926 -0.5422673 0.39852306 -0.38659662 0.061182473 0.06052877 0.024888411 0.003911592 0.22200583 0.25329217 -0.53859884 -0.4199216 -0.2328992 0.11894465 -0.08559946 -0.21383856 0.44184035 -0.009677723 0.0033418299 -0.26784995 -0.4636121
136 -0.01690415 0.050278157 0.15019411 0.2871346 0.6778026 -0.09901869 0.13261989 -0.25167242 -0.23019269 0.12620178 -0.694694 0.24771346 0.05895345 0.48764542 0.22134326 -0.14839548 -0.113398924 -0.48451662 -0.22966874 -0.12770127 0.11785721 -0.06417579 -0.017823178 0.54528546 -0.115743205 -0.60467136 -0.24569264 -0.1797403 -0.4197497 -0.5070698 -0.052221976 0.22215976 0.27416494 0.47206602 -0.86734176 -0.09656934 0.16475388 0.3831555 -0.3763129 0.016777106 -0.124422275 -0.122823745 0.3013874 0.07019377 0.17770419 -0.19638199 0.20442915 0.17212886 -0.4547208 0.13321969 0.30749714 0.009738161 -0.18543299 -0.005097987 -0.7140897 0.021150986 0.2617818 0.010085597 0.41438463 0.15786798 -0.616405 -0.050305516 -0.3712344 0.020342696 -0.12397198 0.1304517 0.11233462 -0.20623478 -0.5507128 -0.041224144 -0.2158236 0.37296218 0.20423014 0.10740979 -0.29730693 -0.45011425 0.48789653 -0.017956574 0.08451664 -0.1989793 0.035727885 0.4533628 -0.4523134 0.08128074 -1.1027348 0.34747016 0.16207781 0.13191496 -0.33514383 0.3450664 -9.370908e-05 -0.15301245 0.1470798 0.29020262 -0.19228032 -0.39039144 0.70689034 0.25820652 0.27443743 -0.0075638574 0.7524999 -0.19317976 0.037305307 0.087425895 -0.16783693 0.24868248 -0.021453531 -0.13937995 -0.16171944 0.33810517 -0.055855386 0.31587854 0.27867138 0.0743837 0.13452758 0.13624108 0.13814677 0.10723701 0.026225928 -0.077418745 0.32668185 0.066101134 0.16565527 0.5584425 0.2929087 0.32334405 0.13800107 -0.2323423
14 -0.9279773 0.46182624 -0.0594557 0.41748697 0.14480484 -0.25939682 0.013790497 -0.29871586 -0.09881724 0.19296302 0.048953522 -0.38259912 0.38563034 0.5180925 0.42895192 -0.44508424 -0.7221284 0.17977208 -0.13590081 0.1514033 0.5925746 -0.027934948 -0.54369867 -0.82197154 -0.062428717 -0.017308382 -0.5790359 0.039401364 0.051465113 0.09324071 0.1345919 -0.15320276 0.7427212 0.10175099 -0.36919326 -0.31153896 0.59116066 0.7379712 -0.18735635 0.18540065 0.16722383 -0.16965862 0.43869543 -0.03840119 -0.6783759 -0.116310544 -0.04697195 0.6325564 -0.028948303 0.026533555 -0.41825312 0.09691633 -0.2588273 -0.102890864 0.3090803 -0.09112124 -0.07490798 0.23906678 -0.08332247 -0.3666863 -0.011743183 0.187528 -0.17896536 0.18740706 -0.3140992 0.69884235 0.20152153 -0.042667355 0.35861778 -0.28896558 -0.10533909 0.17417802 0.10428968 0.16530296 0.037671782 -0.16775063 -0.3583242 -0.29318318 -0.35108563 0.32777926 0.6673348 -0.19136687 -0.15570867 -0.18557253 -0.6978338 0.32179713 0.37560108 0.6154367 -0.43933186 0.26111215 -0.0131873805 -0.04583855 -0.008355895 -0.074178606 -0.10570401 0.37636882 0.34651393 -0.18733911 0.12996092 -0.04783545 0.4962299 -0.005765219 0.3915278 0.47391135 0.089633666 -0.17916039 0.1096165 0.23846732 -0.34448308 -0.250653 0.20147675 0.3448542 -0.2689631 0.1956312 0.040237952 -0.033412263 -0.03492487 0.087121874 -0.28249133 0.5097948 -0.18030658 0.3894244 -0.07641254 -0.029732436 -0.11051153 0.17633615 -0.092602365 -0.55515516
1527 -0.2944365 -0.0015879758 -0.68344015 0.18988973 0.0853875 0.22804633 0.221839 -0.3405858 -0.2545476 0.13026391 -0.22931476 0.12310536 -0.16348192 0.27125007 0.058210146 -0.31680822 0.096912615 -0.5086711 -0.18997231 -0.33141848 0.0023231935 -0.5690857 0.14209987 -0.43258163 -0.40118814 -0.4325983 -0.4770811 -0.1387267 -0.41294953 0.014973131 0.027586639 -0.02405827 -0.037983954 0.16029699 -0.11007582 -0.001144925 -0.10466085 0.17657822 -0.18377596 0.5874165 -0.3419115 -0.15568426 0.38542596 0.13791475 -0.08333287 -0.1548952 0.03842371 0.3221526 -0.37228307 0.16773665 0.37430325 -0.14168619 0.1314671 -0.03403651 0.17559114 -0.40582344 -0.38609716 -0.29830787 0.2936454 -1.0354888 -0.18407185 0.24312948 0.032994974 -0.2965349 -0.22417986 0.09760719 0.46416098 0.43369213 0.094402224 -0.40755692 -0.26069984 0.4409172 0.35779572 0.08666787 0.30891487 -0.3415711 0.12622344 -0.25144437 -0.5333897 0.12664978 0.3430861 -0.5151389 -0.6385809 0.7755734 -0.4419606 0.02774461 0.08852437 0.13263695 0.041798133 0.34552392 0.30079618 0.48602277 0.24173811 0.534314 0.1809741 0.1669039 0.43776232 0.31612623 0.25257578 -0.22426976 -0.35415164 0.3856168 -0.08687602 0.46626747 0.016741283 -0.25487465 0.23532262 0.13028751 0.16473924 0.010701219 0.2617371 0.04841498 -0.0008468284 0.28675497 1.0726404 0.32170275 0.16149251 0.011071301 0.15804149 0.22146893 -0.04999879 -0.03268591 -0.052837946 -0.30034542 0.32095188 0.34863898 -0.0127165755 -0.5728266
1328 -0.33485326 -0.1091417 0.4887159 0.32944888 0.3131501 -0.4886704 0.31460422 -0.29899833 -0.2090074 0.17045034 -0.2521679 0.0492592 0.068315305 -0.23535387 0.17469382 -0.23363468 -0.11795218 -0.40280628 -0.14999723 0.5968633 0.67287457 0.04823164 -0.031600665 0.28472325 -0.42293063 -0.6881665 -0.48054934 -0.05055957 -0.20416066 -0.2148178 -0.045458373 -0.21553786 0.94560885 0.109210044 -0.6939793 -0.16690132 0.23107031 0.5924854 -0.26682186 -0.13162352 -0.35072395 -0.17075248 -0.036845326 0.2466501 -0.41645586 -0.06741338 0.13396738 0.008277759 -0.14191745 0.2926728 -0.62988746 0.14523533 0.16270253 0.19767527 0.173478 -0.3373991 -0.21051651 0.46319196 -0.0763155 -0.13792402 -0.33885068 -0.13004082 -0.14635782 -0.21017762 -0.4491735 0.21203312 0.2474163 0.52919143 -0.037361134 0.20189683 0.55428237 -0.055881657 0.3525943 -0.33610892 0.06558078 -0.0139582595 0.088999175 -0.23343204 -0.18566532 0.1597029 0.37028122 0.41173413 -0.4700713 0.16195627 -0.5999571 0.48015484 0.7328628 0.40075865 -0.30948868 0.321355 -0.025533691 -0.28471345 0.272805 0.20829919 -0.39610127 0.17545588 0.521726 0.5916289 0.22209828 0.2048396 0.108422354 -0.11824391 0.28354844 0.43090782 0.18852878 0.22837138 0.5395773 -0.13593529 -0.19637777 -0.14347324 -0.19114627 -0.06311284 -0.019375205 -0.0059776856 0.20532893 -0.17643863 0.058665473 0.3044204 -0.47491968 0.14623915 -0.37534165 0.40886915 -0.24112557 0.5998015 0.28211525 0.1335407 0.045930278 -0.24769552
1644 -0.42857185 -0.0100468835 -0.11165531 0.073049314 0.53297794 0.07197811 0.28693444 -0.22138743 -0.6221261 0.27565706 -0.44730237 0.40429807 0.10683745 0.46261737 0.15315032 -0.20188321 -0.09627732 -0.011756636 -0.0077138874 0.26959112 0.34198108 0.17790805 -0.10476928 0.20322286 -0.16559209 -0.5615813 -0.5246344 0.30995136 -0.38635406 -0.07986819 0.25657997 -0.22416057 0.5646413 0.30351445 -0.5782215 0.042723864 0.02791503 0.27139273 -0.042659882 -0.24485448 -0.15010478 -0.26786146 0.36821005 0.52956986 0.15085046 0.1032526 -0.10374747 0.3343033 0.17484687 0.051202066 -0.26175803 -0.07010732 0.25389016 0.43313777 -0.24177529 0.097466044 -0.019822307 0.20521455 0.5662232 0.092559904 -0.54959404 -0.06765446 -0.16603021 -0.13674791 -0.33040112 0.2738632 0.052319583 0.45445055 0.15330662 0.3157891 0.18410861 -0.17355642 0.644085 -0.27584034 0.4129566 -0.006685951 0.47306564 -0.17362401 -0.21872053 -0.16506168 0.004171993 -0.08057167 -0.28074002 0.029150076 0.24003352 0.3897006 0.6622132 0.39541417 -0.11448784 0.38154483 -0.06500739 -0.13570465 0.19137764 0.26339567 -0.1389716 0.05339427 0.3623859 0.26817244 -0.0791908 0.29221535 0.59344435 -0.16763139 0.23523298 -0.03712316 0.04856407 0.30145994 0.20596845 -0.43155512 0.16290894 -0.34134927 -0.2954625 0.08895664 0.04542485 -0.22330244 0.07607725 0.17226952 -0.08056363 0.18853404 0.06386749 0.24779123 -0.22458465 0.49180466 -0.41121235 0.58330315 0.11115714 0.5159386 0.3879348 -0.14171775
570 -0.53752285 0.60183704 0.12555373 -0.048007138 -0.115105785 -0.42640263 -0.083054446 -0.561501 -0.09007869 0.2851396 -0.033667807 -0.8436323 0.6903682 0.77552307 -0.27723774 -0.3590575 -0.50170135 -0.6844456 -0.018026784 -0.17595981 0.074831106 -0.5717241 -0.07816096 -0.0012453136 -0.5651367 -0.11357104 -0.21671529 0.11156105 -0.20064887 -0.307795 0.027381448 0.6202568 1.1564052 0.76880026 -0.4682038 -0.16067435 0.11278035 0.2924946 -0.49600035 -0.11824435 0.5307429 -0.53445965 0.26674876 0.7675558 0.06546795 -0.1210821 -0.0930837 0.2560816 -0.08578728 -0.10670891 0.08361607 -0.15064053 0.30642673 -0.25479355 0.6380435 -0.30421022 -0.027815443 0.1643225 -0.5165906 -0.71564424 -0.428301 -0.20365705 0.031827424 -0.13147883 -0.48854563 0.14242136 0.14639677 -0.10401507 0.28052714 -0.27728775 -0.1264611 0.35676903 0.15590167 0.32236263 0.07824777 -0.18913916 0.13627423 0.12060478 -0.23952472 -0.5106834 -0.027112989 0.28329238 -0.15427968 0.31713584 -0.1836553 -0.20645677 0.17361416 0.16425616 -0.45069805 0.018190416 -0.057342753 -0.21949677 -0.021080408 0.012945911 -0.0641131 0.07645573 0.60432285 -0.15065967 0.12772672 -0.40185302 0.07037452 0.111979686 -0.14663291 0.30232608 0.85986716 -0.4241941 0.35636938 -0.37233168 0.16430071 -0.71594363 -0.6700001 -0.44780794 0.15515083 -0.020242153 0.41252652 0.38975334 0.069900215 -0.07243592 -0.034146816 0.31163263 -0.0019595332 -0.45719594 0.6929596 0.5113292 -1.0846295 0.68933046 -0.19256142 -0.14502168
1459 -0.19160211 0.3733047 0.22575238 0.32152295 0.3268994 0.25742167 0.16020548 -0.45819676 -0.1713352 -0.067817464 -0.42964536 0.046179805 -0.0009984539 0.6195934 0.011806741 -0.46463755 0.35132867 -0.50391775 -0.14168322 -0.2663118 0.3712775 -0.10807438 -0.25258297 0.109879255 0.04860568 -0.17492783 -0.4896049 -0.3283121 -0.4480081 -0.40536627 0.100054964 0.27184996 0.26328677 0.14024095 -0.28531212 0.09462797 0.114112556 0.47263592 -0.22651656 -0.070686795 0.35159808 -0.027808923 0.41515675 0.2013445 -0.22504608 -0.12834921 0.20968099 0.38915482 -0.039548628 0.21325283 0.15596612 0.2853675 0.17079005 0.4092614 0.27225932 0.21731442 -0.44346094 0.11510284 0.6317619 -1.0296206 -0.19203655 -0.06795151 -0.23537505 0.014305308 -0.18648143 0.2866484 0.078492075 0.6956264 -0.47760975 -0.40117022 0.014020783 -0.054239277 0.08371991 0.09935985 -0.025231771 -0.7598154 -0.013181261 -0.39913115 -0.05506529 0.13337356 0.10028948 -0.35121515 -0.3340325 0.26999027 -0.39974475 0.113659754 -0.07141062 0.123325266 -0.0411578 -0.29598227 -0.03200566 -0.16639349 0.016847553 0.260856 0.5279909 -0.07212218 0.18129566 0.17255701 0.3277763 0.32565096 0.32235578 0.10365133 0.12849048 -0.23388335 -0.036536526 -0.36082014 0.48760465 0.20848642 -0.015389172 -0.27279216 0.30377078 -0.11419859 0.094800256 0.18749101 0.6572931 -0.13650429 0.11334536 0.07860798 0.3995723 0.08810747 -0.15982041 -0.20132628 -0.13880764 -0.3972327 0.13807353 0.12584397 0.03136182 0.13802145
591 -0.36799923 0.4622509 0.007716016 0.31112307 0.2742809 -0.4255695 0.25745022 -0.22996461 -0.19913745 0.0985368 -0.44434583 -0.06642313 -0.2844113 0.755729 -0.35087013 -0.051244978 -0.108434334 0.18353626 -0.26461858 0.027324282 0.36285698 -0.043277595 -0.21794999 -0.36779943 -0.23803557 -0.13138874 -0.61875737 -0.44405994 -0.16007356 0.3049892 -0.14133532 0.3063562 0.49003124 0.27490547 -0.4504034 0.092292435 0.5247642 0.63124526 -0.21406728 0.2471127 0.4485438 -0.35217574 0.28821224 0.9146736 -0.26300183 -0.2190806 -0.36549175 -0.01780304 0.26095167 0.08262335 0.26504433 0.39693233 -0.10987981 -0.059736148 0.496523 -0.49980405 -0.36116 0.1595205 0.22351539 0.1564785 -0.26423958 0.10991303 -0.11765994 -0.07952862 -0.21218957 0.610829 -0.040905055 0.0098003745 -0.14686634 0.11663268 0.055222705 -0.11668019 -0.172934 -0.60208184 0.07079848 -0.16200288 -0.23072821 -0.17419161 -0.16181432 0.39968884 0.19064268 -0.27196872 -0.48671308 -0.31563118 -0.42638713 -0.38216215 0.6475571 0.35481754 -0.24879439 0.35830784 -0.08436072 -0.054145563 -0.41792205 0.3199994 0.06843349 -0.08462676 0.71458954 -0.109392665 0.55307376 -0.23228829 0.23192354 0.10373491 0.27193034 0.43058267 -0.14014241 -0.3616667 0.015654279 0.32398283 0.16324982 -0.04036735 0.1911282 0.33789563 -0.2716454 0.4974062 0.23559126 0.3216699 0.45948443 0.35580283 -0.06318487 0.2874145 0.7219487 0.07817104 -0.35474735 0.28261098 0.17429571 0.14896029 -0.0024292856 -0.058107473
1290 -0.5947337 0.07177676 -0.42315304 0.1467081 0.28056437 0.18843485 0.010042105 -0.40020117 -0.43823543 0.56503034 -0.34669226 0.23754735 -0.40043712 0.7185662 -0.051446844 -0.017586082 -0.4347764 -0.011698764 -0.62918746 0.27841026 0.4632207 0.12909108 -0.26692805 0.34031412 -0.031476375 -0.65410745 -0.36692002 0.41751102 -0.06829962 0.20393413 -0.0014296824 -0.07735905 0.5339073 0.20515454 -0.48111245 -0.2396382 0.19184756 0.02130675 0.42729455 -0.0989042 -0.35441703 0.029353501 0.5225745 -0.009609729 0.06353738 0.034871027 0.27884176 0.23804104 0.26558536 0.18113446 -0.13011202 0.11974549 -0.1566457 -0.05875274 0.13976227 0.06422156 -0.24176767 -0.0682545 0.31533742 -0.123150796 -0.4753066 0.23599158 -0.20576103 -0.34428248 -0.094430745 0.5576049 0.19627082 -0.09041689 -0.23534724 0.1858117 0.0054200375 -0.009071976 0.51428086 -0.047981925 0.20999303 0.17720027 -0.31817877 -0.06424883 -0.2536015 -0.20023368 -0.1101185 -0.088947415 -0.5772866 0.42139685 -0.30918965 0.5444699 0.4670778 0.57165945 -0.039624702 0.11974064 0.15391153 -0.014639112 -0.22523822 0.49305558 0.037325744 -0.28769147 0.59068966 0.7904696 0.29450545 0.1863597 0.1375705 0.07211291 -0.07525776 0.13894315 -0.1575014 -0.049422324 -0.049087733 -0.08234036 0.105371006 -0.1386829 0.0893238 -0.123302594 -0.024705373 0.23674494 0.47615463 0.26778564 0.24247468 -0.117769286 0.08101579 0.52265173 0.31083232 0.32165226 0.1520725 0.3807566 0.21564454 0.2113633 0.05425317 -0.205763
359 -0.7834309 0.722575 -0.09966155 -0.31444335 0.1272897 -0.31294718 -0.10785648 -0.6528919 -0.31319728 -0.03849469 -0.5419096 -0.6667145 0.51694393 0.37579003 0.055489637 -0.46333718 -0.25185078 -0.40634048 0.13491867 -0.17749706 0.10261287 -0.43542612 0.15754797 -0.24694994 -0.6316574 0.23784964 -0.45176005 0.071526036 -0.009438141 -0.3506094 0.085497715 -0.00040970472 0.31828204 0.58176154 -0.3984183 -0.002239149 -0.08164312 0.5343959 -0.38070902 -0.44295138 -0.091182075 -0.56022215 0.59589887 0.58543205 -0.24585502 0.023664225 -0.03987624 0.034584284 -0.537412 0.26256675 -0.014276541 -0.056263946 0.32464308 0.07321226 0.36638218 -0.16537516 0.49141625 0.3662377 -0.329047 -0.43800765 -0.22144665 -0.21748224 -0.15226442 -0.31145483 -0.42093912 0.6426365 0.41293752 -0.10981998 0.15291192 -0.54306036 -0.055838488 0.04042463 0.31698185 0.36001855 0.25295028 -0.15494117 0.23171882 0.04074353 -0.16239037 0.35178858 0.3292941 0.253662 -0.17444685 -0.3670869 -0.39198318 0.1631916 -0.111194775 0.6139781 -0.566939 -0.050146297 0.0791816 -0.68713415 -0.04520843 -0.17605422 -0.3315792 -0.17086582 0.4764542 -0.12212128 0.17943446 -0.34096894 0.0779585 -0.14701179 -0.27124926 0.21540819 0.4672065 0.23316567 0.47794837 -0.49253437 -0.019747382 -0.2372748 -0.24200486 -0.43007603 0.052429736 -0.3316301 0.3533027 0.16722895 0.32779714 -0.5629811 0.026765082 -0.11277352 0.059869945 -0.36999786 0.5700279 0.04796774 -0.5706907 0.7742317 0.21801029 -0.13547081
188 0.2228823 -0.076038375 0.19327869 -0.096514285 0.19996424 0.43014666 0.11681538 -0.6150146 0.12129113 0.1575721 0.06562674 0.12894994 0.16490313 0.5591057 -0.27690685 -0.10449305 0.06297162 -0.07864694 0.16474617 0.11571283 0.16094649 0.06451687 -0.27360696 0.39294025 -0.10067234 -0.18875937 -0.33518064 -0.32279676 0.26909944 -0.14467412 0.48234546 -0.52010316 0.060264792 -0.32856494 -0.08845408 0.12199122 -0.03716082 0.25425473 -0.56418043 0.05617986 -0.052717857 0.058133014 0.7921772 0.79330623 -0.35302618 -0.35471952 0.069687165 -0.15994957 -0.120479584 -0.22003494 -0.030001428 -0.17612518 -0.02912252 -0.096454725 -0.18218178 0.104826145 0.15199555 0.6087214 0.1054442 0.072917886 -0.46376112 -0.18671039 0.47214606 0.3753555 -0.32373032 -0.09919085 0.0071432437 0.090346865 0.2287827 -0.16330366 0.16611725 -0.047261797 0.407282 0.40999317 0.0062368913 -0.6001023 0.7951958 -0.28134775 0.2508341 0.10702377 0.0019619497 -0.30430487 -0.10430224 -0.02338918 -0.33813366 0.2820165 -0.12004437 0.36086228 -0.18937124 -0.3458242 -0.04973989 -0.8432404 -0.11407355 0.34682584 -0.015554601 -0.34806 0.12911642 0.0043714396 -0.27699748 0.068707 0.28350505 0.2690344 0.28911465 0.61518735 0.44524395 -0.047671355 -0.054291114 0.012885094 0.17642628 -0.033254195 -0.17190588 -0.2614064 -0.023266047 -0.08630389 0.3888309 0.33115402 0.059377644 0.26612082 -0.12246549 0.5516229 -0.40556967 -0.17942347 -0.22246042 0.3364278 0.17194231 0.1480351 -0.210346 -0.085202396
426 -0.37198952 -0.28786552 -0.101269454 0.4968019 -0.22755717 0.22401655 0.28289732 0.09930186 -0.6930183 0.08777521 -0.14598764 0.23959576 -0.18183532 0.3825355 0.05123288 -0.0037363693 -0.7263492 -0.11212291 -0.75070804 0.003439698 -0.03590875 -0.3480435 0.049329545 0.44686309 -0.23154524 -0.34189838 0.14641161 0.117248155 0.055055395 -0.11405412 0.13078804 0.24131042 0.84628063 0.31904367 -1.0519909 0.28648767 0.21071163 0.0541383 -0.48658562 0.29180568 -0.21795428 -0.045774274 -0.11260613 0.40265447 -0.12495042 0.09241108 0.0686182 0.26474616 0.1651332 -0.08535155 0.1638254 0.34497115 0.115825206 0.0005232404 0.0055814004 -0.22175476 0.07694888 -0.07472129 0.3683048 -0.13082741 -0.5199333 -0.23902152 -0.24460414 -0.26077974 -0.54146636 -0.22250374 0.032631073 -0.042478044 -0.31614393 0.107728764 0.18433474 -0.19851656 -0.28493175 0.17384341 0.2809037 -0.3322458 -0.17808963 -0.3351656 -0.18967788 0.16581668 0.17013054 0.346084 -0.32768965 -0.008083155 -0.21519454 0.19404379 0.258591 0.28359914 -0.2830742 0.17446604 -0.055523094 0.057330064 0.10288202 0.50071067 -0.15584905 0.2079346 0.28740743 0.46217492 0.49173427 -0.022963446 0.38999796 -0.08010402 0.39745092 0.33839297 0.123802595 0.17039573 0.625465 -0.06127981 0.04338755 0.10546569 -0.7223106 -0.37230703 0.097553454 0.5652744 0.45033473 -0.12359506 -0.0885419 0.00092312857 -0.016156036 0.46692175 0.16221616 -0.08287718 0.2168541 0.9064759 0.24233302 0.5046041 0.08954562 -0.24940622
2499 -0.8136623 0.62664425 0.055665396 -0.36501902 0.29454544 -0.35406414 -0.08114662 -0.6167087 -0.32738608 -0.20458718 -0.6247409 -0.6774429 0.54075754 0.40087143 0.114839874 -0.1908001 -0.46710184 -0.6026505 0.1983721 -0.13529642 -0.026631603 -0.3293393 0.1533613 -0.213531 -0.8370466 0.17497842 -0.6557744 0.057083566 0.17712525 -0.1927784 0.07016273 0.04590697 0.24274626 0.67587125 -0.14733152 -0.104985945 -0.088202186 0.54454046 -0.3744994 -0.47278306 0.031347618 -0.39911717 0.7077704 0.68644565 -0.03144288 -0.036064237 -0.3096306 0.1760483 -0.48504642 0.3311831 0.10125633 -0.009771016 0.29702893 0.20224461 0.33886114 -0.1090448 0.45044732 0.21644683 -0.26599678 -0.607425 -0.12251154 -0.26568955 -0.19796261 -0.49100998 -0.503566 0.64974385 0.1371147 -0.11028065 0.17213427 -0.48778 -0.037041016 0.11070321 0.21243124 0.26650265 0.20450096 -0.31810272 0.2548258 0.08078643 -0.10704859 0.10845543 0.2732541 0.05727194 -0.09800968 -0.15088966 -0.22147764 0.18287557 -0.06554871 0.45799264 -0.65633506 0.024783168 -0.060071953 -0.40666813 0.097021736 -0.10821951 -0.32774368 -0.0536694 0.47182643 -0.20498432 0.16019168 -0.22145818 0.30528882 -0.038625244 -0.18196164 0.25473353 0.3353119 0.09778599 0.33151004 -0.58300376 -0.047819994 -0.3275903 -0.13762598 -0.39020675 0.038233116 -0.38454783 0.44338548 0.12701085 0.26210564 -0.49225318 0.20938729 0.028977485 -0.13811472 -0.2958545 0.48138142 0.057207283 -0.6632281 0.7046256 0.22301404 -0.101302065
66 0.18600215 0.23494567 0.08577365 0.3529996 0.21577884 -0.014547536 0.21069986 -0.20616655 -0.101809666 0.13681445 -0.5011028 -0.5242772 0.15121904 0.16453585 0.3913256 -0.1039993 -0.08722039 -0.16540569 0.14395307 0.57421255 0.12490664 -0.3673041 -0.17774047 0.47512832 -0.24888356 0.10252183 -0.45652995 -0.011061745 -0.16158254 0.18580227 -0.17497624 0.29596415 0.6603854 0.29317233 -0.5794671 -0.3004396 -0.24756105 0.30431187 -0.28776485 -0.01632824 0.11331884 -0.2964606 0.2776818 0.440174 0.085674345 0.34300414 0.3285148 0.24855565 -0.13463421 0.03946301 0.5327654 0.00012396644 0.22785752 0.1839889 -0.06382744 -0.31766585 -0.12906311 -0.06654687 -0.08432888 -0.35625646 -0.4959813 -0.20151274 -0.24549963 0.04471767 -0.1613092 0.053773277 0.5848793 0.59764373 -0.23441586 -0.029139359 0.21170528 0.48750165 -0.0024568166 0.04644741 0.20356779 -0.15304743 0.64763993 -0.6593933 0.3655584 -0.10640314 -0.034532618 0.1934697 -0.42137772 0.22872007 -0.50572836 0.24573351 0.16373248 0.25945166 -0.11257636 0.107337475 0.24376757 -0.13684125 -0.3486325 0.2015463 -0.093176685 0.018016733 -0.34858054 0.7081229 0.012327162 -0.091410935 0.071751446 0.29843915 0.00787042 0.5439099 0.1638077 0.5492131 0.6117886 -0.17787743 0.21765266 -0.061677612 -0.053950846 -0.39715227 0.2753614 0.511871 0.6517278 -0.62463135 -0.34713542 0.0032042982 -0.07165423 0.048308056 -0.19011636 0.24345215 -0.19074884 0.33029732 0.44871816 -0.25303668 0.34837356 -0.48559976
250 -0.9351442 0.09360505 -0.26471964 0.43067318 0.014167074 -0.024305642 0.30719995 -0.35100782 -0.047918104 0.1258855 0.12427471 -0.40305743 0.20037584 0.31294215 -0.21656284 -0.52909917 -0.40986097 0.13226715 -0.052340154 -0.22901352 0.6703958 0.14604925 -0.12829117 -0.3906273 0.007849259 0.22269675 -0.7698834 -0.10619796 0.16623227 0.041087605 0.34296533 0.22909744 0.24270712 0.13034745 -0.10245171 -0.39592478 0.46404752 0.45971376 -0.28180873 0.0020431245 0.26138392 -0.31153953 0.1596709 -0.17705366 -0.23132052 -0.05369831 -0.002351902 0.6273746 -0.123709224 0.13503799 0.13404672 -0.056717794 -0.12873843 0.04745319 0.5413736 -0.011347931 -0.16227934 -0.21135147 0.076924734 -0.42965636 -0.15539855 0.27019498 -0.10643201 0.12884647 -0.49498376 0.67361116 0.21414459 0.03283011 0.48524252 -0.35596547 0.19837627 0.35295504 0.2398517 0.45136443 -0.082269646 -0.04474612 -0.22054064 -0.16405666 -0.17721456 -0.062469028 0.63121426 0.0028780657 -0.38562334 -0.04907102 -0.31159535 0.73828137 -0.000144129 0.3029332 -0.14350843 -0.10045519 -0.24026313 0.17374445 -0.07720272 0.019699398 0.30986178 0.24751173 0.21839805 -0.24626628 -0.25562993 -0.12942185 0.25854313 0.13683528 0.17749651 0.5466356 0.09594732 -0.5775488 0.12796222 -0.12027017 -0.39519316 -0.11869495 -0.13007821 -0.111938775 -0.21220325 -0.13894843 0.081986755 -0.14894678 -0.34392965 0.07702189 -0.047156893 0.3178406 -0.46801966 0.024668338 0.016266147 0.27790996 0.04561661 0.055221114 0.095825695 -0.6702036
478 -0.25439382 -0.16023628 0.1067715 0.3842027 0.7045358 0.10944589 0.14649305 -0.083017975 0.021208905 -0.04894928 -0.058843315 -0.12112868 -0.69463974 0.46259353 0.24587908 -0.6025406 -0.062102728 -0.23248425 -0.012363679 -0.08166516 0.18034562 -0.025946153 -0.18074779 0.41193852 0.16065603 -0.52798057 -0.73457134 -0.25037622 -0.28693548 0.22204329 -0.14277108 0.059764154 0.16428898 -0.22705807 -0.4233977 -0.38869134 -0.2306251 0.24174191 0.09436211 0.07815784 0.12409174 -0.28277567 0.6386699 -0.09086779 0.02740308 -0.15189864 0.3826727 -0.13239971 -0.44969162 0.27469411 0.3867837 -0.1045637 -0.057084773 0.14308561 0.26270905 -0.37218696 0.13378169 0.09374317 -0.25086033 0.13439487 -0.49227452 -0.24932137 -0.43081298 -0.27650282 -0.11123694 0.11510935 0.31529295 0.042457398 -0.3466634 -0.24536884 0.15857223 0.25717926 0.059325818 0.0679022 -0.3420365 -0.22361729 0.5388682 -0.24148914 -0.106987275 -0.34481475 0.51582545 -0.37474748 -0.511105 0.18283562 -0.4751114 0.09181561 0.035292573 0.22721353 -0.058544956 0.036453415 0.48113945 -0.117974505 0.020691566 0.18075037 -0.18718229 -0.20101584 0.3206704 0.6650085 0.22777618 0.1672412 -0.08647355 -0.292445 0.21163256 0.35654464 0.2155438 0.10318112 0.12964873 0.043925263 -0.15760787 0.15401764 0.058647282 -0.10177897 0.4269358 0.28365198 0.34626642 -0.18927573 0.29590395 0.24786957 0.021085115 0.16198698 0.03554779 0.26531726 -0.114176065 0.11064952 0.13536176 -0.11463971 0.19948168 -0.26307598
686 -0.26997778 -0.17595066 -0.13073352 0.40404987 0.18394382 -0.36794904 0.35171497 0.22610168 -0.6105415 0.016979476 -0.11769384 0.434492 -0.3323741 0.112740695 -0.31415725 -0.1851775 -0.5326692 -0.0022698801 0.29989937 0.61014926 0.32315338 0.44725356 -0.44039077 0.43343312 -0.03691631 -0.37231964 -0.40972397 -0.12030546 0.06704344 -0.05640926 0.0828911 0.07581218 0.47749484 0.07009641 -0.41604903 0.007766134 -0.33173588 0.44485274 -0.72927725 0.25508747 -0.20245065 0.036442015 0.0067614387 0.31361377 0.00047185994 0.20190741 0.022196382 -0.2630674 -0.20212217 0.24212809 0.16922612 0.17288256 -0.054011703 -0.076162174 0.306406 -0.27026957 0.28331724 -0.16835225 0.22330166 0.07400816 -0.10178069 -0.0769831 0.114975825 -0.24198692 -0.45236775 0.06673271 -0.1550492 0.06407347 0.092079565 0.06286978 0.14591147 -0.13361004 -0.40927753 -0.076698124 -0.03566054 -0.22802854 -0.2158815 0.06568441 -0.12826186 0.6165348 -0.06492894 -0.04425 -0.6058571 -0.15122187 -0.06743574 0.39907297 0.29212102 0.04040493 -0.2839429 0.3764165 0.10708557 -0.0677216 0.07518978 0.510191 -0.26819077 -0.014049608 0.32032353 0.65732855 0.05692442 0.21138152 -0.34051043 -0.052733954 0.064798675 0.8446354 0.31264076 0.17408036 0.49817246 0.4043802 -0.09454728 0.4707468 -0.092226826 -0.2104768 -0.15868765 0.16773084 0.5143335 0.023621416 0.114297405 0.48726484 0.07259346 0.36660284 -0.31344384 -0.48479038 -0.061498854 0.15692349 0.35124022 0.08802742 0.2190252 -0.41867337
1136 -0.24536043 -0.1898936 0.14417183 0.39288428 -0.0124989655 0.3805058 0.19050638 -0.2655986 -0.028131776 0.06425357 -0.026935216 -0.5744324 0.06222012 0.9074585 0.075220674 -0.120204665 -0.43230346 0.26090425 0.5777931 0.052623183 0.37277544 0.003371276 -0.1727111 0.13164915 0.24352595 -0.21199065 0.46562696 0.42624542 -0.10233244 -0.50475985 0.24340415 -0.0706116 0.4887069 -0.08281553 -0.16590407 -0.06740757 -0.17230557 0.062776126 -0.32273155 0.27122864 -0.22073792 0.14424868 0.25992098 0.575256 0.052590556 -0.041543525 0.3506521 -0.46798763 0.032098852 -0.11571324 0.21184154 -0.39273253 0.15568969 0.20669848 0.065275006 -0.072588 0.022030186 0.6790438 0.0043397495 0.036765937 -0.16303213 0.2986645 0.24653685 -0.40662223 -0.59805447 -0.07177702 0.02537621 0.12106162 0.52690285 0.014431521 -0.31615737 -0.3594924 0.18336196 0.5510489 0.11476034 -0.6499325 0.20350876 0.009836912 0.28505987 0.1747168 0.02049717 -0.23112622 -0.34378457 0.010054117 -0.4287872 0.18321474 0.20893377 0.12550211 -0.049555093 -0.07838659 -0.10201091 -0.38958213 -0.3282998 0.5537503 0.12894627 -0.2636432 0.46063823 0.22465187 0.08917683 -0.16762291 0.09234812 0.013632937 0.16905767 0.3599372 0.3104805 -0.16465549 -0.123655975 -0.6046363 0.08331392 0.031130949 -0.06903975 -0.5002678 -0.030139696 0.2623716 0.46149093 0.39413044 -0.1391601 0.18520907 0.11541441 0.6267175 -0.19612443 -0.58914477 0.045996938 0.21172693 0.50395125 0.32189494 -0.39436167 0.17130134
76 -0.9720798 0.22052301 -0.37804404 0.20215672 -0.048830993 0.06260997 0.2423417 -0.45891386 -0.13215661 0.27508858 -0.7006344 -0.041537683 -0.119084276 0.24570473 -0.6488787 -0.46052548 -0.34235048 0.3053738 -0.046296693 0.019639434 0.8388379 0.027570022 -0.19168566 0.032229535 0.06716047 -0.14704634 -0.79556274 -0.05007522 0.21703303 0.16112755 0.1158702 0.2244384 0.46592796 0.33726895 -0.22596298 -0.059378944 0.40700492 0.2303398 0.02746041 -0.3393648 -0.16092615 -0.47385547 0.2426252 0.105423085 -0.35014865 0.06330783 0.06733243 0.60303736 -0.14570509 -0.0618182 0.15297951 0.020931724 -0.13649915 -0.12555979 0.67900085 0.19431178 0.12821786 -0.06721678 0.17847495 -0.32741186 0.2692921 0.49606818 0.2111112 -0.026818994 -0.57292885 0.46113718 0.36795816 0.002427065 0.09906693 -0.41760033 -0.0076222494 0.36772513 0.20603475 0.097484566 0.21958664 0.184685 -0.22757307 -0.64774555 -0.010982531 -0.07139552 0.45806816 0.12824126 -0.50594723 0.13613275 -0.32605562 0.6462593 -0.11290524 0.387606 -0.14320144 -0.5539233 -0.2860285 -0.10924127 -0.034921765 0.24945739 0.18890691 -0.027789028 0.26132452 -0.053981222 0.05782861 -0.20381713 0.20703864 0.0523284 -0.23727658 0.28848305 -0.06467813 -0.5287544 0.3978742 -0.1831333 -0.15843756 -0.24695353 0.2155909 0.03336593 -0.20614202 -0.53921765 0.14252874 -0.46825016 0.17030595 -0.05515137 -0.04989571 0.19756117 -0.14341567 -0.08417819 0.10035881 0.22788598 0.17504309 0.25391904 -0.14174612 -0.18508835
1484 -0.5358876 0.10814821 -0.082974605 0.056771643 0.04239015 -0.6494042 -0.30384356 -0.20154501 -0.18823026 0.53447384 -0.5415936 0.042078182 -0.3085651 0.13882211 -0.197722 -0.2058555 -0.08863389 0.058779214 -0.036578555 0.3598272 0.30558917 0.43504372 -0.24717866 0.18422306 -0.41516215 -0.8119257 -0.16412087 0.19638275 -0.08392664 0.04351066 -0.3558498 0.484219 0.884755 0.06292357 -0.47053272 0.04459504 0.06626668 0.17050305 0.30583608 -0.062692665 -0.19924955 -0.27326283 0.10264008 0.5301171 0.28693599 0.114936374 0.11247052 0.3487232 0.20526326 0.3196434 -0.20222087 -0.23179968 0.037423447 -0.26448703 0.45535487 -0.07358805 0.06717748 -0.2098519 0.34147125 0.35603884 0.08464774 -0.018246539 -0.24629906 -0.27969006 -0.25427595 0.07501542 0.16872363 0.079911485 0.26518497 0.28934035 -0.06570167 0.32896814 0.2930831 -0.23373862 0.16742073 -0.06302784 0.29662436 -0.12625258 -0.24642502 0.15667583 -0.084431835 0.015747126 -0.30523953 0.16380769 0.05402309 0.33464828 0.620635 0.6232922 -0.18701375 0.3449681 -0.05057044 0.5196022 0.09353273 0.7881864 -0.043990817 0.14950469 0.8751668 0.55128855 0.16942504 -0.0889638 0.33735266 0.04068777 0.0109973885 0.37916663 0.2384997 -0.4311986 0.0037540796 -0.30523616 0.1945625 0.31849653 -0.34647804 -0.31917387 -0.10370284 -0.31570098 0.34582797 0.36723238 0.03566159 -0.07896818 -0.12287533 -0.06852709 -0.08074657 0.027805734 -0.08349249 0.6167232 -0.026605757 0.6727655 0.1881883 -0.25003242
1569 -0.2998726 -0.19154897 0.41237733 0.5915628 -0.29176715 0.11798321 -0.059574276 0.7001227 -0.08984139 -0.107213244 -0.17369482 0.18677606 -0.2917214 0.22738874 -0.2162953 -0.29979366 -0.65111434 -0.26818642 0.08289251 0.27464426 0.005782083 -0.45545065 0.025630131 0.2187105 -0.42380533 -0.39943668 -0.3196333 0.14684384 -0.14656742 -0.10884124 -0.34291697 0.2622372 0.71098006 0.25096333 -0.48433435 -0.06186275 0.18407139 0.024533775 -0.5373073 0.11431932 -0.37674308 -0.25146115 -0.28146282 0.61778665 0.15062529 -0.0054849456 0.04440954 0.53039765 -0.17686702 -0.049661245 0.25736094 -0.124258 0.3101092 0.15980203 0.37167645 -0.274071 0.593231 -0.46744797 -0.30832967 -0.3823552 -0.2765895 -0.058747936 0.03447115 -0.48782495 -0.29279417 -0.10750744 0.22781742 -0.061451424 -0.071201175 0.14658836 0.10034025 0.26360333 -0.36441588 0.06324967 0.0754694 -0.20272465 0.1941372 -0.19205625 -0.060503256 0.21314554 0.5446377 0.00125959 -0.6042742 0.22535144 -0.25064728 0.35669354 0.36958826 0.2852952 -0.37260315 0.27765658 -0.11438434 -0.17576282 -0.1611018 0.85333717 -0.014723552 -0.3641078 0.25145307 0.41843647 0.4628429 -0.021691011 0.021802243 -0.24630263 0.26223972 0.31528622 0.6160579 -0.023817888 0.39409065 0.060547758 -0.13307047 0.279448 -0.323175 -0.3871558 -0.07948893 0.3263583 0.6435232 0.12010668 0.103073694 -0.20396791 -0.29431134 0.61098063 -0.20034324 -0.08326115 -0.23639175 0.7677295 0.18260664 0.27081972 0.15812095 -0.23381287
1153 0.09030334 0.28656837 0.49962687 0.10221884 -0.08195545 0.46544194 -0.17568207 -0.5067875 -0.17479643 0.54778093 -0.29285464 -0.47914165 -0.29880825 0.883417 0.22110564 -0.016212732 -0.41258737 0.06015939 0.730426 0.15111358 0.4465926 0.08078971 -0.16033618 -0.08357494 0.13037093 0.16207829 -0.024570528 0.5148664 -0.16979718 -0.34105232 0.43417624 -0.47285822 -0.021052722 -0.10997494 -0.2372546 0.12105456 -0.16996363 0.04630631 -0.51402485 0.12809208 0.10320278 -0.1298291 0.5762771 0.61900425 0.08654593 -0.02901068 0.20894268 -0.3182367 0.2292836 0.025079176 0.09800509 -0.3736968 0.20825495 -0.0495163 0.10098009 -0.28642905 0.35472932 0.3869425 -0.056961544 -0.18526681 -0.06624466 0.09029161 -0.19663267 -0.06861559 -0.2916691 0.11365918 -0.30822158 -0.16905284 0.5421138 -0.16754259 -0.15070452 -0.27195075 0.14172792 0.24469939 0.31833938 -0.4127846 0.42320955 -0.4214715 -0.05346579 0.19538684 -0.01932098 -0.09232319 -0.1298432 0.11056072 -0.2059127 0.4914423 0.087936416 -0.03567485 -0.044200696 0.3030814 0.08396451 -0.5018803 -0.15360795 0.4973707 -0.030135041 -0.0625235 1.0044967 -0.21440366 0.19462557 -0.2130236 0.02949405 -0.36615446 0.18172662 0.6973646 0.13251284 -0.3284353 -0.23096992 -0.408414 0.24839433 0.14453377 -0.20001394 -0.65227306 0.0010893017 0.10907127 0.34805983 0.5735557 -0.3276232 -0.02422151 0.16359168 0.26258883 -0.54306173 -0.53180104 -0.043961704 -0.03410141 -0.2855189 -0.06256004 -0.30521956 -0.23036723
1520 -0.35689825 0.77129954 -0.107559465 -0.19760978 -0.12386888 -0.5273714 -0.10334726 -0.86209846 -0.025971036 0.23198017 -0.20226203 -0.6442611 0.8193994 0.7304681 -0.35279638 -0.39670902 -0.43392557 -0.665729 -0.07242976 -0.34358776 0.13068421 -0.635917 -0.18068178 -0.08232199 -0.552 -0.06598345 0.026314884 -0.044591147 -0.16877072 -0.18982768 -0.14612548 0.5133889 1.1811367 0.8238027 -0.5475336 0.051854126 0.061981067 0.3489932 -0.383817 -0.007927944 0.39027748 -0.709928 0.2578664 0.7664822 -0.14104599 -0.092816174 -7.854163e-06 0.28393728 -0.16264018 -0.101257816 -0.16047126 -0.28300145 0.36824518 -0.18725361 0.69802463 -0.26046962 0.09813882 0.26209408 -0.34283993 -0.6007978 -0.46159014 -0.17220974 -0.064744435 0.017599711 -0.3801018 0.38575807 0.36794826 -0.11510012 0.2793248 -0.25150812 -0.24226174 0.34708 0.09243738 0.23150285 0.25576726 -0.2212489 0.11687384 0.15614243 -0.25855836 -0.34037456 -0.030818932 0.4649134 -0.35200965 0.21988183 -0.21264504 -0.2280158 0.09454231 0.25015253 -0.6267461 -0.1512055 0.15612201 -0.4544412 -0.3208728 -0.015795123 -0.27083862 -0.16850825 0.5973692 -0.08855407 0.022998005 -0.41684607 -0.08540892 0.16189069 -0.08485905 0.39048713 0.60831183 -0.19872291 0.30354974 -0.31052595 0.3753022 -0.7327745 -0.5598551 -0.5442749 0.065727994 -0.118801326 0.45651063 0.56116444 0.14451726 -0.03580471 -0.29342625 0.158016 0.2682119 -0.42559603 0.74467343 0.40265897 -0.99921083 0.77003086 -0.10292851 0.089824684
415 0.036999356 0.12003084 0.57617223 0.19571866 -6.193213e-05 0.34029156 0.16025436 -0.6767892 0.17952254 -0.04212942 -0.15674388 -0.151338 -0.03800145 0.40169102 -0.15773568 -0.27888453 0.28629208 -0.07271239 0.40673646 -0.08820412 0.32705945 -0.07114231 -0.38065952 -0.015548733 0.27469814 -0.11627697 0.15966079 -0.2169272 0.047302816 -0.34152004 0.040157948 -0.24936152 0.10458568 -0.19236837 -0.5839232 0.017249785 -0.24430269 -0.16234455 -0.2738286 0.07505882 0.12360896 0.05299774 0.91766113 0.5877694 -0.05464911 -0.19484158 0.39071733 -0.30111456 -0.06343256 0.08013734 -0.12531772 -0.55224675 -0.10811507 -0.08992928 0.46337777 0.0047358307 0.12859124 0.5977983 0.08792811 0.18648598 -0.33805084 -0.03868948 0.11881201 0.11887679 -0.34711665 -0.06543967 -0.015827084 -0.14512685 0.06715242 -0.305798 0.052184004 -0.11114184 0.39881298 0.498934 0.12894669 -0.7591865 0.7177469 -0.2458259 -0.06284731 -0.029709676 0.023543574 -0.33159468 -0.2537367 0.29872653 -0.49350712 -0.11634788 -0.30575106 0.015137151 -0.46016985 -0.32867366 -0.095726594 -0.60390687 -0.18864813 0.5435227 0.13037328 -0.5057574 0.22254264 0.14467615 0.17968307 -0.07954195 0.082005955 0.07374798 0.051027548 0.3121601 0.20938107 -0.36621436 0.34901983 0.3896567 0.15629187 -0.07509881 -0.122850604 -0.22758675 -0.06095748 0.30686522 0.22479461 0.13536878 0.025621066 0.44986376 0.03598681 0.4788463 -0.29549873 0.02621888 -0.16230753 0.14001893 -0.011634858 0.37672466 -0.25174797 -0.31237504
2153 -0.44466713 0.23780441 -0.07444019 0.3733926 -0.32355437 0.08234757 -0.07592569 -1.1346586 -0.10754228 0.14107431 -0.7937014 -0.24669307 0.03646114 1.0365397 -0.43181244 -0.2820225 -0.21249299 0.1774914 -0.20801468 -0.22935058 0.34485525 0.3033652 -0.56274414 -0.38247004 -0.39619634 -0.61970955 -0.14837335 -0.6919126 0.48891836 -0.19222185 -0.08374923 -0.059508465 0.2826522 0.123688884 -0.7143746 0.07859402 0.39042854 0.33243394 -0.31636116 0.54594374 0.35727635 0.036537733 -0.32212073 0.3279721 0.35451475 0.04439752 0.19239482 0.29427457 0.07778727 -0.27716687 -0.1864469 -0.37442794 -0.2769387 -0.311176 -0.0007995973 -0.5512897 -0.2879623 -0.3782299 -0.54841846 -0.5863937 -0.6758365 0.31654862 0.29807544 0.037262462 -0.26964197 -0.1046079 0.48214367 0.6309141 0.45941955 -0.3043022 -0.011449396 -0.36786717 -0.53586495 0.034817718 0.032768182 -0.07930753 0.14041047 -0.75808096 -0.04571733 0.3826576 -0.14068325 -0.027116923 -0.70008194 -0.08675439 -0.93840843 0.56568396 -0.07122292 0.08100957 -0.6135849 0.25410107 0.18954767 -0.40655294 -0.08322099 0.19389701 -0.121932894 0.14817896 0.6081284 -0.17704774 0.27837968 -0.0770804 -0.41473156 -0.06717186 -0.03568419 0.23448747 0.46330622 -0.08401378 0.6776984 -0.9461211 -0.6732533 0.39553612 -0.34745628 -0.06826616 -0.06549855 -0.02921966 0.062017906 0.0742793 0.21189004 -0.43585113 -0.25814864 -0.2740231 0.08886318 -0.19779752 -0.4358347 0.5411435 0.050349917 -0.17859977 -0.26035312 -0.60126454
1910 -0.76458895 0.73608506 -0.18992512 -0.3792272 0.42833287 -0.020897077 0.27754486 -0.8122299 -0.42424396 0.6550325 0.25668833 -0.1153378 -0.33363977 0.85445094 0.26707998 -0.71492255 -0.3060568 -0.00070841215 0.64562786 -0.7461021 0.60600203 -0.15716006 0.39189455 0.16297208 -0.0026394336 0.12978956 -0.55645245 -0.018071743 -0.35059437 -0.65986866 -0.4009995 0.38811713 0.12703796 -0.057779178 -0.7413817 -0.16876547 0.122725286 -0.032279212 -0.5004423 0.17918214 0.18382479 -0.33093843 0.3984057 -0.027304094 -0.37997857 0.57998955 -0.38094813 0.51258856 -0.33791828 0.71275014 0.07570481 0.47966814 0.2787398 -0.24452886 0.4457876 -0.3712279 -0.5308378 0.04585117 -0.17235899 -0.4993725 -0.32416806 0.25109747 -0.1489384 -0.52752346 -0.5603222 0.54646057 0.66371423 0.112867646 0.7434519 0.0740142 0.17051074 0.10285239 -0.23030639 0.092631765 -0.08569654 -0.40804306 0.4887995 -0.7576017 -0.0435908 0.32063577 0.20900807 0.15532674 -0.28887922 -0.5505614 -0.12263094 0.68007 -0.24256624 0.073990114 -1.0729043 0.14140576 -0.17888391 -0.22109377 0.10430662 0.15163542 0.1503658 -0.17597668 0.04549804 0.23888351 0.31524208 0.009274752 0.39831877 -0.13156383 0.39292186 0.12985912 1.0014396 -0.13807268 -0.04663388 -0.69097674 0.14632675 0.13044053 -0.17975412 -0.21005717 -0.13257296 0.061567806 0.43860772 0.48435304 -0.22839023 0.36161584 -0.32682857 0.21631421 -0.17875592 -0.095574476 0.46506533 0.044160936 -0.43245828 0.24561723 0.3405269 -0.50486755
2220 0.073359236 -0.034465678 0.5070183 0.38081643 0.43936953 0.22218034 0.03925388 -0.64196676 -0.44120765 0.4558244 0.24818917 -0.09069736 -0.01075679 0.699093 -0.13180615 0.1588834 0.055139918 0.14212045 0.29113945 -0.04167918 0.5204635 -0.012495784 -0.4009077 -0.25396436 0.050446607 -0.26506782 -0.25952774 -0.08467702 0.349092 0.19368966 -0.23227096 -0.05469195 0.18602905 -0.17867401 0.029285233 0.29792875 -0.30758396 -0.12431517 -0.6263752 0.06623355 0.34856942 -0.25734872 0.4303971 0.887621 0.27780658 0.09440937 -0.16725689 -0.08589084 -0.099278904 0.20208141 -0.4777402 -0.22779016 -0.0038743294 -0.0127472645 0.24033287 0.04901654 0.34998074 0.7078165 -0.37258285 -0.2733086 -0.15385453 -0.09914647 0.11586792 0.06665262 -1.0112236 -0.2807168 -0.09516782 -0.0003043826 -0.01561243 -0.10427275 -0.45372245 -0.045493595 0.1542213 0.30002433 0.071520515 -0.2435871 0.23834509 -0.25945598 0.3295792 -0.15741226 0.0032023687 -0.49212947 -0.31969857 0.10417545 -0.31098256 0.30649328 -0.23946843 -0.015288725 0.01647154 -0.36609343 -0.2326496 -0.60138255 -0.10659304 0.5668888 0.10846901 -0.38802922 0.62382615 -0.11305667 0.22222614 -0.3529085 0.23715653 0.05593009 -0.029841857 0.39328894 0.7818827 -0.28991786 0.2435376 -0.16724034 0.3492285 0.123420835 -0.1766916 -0.14761984 -0.075091735 0.25477532 0.3932312 0.2498958 0.17699724 -0.33495575 -0.34113744 0.5788388 -0.5784666 0.12232358 -0.15527052 0.3604245 -0.16836144 0.14995801 -0.47741735 0.3046332
2175 0.20684971 0.112350725 0.14507154 0.24238311 0.2364798 0.33064914 -0.037121467 -0.46282133 -0.34104818 0.46388513 -0.018448735 -0.27009302 -0.3317035 0.29510906 -0.1800155 0.090472974 -0.14358436 0.043593302 0.3583095 0.16341373 0.26159585 0.032139484 -0.28371516 -0.019740641 -0.26842085 -0.35171622 -0.5988003 0.012098729 0.27190432 -0.051571287 0.18241067 0.101283096 0.53247863 -0.11893614 -0.20381825 0.2440725 -0.09851217 -0.0045973496 -0.33881083 0.034821168 -0.010765761 0.1524944 0.51557213 0.6349297 -0.10793029 0.107952006 -0.21832599 -0.050551437 0.036974072 -0.22230045 -0.14928548 -0.45558855 0.22261192 -0.40821275 0.62887377 0.13847552 0.34770286 0.72356695 -0.3549835 -0.30778566 0.19201213 0.17732306 0.38840416 0.24876858 -0.7847936 0.124708906 -0.26392907 0.13995409 0.22612822 -0.062020525 -0.16818227 0.009692094 0.10258717 -0.00834895 -0.054686684 -0.67616177 0.26159143 -0.35189176 0.42696512 0.0076229516 0.10863834 -0.62431437 -0.28197658 0.058463134 -0.22600827 0.40658048 -0.42864308 0.11534847 -0.098499894 -0.13372536 -0.13244446 -0.511616 -0.11534654 0.45895338 -0.031339273 -0.06422469 0.250503 -0.0008667903 -0.34053633 0.2661978 -0.030004762 -0.22104266 0.17102575 0.5170529 0.5924416 -0.3288439 -0.11883077 -0.3952342 0.084497154 0.26109952 0.28071973 -0.43315148 0.08886213 0.021848843 0.27595025 0.37370634 -0.21560098 -0.21090044 -0.3535261 0.43408233 -0.27071038 -0.39996216 -0.010703438 0.48548183 0.39118722 0.32383895 -0.19182177 -0.0007510828
1252 -0.3931759 0.09029166 -0.040912557 0.22944683 0.28846726 0.18651369 -0.19070698 -0.93176305 0.07099731 0.40888038 0.29084653 -0.046776734 0.10619608 1.126099 -0.2750814 -0.37255913 -0.44575116 0.068451546 0.7134528 -0.12105996 0.17329302 0.026117716 -0.16579828 0.13788557 -0.30151185 -0.01942612 -0.035829414 -0.28396156 0.13368133 -0.63938993 0.50257 -0.28642425 0.7357879 -0.005091768 -0.29975244 -0.1256868 -0.9291479 -0.4356852 -0.5309665 0.08235976 0.18653038 -0.04000344 0.24130456 0.8570791 0.18343626 0.13275443 -0.2572294 -0.05331335 0.34693596 0.43575767 -0.14960785 -0.3576145 -0.08445623 -0.053653054 -0.068212435 -0.25935575 -0.32313257 0.4343628 0.10081658 -0.2722091 -0.9291655 0.0016998624 0.35753188 0.4000132 -0.57135415 0.032035366 0.08714912 -0.27205172 0.012757064 0.118299164 0.2212731 0.5437689 -0.1908465 -0.097526096 -0.20892753 -0.97374094 0.66170824 -0.44889855 -0.29284745 -0.23798268 0.78828067 -0.79978025 0.07480405 -0.5723024 -1.0119822 -0.1693593 -0.11455621 0.20666592 -0.20647243 0.3645388 0.19459887 -0.06660124 -0.5176822 0.48732123 -0.023736902 -0.2904085 0.4265207 0.15806009 0.17818633 0.1105612 -0.09896644 -0.34100163 -0.15766883 0.31841594 0.6918086 -0.52123 0.36916763 0.51448655 -0.44435298 0.22280762 -0.14766118 -0.59743536 0.031092197 0.4867807 0.57945484 0.6005251 0.29953468 -0.34700042 0.13272528 -0.05349873 -0.15931137 -0.14176063 -0.18283644 -0.42314062 0.0128865475 0.52540624 -0.0482652 -0.3944041
881 -0.46760786 -0.03406978 -0.031928834 0.021466497 -0.15106441 -0.0724677 0.041954312 -0.50870764 -0.2629745 0.10440437 0.079371564 -0.24647012 0.34056196 0.15990363 -0.011015478 -0.49429858 -0.14344603 0.29073006 -0.0898959 -0.29524 0.51373184 -0.33248228 -0.052011423 0.14390805 -0.28689772 0.0641619 -0.3431822 -0.19021617 -0.027574314 0.14649673 0.12249489 -0.0893333 0.49993372 0.10564658 -0.21514961 0.08751992 -0.33818874 0.5230176 0.01777095 -0.08009636 -0.27061585 -0.07565455 -0.093520366 0.3118552 -0.03409981 0.1024137 0.30211282 -0.13012081 -0.045798995 -0.24568003 0.040831227 -0.2832275 0.42767817 -0.14132066 0.2775099 0.33489278 -0.08776672 0.6291898 0.004850454 -0.25563863 -0.48253894 0.13962325 0.12929618 -0.20417014 -0.29323298 0.52735555 0.60000336 -0.18711357 0.38712555 -0.13621649 -0.11736255 -0.063756965 0.5742866 0.37420645 0.093572475 0.17572752 0.12159235 0.18708254 -0.1609443 0.14189963 0.04562684 0.5739704 -0.8264824 0.28366315 0.15812443 0.5326736 -0.17795432 0.39326245 -0.280642 0.123075165 0.24516444 -0.24833262 -0.16863294 0.5083182 0.13032259 -0.06577374 0.5271175 -0.05838251 -0.0109125255 -0.32596663 -0.26059055 -0.15041575 -0.07561194 0.37525025 -0.06504236 0.018052813 0.39261627 -0.50869197 0.31305304 0.2569878 -0.55175614 -0.6815312 0.061564177 -0.3436864 0.029756384 0.21184729 0.3848242 -0.38153076 -0.26040792 0.26695815 0.20549028 -0.3197111 0.47488317 0.09942293 -0.0031273216 0.581497 0.49962482 -0.12767431
809 -1.2033877 0.43196246 0.009516022 0.49736446 0.04730201 -0.27843678 -0.46720606 -0.12558398 -0.4004827 0.25647667 -0.3103161 0.095034346 0.12904462 1.1488492 0.40327352 -0.15212315 -0.21783608 0.12813169 -0.016723579 0.4269237 0.73439664 -0.10025222 -0.97894835 0.16622545 -0.38146967 0.093643256 0.2904674 -0.06088172 -0.30889246 -0.11532912 0.020710887 0.52065825 0.05860729 0.638938 -1.0487641 -0.0014400466 -0.19929121 0.6656388 0.016623415 0.53556234 -0.0060253735 0.2908503 0.7458667 0.3735671 -0.42963508 0.24996002 -0.26272127 -0.18616164 -0.2358054 0.71712726 0.755986 0.37952673 0.40079188 0.26021442 -0.25459778 0.253227 -0.5862048 0.1654962 0.08599178 -0.4251246 -0.24470398 -0.22997989 -0.27580523 -0.10817327 -1.1162897 0.5386889 0.33742 0.16416612 0.24394955 0.027531885 0.33810058 0.43862712 -0.206361 0.11199457 0.28316212 -0.6361687 0.15769057 -0.083634086 0.10310667 0.4949206 -0.37144992 0.24969906 -1.4293969 0.2663514 -0.62188196 0.23246305 0.039666943 -0.31790575 -0.8300671 0.2885601 -0.06788765 -0.029572563 -0.59118015 0.48293477 0.3246574 -0.6636701 0.26092982 0.16991808 -0.06705133 -0.19222432 0.12358447 0.12499993 0.55847526 -0.06888413 0.49124742 0.06949019 0.009463179 -0.3626555 0.22446479 0.1574147 -0.10882594 -0.02459761 0.046879727 0.07161551 -0.3343871 0.13305072 -0.103562504 0.016688652 0.21855772 0.35730112 0.0930225 -0.3167824 -0.11543673 0.30799437 0.076916784 0.17293599 -0.5627433 0.022420023
1178 -0.25548798 0.20159146 0.4752494 0.35234606 -0.026791478 0.014454067 0.2881237 -0.8589324 0.02091411 0.0038972092 -0.10212361 0.04892545 -0.23770933 0.42832747 -0.18362206 -0.09895892 0.14535964 -0.3368008 0.5442285 -0.27754194 0.4692702 -0.16282809 -0.40253228 -0.20368238 -0.0016619924 -0.6042168 0.12829937 -0.15578485 0.35018253 -0.18162447 -0.079627864 0.085542575 0.26307562 -0.3804025 -0.82063323 0.25750422 -0.51656157 -0.24975161 -0.3172736 0.43489212 -0.11175313 0.059395965 0.57900465 0.9214314 0.28512087 0.081924014 0.24841309 -0.23841247 -0.1151299 -0.20565885 -0.14323977 -0.5315684 0.28737652 -0.3132686 0.55476063 -0.43877792 0.26157507 0.8039154 -0.07382261 -0.39750135 -0.58645463 -0.13466258 0.4567118 0.2117113 -0.8991609 0.30769572 0.10427347 -0.15381931 -0.13633072 -0.123593256 0.12807466 -0.050804526 0.29717878 0.3432656 -0.19231509 -0.40887797 0.43014613 -0.16174936 0.2295498 0.6451902 0.027859975 -0.155672 0.026114274 0.17496558 -0.48460713 -0.26238027 -0.21842329 0.3601913 -0.28783807 -0.21613954 -0.014225613 -0.29441452 -0.042710725 0.8950388 0.19314207 -0.5286966 -0.11846614 -0.22181381 0.18178506 -0.2621402 0.23048803 -0.0786021 0.022001306 0.44300112 0.5772343 -0.5078123 0.100308485 0.032791033 0.21585123 -0.07237068 0.26646334 -0.5465638 -0.21086806 0.28589383 0.25888816 0.8488095 0.10186078 0.14174047 -0.45126557 0.17972498 -0.27821583 -0.35090202 -0.2736211 0.41621554 -0.06479919 0.16850911 -0.7720347 -0.40768468
1498 0.101356626 0.18491879 0.2637774 0.30349573 -0.17477049 -0.33950326 0.20800975 -0.6669405 -0.31924406 0.36350816 0.03665661 0.37254435 -0.28389287 0.3970643 0.02564655 0.007073798 -0.22735772 -0.27424833 0.5016906 0.5087901 0.49273223 0.23955543 -0.38937432 0.10508267 0.08441146 -0.6491726 -0.12079814 -0.33188605 -0.24901578 -0.06986208 -0.29366365 -0.064697504 0.4522521 0.15194948 -0.48447898 0.28819966 0.34902912 0.14036831 -0.45681986 0.54314584 -0.26824293 -0.13421421 0.1813078 0.23464097 -0.09595762 -0.15308024 -0.046905257 0.613593 -0.14570966 0.14090595 0.33918506 -0.38878793 0.14341159 0.1666216 -0.2755955 -0.77554286 -0.17908715 -0.2564028 -0.001923391 0.19642644 -0.5041463 -0.14762785 -0.34899846 0.40054458 -0.31809285 -0.042998668 0.036282483 0.18749686 -0.075927325 -0.1585034 0.08687982 0.54381865 0.3993674 0.41019234 -0.23793533 -0.47920385 0.032670185 0.028810441 0.49228334 0.65385705 0.14154509 0.098518245 -0.4517543 -0.32187533 -0.4262002 -0.029139813 0.11158848 0.6599934 -0.24422608 0.253937 -0.194036 0.087695025 0.13474275 0.041279692 -0.23351684 -0.40572715 0.7840305 0.20471823 0.17767438 0.07736996 0.5633804 0.26454058 0.17906176 0.6644314 0.42081726 0.048664212 -0.16531183 -0.10458837 0.31790325 0.54357725 -0.10653581 -0.124781534 0.5158704 0.19704965 0.39136767 0.45798796 -0.25090203 -0.22894405 -0.68547755 -0.1309728 -0.31529382 0.15531357 0.116065435 0.5644376 0.06273609 0.3347031 -0.838319 0.1985202
967 -0.0123615675 0.39152026 0.34967402 0.07219117 0.51170564 -0.19009456 -0.0679582 -0.44720563 0.01862376 0.34438017 -0.23863418 0.017241685 -0.04892374 0.49621916 0.061774425 -0.3880188 -0.00314867 0.13689275 -0.11132306 -0.059976406 0.359787 -0.10097306 -0.09773519 0.5315847 -0.5569256 -0.21951488 -0.5488692 -0.2662483 0.14655702 -0.27483827 0.2709439 -0.009566131 0.5797189 0.24395904 0.3023304 0.18358754 -0.118175715 0.40808427 -0.379621 0.1533766 0.19448769 0.04442381 -0.27004427 0.91958374 -0.25075662 -0.16401263 0.3827606 0.018398749 0.10028067 0.10203414 0.07867889 0.049003795 0.30845273 0.6102689 0.13887718 0.1216028 -0.10941942 0.314697 0.58798796 0.15699692 0.11525132 0.17466538 0.01691492 -0.15219551 -0.42693117 0.7851839 0.13738546 0.19977564 -0.22597808 0.47115082 -0.3407015 0.037155814 -0.2679044 -0.37891626 0.21582031 -0.31757367 0.13741773 -0.31544423 0.2455058 0.11392135 0.124826506 -0.2906864 -0.23479958 0.16835544 -0.24925335 -0.011724111 0.46060148 0.095297456 -0.3699367 0.27036014 -0.13165465 -0.36903587 0.110083155 0.6891491 0.038300354 -0.19835116 0.70622075 -0.13988881 0.32004175 0.21308658 0.1866555 -0.030309409 0.12852323 0.10110738 -0.40559152 -0.109875366 0.03141157 0.17599048 0.20758781 -0.10393531 0.14678809 0.100170255 0.017928097 0.35632536 0.40191504 0.12840961 0.42742255 0.6104271 0.20204796 0.46394548 0.08430846 0.08489168 -0.675241 -0.013482837 0.41026813 0.32853946 0.2394653 0.09396903
1718 -0.2534369 0.44398034 0.0059742667 -0.3130871 0.3952542 0.08661555 0.07272052 -0.5762646 0.21715893 -0.10946221 -0.5251631 -0.06639331 0.31317154 0.19626264 0.09814206 -0.16880165 -0.0051921033 0.41043147 0.5929213 -0.33363786 -0.17458296 0.21228568 -0.011303898 0.5069406 -0.044910617 -0.3504831 -0.6202995 -0.21999258 0.58525985 -0.30166376 0.28450927 0.06001237 0.39401308 0.14705236 -0.35476875 0.07963971 -0.458373 0.24527997 0.14029248 -0.0124448305 -0.09639174 -0.3139893 0.36442712 0.048196945 0.12176015 -0.1286993 -0.30350903 0.5428928 -0.31908342 -0.24325438 -0.1956576 0.33250582 -0.17444387 0.18775897 0.11429683 -0.047350414 0.53189623 -0.025229312 0.24855389 -0.3122137 0.026367456 0.3145832 -0.123185344 -0.1094581 -0.800487 0.25998837 -0.16981933 0.29263067 0.5317074 -0.016742477 0.08443544 -0.035607524 0.3414638 -0.36352167 0.13394305 -0.1978607 -0.19573325 -0.30384704 -0.44391084 -0.250017 0.49649218 -0.2831928 -0.44026467 -0.012153366 -0.4227735 0.20781186 -0.3359457 0.05744636 0.16686319 -0.13902722 0.15952022 -0.1079 0.21407384 0.2413239 0.22007823 -0.21530113 0.44017872 0.14264092 0.21047139 0.20520876 0.38524887 -0.32050726 -0.13521682 0.3128853 0.3655361 -0.14727318 0.02759318 -0.38628381 -0.09054516 0.11257477 0.08036575 0.33770034 -0.37465537 -0.5927185 0.5294459 -0.26272878 0.16026245 0.27834296 0.09355033 0.15871319 -0.40061837 -0.47062778 0.12719859 0.20426267 0.18414226 0.24547474 0.5766701 -0.43674648
2334 -0.27746245 0.20254683 0.46204376 0.39817333 0.096354336 0.16822566 -0.07859046 -0.59590906 0.049756184 -0.1711387 -0.2766332 -0.3374331 -0.027858226 0.554805 -0.1857426 -0.5334829 -0.030574976 0.27660286 0.5750486 -0.16875188 0.4018957 -0.49220294 -0.61619097 -0.09335925 -0.10921279 0.05795022 0.35059038 -0.041473847 0.081465214 -0.39493904 0.24180059 -0.16572092 0.22581878 -0.2723562 -0.44237325 -0.10334443 -0.12944245 0.0080407215 -0.31792623 0.07889882 0.21649866 0.18424705 0.7026547 0.89102376 -0.17849743 -0.04027169 0.48655403 -0.19485773 0.5273592 -0.16479452 -0.14350602 -0.45272654 0.08150973 -0.10774063 0.41506812 0.2244976 0.2886575 0.5386207 -0.027679527 0.25459462 0.22414558 0.16417056 0.057980925 -0.01747842 -0.32151368 -0.04248303 -0.0064001656 0.19468696 0.13578287 -0.56356305 -0.070445515 -0.16442728 0.49293676 0.2630849 0.08236148 -0.9143013 0.7616654 -0.26740974 -0.40014094 -0.049263284 -0.06410473 -0.51291436 -0.44192755 0.34764042 -0.8138893 -0.37993896 -0.2519162 0.054219082 -0.49876678 -0.4241217 0.18738799 -0.372954 -0.18270013 0.40055892 0.048640564 -0.40866902 0.34128606 0.13769566 0.24591506 -0.027829403 0.2882754 0.14029837 0.14493132 0.23528153 0.28138638 -0.36041227 0.5059877 0.46363658 0.013111642 0.04914259 0.010644821 -0.040936165 -0.06884198 0.2135053 0.1313275 0.002041177 -0.110995375 0.37442538 -0.041603696 0.53988767 -0.04424796 -0.19125716 -0.061812103 0.3130627 0.13085927 0.34541246 -0.3567132 -0.12871803
41 -0.6037421 0.15171625 -0.029153831 0.29657376 -0.035111293 -0.076596975 -0.19252087 -0.9356016 0.100259945 0.1670363 -0.6405321 -0.2551829 -0.22182177 0.73827225 -0.4647112 -0.1676426 -0.039757676 0.07282246 0.39607745 -0.23834239 0.17895162 0.02556646 -0.34226027 -0.22710928 -0.3862083 -0.38571143 -0.11213355 -0.72686875 0.7038726 -0.3257125 0.2717031 -0.014337233 0.19125512 0.38758078 -0.7291988 0.040407214 0.2799649 0.35688597 -0.015611819 0.71723497 0.104203515 -0.13498439 -0.4744728 0.17720671 0.42057425 -0.23093154 -0.0020269705 0.3526278 0.26472166 -0.40186682 -0.2720618 -0.33740383 -0.015495408 -0.2797613 0.053876363 -0.5347624 -0.4872175 -0.2295377 -0.37838742 -0.84157765 -0.40956062 -0.08192816 0.070955135 -0.067390345 -0.18501018 -0.00092308543 0.36949083 0.5593542 0.41728434 -0.2757166 -0.33329543 -0.48216763 -0.3301705 0.2826471 0.20320524 -0.027383924 -0.1987385 -0.7707727 -0.2990357 0.19961704 -0.024000425 -0.13833041 -0.5270937 -0.011363355 -1.0426978 0.47910735 -0.1610862 -0.07477155 -0.5184595 0.43570948 0.13773781 -0.2762672 0.2780957 0.59937596 -0.015917454 -0.037319887 0.64407134 -0.0055185007 0.16556841 -0.05659074 -0.17241476 0.022404192 -0.50610876 0.47604403 0.38047597 0.044446513 0.8463424 -0.86828685 -0.26882952 0.5355258 -0.31559473 0.23215362 0.058263615 -0.103979126 -0.15733 0.053758897 0.35066348 -0.70913583 -0.51483065 -0.17000829 0.099819094 -0.25162756 -0.12759814 0.357629 0.07336528 0.2132261 0.08385722 -0.39018616
1003 -0.4991282 0.17764676 -0.16642395 0.3460565 0.5121434 -0.29721498 0.12317076 -0.23844473 -0.14324987 0.16470657 -0.41640967 -0.14657949 -0.27986106 0.4053794 -0.5183548 -0.24936518 -0.37604058 0.38418525 -0.35416058 0.14436828 -0.043451183 -0.4708353 -0.28966638 -0.43820775 -0.052311633 0.021404695 -0.45411417 -0.20182091 -0.14902207 0.040741134 -0.1570382 0.01384485 0.33800516 0.7638773 -0.96739185 0.15949637 0.07031499 0.9065469 -0.13289298 0.26797152 0.2881632 -0.3793018 0.17414638 0.6802658 -0.12187327 -0.43899152 0.053239822 0.26748788 0.45579 0.19032204 0.3836809 0.057865545 -0.48684195 0.0493984 0.27121657 -0.057406854 -0.16205013 0.07512004 -0.06831793 0.05255167 -0.28766415 0.31242105 0.29885623 -0.13287802 -0.39670974 0.4860951 0.26225996 -0.075006805 -0.26859313 0.13269547 0.15931547 -0.12369841 -0.105543874 -0.2954837 0.07917154 -0.25485393 -0.21087563 -0.12694883 -0.24810839 0.70089495 -0.315854 -0.15392436 -0.25649405 -0.1456974 -0.3086262 -0.4952672 0.303002 0.31840065 -0.60906655 0.37038708 0.37714526 2.9120845e-05 -0.120164715 0.3807997 0.028599428 -0.14537798 1.033871 -0.0028285868 0.51015437 -0.5740295 0.7029396 -0.35205325 0.32443622 0.8320842 0.14609185 -0.24658202 0.24122177 0.21592101 -0.106798135 0.04284065 -0.13153079 0.5322913 -0.2117512 0.31278104 -0.008244231 0.42260456 0.14297959 0.13724717 -0.078348875 0.5001257 0.26460677 -0.19921036 -0.21320711 0.4713654 0.06105834 -0.024201373 -0.1388112 0.20328458
84 -0.21436894 0.5431319 -0.15637721 0.010148682 -0.098039776 -0.31058618 0.08841887 -0.6061198 -0.13104111 0.14765668 -0.60886824 -0.03215012 0.10436821 0.17068534 0.079530515 -0.1693184 0.25381646 0.06781202 0.22883616 -0.37446377 0.19457765 -0.12422574 -0.088234544 -0.7402259 -0.69615084 -0.5344959 -0.21702702 -0.7267583 0.1603509 -0.15722807 0.23594794 -0.36872628 0.09663749 0.089758836 -0.20915154 -0.19988585 -0.14450832 -0.038849812 -0.021307264 0.59930474 -0.35601407 -0.2577857 0.03311151 0.33413902 0.30259463 -0.3067433 -0.19990942 0.6965044 -0.15092209 0.28781846 0.42935276 -0.005411066 0.4781556 -0.5112215 0.37688676 -0.22280441 -0.43922156 -0.21172038 -0.028704837 -0.7121669 -0.10666523 0.5602162 -0.076040715 -0.5115162 -0.338933 -0.14037967 0.3180261 0.52907795 0.7352619 -0.41947752 -0.39503905 0.1910216 0.09563729 -0.054580037 0.31835577 -0.0061706738 0.16207188 -0.12593018 -0.1412466 0.36174586 0.18910478 -0.06252135 -0.78824764 0.4075995 -0.530516 0.49574363 -0.1656323 -0.2265914 -0.38434407 0.28185618 0.17914072 0.7022583 0.31536117 0.90713894 0.16019858 -0.20424311 0.4195744 0.10585932 0.3588736 0.1538517 -0.076870084 0.3733635 -0.12045343 0.44655752 -0.060707737 -0.15984972 0.3773658 -0.35232365 -0.05728438 0.007915911 -0.28196132 -0.0073645385 0.12217995 -0.18460868 0.510368 0.41645026 0.23831111 -0.12400601 -0.35536274 -0.11714917 0.18117474 0.07158665 0.054532006 -0.02390969 0.020704344 0.3002461 -0.2112795 -0.7221264
2423 -1.0845912 0.057345923 -0.14091364 -0.021818692 0.37734357 0.16711628 0.23581193 -0.09210546 -0.36527574 0.5765338 -0.44734818 0.44648272 0.10774481 0.4725554 0.3616263 -0.2680774 -0.20045985 -0.004089309 -0.050492372 0.30935183 0.39692795 0.28175592 -0.21911412 -0.010184461 -0.24310026 -0.38993263 -0.62135726 0.18785866 0.29766375 0.06563059 0.35723215 -0.3326805 0.3520088 0.16502698 -0.73570806 0.073573515 0.04483749 0.6637104 0.04754044 -0.24048507 -0.20897438 -0.57075727 0.15174201 0.5149383 0.01858658 -0.14714645 0.052225422 0.34858072 -0.20568497 0.32678497 -0.16201946 -0.040549815 0.082725786 -0.20548101 -0.22820616 0.2735874 -0.070043765 -0.10025076 0.49877915 -0.13968775 -0.26678666 -0.15186824 0.2998085 -0.5473192 0.013949168 0.3945938 0.33143046 0.14934729 -0.08776908 0.3980568 -0.13575809 0.02684508 0.37683836 -0.11565656 0.34201595 0.05244964 0.39503244 -0.09480114 -0.21077453 0.067189746 0.017556857 0.26997855 -0.25580654 0.24799201 -0.07474639 0.3690814 0.49873322 0.5240633 -0.6789787 0.34563944 -0.18217605 0.18923675 0.35651338 0.41381004 -0.09245851 0.054029733 0.14028604 0.36961034 0.24053723 0.41054738 0.20036817 -0.14485404 0.21677789 0.27502173 -0.17440686 0.11282715 -0.07375072 -0.45304346 0.09956525 -0.038232036 0.08154519 -0.26715273 0.18912816 -0.5214772 0.28273174 0.28718695 0.09347959 -0.23050503 0.008764522 0.04651564 -0.084677875 0.3534021 -0.13402937 0.39462665 0.23246157 0.31751254 0.2872464 -0.34663737
2208 -0.7633707 0.35970235 0.39540172 -0.015442392 -0.021110002 -0.25799316 0.33775225 -0.7945999 -0.22168659 -0.094652005 -0.64773685 -0.19490719 -0.14614858 0.31374222 -0.5187095 0.6551208 0.11976256 -0.33443257 0.14358887 -0.12882173 -0.18907504 -0.41161233 -0.40943703 -0.88334286 -0.54129857 -0.6724365 -0.2474893 -0.2856994 -0.122307606 -0.41971242 0.7906248 -0.693752 0.107963875 0.6986619 -0.67358786 0.14133614 0.15620399 0.6397683 -0.7946141 0.18161827 0.38540193 0.11849239 1.069431 0.77867216 0.22564489 -0.11195135 -0.2137377 0.024929238 0.3173559 -0.430618 0.2671022 0.1988562 -0.20202504 -0.39984187 0.20810406 -0.4077887 0.1785359 0.06154158 0.73867196 -0.84608734 -0.7712266 0.21438521 0.060301993 -0.41835675 -0.49675056 -0.083552025 0.43764153 0.47204986 0.04376199 -0.45286477 -0.10711231 0.2047216 0.15249114 -0.5776144 0.6360749 -0.9706125 0.7000933 0.42685387 -0.23283769 0.10231261 0.89520496 -0.74308187 -0.26581493 -0.21303 -1.0172272 0.34761673 0.33132333 0.98981583 -0.9497591 0.2826276 -0.9670276 -0.086776935 0.086669564 0.61174095 -0.07319287 0.13681048 0.78796977 0.03278906 0.31060043 -0.5285433 1.2998283 -0.08112753 -0.09942707 0.8602686 0.7448841 -0.19890782 0.68337613 -0.27324316 -0.76357144 0.6084192 0.36654988 -0.24853437 0.1735056 0.15232033 -0.3107436 0.321451 -0.19031142 -0.76536417 -0.30633396 -0.11975803 -0.26352847 -0.02533583 0.019789651 0.10343618 0.72872007 0.24128121 0.013972364 -0.44351897
738 0.06894936 0.54120207 0.31201437 0.46812108 0.46187377 -0.11622905 0.1746806 -0.44351983 0.004053712 -0.13317975 -0.18479191 -0.5137614 -0.08402533 0.7474021 0.26976204 -0.57310617 -0.0420576 -0.34419194 0.02722283 0.06513627 0.7080742 -0.35459143 -0.33604074 0.6028322 -0.22987778 -0.19220024 -0.21429043 -0.49764916 -0.038831756 -0.57257074 0.021863787 0.23839955 0.44867465 0.43884417 -0.3430263 0.08189084 0.10606016 0.5075988 -0.6411355 0.28322846 0.3848565 -0.19424222 0.4987825 0.360511 0.23324266 -0.42006043 0.16586961 -0.16892545 -0.1271859 -0.09135134 -0.2193407 0.024667408 4.59895e-06 0.05854945 0.008439999 0.054674696 -0.1405518 0.48120573 0.19665256 -0.12720461 -0.3516959 0.069085576 -0.16859877 0.037638884 -0.48588082 0.27442035 0.42173016 0.11960646 -0.4731561 -0.20573717 -0.22624846 0.04790309 0.016374838 -0.024970818 0.028781492 -0.5388487 0.18670475 -0.5902395 -0.4030761 -0.16755047 0.23213516 -0.04689853 -0.07041258 0.31403458 -0.83179677 -0.06577643 0.0844941 0.05794009 -0.29438365 -0.023087941 -0.020027487 -0.17705558 0.05186673 0.102420926 0.018980665 -0.010236915 0.29747316 0.4084696 0.4511046 0.4190762 0.26369545 -0.22120707 -0.49276266 -0.10962608 -0.2316114 -0.11395735 0.5944326 0.18496925 -0.264358 -0.11400108 0.47593728 -0.1780644 0.09042593 -0.19751066 0.3290846 -0.16637208 0.39579335 0.20085494 0.45361942 -0.14067838 -0.11348254 -0.16668199 -0.42457277 -0.26951808 -0.10770339 -0.057833288 0.24631503 0.005225199
