392 128
41 -0.21150073 -0.16867277 -0.2899775 -0.49431106 0.2319218 0.09916805 0.4144355 0.041745823 -0.25618467 0.39517072 -0.21337438 0.1706834 -0.618987 0.28217795 -0.086091906 0.061402585 -0.18486997 0.03001812 0.16502321 -0.0409672 0.0054723397 -0.23479447 -0.41749814 0.22849375 0.16747321 -0.5380045 0.06698238 -0.12144831 -0.24848 0.35375822 0.31149068 -0.24231164 -0.06487226 -0.09831165 -0.25434944 -0.13663521 0.08405549 0.0031402914 -0.15624493 -0.80785227 0.17234357 -0.003601755 0.34632483 -0.036896784 0.19781277 0.34083313 -0.31800413 0.36540055 -0.45963004 0.34894225 0.12910588 0.10805532 0.0015691502 0.12802213 -0.10313043 -0.11526945 0.09210187 -0.09342653 0.098059185 0.4227267 -0.029263075 0.46843442 0.17846759 -0.018778065 0.5063278 0.56111926 0.33487558 -0.024051901 0.02360501 0.06276313 -0.088376775 -0.10717688 0.411784 -0.108644195 -0.7260768 -0.041388363 -0.08624275 -0.46481022 0.74311316 -0.13523892 -0.34251046 -0.62756664 -0.06915706 0.17965181 -0.3528875 -0.0068904003 -0.2093522 0.1413404 0.62796336 -0.39021683 0.43412098 -0.26918763 -0.08180047 -0.030205622 0.3058541 0.53571856 0.09524014 0.23950712 -0.112015046 0.12959768 0.021398153 0.23664615 -0.39873853 0.21251811 0.13615036 0.058746323 -0.08691942 0.14026053 0.2856592 -0.040607277 -0.085516855 0.10897746 0.11542729 -0.08313411 0.76976204 0.22296776 0.27420643 -0.48490414 -0.09503761 -0.4097807 0.16526957 -0.08639913 0.011007905 0.25443798 -0.14766385 -0.11640673 0.3659836 -0.24888487
1067 -0.28917807 -0.10240038 -0.5281889 -0.5884191 0.03847134 0.22981954 0.552732 0.33655792 0.07307378 0.32745865 -0.40175426 0.20215832 -0.6074683 0.20382127 -0.2985944 0.06855255 0.19429986 -0.13670237 0.0055180904 -0.1942931 0.21875589 0.027987475 -0.3993693 -0.036927342 0.25277585 -0.20095952 0.26687992 -0.17668642 0.07073185 0.0909829 0.36542666 -0.37250975 -0.41378972 -0.25727132 0.06510912 -0.022355735 -0.20051 0.15796311 -0.021486212 -0.52913475 -0.3683087 -0.19773176 0.36737016 -0.44770914 1.44698315e-05 0.18541656 -0.27651787 0.15618911 -0.08361294 0.1279133 0.28371668 -0.09079369 0.45474 -0.03858455 -0.2832451 -0.08413686 -0.0020936895 -0.31790417 -0.0053628357 0.4239328 -0.08961015 0.021983642 0.3607275 -0.0077494644 0.29377645 0.41410887 0.20974395 -0.03316308 0.30038443 0.16885673 -0.012767756 -0.12997952 0.17476963 -0.25998262 -0.44622415 -0.08751851 -0.0184679 -0.52930003 0.44149828 -0.122446224 -0.35907778 -0.4370069 0.051487662 0.15486899 -0.5365537 -0.3690678 -0.19343649 0.040326465 0.55632347 -0.4737673 0.35564825 -0.06251493 -0.049624972 0.023452802 0.16108593 0.30161834 0.34544533 0.043751463 0.021678759 0.053422656 0.04491405 0.35701358 -0.3412147 0.08099914 0.013070607 -0.06803692 -0.010923481 0.14035441 -0.054443385 -0.076662846 -0.125533 0.11004239 0.3023763 0.0944416 0.79320246 0.3649329 0.3317773 -0.66055655 -0.6102349 -0.494191 0.1996023 -0.50068116 -0.35659975 0.11965093 0.14497024 -0.34872144 0.7239892 0.011085732
2439 -0.21615753 -0.39398372 -0.2018784 0.2803997 0.23579162 -0.30978328 0.44056815 -0.12687425 -0.037361085 -0.40021116 -0.61525637 0.39685607 -0.5823364 0.2231823 0.055826094 0.40190727 -0.2037354 -0.40921056 0.12231473 0.059536967 -0.14119397 -0.1455494 -0.51761556 0.093540154 0.20580822 0.10711403 0.6643923 -0.5392992 0.24575496 -0.16195357 0.061529864 0.29656333 -0.0742644 -0.10828663 -0.31714556 0.34291413 -0.67317265 -0.12250724 -0.5986146 -0.091891296 0.46656772 -0.06956432 0.2569767 -0.060975242 0.0012560023 0.3316049 -0.17140305 0.2205567 -0.7157532 -0.1429123 -0.24344462 -0.13074312 0.054926664 0.37782806 0.14612833 -0.1259158 0.424213 -0.3684041 -0.51297 0.12894079 0.5007906 0.32092547 0.40905052 0.32876885 0.14449275 -0.09132699 0.5595446 -0.19157027 0.010678734 0.2568748 -0.028259812 0.36684024 0.103652805 -0.18888506 0.18138695 -0.104191646 -0.0014687665 -0.7004863 -0.051879473 -0.23823218 -0.21015693 -0.13513966 0.07738451 -0.10637561 -0.88978595 -0.3548745 0.06946049 -0.07086887 0.11373202 -0.50637347 0.35355473 -0.44928843 -0.3227054 0.3652285 -0.33938277 0.054998133 0.613387 0.0052482863 -0.34070882 -0.3225124 -0.008542203 0.7960528 -0.5146238 0.6420532 0.07248731 -0.25924778 0.07657532 -0.6950239 -0.042022657 -0.11683237 0.25672927 0.4316394 -0.0830204 -0.5940546 0.012219162 -0.099376716 0.32253125 -0.15784551 -0.26764032 -0.26232058 0.3747698 -0.18177849 -0.5575108 0.24276586 0.070112236 0.19808836 0.54754573 -0.50174206
581 0.5799032 -0.6935256 -0.2985456 0.84752405 0.0435553 -0.37098125 0.36407545 -0.106740095 -0.51633114 0.10915533 -0.41429278 0.036761034 -0.053216897 0.50877076 -0.15199636 0.52366203 -0.085982285 -0.69526666 -0.3055132 -0.12267132 0.7115181 -0.021002503 -0.052155703 0.5468315 -0.5549927 -0.22817475 0.358398 0.20917073 -0.21696842 0.08072401 -0.3627178 -0.16101754 -0.27939582 0.2088753 -0.27918288 -0.26161894 -0.13202812 0.23399086 -0.2671855 -0.5509855 0.29992557 0.06764665 0.29096648 -0.50904036 -0.12907444 0.661079 -0.124427825 0.13660644 -0.7250333 0.104860574 0.4991214 0.30717593 0.47068435 0.052608613 0.27573022 0.41491762 -0.010427606 0.5257838 -0.08142172 0.015777629 0.04032586 0.33656752 0.12390606 -0.18868159 0.58493304 -0.25409222 0.72889984 0.782347 -0.10028376 -0.13178124 0.09427502 0.2783591 0.024380853 0.11302072 0.252043 -0.05810348 -0.15021214 -0.6937071 -0.093434386 -0.013289856 -0.61420983 -0.52980155 -0.24732322 0.2227606 -0.58588785 -0.46021205 -0.17315646 0.10517443 0.1937412 -0.14187129 0.376899 -0.068192184 0.62264735 0.24305817 0.14157985 0.53877807 -0.59820604 -0.03176394 -0.8127718 -0.02519506 0.06965264 -0.20381533 -0.025284804 0.116545886 -0.042206593 -0.5145672 -0.34935832 -0.012969499 -0.24829969 -0.006911584 0.20898746 0.06487465 0.19657026 -0.59100574 0.31069747 0.109268226 0.44186792 -0.51546717 -0.908405 -0.53473 0.1800825 -0.5042896 -0.67989355 0.7729465 -0.09818019 0.13801713 0.551426 -0.04126599
1229 0.20203522 -0.48148313 -0.077624716 0.03790435 -0.37777582 -0.39610597 0.54897374 -0.018181894 0.015568124 0.4356125 -0.23087457 0.10025513 -0.67119634 0.06646114 0.06347778 -0.70490545 -0.26164448 -0.59825736 0.25314096 0.18025358 0.61550397 0.37069452 0.08877471 0.50623703 -0.48746702 -0.26141524 0.49494094 0.046230823 0.25350052 0.1715148 -0.05403121 -0.332423 -0.27118176 -0.9320534 -0.1279214 -0.45266154 -0.34442052 0.18459451 -0.53584343 -0.91009 0.32614225 0.41709685 0.24414237 0.2881718 0.57012576 0.414404 -0.19467969 -0.14735407 -0.37742797 -0.24283281 0.2163398 0.32658288 0.2663944 0.011230009 -0.005955121 0.24339436 0.3784732 0.02941193 -0.07342486 0.34349304 0.48191532 0.616334 -0.077977195 -0.18045634 0.40349445 0.40231857 0.2099797 -0.49314213 -0.8648864 0.6663378 0.3679502 0.048183754 0.31419984 -0.13637355 0.10983073 0.12899645 -0.24848056 -0.17009284 -0.58876985 0.28477412 -0.5298411 -0.20208448 0.59015363 0.106827796 0.01747072 0.55723464 -0.5683317 0.27200592 0.3986714 -0.24238637 0.21117589 0.035701245 -0.13004902 -0.20888373 -0.10067196 0.7213104 -0.14323318 0.17432024 -0.01616279 0.01022813 -0.22773403 0.4370386 -0.44733855 0.17509437 -0.15787293 0.093819305 0.36455297 0.3948355 0.021825492 -0.2602709 0.80149984 -0.07424319 -0.21781193 -1.004286 0.29767004 0.004823275 0.018334206 -0.7951883 -0.93233657 -0.7451231 0.2562104 -0.3699729 -0.9398247 0.34385088 -0.23283488 -0.04524435 0.25071776 0.13942586
1435 0.05096677 -0.42417118 0.3210213 0.59272957 -0.1831235 -0.1892608 0.14769107 -0.57010806 0.4460536 0.71593845 -0.20076002 0.28362575 -0.4486365 0.026417142 0.13126965 0.38601485 -0.18620175 0.1323713 0.01712361 -0.3410473 0.8848979 0.663694 -0.5076013 -0.00923761 0.109179385 -0.29344824 -0.012068917 -0.6731106 0.27396613 -0.1967345 0.6275494 0.008433261 -0.916353 0.32281193 0.14783649 -0.2591893 -0.33632466 -0.0938407 -0.05446318 -0.061642088 0.14973351 0.3121851 0.20270453 -0.4141856 -0.4213707 0.18328057 -0.52767575 -0.6157147 -0.37608805 0.29497758 -0.012702281 0.09573987 -0.08239499 0.15999684 -0.19119985 0.22251472 0.10132445 0.61217415 -0.31265765 0.26594934 0.31390715 0.7911452 -0.08459804 0.20963494 0.45233396 0.15762259 0.019581847 0.49148646 -0.16214141 0.7506939 -0.2327621 -0.047705498 0.09564602 -0.06010299 0.071079366 -0.100347444 0.38292867 -0.72430086 0.1843261 0.17959125 -0.0036024933 -0.36237025 -0.0911992 0.17655854 -0.2072302 0.54846245 -0.44639912 0.09953558 0.045768563 -0.5010701 0.22905956 -0.37989977 0.06669405 0.35224515 0.049129948 0.28196222 0.6697983 -0.057993665 -0.29137537 0.28878108 0.10247456 0.44133115 -0.9545026 0.11857566 -0.07775164 -0.236723 0.11214314 -0.28375068 -0.26813993 -0.30776188 0.4241757 0.71327245 -0.21611278 -0.948354 0.5466398 -0.08017703 -0.48603597 -0.21495995 -0.56644124 -0.5107747 0.22999705 -0.66033524 -0.2506426 0.6718892 -0.6134809 -0.057131 -0.060886357 -0.6864456
1311 -0.16668493 -0.02194118 0.6041365 -0.12733717 -0.26718324 -0.03413827 0.5588961 -0.04449159 -0.114805125 -0.013600817 -0.3428703 -0.027480911 -0.50387496 0.18748793 0.21281767 0.19927149 -0.015542797 -0.72412366 0.10980201 0.0076432917 1.0209811 -0.07201551 -0.5659154 0.3669243 0.048976887 0.4673547 0.27734214 0.06329633 0.34906405 -0.05303993 0.86663836 -0.47305915 0.14352426 0.2708308 0.06970733 -0.16806547 -0.48885697 0.04997606 -0.14894736 -0.30945668 0.31780383 -0.09129477 0.7829759 -0.33877817 0.7645307 0.2561231 -0.6488578 0.080700405 -0.8850932 -0.3489631 0.040114168 0.010421075 0.01661903 0.36450344 -0.1264701 -0.0928964 -0.23517208 -0.27461785 -0.3035117 -0.12922423 -0.098510236 0.115916006 0.37244138 -0.37919807 0.6555665 0.0021159197 -0.22394873 -0.32731158 -0.013005519 0.8493638 -0.26563343 -0.12958448 -0.21007529 0.2734054 -0.4413267 0.65818095 -0.09538104 -0.76394975 -0.41313434 0.14556085 -0.67170894 -0.33227077 0.5362617 0.7387367 0.038544502 -0.08088328 -0.021856228 0.27366763 0.06330722 -0.64293414 0.56351525 -0.49550536 0.47799864 0.42144105 0.04713081 0.5097832 -0.5264218 0.09635922 -0.96946365 -0.06740854 0.026883906 0.093396865 0.12317449 -0.40367973 -0.39065337 -0.4524169 0.18356052 0.26447666 -0.31048107 -0.27247387 0.18416673 0.169172 -0.09846636 -1.1347045 0.17733599 -0.06369267 -0.29368535 -0.30266482 -0.12739792 -0.893025 0.08064484 -0.18223849 -0.60232663 0.4248437 0.1720661 -0.30932736 0.79239184 0.23639843
1736 -0.20738034 -0.41676798 -0.18934757 0.35264006 0.20001055 -0.3382906 0.42085955 -0.12173292 -0.01918598 -0.36282283 -0.6245565 0.3462556 -0.5621644 0.24840048 0.093794376 0.43044192 -0.19599734 -0.40393767 0.12243761 0.06733074 -0.09355175 -0.17778006 -0.53392345 0.12080738 0.19753446 0.10024469 0.6184919 -0.52715355 0.23798393 -0.14179969 0.057486415 0.28676936 -0.043354146 -0.10924866 -0.31233677 0.33566624 -0.6777333 -0.12470248 -0.57091933 -0.11631015 0.48778647 -0.06327015 0.26166973 -0.022706628 0.01507344 0.30245194 -0.18470891 0.18526945 -0.6934385 -0.08999316 -0.21922028 -0.08190511 0.033250675 0.40177402 0.15066792 -0.09124235 0.45722324 -0.3500677 -0.48233354 0.18079649 0.506214 0.33336785 0.36910307 0.3346168 0.17887087 -0.08330251 0.51940787 -0.16147703 -0.024532085 0.23246908 -0.017785905 0.37227318 0.10532327 -0.15600614 0.16890696 -0.082042255 0.033999436 -0.7126889 -0.030167842 -0.27988127 -0.20315626 -0.15735447 0.04861014 -0.083997995 -0.8684303 -0.33590755 0.034646027 -0.122780174 0.10132411 -0.5174822 0.38136274 -0.47732148 -0.3236942 0.36592278 -0.30782422 0.038426794 0.5940169 0.00030634785 -0.40243354 -0.27151263 -0.025301185 0.7935583 -0.49451524 0.65362906 0.04058884 -0.2641455 0.08628518 -0.7051251 -0.031788617 -0.109028175 0.27321038 0.4427989 -0.062393732 -0.59531826 0.0007915254 -0.06026507 0.31525883 -0.1553803 -0.26572824 -0.26124933 0.37686276 -0.18104042 -0.53529155 0.288552 0.055115536 0.16019315 0.5200455 -0.51020885
1191 -0.5434546 -0.38487306 -0.0676707 0.4803641 -0.4080621 0.10317792 0.34982905 0.05961922 0.40131453 0.15493776 -1.0095948 -0.04763821 -0.33206278 0.6198717 0.4228726 0.22633684 -0.34268767 -0.26678416 -0.7188266 0.87257934 0.77227247 -0.27934408 -0.07706237 0.38047957 0.06339883 -0.42241448 0.44619626 -0.30279875 0.22087343 -0.14129119 0.38003668 0.09092852 -0.54883444 0.10341301 -0.55392706 -0.3359527 -0.4515721 -0.16606665 0.13699004 0.03221906 0.16680819 -0.47525233 0.12571266 -0.2913057 0.2637215 0.39032105 -0.54250205 0.4537654 -0.3097922 0.17591895 0.6173693 0.5828568 0.15813686 0.19315057 0.105627336 0.055794366 0.54415494 0.5846612 -0.41740355 1.0952158 -0.2539052 0.58922255 0.25468272 0.022586724 -0.14224422 0.23118083 0.5539654 0.63866925 0.5079147 0.36604774 -0.15377259 0.28025663 -0.1280229 -0.4242125 -0.15066557 0.015157064 0.21379572 -0.51936823 0.43423086 -0.15217893 -0.23863067 -0.3642178 -0.06233163 0.35922286 0.08949637 0.22418657 -0.3781456 -0.36987934 0.26182938 -0.45003897 0.21230833 -0.43181753 -0.0987753 -0.19726805 0.10524173 0.17732295 0.23742086 -0.3938662 -0.97021914 0.21165422 0.1877206 0.23334847 -0.2486003 0.5124746 -0.03166113 0.020260585 0.15697668 -0.13227825 -0.15215974 0.23442951 0.6644032 0.3950025 0.5020589 -0.5102253 -0.097015105 0.039648365 0.34194654 -0.24574752 -0.53056556 -0.67181253 0.18805917 -0.44514662 -0.22617514 0.33064407 -0.4193258 0.2256101 0.5450275 -0.36401242
2514 -0.20415474 -0.42420086 -0.24430707 0.37138912 0.17137663 -0.28421813 0.4432693 -0.14064212 0.022053739 -0.31538376 -0.58205926 0.32769853 -0.555049 0.25384837 0.16014504 0.45767036 -0.22529054 -0.37434253 0.183446 0.061949037 0.0050570993 -0.28646824 -0.53177536 0.19169734 0.17501271 0.00900884 0.6877282 -0.5346961 0.3048058 -0.109466426 0.060305525 0.36731875 -0.088319905 -0.028559152 -0.24406199 0.3394936 -0.66835374 -0.08659778 -0.5424586 -0.17801711 0.41235334 -0.11053826 0.14305207 0.069083355 -0.060171496 0.30654928 -0.2736227 0.19748971 -0.66725296 -0.100696445 -0.17837495 -0.017747518 -0.048284203 0.4691322 0.18657783 -0.07170765 0.57505435 -0.35896072 -0.45129743 0.2226151 0.49905002 0.34090373 0.30836454 0.4610418 0.1424815 -0.018567469 0.45367143 -0.17463605 -0.07682467 0.19271527 0.010527308 0.3281007 0.11365767 -0.1283147 0.0754729 -0.033577908 0.058430545 -0.7135348 0.050439853 -0.29231477 -0.112824515 -0.14827737 0.12270725 -0.11582485 -0.87672114 -0.25875166 -0.010526343 -0.13213599 0.031717326 -0.5555201 0.3594465 -0.55257875 -0.29425725 0.36305526 -0.27430215 -0.03179543 0.5828541 -0.03445332 -0.46239582 -0.33771637 0.002977338 0.8464215 -0.4859382 0.6821621 -0.025098754 -0.28033188 -0.032351993 -0.7087157 -0.0148661 -0.0059792153 0.27485237 0.5113824 -0.052659284 -0.57099324 0.09041125 -0.027837737 0.41110393 -0.14204358 -0.25761378 -0.17407794 0.3257468 -0.18732794 -0.519048 0.28777948 -0.013096489 0.058416106 0.44349703 -0.5376813
1769 -0.29183564 -0.4569258 -0.15811735 0.35257646 0.12149092 -0.37883046 0.4549222 -0.108853735 -0.13362432 -0.43804714 -0.75067294 0.40970197 -0.4725611 0.20659849 0.09175032 0.3902644 -0.2145943 -0.4203283 -0.040446404 0.21363507 -0.18641943 -0.13662161 -0.5521665 0.047835283 0.22089154 0.185564 0.54075074 -0.5948609 0.1982774 -0.07993836 -0.047228012 0.114430755 -0.06163319 -0.24393234 -0.32357123 0.2628581 -0.74082416 -0.19140807 -0.54186344 -0.06276999 0.60153264 0.09929654 0.4432394 -0.11374055 0.09447743 0.27678472 -0.12386994 0.14741471 -0.673408 -0.015598165 -0.26281863 -0.067420445 0.12914096 0.2492176 0.20031744 -0.12716234 0.32398194 -0.29271698 -0.6078992 0.16944322 0.45502058 0.39067832 0.38181904 0.223816 0.21486337 -0.1446176 0.5558063 -0.15760237 -0.033553276 0.26978457 -0.0044674277 0.37513816 0.18559222 -0.29276863 0.36582395 -0.0937149 0.06767855 -0.72026235 -0.02069313 -0.24682967 -0.36085197 -0.069355026 -0.019351328 0.0011574395 -0.7896391 -0.34208146 0.12408816 -0.045420833 0.0849903 -0.47224662 0.33208713 -0.35955733 -0.31405976 0.32460058 -0.38256323 0.13535677 0.64187163 0.033827104 -0.4077159 -0.14012896 -0.02772276 0.72869265 -0.5364629 0.6288807 0.11215407 -0.15110254 0.21715677 -0.68719923 -0.11649734 -0.24280584 0.27399874 0.3968665 -0.1279919 -0.5691771 -0.14033726 -0.037616696 0.16611126 -0.19662814 -0.33539006 -0.29414475 0.31979075 -0.27776796 -0.60047877 0.31393763 0.081152804 0.21386103 0.48853543 -0.40871635
2093 0.0039555375 -0.20765 0.012311255 -0.10648406 -0.39580795 0.508282 0.7122865 -0.2640357 0.043477118 0.2120295 0.10516113 0.18830274 -0.1404485 0.65967536 -0.23958156 0.12582552 -0.11302823 -0.0036901734 -0.12375039 0.040528018 0.29828274 0.04327317 -0.8192112 -0.055193823 -0.25927472 -0.23225397 0.47485507 -0.64277947 -0.058938727 -0.41393203 0.096887805 -0.15069595 -0.8762609 -0.016075026 -0.02856483 0.02996682 -0.2730662 0.021967255 -0.6094529 -0.79893875 0.2058274 -0.30700245 -0.25552106 -0.35407063 -0.07880854 0.5676144 -0.6355764 0.09997776 -0.48048154 -0.82728314 0.14009115 0.144238 0.39467406 0.2246773 0.2797764 0.026532901 0.27304953 0.4788885 -0.6854463 -0.26993138 -0.21448961 0.5931612 0.3361018 0.29878008 0.5133755 -0.120194554 0.38564563 0.118443646 0.08609087 0.30564192 0.14029236 -0.40411115 0.52766603 -0.3688135 -0.058891505 0.25126803 -0.44261318 0.012498246 -0.43192357 0.15834092 -0.50181097 -0.07987208 0.8847784 0.18252861 -0.51288104 0.07414834 0.13078453 0.21004297 0.22220406 -0.08654029 -0.10588112 -0.36015502 0.066432685 0.3670419 0.01024411 0.12664987 -0.14551476 0.39003596 -0.06876261 -0.12829873 -0.15460695 0.1475956 0.14738454 0.03363841 0.14491732 -0.62000674 0.07997575 -0.048853714 -0.25250158 -0.13790107 0.6603421 0.18960649 0.08251032 -0.5427609 -0.10461296 -0.5995475 0.26248202 -0.529689 -0.8399509 -0.16376992 0.1791599 -0.14722182 -0.33090472 0.20875894 -0.3649561 0.08133027 0.3106487 -0.12777884
45 -0.28427267 -0.117918715 -0.4245337 -0.43187723 0.18543263 0.12084141 0.39398116 0.11392563 -0.10850244 0.51780593 -0.31437576 0.18381527 -0.55226517 0.2077754 -0.112243935 0.062096156 -0.12928818 -0.1984168 0.056480423 -0.1136923 0.13247079 -0.259787 -0.47305903 0.19112514 0.082386 -0.46398142 0.020299127 -0.022380142 -0.18849762 0.26895958 0.3156478 -0.37648252 -0.19045511 -0.059816483 -0.091243796 -0.015800158 -0.02841493 0.038808595 -0.03132702 -0.7568508 -0.18626694 -0.14484876 0.17354897 -0.35752764 0.2750948 0.32487288 -0.22648437 0.45712647 -0.2587595 0.3786492 0.26338792 0.12251505 0.14419279 0.036513593 -0.19391948 -0.08987595 0.13443162 -0.12883773 0.028076287 0.49115038 -0.040149026 0.3858192 0.33866566 0.010803982 0.52053285 0.63436514 0.41307044 -0.03405842 0.2127521 0.087166876 -0.1174448 -0.17409794 0.15193857 -0.2046987 -0.6586245 0.024469307 -0.019788384 -0.5503417 0.6543349 -0.2575474 -0.24366875 -0.59814066 -0.05185786 0.15942034 -0.4618969 -0.0757623 -0.2738985 -0.00023241747 0.6451125 -0.45931455 0.3936273 -0.15353066 -0.11357988 0.045782834 0.34968963 0.4508254 0.09477364 0.23384158 -0.24213928 0.17007153 -0.09486544 0.28578424 -0.29391986 0.15711187 -0.016111253 -0.12960336 0.01585897 0.05136766 0.2531442 0.0839967 -0.047094688 0.0034079228 0.23436224 0.02732408 0.785219 0.3589147 0.31820026 -0.6414424 -0.27661586 -0.34265038 0.16836226 -0.28920573 0.021101981 0.096307665 -0.06094874 -0.34664756 0.58003217 -0.16675374
33 -0.12602264 -0.040582146 -0.25464576 -0.33594242 0.24542671 0.04531502 0.20615356 0.032169387 -0.26602477 0.47394904 -0.23632 0.09298205 -0.6449245 0.4077009 0.16063319 0.075201444 -0.24998099 -0.087363705 0.24134432 0.13537602 -0.031886272 -0.28254393 -0.49690282 0.32700127 0.21105881 -0.6010511 0.10863141 -0.14225025 -0.3615947 0.14213803 0.22752506 -0.259053 0.12219758 -0.11149631 -0.1866707 -0.21271172 -0.11774976 0.0067371097 -0.19602026 -0.73700255 0.23822254 -0.07316607 0.3611273 0.18036795 0.38769925 0.32735574 -0.50596935 0.35264847 -0.63125205 0.36246586 0.025380502 0.18797556 -0.27014887 0.23850927 -0.14059797 -0.15016887 0.16104062 -0.015432164 0.05714435 0.5930681 0.04663338 0.5100077 0.14541829 -0.077555485 0.48789686 0.45627058 0.42589372 0.050548416 -0.041724946 0.19381167 -0.16620375 -0.072068065 0.33197996 -0.21061657 -0.6650699 0.1540625 -0.09938059 -0.39225748 0.7918289 -0.064610265 -0.39977008 -0.6347184 -0.14787252 0.21854194 -0.48164698 0.021039883 -0.2102382 0.25813296 0.61284894 -0.32804164 0.3756553 -0.3861353 -0.107222095 0.061159167 0.21869837 0.5688399 0.14253768 0.32886243 -0.12848242 0.15347567 0.0016443831 0.17461637 -0.3508536 0.13909777 0.13063729 0.1454168 -0.03741144 0.041852295 0.38766477 -0.08714229 0.08969333 0.24590388 0.07079093 -0.21609288 0.6640319 0.32299906 0.13406187 -0.6500512 0.006377032 -0.4085447 0.08698169 -0.099676274 -0.01986971 0.37350175 -0.13274579 0.009376844 0.32138672 -0.29071113
113 -0.16758372 -0.03713802 -0.25988194 -0.44892642 0.24842653 0.041214295 0.23996067 0.0767041 -0.2824681 0.4499014 -0.186732 0.06874043 -0.6671686 0.41890806 0.09988946 0.1037252 -0.21670422 -0.048859566 0.28047848 0.1318608 -0.03429576 -0.25160545 -0.44601482 0.3106378 0.25246996 -0.610117 0.15768373 -0.14273116 -0.32385072 0.16557324 0.25355884 -0.26952258 0.082968906 -0.14491245 -0.22652425 -0.21865264 -0.07539707 0.016568419 -0.237175 -0.7033912 0.211728 -0.056002673 0.42709118 0.16651297 0.31723645 0.2985196 -0.5230905 0.3457278 -0.61224806 0.29367617 0.024548568 0.13113827 -0.22728708 0.19958429 -0.178265 -0.17185575 0.12981406 -0.075889565 0.08890734 0.55694103 0.021845361 0.454548 0.1320742 -0.062284514 0.4644392 0.4276339 0.39317682 0.017570864 -0.040407326 0.18701729 -0.15909855 -0.0795491 0.38949782 -0.17560141 -0.6670114 0.10247578 -0.14742479 -0.39749387 0.7887169 -0.00040746317 -0.42397377 -0.6342009 -0.097679056 0.21462211 -0.46055216 -0.0051241536 -0.2070949 0.2788646 0.6397211 -0.3478104 0.37284517 -0.4183627 -0.099815294 0.026999578 0.17402278 0.5354784 0.16198975 0.31986493 -0.05797527 0.11660648 0.048157487 0.13472854 -0.34948045 0.1314757 0.16873692 0.18104018 -0.046600766 0.09183968 0.37528193 -0.068108484 0.013428463 0.2547107 0.07003069 -0.19955604 0.699789 0.27825677 0.14748354 -0.6336473 0.000102605656 -0.41950116 0.09739452 -0.09443463 -0.063381925 0.36410993 -0.113734 -0.007638867 0.30890822 -0.2674845
1467 -0.3250801 -0.08257694 -0.46553475 -0.44112596 0.17224212 0.0825111 0.3553395 0.14936529 -0.111251146 0.4550014 -0.22799139 0.07617706 -0.44020313 0.10529766 -0.21053033 0.08230738 -0.19348647 -0.3510065 0.037446268 -0.24935207 0.18314321 -0.24544457 -0.3742665 0.14078066 0.052737173 -0.4130742 0.053713407 -0.034876388 -0.08571683 0.18975355 0.32475382 -0.39304498 -0.36103624 -0.0034360443 -0.072909385 0.052404504 -0.021080133 0.034015212 -0.10255002 -0.6524426 -0.38354817 -0.15192103 -0.0139240455 -0.6461688 0.14342636 0.23099624 -0.17546296 0.58204865 -0.115970045 0.20274696 0.15857321 0.123569965 0.31620014 0.025473312 -0.34576052 -0.018380703 0.08118006 -0.2530579 -0.03733901 0.48518646 -0.11055307 0.3246078 0.46761405 0.020724636 0.5206486 0.5456848 0.47497693 -0.009305005 0.1959005 0.18599248 -0.13849008 -0.15436952 -0.019345228 -0.18583113 -0.5106709 -0.075292245 -0.030810399 -0.5514535 0.61335623 -0.22787526 -0.12682746 -0.5349482 0.0019732248 0.030944578 -0.53788775 -0.034891337 -0.2975584 -0.09883328 0.60147715 -0.45629734 0.29188573 -0.12792668 0.04917215 0.044037774 0.24761836 0.3050122 0.2605926 0.2719288 -0.20377068 0.08108294 -0.14331037 0.39674196 -0.3252639 0.15935503 0.0045177485 -0.16310956 0.06041701 0.005154104 0.16936697 0.19937658 -0.0682242 -0.016200226 0.22874756 0.03762866 0.7881716 0.31949174 0.24489053 -0.69946384 -0.35764372 -0.3337631 0.14232811 -0.3470294 -0.064144894 0.016842684 -0.07660665 -0.52554274 0.6397481 -0.23237851
1066 -0.23170462 -0.05299518 -0.574174 -0.6902636 0.013969679 0.26501828 0.51147044 0.3324491 0.09513404 0.29595128 -0.28921467 0.21114874 -0.5301062 0.1959368 -0.23695764 0.03128865 0.16551684 -0.24581109 0.03182191 -0.3443155 0.33810255 -0.065965794 -0.43752715 -0.004661954 0.27942947 -0.13932666 0.24553843 -0.18965688 0.22863033 0.06213918 0.40539148 -0.2713713 -0.6318158 -0.29036945 0.19493257 -0.045427714 -0.2616317 0.34088966 0.040574584 -0.4454718 -0.51673514 -0.1545185 0.25038406 -0.67646974 -0.018545683 0.2051712 -0.30132723 0.12505707 0.0072733155 0.046962198 0.30355963 0.026048673 0.57514066 -0.011303388 -0.3957131 0.052955627 -0.14747089 -0.3946392 -0.0004109625 0.36728504 -0.120189905 0.12089944 0.3783897 0.01568035 0.2547918 0.32355243 0.30829057 -0.10649109 0.2506358 0.26691192 0.031852346 -0.19727643 -0.00177456 -0.36710852 -0.36375672 -0.1295478 -0.09683286 -0.42941502 0.45483378 -0.06558791 -0.301856 -0.42417964 0.05882381 0.03603547 -0.5681558 -0.37005767 -0.050284233 -0.055973362 0.42820027 -0.48475876 0.32919267 -0.1357235 0.048610453 0.07601206 0.17939518 0.33421764 0.4585037 0.11823842 0.011086412 -0.05133255 0.08605641 0.36231896 -0.3799958 0.077319495 0.054499757 -0.071035676 -0.030253505 0.17338127 -0.19591455 -0.113400094 -0.214382 0.036369454 0.071118124 0.0702449 0.80256873 0.37835118 0.37491015 -0.7093834 -0.6002266 -0.5154197 0.21710564 -0.43205568 -0.35315925 0.05089982 0.12880635 -0.4713815 0.6418917 -0.051928084
2154 -0.24289146 -0.4298323 -0.21466734 0.35537884 0.16843373 -0.31948298 0.4447152 -0.11943613 -0.019284599 -0.3937591 -0.65694153 0.3576009 -0.5395013 0.23525062 0.12273836 0.41155252 -0.21537901 -0.3984752 0.11127744 0.09977128 -0.09775483 -0.19630393 -0.50092775 0.12980331 0.20819825 0.09876775 0.6278288 -0.5414 0.23809253 -0.14392804 0.03781153 0.28938437 -0.053540144 -0.12750408 -0.31041324 0.32015026 -0.68212 -0.13355173 -0.56730545 -0.09462592 0.49217612 -0.05767696 0.28027868 -0.021106765 0.0028579263 0.29327735 -0.19346629 0.18777572 -0.6828062 -0.10252427 -0.2207231 -0.074252 0.038003113 0.3755976 0.16557765 -0.10176515 0.46355355 -0.32740793 -0.49102777 0.19323997 0.4929138 0.32782644 0.3639402 0.3392709 0.17488107 -0.09445119 0.5111189 -0.17944871 -0.020954322 0.22139275 -0.0054862 0.37017128 0.12112453 -0.1752791 0.20088086 -0.0671164 0.036943197 -0.69528675 -0.02361707 -0.2527853 -0.20597893 -0.12804428 0.06308637 -0.08404614 -0.8353807 -0.3175429 0.044698015 -0.09075622 0.073665075 -0.50267875 0.3410103 -0.4734297 -0.3096844 0.34472638 -0.31961006 0.032196723 0.6174738 -0.0040514544 -0.40167207 -0.27544278 -0.011590207 0.78456306 -0.51441973 0.6480509 0.04455249 -0.2366793 0.09881714 -0.70331323 -0.033219595 -0.101352505 0.27734783 0.4389063 -0.06744831 -0.57477975 -0.020023372 -0.08137045 0.2943032 -0.15478484 -0.26812226 -0.254719 0.34633175 -0.19123942 -0.5510822 0.28191122 0.0479172 0.15689525 0.50000304 -0.5050226
979 -0.26442567 -0.4588985 0.011379921 0.7149568 -0.3847785 0.4790774 0.4523953 -0.026945146 0.5498082 0.2718715 -0.8184178 0.04503821 -0.31544787 0.59749115 0.584406 -0.08071342 -0.13218911 -0.2597763 -0.52880085 0.7314131 0.860999 -0.25619736 -0.16299011 0.39580712 -0.01726978 -0.566236 0.28348383 -0.41546372 0.16288508 -0.19559953 0.21015568 -0.04581121 -0.8358633 0.07522465 -0.47511664 -0.32058406 -0.45432642 -0.13158372 0.22705261 -0.23655592 0.22432254 -0.5905025 -0.099554226 -0.3266706 0.13563429 0.14868464 -0.58963317 0.3433673 -0.28190255 0.3473442 0.43959114 0.7171259 0.19460683 0.17405044 0.0011637359 -0.22538908 0.50557494 0.47665736 -0.31922063 0.92928416 -0.37081957 0.56932265 0.13750248 0.114069305 0.10356567 -0.07137072 0.33820888 0.38078803 0.31808105 0.16617209 -0.08831703 0.25962487 0.05886663 -0.20910674 0.023998506 0.04231574 0.27236778 -0.512414 0.20153074 -0.24659966 -0.42916742 -0.23187304 0.26562923 0.5216879 -0.25336346 0.30357492 -0.23427379 -0.17024598 0.25022265 -0.4354088 0.13175564 -0.26829705 -0.002058643 0.25694075 0.23967148 0.20804967 0.16923495 -0.38078964 -1.0433257 0.54071546 0.0045150057 0.20190078 -0.38358867 0.51907605 -0.20337424 -0.085318014 -0.08890582 -0.124173515 -0.032138634 0.24663565 0.63298166 0.13358325 0.6451882 -0.33443996 -0.36714634 0.038197424 0.510688 -0.22050552 -0.62418205 -0.49286053 0.10146122 -0.53998023 -0.36225086 0.15515949 -0.4530266 0.20792235 0.53517646 -0.42633486
1582 -0.12992953 -0.48143953 -0.14151865 0.018446555 -0.07522333 -0.12071801 0.53946996 -0.056224734 0.09095946 0.06481548 -0.3413433 0.25630513 -0.47826874 0.35212016 0.14156419 0.06233896 -0.291201 -0.13058428 -0.1231551 0.051158603 0.47305012 -0.007387376 -0.68028086 0.41108948 0.07659005 -0.16110867 0.17460912 -0.28106073 0.08424598 -0.07466348 0.41392946 -0.17115535 -0.68279475 -0.076724194 -0.05259852 -0.35289168 -0.3253932 -0.06703333 -0.20768832 -0.5039608 0.15938212 0.10171641 0.23348066 -0.234029 0.28817096 0.63171923 -0.31443086 0.02946293 -0.73531675 -0.22093624 0.29273847 0.13940948 0.14850527 0.2141042 0.013550186 0.03381403 0.25789306 0.084395885 -0.18061636 0.24050638 0.023866033 0.5783484 0.3363933 -0.08359985 0.33987325 0.36898446 0.3916351 0.026441164 -0.043690715 0.47633278 -0.045455568 0.18777512 0.10389993 -0.2837225 -0.21718957 0.30066356 -0.05279494 -0.53782374 0.15740497 -0.09301831 -0.39980736 -0.4754013 0.26536685 0.116500355 -0.57577384 0.06072946 -0.11494559 0.1365681 0.2718407 -0.5371065 0.35182858 -0.37319204 0.20475692 0.34659988 0.02649324 0.6885242 0.10462889 0.2159794 -0.52093005 0.01598243 0.037668608 0.37845787 -0.39188507 0.4023195 0.03200771 -0.2110593 0.0113080265 0.031673744 -0.16468075 0.043812484 0.3567912 0.32697564 0.11021835 -0.5340729 0.23120743 0.12833181 0.29165325 -0.47202265 -0.566725 -0.6636403 0.12872371 -0.33193168 -0.618905 0.22959273 -0.18178016 -0.16372965 0.6634991 -0.42239714
2068 -0.07960084 0.35872394 0.29676166 -1.0242871 0.64941055 -0.4633958 0.34994432 -0.6062266 -0.10197363 0.04820671 0.089754395 0.5184843 -0.4074514 0.36488557 0.18448538 0.31983715 -0.41232303 -0.33716643 0.0315884 -0.07561202 -0.061090972 0.0022973658 -0.11892573 0.25000232 0.23207663 -0.064239405 0.6733157 -0.19055325 0.7108662 0.0027472063 1.1111832 0.0048638065 -0.11835004 0.005227012 -0.091063686 0.3167908 0.2543305 0.2551553 -0.29127255 0.026631758 0.14335783 0.42129883 0.21741198 -0.13627982 0.29286638 0.6956915 -0.15104139 0.2991761 -0.6507879 -0.12502931 0.27667013 -0.31803605 0.071024545 -0.26526678 -0.017750027 -0.03259745 -0.45903462 0.117903 -0.621075 -0.23064399 -0.05940784 0.97863054 0.06231104 0.3870655 0.41121778 0.53795636 0.34772837 0.018197417 0.17971735 0.44187564 -0.31129658 0.01615365 0.1586471 0.18650098 -0.4038685 -0.084553696 -0.015508952 -1.0263802 0.34048253 0.41569883 -0.37415588 -0.5538736 0.39446077 0.14470077 -0.7868848 0.13706313 -0.47885367 0.039651845 0.7670536 -0.22398673 0.5258261 -0.90231955 0.4256624 0.16966975 -0.8104612 1.0719742 -0.45523885 0.3943949 -0.46786177 -0.30753043 0.39481318 0.049596235 -0.3065466 0.23107757 0.0961911 -0.56511855 -0.2919674 0.09917396 -0.33958924 0.40046117 0.81953806 -0.0026188623 -0.079431295 -0.90909123 0.3888077 0.39193335 0.3363657 -0.5341681 -0.98942846 -0.48760283 0.21339089 -0.09040984 -0.44906834 -0.24368696 -0.5991098 0.013165892 0.39246678 -0.12990011
2532 0.081773356 -0.61297226 -0.8107508 0.28670806 -0.11259424 0.42161632 0.5933834 0.49687704 0.21438192 0.00093997235 -0.58818007 0.19273204 0.24581538 -0.103053264 0.5474818 0.11567321 -0.3672296 0.2643603 0.050953504 -0.32453358 0.7149446 -0.032140307 -0.6477677 0.67831445 -0.22380406 -0.3371993 0.2522411 0.025054773 -0.031963434 0.06562941 -0.0005454577 0.25863785 -0.9716418 -0.5629012 -0.2919114 -0.20461139 -0.35157332 0.3825906 -0.8497873 0.12975848 0.12026127 -0.07882066 -0.21031182 -0.115368195 0.4383645 0.2194748 -0.4108565 0.054006245 -0.6599069 -0.0565812 0.09887525 -0.06683756 0.36197686 -0.23581481 -0.037178084 0.5326113 0.8096809 0.4331679 0.47750187 0.32326105 -0.1790944 0.10896059 0.47427124 0.035886154 0.58698046 -0.18036638 0.8293164 0.15502845 -0.18773091 0.06378638 0.112604044 0.2038793 0.25058734 0.35279447 -0.4172445 0.7691373 0.22964479 -0.2023641 0.115431465 0.043508418 -0.15267843 -0.9050832 0.300752 -0.24718453 -0.4522712 0.16818276 -0.41174313 -0.5742881 -0.20096262 -0.52359945 0.19625671 -0.9401303 0.20687956 0.11278929 -0.33895856 0.50230426 0.0065936577 -0.2339408 -0.6441946 -0.16820616 0.41840008 0.61947423 -0.460357 0.51329476 0.4387921 -0.08865108 0.19111122 -0.3231334 0.112971105 -0.16834803 0.48522967 0.19517736 -0.15315554 -0.6728097 0.38405505 -0.32804465 0.41253728 -0.4169209 -0.42120335 -0.37852815 0.17472869 -0.44768012 0.033279803 0.5371562 -0.4128603 0.30756405 1.0002071 -0.50439334
255 -0.13856547 -0.4995124 -0.1543753 0.043772843 -0.08389106 -0.12425017 0.5624521 -0.032703653 0.13510713 0.08441641 -0.35728672 0.2352299 -0.4843554 0.36552745 0.16415744 0.08458319 -0.28082517 -0.13366558 -0.12651317 0.055667304 0.50669193 -0.014093934 -0.6850596 0.4058987 0.08504722 -0.16054732 0.17779216 -0.2908087 0.08340339 -0.092927486 0.40111285 -0.14130406 -0.7165567 -0.056351718 -0.055259734 -0.36651886 -0.3232498 -0.067891896 -0.18925779 -0.48458043 0.1340192 0.091035925 0.2481103 -0.24748296 0.27837548 0.63175184 -0.33203933 0.021991951 -0.75283384 -0.24261573 0.2865134 0.1564588 0.14939016 0.20218661 0.017257052 0.05505878 0.29385376 0.0830559 -0.17538534 0.24723896 0.02540466 0.58809066 0.35481945 -0.07588121 0.3359915 0.38103765 0.3781333 0.030337783 -0.043482337 0.49080303 -0.07355809 0.22216408 0.0810153 -0.28986153 -0.23021038 0.2859395 -0.0949785 -0.54883885 0.13627882 -0.082938366 -0.3756641 -0.49745408 0.27415407 0.10971974 -0.59999555 0.07644436 -0.11071375 0.1368551 0.24232653 -0.5583074 0.3619883 -0.3955533 0.21093446 0.34570777 0.02862453 0.69677234 0.12792544 0.23005264 -0.51851875 -0.00012665692 0.034496617 0.3842662 -0.422677 0.4118994 0.01740169 -0.22317412 0.012387223 0.011444566 -0.17453432 0.065364905 0.38181755 0.3398308 0.11708383 -0.54197633 0.23296846 0.10742318 0.29236802 -0.49671948 -0.54548424 -0.6877985 0.12720153 -0.34140572 -0.65992296 0.25112894 -0.16240993 -0.17472129 0.685361 -0.4589963
1709 0.051320896 -0.35198092 0.081665665 0.31801724 0.29101956 0.052570578 0.054297976 0.15689962 0.17572951 -0.38921684 -0.52081215 0.02069469 -0.3122436 0.61818916 0.6965116 0.2304519 0.37406537 0.38765663 0.033896375 0.33321038 0.81344414 -0.13517472 -0.8412535 0.25586596 -0.012702774 -0.096649036 0.18799129 -0.07458707 -0.35645622 -0.29012296 0.37980768 -0.07757793 -0.81620765 0.19356795 -0.1368615 -0.5222528 -0.45391744 0.049331058 0.30729306 -0.48585257 -0.03119467 0.4177434 0.49655882 0.050159976 0.38986042 0.32999146 -0.10619048 -0.384819 -1.0152577 0.32517067 0.07616996 -0.28999066 -0.4839474 0.42495048 -0.35504457 -0.13344763 0.2474251 -0.089301586 0.043072544 0.26236582 -0.020472193 0.58715165 0.67157483 -0.34221983 0.13314188 0.30606207 0.41242346 -0.47045943 0.31478423 0.36554068 0.2057903 0.003254009 -0.17373669 -0.27349573 -0.3065413 0.63518566 0.5667894 -0.50811666 0.78036636 -0.5765936 0.29899955 -0.054075435 -0.29074568 -0.037705638 -0.9119896 -0.28988764 0.16035667 -0.13011919 0.09550257 -1.0569961 0.032356087 -0.31642413 -0.16818343 0.656723 -0.15250862 0.5889737 0.07896499 -0.08646984 -0.85004276 0.27373597 0.5738245 0.31403974 -0.6552175 -0.0037998296 0.5452762 -0.033297002 -0.37219232 -0.11537553 -0.4611342 0.12839463 -0.04800858 -0.18936813 0.020306505 -0.37169534 -0.21016416 -0.10682081 0.5112837 0.20887911 0.1602542 -0.19825697 0.3214325 -0.67488706 -0.6356377 -0.12544635 -0.23655467 -0.04562431 0.5932281 -0.61527234
1544 -0.13035068 -0.45046747 -0.12020887 0.038980987 -0.066778496 -0.11519686 0.5147664 -0.050275158 0.11065024 0.048346654 -0.3070839 0.2235914 -0.42565426 0.3280283 0.14516704 0.060326554 -0.27824306 -0.11361205 -0.1255183 0.050462168 0.43145114 -0.012753192 -0.6190392 0.3791361 0.06907125 -0.12623677 0.15567647 -0.2610914 0.08196277 -0.0755717 0.37935454 -0.14020765 -0.6470687 -0.05541185 -0.04104675 -0.3435482 -0.31413838 -0.052060045 -0.1724857 -0.4364234 0.13950896 0.11227049 0.22630994 -0.22102948 0.27591878 0.5751954 -0.28067812 0.0138349235 -0.69655454 -0.21013619 0.27082413 0.13945664 0.1328682 0.18702297 0.025190488 0.037270136 0.25317398 0.06744629 -0.15422095 0.20646721 0.036718715 0.5176848 0.3082334 -0.076164015 0.31137213 0.3400145 0.33253446 0.026245525 -0.049375545 0.44908333 -0.057490803 0.2005983 0.07875042 -0.2689692 -0.18819314 0.2705339 -0.06748734 -0.49794307 0.12031771 -0.08336587 -0.36127073 -0.45151252 0.25383613 0.10981904 -0.5488174 0.056148563 -0.09978956 0.12642297 0.2288193 -0.50187683 0.33141112 -0.352108 0.19981726 0.31628582 0.031297613 0.6475744 0.10463573 0.1896097 -0.468276 -0.008340988 0.040670615 0.332266 -0.3694923 0.36813042 0.010258965 -0.19494963 -0.0074729053 0.01902119 -0.16506952 0.040823944 0.3347216 0.29354092 0.10926093 -0.5025952 0.1653578 0.10078812 0.26846752 -0.43710592 -0.5037963 -0.6386665 0.11389338 -0.31153852 -0.5933107 0.20674235 -0.15161268 -0.16024436 0.62509274 -0.39056695
1291 -0.1755825 -0.5006112 -0.15454735 -0.014703851 -0.07202096 -0.13338807 0.59290886 -0.04920475 0.12906824 0.0731823 -0.37082738 0.28269535 -0.54754186 0.3647121 0.16859992 0.053213984 -0.32063466 -0.117523864 -0.14285503 0.049764227 0.49332458 0.00053420156 -0.7556661 0.43946266 0.11261211 -0.15506771 0.18387964 -0.3323039 0.10178231 -0.09100611 0.48218882 -0.16952993 -0.75545067 -0.08141643 -0.04115946 -0.39007488 -0.35174286 -0.070959374 -0.20983982 -0.5405908 0.16671881 0.14143628 0.27014858 -0.25103405 0.3428944 0.6871872 -0.34300432 0.024437238 -0.8045952 -0.24900922 0.30409524 0.13385785 0.16438393 0.24105628 0.01584048 0.034035828 0.28474635 0.052941136 -0.19633129 0.25497618 0.034187954 0.633707 0.36981064 -0.09777097 0.36858603 0.4285395 0.39329755 -0.007972769 -0.048043095 0.53991127 -0.06674085 0.2294455 0.13125016 -0.32713526 -0.24462055 0.3340886 -0.061664164 -0.59818584 0.16881752 -0.10506728 -0.43555692 -0.5167692 0.30473396 0.118650906 -0.6401973 0.088200815 -0.12102794 0.1517939 0.29085946 -0.5862614 0.38611922 -0.42729622 0.22841606 0.38665017 0.014654307 0.76094 0.1474997 0.23761632 -0.5351662 0.007681359 0.04429473 0.4339316 -0.451657 0.4339911 0.021512568 -0.20350443 0.017952146 0.031987086 -0.17241067 0.04059765 0.39266303 0.3618318 0.13379407 -0.5973432 0.22877151 0.1352161 0.29806033 -0.52807087 -0.60216427 -0.74407023 0.1261245 -0.36226776 -0.6909284 0.2258045 -0.19461459 -0.20560615 0.7283061 -0.46475428
475 0.055259842 -0.72447765 0.24751936 -0.025986506 -0.28194135 -0.402706 0.5877636 -0.10736756 0.40667436 0.42592627 0.061373007 -0.043968115 -0.6429963 0.034481913 -0.2429863 0.24336916 -0.18695381 0.15788932 -0.45935568 -0.17124298 0.3530255 0.27094403 -0.40986186 0.08470561 0.16495262 0.19995168 -0.0834592 -0.23092586 -0.28123167 0.08519248 0.4312734 0.13413075 -0.020426156 -0.22328655 0.13593401 -0.01809948 0.117753 -0.4218229 -0.4568258 -0.3976205 0.52349925 -0.13363321 0.22136435 -0.097305775 0.48721322 0.03609439 -0.11030008 0.1083257 -0.84376717 -0.3336417 0.17426579 0.38318938 0.12392893 0.18650842 0.5559916 0.2964817 0.4136931 0.19295776 -0.34009662 0.14849526 0.40312573 0.10427717 0.36649716 -0.32579565 0.9612986 -0.01104053 -0.07345001 0.5842457 -0.20810388 0.51719946 -0.064912945 0.7766398 0.41171667 0.11911632 -0.62305975 -0.116246484 0.03921261 -0.21170378 -0.3174741 -0.176565 -0.41983718 -0.8190267 0.21891919 0.20343122 -0.44545922 -0.26795873 -0.71860695 -0.2274682 0.29165006 -0.21425003 0.5663042 -0.1788997 0.3772662 0.057764754 0.24481678 0.4455419 -0.11937439 -0.1254806 0.067429304 0.13552342 -0.35212535 1.0513304 -0.47412884 0.49513856 -0.23546381 -0.1294154 0.06028155 -0.2824746 -0.31984013 0.027270475 1.0924017 0.14030375 0.16919431 -0.56265944 0.13615483 -0.10195528 -0.19420043 -0.925805 -0.2781252 -1.0743396 0.013274656 -0.09827718 -0.01708289 0.6577042 0.13629982 0.19276252 1.1245637 -0.21652332
88 0.078085065 0.21312521 0.28342274 -0.56777877 0.36884463 -0.32268098 0.113509886 0.115219 -0.31510764 -0.28204018 -0.31772533 0.18722957 -0.118996054 0.2990311 0.6681642 0.29869196 -0.17461433 -0.13527185 0.039749116 0.054664772 -0.018664975 -0.018626593 -0.5966796 1.0084974 0.429043 0.21553563 0.12121034 -0.38647854 0.061899263 -0.014397226 -0.05375449 -0.306306 -0.4582656 -0.39229083 -0.49766693 0.07858585 -0.47009033 -0.22181201 0.16536784 -0.01957323 -0.124750555 0.4420964 0.42130828 0.0975776 0.29412365 0.8466948 0.46948558 0.07323811 -0.7186945 -0.23692909 0.17739941 -0.2759331 0.0072550005 0.39589843 0.4695009 0.20878501 0.385411 0.06648206 0.03686636 0.32549515 -0.62087816 0.92770374 -0.0459089 0.025097104 -0.012883095 0.09169095 0.57669723 0.35850868 0.29561803 0.14597796 0.3188559 0.6599249 0.017943524 -0.7222047 0.15423477 0.35482338 0.0038439718 -0.51954293 0.39090917 -0.55670553 -0.38194776 -0.48675653 0.03735176 -0.9758845 -0.94437075 0.25846776 0.00786945 0.031599537 0.29543024 -0.05701438 0.025691336 -0.2898561 0.41709888 0.09770082 -0.27950072 0.39923215 -0.09872506 0.27105266 -0.43021154 -0.33664942 0.115298495 0.14483108 -0.5687748 0.32334 -0.088219695 -0.22300023 0.7773237 -0.15311918 0.2700365 0.706041 0.6497919 0.25812292 0.41458365 0.04222821 0.1942201 0.6468384 0.20133345 -0.83647597 -0.41258022 -0.7141954 0.073341705 -0.19065598 -0.9128589 0.18394801 -0.2654955 0.24087344 0.48405856 -0.55290973
1758 0.20130008 -0.49734348 -0.48017186 -0.0014300791 -0.16417763 -0.11850017 0.24698596 0.50675756 -0.18785359 0.33866212 0.16630799 0.3510356 -0.4426151 -0.2970417 -0.3591032 -0.12178445 -0.69231087 0.18078889 -0.5459442 -0.22748789 0.007834662 -0.013751454 -1.1949598 0.43092415 -0.01020468 0.12077344 -0.4626344 -0.13439998 0.10042194 0.6113978 0.18958211 -0.5306579 -0.880614 0.20812605 0.3675087 -0.54962856 -0.5254859 -0.021751255 -0.4582247 -0.7003105 0.06742866 0.48020828 0.11278076 -0.33112955 0.21015221 0.95988554 -0.18592022 -0.08673355 -0.48466265 0.04986898 0.11281848 0.4493739 -0.006635783 0.12684768 0.016767776 0.53878 0.335454 -0.02391829 0.21304485 0.017187387 0.15219355 0.7771686 0.059424296 -0.111490935 0.6915378 0.17757736 0.0067928135 0.5620434 -0.7121356 0.36789402 0.20848338 -0.049744055 0.17428029 -0.6277328 0.079265445 0.4204403 -0.6175226 0.19764593 -0.21660861 -0.7072249 -0.45202258 -0.40637743 0.32852998 0.0023675335 -0.6627517 -0.25339848 0.41533807 0.13778576 -0.29617187 -0.7142106 0.690679 -0.08927829 0.26925611 0.26820782 0.2123262 0.5187268 -0.06604395 0.5163996 -0.28032988 0.29484245 -0.20551746 0.19929606 -0.06835301 0.42110223 -0.107637204 0.3341784 -0.0709697 0.5799108 -0.12011561 -0.33479562 -0.30191755 0.7605746 -0.2929179 0.048369616 0.3183387 0.24684787 0.5774346 -0.2015465 -0.013496228 -0.9424094 -0.107963435 -0.03558049 -0.451474 0.80119663 0.189482 0.011189883 0.87235844 -0.046424102
1768 0.3293657 -0.9538452 -0.069005355 0.394907 -0.23854557 -0.44984907 1.1326967 -0.00081385276 0.3430757 0.23972987 0.090980135 0.095686436 0.17710939 0.26469094 -0.4225547 0.24456184 -0.19136499 -0.039441116 0.027298449 -0.09709364 0.5116153 -0.005883574 -1.2972772 0.16842154 -0.36965147 -0.455006 0.19910234 -0.2473479 0.5612459 0.17881122 -0.18720758 0.06042768 -0.8016025 -0.3154821 -0.27246016 -0.45065114 -0.38687354 -0.22345352 0.26447913 -0.51826817 -0.19337568 0.106142975 -0.28670394 -0.3561658 0.53634727 0.12614661 0.14054081 -0.36529475 -0.32253644 0.2531095 0.6442684 0.8784823 -0.16571286 0.011566071 0.24196935 0.03318917 0.48066613 -0.0064531597 0.29600817 -0.002728535 0.21333493 0.39339694 0.12769651 -0.21583554 0.45324358 -0.09117776 0.51854545 0.7500862 -0.51505876 0.52773213 0.012812395 0.222164 -0.3216388 -0.3433747 -0.39622763 -0.09488797 -0.07567012 -0.66798854 0.32207164 -0.096263535 -0.3560047 -0.6193869 0.72730184 -0.042030975 -0.7171069 0.17464827 -0.5886372 -0.258454 -0.23377872 -0.57497466 0.6016306 -0.33138755 -0.43739718 0.29867333 0.52112687 0.5982757 0.099731185 -0.179013 -0.12998421 0.23355322 -0.35371196 0.4094858 -0.34770006 0.97845197 0.5287306 -0.16840902 -0.016192246 -0.4817195 -0.045558304 -0.08907525 -0.11989027 0.60936886 0.017583225 -0.13106342 0.016572107 0.5502959 0.77096087 -0.7217316 -0.30444047 -0.21616027 0.39587408 -0.27292103 -0.32511866 0.4838405 -0.5542787 -0.12759343 0.076374285 -0.40471265
2652 0.35740545 -0.3241723 0.18369266 -0.58193225 -0.3867381 0.32908845 0.30877906 0.44446677 0.14932197 -0.09123092 -0.45082986 0.7145518 -0.42180523 0.21299286 0.2104057 0.1004423 -0.19165666 -0.2325699 -0.25266197 -0.14910291 0.38607052 0.21351117 -0.2364605 0.6130729 0.15605833 -0.21457657 0.28440338 0.039688304 -0.24783814 0.21911752 0.193097 -0.12133612 -1.0320015 -0.23528951 -0.27096245 -0.4973277 -0.39275268 -0.3840465 -0.0096828 -0.5644997 -0.2645074 -0.3333815 0.19623391 -0.1180455 0.2010441 0.4193418 -0.8508481 -0.33739656 -0.39167175 -0.3156009 1.0028847 -0.22028095 -0.08716825 0.12075479 0.21945062 -0.38068393 0.39177367 -0.27601296 -0.147616 0.19751889 0.5222931 0.42925406 0.3070665 -0.06816564 0.29211187 0.056770228 1.0642488 0.2959797 0.441179 0.878561 -0.41066203 0.31785128 -0.44197017 -0.2505955 0.16736484 0.19843802 0.04806688 0.13822716 0.16827151 0.18931355 -0.123391904 -0.43072322 0.24297525 0.30676776 -0.2096335 0.5887313 -0.11896326 0.6251879 -0.025348797 -0.20755059 -0.2137252 -0.4481411 0.36301762 0.30610347 0.0067329267 0.15851977 0.023293212 0.32183155 -0.2263597 0.22622725 -0.0069864667 0.50209785 -0.38159284 0.5141433 0.08991426 0.4719373 0.12193424 0.026215408 -0.11537948 -0.04990977 0.3966084 -0.21922569 -0.2691918 -0.55332303 0.27474934 0.0025356445 -0.1376954 -0.19595458 -0.21704558 -0.43305984 0.033474747 0.0887964 -0.96535075 0.3730102 0.29740587 0.28948557 0.51660234 -0.11391009
887 -0.03138515 -0.29067343 0.6032701 -0.21874829 -0.07741683 -0.032736763 0.22445863 -0.037249748 -0.017486941 0.018192794 -0.035090897 -0.16110425 -0.019800633 1.0071847 0.009864933 0.08303513 0.03804636 0.2418382 -0.2145146 0.49672803 0.6940858 0.2798353 -0.5866172 0.30823982 -0.46686855 -0.6565632 0.29199573 -0.30968016 -0.10603402 0.2886968 0.15424909 -0.13320251 -1.0573175 0.19721559 0.16131581 -0.47725758 -0.1980952 -0.25802034 -0.16825171 0.017972462 0.07677674 -0.3852074 -0.0977875 -0.6512615 0.6038839 0.20857802 0.29289812 -0.22323924 -0.6568731 -0.48020607 0.0055177826 -0.30621296 -0.22956306 0.132075 0.1761299 -0.21320617 0.3958965 -0.040265482 -0.24550118 -0.23744065 -0.48064202 0.24777836 0.5483374 -0.5836467 0.19957146 0.23633803 0.5796953 -0.04344715 0.20204954 0.91449714 -0.08531059 0.38505387 -0.27763677 -0.008820159 -0.6638301 0.1082796 -0.3527002 -0.25626546 -0.30446407 -0.14888607 -0.6159613 -0.6023423 0.43124935 -0.4381019 -0.12983924 0.020092 -0.14466451 -0.1942089 0.42439806 -0.37162936 0.23720434 -0.30381182 0.108841576 -0.053311765 0.2820856 -0.0006636785 -0.6141001 -0.143521 -0.54497963 -0.36152384 0.15199687 0.20602751 0.015939582 0.47933114 -0.064494014 -0.27653798 0.1410099 0.36904082 -0.24836166 0.31669685 0.6341172 -0.10790236 0.32821798 -0.6302699 0.2785929 0.48226118 0.53669906 -0.61679703 -0.22561893 -0.51114815 0.49577412 -0.41149205 -0.82000834 0.2340491 0.18848237 0.30570373 1.1873035 -0.3216009
62 -0.20277229 -0.18470332 -0.26743942 -0.49690613 0.16535203 0.09842375 0.416966 -0.013582233 -0.2171247 0.41810426 -0.19352797 0.030058872 -0.67051053 0.40461737 0.093685806 0.22350574 -0.24785677 0.033281997 0.26199856 -0.018975453 0.08536886 -0.22609358 -0.48986575 0.32192189 0.23733516 -0.6243138 0.111195855 -0.18593194 -0.2217117 0.2961437 0.2572477 -0.2311503 0.033032235 -0.11766115 -0.2380443 -0.2817788 -0.036981195 0.08329317 -0.22433077 -0.63474613 0.28505012 -0.040725727 0.45981562 0.04823063 0.21602608 0.3719932 -0.44026437 0.24426037 -0.534493 0.3358927 0.12140548 0.08604903 -0.15619035 0.1481226 -0.22182295 -0.17759681 0.08891091 -0.09898728 0.03691298 0.39853203 0.050717063 0.3925536 0.16510783 0.026435915 0.66001356 0.4639536 0.36568412 0.041743897 0.0138370115 0.18132623 -0.0026287902 -0.24248447 0.3161494 -0.023020903 -0.78567135 0.18496437 -0.1640648 -0.41149646 0.60832137 0.05140069 -0.3188023 -0.5746044 -0.029197812 0.22840856 -0.39164498 0.018749317 -0.36565575 0.249136 0.76293606 -0.40335065 0.3524307 -0.38384438 0.0012302895 0.075498015 0.1771126 0.5470414 0.069550924 0.35311818 -0.19541903 0.0065843984 0.09108871 0.18550083 -0.30944178 0.19117658 0.16266935 0.017326662 0.05689618 0.05453113 0.33390218 -0.02472273 -0.041329365 0.13725245 -0.046267886 -0.1978142 0.701283 0.15414906 0.1676463 -0.5166363 0.12352074 -0.33472902 0.1452227 -0.20291387 -0.059844226 0.26997477 -0.13979866 0.10268158 0.26124254 -0.39107534
50 -0.22980376 -0.070218936 -0.42453048 -0.462531 0.19194515 0.13627374 0.38273868 0.11405625 -0.12270866 0.5084068 -0.30533448 0.1830683 -0.5927003 0.22211449 -0.059233177 0.08263935 -0.12399113 -0.19162276 0.06993269 -0.11577414 0.1345685 -0.26864627 -0.51329905 0.21495283 0.12202269 -0.47445604 0.02018527 -0.05508955 -0.21359637 0.26516795 0.3108054 -0.3804996 -0.17622548 -0.07454607 -0.06447308 -0.051330794 -0.06316609 0.07574 -0.03210295 -0.72002 -0.1651992 -0.16517165 0.23625922 -0.32387766 0.26649347 0.31762102 -0.25575662 0.42749032 -0.2712807 0.39399323 0.2759771 0.113747574 0.09939228 0.023925984 -0.18555994 -0.09157353 0.1082623 -0.12039335 0.044675786 0.46685478 -0.0026560046 0.4034643 0.3142832 0.01244526 0.55234545 0.63323 0.42623484 -0.017019814 0.20343883 0.10175556 -0.111643605 -0.1876741 0.15039247 -0.18396851 -0.6878921 0.053965036 -0.0235875 -0.5029546 0.68734807 -0.20951062 -0.27064118 -0.62759 -0.071660765 0.17836422 -0.46537688 -0.10829714 -0.31162307 0.0355584 0.6648664 -0.43586916 0.37924922 -0.20359376 -0.09782177 0.07767259 0.34518582 0.4935953 0.087973125 0.24803635 -0.19639404 0.15850328 -0.08404572 0.240411 -0.3278767 0.13104928 -0.03466014 -0.11650259 0.027149983 0.0433925 0.28477252 0.07571294 -0.047156222 0.027428167 0.18184762 0.048329663 0.79941165 0.37848935 0.29608047 -0.63309777 -0.24936561 -0.36733165 0.16400912 -0.28514507 0.0096478 0.14761391 -0.02147589 -0.2949542 0.5948016 -0.19131476
1754 -0.18883365 -0.07696036 -0.23163112 -0.38355288 0.2904216 0.0008375945 0.24494678 0.02812175 -0.30611527 0.4110678 -0.13228394 0.104540005 -0.6207322 0.38930473 0.09886461 0.06645416 -0.25844696 -0.08554191 0.21609502 0.15360625 -0.067966014 -0.28160334 -0.43069318 0.3020798 0.19713351 -0.567838 0.117215686 -0.12945598 -0.36282685 0.13768631 0.23510024 -0.28249443 0.061409675 -0.06947227 -0.25482845 -0.21131872 -0.051215902 -0.05799855 -0.1668266 -0.7682843 0.15915327 0.000879828 0.38441926 0.14958479 0.28455487 0.28043997 -0.4241119 0.4367201 -0.61623096 0.30675384 0.04343388 0.1502514 -0.2196847 0.23394893 -0.13945486 -0.17020221 0.13651133 -0.09408733 0.06998119 0.5514671 0.04748896 0.5363093 0.1491352 -0.08644811 0.3978383 0.519152 0.41857925 -0.006678886 -0.06008 0.19122635 -0.22555551 0.0026942482 0.3658182 -0.1916848 -0.62025976 0.0073260623 -0.119568214 -0.41761467 0.8620467 -0.04844121 -0.36199993 -0.63606894 -0.12064194 0.183809 -0.50186235 0.05350308 -0.19640489 0.2902237 0.61327684 -0.32677624 0.3523716 -0.3873328 -0.12130731 0.08703031 0.23828948 0.5709302 0.17269318 0.3345728 -0.04562777 0.17098896 0.0013965828 0.12713283 -0.41750917 0.13687852 0.16833349 0.14616059 -0.07819156 0.06134396 0.35795066 0.004541237 0.014798521 0.26370528 0.10848127 -0.17693962 0.6730877 0.2693903 0.1700053 -0.562444 -0.03924379 -0.40550053 0.054294255 -0.056900196 -0.04282788 0.32619363 -0.13548034 -0.10197406 0.32351288 -0.27429157
42 -0.21147723 -0.10547329 -0.4122378 -0.38070166 0.20714426 0.12020431 0.37133566 0.09038825 -0.105640784 0.5487109 -0.3193721 0.21667242 -0.55436873 0.2050532 -0.03295176 0.048003566 -0.16017973 -0.20251384 0.038187962 -0.10769781 0.12754972 -0.31954473 -0.55929315 0.24369296 0.077739716 -0.4746337 -0.056744106 -0.003071838 -0.25484636 0.3021827 0.30900034 -0.3609932 -0.18601224 -0.027071083 -0.059894692 -0.043841742 -0.04925361 0.050878096 0.0066051334 -0.8131283 -0.15189804 -0.12368763 0.18799412 -0.31260478 0.36094025 0.35920212 -0.22701357 0.46901712 -0.29982957 0.47258803 0.32937115 0.18814586 0.09279706 0.03555344 -0.11742923 -0.05228318 0.15442947 -0.06577287 0.053550776 0.48230624 0.013442937 0.49121466 0.30415192 0.02513396 0.5479155 0.7001266 0.4794409 0.0024272348 0.19700988 0.058599588 -0.14483099 -0.16922294 0.13878019 -0.20830643 -0.70069116 0.062100675 0.021430273 -0.5046814 0.7356117 -0.28094944 -0.24384691 -0.6650002 -0.120183475 0.17753662 -0.45713723 -0.0543967 -0.27260005 -0.0055698124 0.6344087 -0.4638192 0.41870424 -0.20490988 -0.14164743 0.10541555 0.42070997 0.5180205 0.025869565 0.27864316 -0.29215735 0.19644748 -0.118312135 0.24436006 -0.29894292 0.15423098 -0.05115471 -0.14136723 0.029187547 0.02983372 0.30961788 0.07944665 -0.05289736 0.00056602946 0.16646041 0.05290901 0.774935 0.40310556 0.34000263 -0.6136672 -0.23824517 -0.34128776 0.16997132 -0.2423801 0.114934176 0.13637343 -0.070421524 -0.3383879 0.57520056 -0.1993522
657 0.081099294 -0.42612982 -0.36260742 0.44240272 -0.44241998 -0.34651792 0.1898993 0.0012777107 0.07581399 -0.021692632 -0.72093207 0.006044463 -0.6899343 0.66560435 0.55408376 0.81060493 -0.08064792 -0.1887849 0.042286478 -0.22962084 0.63383645 -0.21054155 -0.16837847 0.33769578 0.010940178 -0.31506193 -0.08493062 0.08114754 -0.009736057 0.16306242 0.50855035 -0.2455634 -0.9829497 0.46665978 0.2883518 0.2825078 -0.9361354 0.39873305 -0.30585065 -0.48344225 -0.021632507 -0.45492682 0.14906456 -0.5465543 -0.4223077 0.29959032 -0.39208683 -0.11622154 -0.5978024 -0.22036546 0.21331796 0.08476413 0.19128096 0.3594429 -0.34378323 0.21266156 0.11946918 -0.014450801 0.4926789 -0.07647135 0.18084477 0.66516405 0.35554242 0.10662401 0.4173581 -0.1644512 -0.12858899 -0.67264426 -0.07431216 0.113139786 -0.25647923 -0.2613895 -0.19084091 -0.22763985 0.17667927 0.5416961 0.2543058 -0.349329 -0.013536409 -0.110581085 -0.20841967 -0.158613 0.47749263 0.03199524 -0.87134117 0.030503754 -0.13517702 -0.24333641 0.117134936 -0.4503303 0.50439733 -0.87934494 0.2962487 0.40494844 -0.06830466 0.46155435 -0.14583227 0.26448283 -0.9235576 0.17765161 0.0004952414 -0.2593005 -0.5341676 -0.015796566 -0.6391945 -0.5176407 0.48379755 0.33302242 -0.21475518 0.39237496 -0.07493332 0.29745427 0.0053807963 0.045444548 0.12348835 -0.036661778 0.10064629 -0.3795875 -0.5388822 -0.7435588 0.4285147 -0.18083985 -0.9711207 0.49779046 0.22519562 -0.50061756 0.07081734 -0.6615643
2091 -0.11299666 -0.35523844 0.4052603 0.06015423 -0.21246812 0.11940392 0.4244689 -0.34649053 0.31975636 -0.27349427 0.3972958 0.8130411 0.17393525 0.40565947 0.11028066 0.19037463 -0.11392375 0.5342801 -0.7567764 0.20709369 0.2763443 0.32750958 -1.0221506 -0.46902788 -0.027892001 -0.6886234 0.16483104 -0.34225395 0.1940469 0.20355266 0.61708677 0.16481361 -0.917206 0.0584311 0.3917912 0.079869494 -0.18198037 -0.3126554 0.03957835 -0.6402053 0.07662274 -0.16791718 -0.102557175 -0.38067377 0.19080105 0.22588995 0.1340335 -0.03126087 -0.5908443 -0.0026830933 0.41049385 0.0068316944 0.04195616 0.5329532 0.50539684 -0.34527072 -0.20349811 -0.19072035 -0.05206845 -0.2690378 -0.12268641 0.5971051 0.03213487 -0.4084335 -0.17333446 0.593771 0.2562187 0.13534091 -0.12757239 0.64916444 -0.6167984 0.5083531 -0.25672868 -0.2314971 -0.33665583 0.27803582 0.24610764 -0.7396786 0.8248108 -0.09568602 -0.09968299 -0.06651195 -0.096798256 0.35823044 -0.69384503 0.41681784 0.17769854 -0.3079668 0.05313849 -0.51048374 0.4081857 -0.20779745 0.7807723 0.88909554 0.2204077 0.9054415 -0.085086204 -0.31502247 -0.33638436 -0.023307608 -0.2556091 0.27741924 -0.0070392713 0.76587903 0.07195169 -0.09856562 -0.5621901 0.2174335 -0.41624492 -0.30138484 0.26720536 0.23976932 0.043309674 -0.5032693 -0.2376255 0.46255592 0.6695584 0.048590682 -0.6286243 -0.20084886 0.2495202 -0.13366532 -0.38488632 0.255122 -0.1606788 -0.12714338 0.42852792 -0.17057705
1098 -0.101784736 -1.1260139 -0.15697056 0.038637232 -0.022959063 0.16488087 0.2581757 0.27295187 0.017845104 0.11929256 -0.16407342 -0.087113924 -0.23120002 0.58345103 0.14009786 0.086776555 -0.47073573 -0.16720435 0.5061359 -0.121343486 0.6944365 -0.4268352 -0.46850467 0.6125377 0.03809011 0.5619262 0.0003322484 0.12309254 -0.13297734 -0.5001016 -0.19738194 -0.4666999 -0.8502416 0.14338998 -0.39735055 -0.42456758 -0.3602519 -0.5367731 -0.17928116 -0.42260388 -0.1921857 0.20415938 0.29350019 -0.11166155 0.43033442 0.14698032 -0.087283656 0.10486264 -0.9410692 -0.33673167 0.15417606 -0.09422421 0.13534361 -0.13787284 -0.2140822 0.1651305 0.35571778 0.20512362 0.16284525 0.39379072 0.042578865 0.1918696 0.6188767 -0.09961595 0.010337708 -0.3550462 0.30739582 0.89764726 0.42821905 0.644747 0.046805806 -0.08826564 0.09442314 -0.3402649 -0.42924926 0.05088831 -0.04500071 -0.83076394 -0.18639565 -0.03422241 -0.13295764 -0.13905664 0.25589576 0.03478153 -0.749118 0.0334343 0.18486606 0.71530557 0.18449762 -0.8193931 0.49089003 -0.06672077 -0.3788299 0.21512637 -0.042581573 -0.1382015 -0.055561572 0.6223303 -0.9066148 -0.2404587 0.49563023 0.5750745 -0.205803 0.15351878 0.51308906 -0.3223206 0.3074552 -0.16114332 -0.58493483 0.32134762 0.20250651 0.33666593 0.10209025 -0.34825554 0.08909518 -0.36737323 0.3506555 -0.5028275 0.31888822 -0.6934781 -0.11902132 -0.8397563 -0.1511056 0.2736334 -0.17681299 -0.15552859 0.7750769 -0.25136784
1062 0.021195378 -0.22117496 0.020206869 -0.081648484 -0.4071622 0.4959927 0.7042137 -0.26835003 0.06417554 0.21923833 0.09190796 0.1558101 -0.1376359 0.67155415 -0.21522872 0.1481222 -0.10080682 0.013532902 -0.11536652 0.034656063 0.31990606 0.03653177 -0.82458526 -0.057977285 -0.26353657 -0.22036979 0.44368434 -0.6011719 -0.06303133 -0.4151688 0.08591986 -0.1537471 -0.90523845 0.0039544697 -0.021026742 0.012730076 -0.31018996 0.01860791 -0.60324466 -0.785248 0.1956147 -0.3054464 -0.27092236 -0.34612572 -0.08443503 0.5515116 -0.6345043 0.07340365 -0.4698223 -0.81516695 0.13968654 0.15659805 0.3629369 0.20121199 0.26328087 0.03449144 0.29342103 0.476264 -0.6601939 -0.272582 -0.20956193 0.5954859 0.35249764 0.30452898 0.5155299 -0.1198624 0.36692277 0.10453629 0.08754302 0.3125129 0.1463441 -0.42672452 0.5010394 -0.3675865 -0.067944005 0.2683644 -0.43126956 0.024052517 -0.45213032 0.15438797 -0.4941466 -0.086162366 0.8895406 0.1658276 -0.5059333 0.09229167 0.13128656 0.20158036 0.20542134 -0.10831995 -0.104478754 -0.36190456 0.0368933 0.36810365 0.039494738 0.12339868 -0.14857122 0.3980098 -0.09460344 -0.12181245 -0.1521017 0.13611728 0.13513283 0.017331801 0.1444561 -0.6114844 0.113188334 -0.04479665 -0.26662803 -0.12715925 0.6484104 0.18806821 0.081573516 -0.530286 -0.11120909 -0.6069777 0.24654654 -0.5294094 -0.81112516 -0.15902424 0.18904732 -0.15984616 -0.34413332 0.20474447 -0.36022195 0.07438766 0.27745068 -0.123232104
129 -0.20357952 -0.113748305 -0.4054236 -0.39707544 0.19171667 0.12006426 0.40213427 0.09243319 -0.10869426 0.53938663 -0.3035929 0.22546344 -0.5911943 0.17107631 -0.052914023 0.039048914 -0.14522758 -0.18572214 0.06350736 -0.08856526 0.12118918 -0.2844696 -0.54553735 0.21540041 0.13705853 -0.45169523 -0.035316475 0.001300826 -0.24915507 0.27296072 0.30539176 -0.38537008 -0.1466993 -0.060436573 -0.061120242 -0.027877113 -0.043260794 0.05901478 0.006933583 -0.73214453 -0.14186838 -0.16532777 0.21588624 -0.27376792 0.3689896 0.33359778 -0.2615246 0.43868497 -0.2682701 0.44564137 0.31615597 0.12741387 0.0737215 -0.019438561 -0.11017504 -0.087813884 0.15190344 -0.06311453 0.030618569 0.4773057 -0.013255032 0.38696277 0.31071928 0.02310715 0.5643035 0.6503855 0.41959095 0.020802977 0.23556699 0.073855065 -0.08919596 -0.19341148 0.17566517 -0.21811911 -0.7128366 0.06593134 -0.02291573 -0.48918882 0.6663691 -0.20850876 -0.24446261 -0.64659655 -0.1273814 0.23098564 -0.38659653 -0.08597946 -0.2918704 0.08463658 0.6759741 -0.4437285 0.43225 -0.15084313 -0.16025826 0.052298214 0.40228653 0.50753456 0.04669198 0.27738124 -0.23726045 0.14946379 -0.0926198 0.24431822 -0.26611328 0.11448202 -0.042294115 -0.09005897 0.031199928 0.00941058 0.2892489 0.053409003 -0.01261991 -0.0018280537 0.15555485 0.039369944 0.76481736 0.3922653 0.3017602 -0.6333479 -0.24079916 -0.34422067 0.14169218 -0.27689496 0.0859691 0.13453214 -0.05317402 -0.2923265 0.5827678 -0.14570507
382 -0.13010268 -1.0935693 -0.15376534 0.021520002 -0.02188496 0.1682135 0.2847548 0.26084223 0.015356843 0.08905689 -0.15612525 -0.10467659 -0.22339052 0.5971698 0.14447518 0.087678105 -0.47162884 -0.15588853 0.49204752 -0.107729055 0.7073825 -0.40765908 -0.4359302 0.5916882 0.04444756 0.5584381 0.0271655 0.10821684 -0.111338586 -0.514486 -0.16691947 -0.47402883 -0.8286446 0.16137426 -0.4091699 -0.41684085 -0.336171 -0.5195846 -0.1536227 -0.41301203 -0.1870203 0.21041593 0.27402216 -0.12528418 0.4175385 0.15863302 -0.074748114 0.10601574 -0.9180758 -0.3399453 0.15850432 -0.10334931 0.126811 -0.13995668 -0.21368964 0.15928712 0.35326818 0.23753737 0.1560476 0.3931071 0.006119697 0.18053417 0.62781227 -0.10208995 0.007956819 -0.36460838 0.29949424 0.8799129 0.47248554 0.62874305 0.05776368 -0.10738116 0.10664489 -0.32980838 -0.44565934 0.05762361 -0.041798882 -0.8257316 -0.18236475 -0.01477999 -0.14646408 -0.12842865 0.28881177 0.031283587 -0.7302722 0.014968325 0.16041 0.7208496 0.19807288 -0.8096918 0.48484978 -0.06615597 -0.36479518 0.2081859 -0.04845007 -0.1513184 -0.06009936 0.595499 -0.9016033 -0.24660635 0.49804634 0.5530788 -0.20477882 0.14682968 0.52175903 -0.3207589 0.31684834 -0.13211124 -0.5997734 0.34644824 0.18950397 0.32550398 0.13879088 -0.3469027 0.05826898 -0.38214627 0.35988215 -0.50259054 0.3194514 -0.6970221 -0.12163345 -0.83738226 -0.14921197 0.22208174 -0.20190108 -0.1528148 0.77298075 -0.2473701
900 0.08636008 -0.42470774 -0.36957073 0.41939148 -0.4225335 -0.3254116 0.1851895 -0.0072408365 0.08942603 0.022170234 -0.75531375 0.0058952128 -0.71469396 0.6975383 0.5613256 0.8148496 -0.08984053 -0.1968564 0.0147892665 -0.23156072 0.6490521 -0.22441545 -0.16893579 0.35832018 0.026422668 -0.3342438 -0.084149145 0.055753782 0.023666212 0.15428363 0.5055984 -0.23589434 -0.9889442 0.47761127 0.28440493 0.3276286 -0.96467716 0.4082493 -0.3009464 -0.45419052 -0.04322852 -0.50911564 0.13638717 -0.6040512 -0.4287856 0.29104495 -0.42337883 -0.058155775 -0.6077726 -0.2487628 0.19772834 0.078317575 0.21701148 0.29913822 -0.3369338 0.21794267 0.12291577 0.03189695 0.48398998 -0.054287698 0.14894752 0.676869 0.3609175 0.13187048 0.44076526 -0.20298533 -0.13112159 -0.6490103 -0.05142081 0.11449313 -0.2626345 -0.25777575 -0.18292294 -0.25991443 0.1605288 0.54785603 0.26495686 -0.31302968 -0.006117804 -0.11793906 -0.21971352 -0.18011734 0.46946794 -0.00475721 -0.8715735 0.029063962 -0.1392576 -0.2419846 0.14311206 -0.45840302 0.4826311 -0.89165384 0.3170485 0.40209898 -0.07962942 0.4198912 -0.13159569 0.2610724 -0.9118589 0.15929422 -0.022091411 -0.2968105 -0.5378002 -0.061049756 -0.6328598 -0.54391146 0.53152645 0.30046865 -0.2050725 0.41062248 -0.051115155 0.33395717 0.0030079775 0.051109087 0.1587175 -0.05302775 0.09841921 -0.4067804 -0.5335722 -0.75768805 0.4210375 -0.14286032 -0.9489919 0.51402336 0.22863315 -0.4577588 0.069129474 -0.6409386
1190 -0.119963355 -0.34329206 0.3823218 0.066613615 -0.20850424 0.13747147 0.45749557 -0.35947633 0.34009176 -0.2584504 0.3882172 0.81326234 0.16076034 0.41654995 0.10921361 0.16305566 -0.16170104 0.5475873 -0.78097916 0.24101609 0.3163895 0.33365864 -1.0004842 -0.44297162 -0.014636256 -0.72519094 0.19910094 -0.36497244 0.1982741 0.20682004 0.61894256 0.16056035 -0.8961103 0.055629548 0.34824687 0.07284634 -0.18530059 -0.28164986 0.0264811 -0.61689216 0.09738814 -0.18743752 -0.118343025 -0.37510413 0.1898511 0.24049221 0.09893033 -0.0054514976 -0.5979909 0.0022858868 0.39210004 0.03429945 0.041028608 0.5404657 0.48894733 -0.33851486 -0.1732427 -0.121186584 -0.10396023 -0.22560978 -0.13152815 0.634298 0.052019246 -0.37863174 -0.17077611 0.5958407 0.28643033 0.13505106 -0.07374409 0.6518136 -0.58092517 0.50320625 -0.22134613 -0.24190979 -0.35486913 0.25740227 0.21239598 -0.7283124 0.80167353 -0.10578795 -0.10130127 -0.09664791 -0.09498851 0.36994222 -0.70165044 0.39254254 0.12948959 -0.3235898 0.06628473 -0.52837884 0.40462694 -0.18268867 0.7677747 0.8636364 0.21818382 0.921406 -0.071725145 -0.35552558 -0.34934723 -0.025230937 -0.25015995 0.28749323 0.0009427491 0.7764661 0.115639366 -0.09699436 -0.54837793 0.20592792 -0.42828766 -0.29486972 0.29525387 0.2546722 0.07401133 -0.55469215 -0.23680368 0.43763426 0.68891776 0.02221496 -0.6357367 -0.21792573 0.25363755 -0.15321052 -0.35951847 0.20542979 -0.19374532 -0.071049035 0.44985178 -0.15371232
473 -0.37539008 -0.078185126 -0.583958 -0.64847004 0.11688118 0.17491901 0.4811476 0.27417296 -0.015208904 0.36141044 -0.27541447 0.07869803 -0.49920008 0.17292404 -0.27015772 0.03990145 0.017328374 -0.33251908 0.057958033 -0.27779445 0.23226073 -0.13929614 -0.29898793 0.05631997 0.17485182 -0.2607852 0.22752148 -0.1670578 0.14125487 0.08795325 0.3808044 -0.3086302 -0.50480527 -0.1859487 0.006138987 0.012044311 -0.13001122 0.1475318 -0.012882857 -0.54285985 -0.5086854 -0.13298665 0.1426689 -0.69358957 -0.033336163 0.17840433 -0.24711302 0.3777592 -0.052198336 0.043280795 0.19793138 0.08722782 0.5289278 0.043952793 -0.4646748 0.0076533724 -0.07112853 -0.3947405 -0.022900147 0.4942991 -0.13948819 0.1871234 0.4191825 -0.0067648087 0.30281216 0.40615132 0.35923678 -0.09248706 0.2001516 0.24456336 -0.064213395 -0.122453235 0.002733071 -0.30981043 -0.3841327 -0.21379244 -0.08442503 -0.55388004 0.5886507 -0.16530788 -0.251557 -0.43637416 0.09078795 -0.04235527 -0.58950585 -0.19951722 -0.12909795 -0.10544368 0.47778538 -0.46877304 0.24904606 -0.10117893 0.050464083 0.014137491 0.17698501 0.24429034 0.49909794 0.17127001 -0.059490003 0.006285513 -0.016044691 0.41854626 -0.42053166 0.15563345 0.07150548 -0.09690263 -0.010750322 0.14416407 -0.04112412 0.063314565 -0.17863075 0.05201176 0.24848275 0.051881462 0.83351344 0.32092705 0.30363867 -0.7058046 -0.5007291 -0.46039456 0.16972005 -0.38915527 -0.28835928 0.046739154 0.054868624 -0.56196135 0.6233609 -0.17232479
1061 0.05354075 -0.19890097 0.015934795 -0.015530028 -0.41011068 0.4817403 0.69823444 -0.27720258 0.077404276 0.23050404 0.0663571 0.09663652 -0.14185958 0.693321 -0.16573079 0.18973653 -0.10929379 0.0045422814 -0.08180609 0.017701674 0.34531832 -0.013472434 -0.824695 -0.052295726 -0.3089118 -0.269507 0.38312578 -0.587861 -0.07772945 -0.40066862 0.09714182 -0.1604186 -0.93743026 0.04066361 -0.0021380272 -0.0073018237 -0.28248224 0.08355884 -0.5912337 -0.7669309 0.19866732 -0.3182038 -0.2879292 -0.34384355 -0.122523956 0.55816644 -0.63579804 0.08672794 -0.46087 -0.77719134 0.16823919 0.21943139 0.35302097 0.20382294 0.2016898 0.015776759 0.27548903 0.5289047 -0.5990879 -0.2607994 -0.23439926 0.63762677 0.35772184 0.30249694 0.5759069 -0.10360265 0.3389727 0.08527601 0.07345267 0.27815333 0.17521252 -0.46985817 0.5142572 -0.3521704 -0.121783264 0.3249387 -0.46508318 0.019097343 -0.4307384 0.18459667 -0.4652069 -0.120568655 0.9156031 0.16122293 -0.53339094 0.110242635 0.09456244 0.14460698 0.19527052 -0.13216738 -0.10581304 -0.45271724 0.03659402 0.3454001 0.06442719 0.20308809 -0.128882 0.40269268 -0.13457772 -0.09396276 -0.13804185 0.04934684 0.115145005 -0.01359919 0.12567517 -0.623304 0.10123401 -0.056059364 -0.23704635 -0.09932123 0.6512003 0.16598675 0.10323218 -0.5009334 -0.09359325 -0.6285973 0.21408467 -0.548279 -0.7930306 -0.18716305 0.18791656 -0.16696872 -0.32944673 0.2087213 -0.3868672 0.039348375 0.24078155 -0.17903292
2301 -0.75631595 0.04069516 -0.2600424 -0.19394256 0.033637505 -0.053122286 0.28632438 0.45115924 0.07487778 -0.39355174 -0.58205557 0.25171277 -0.48623744 0.27378663 0.40419218 -0.647903 -0.3989873 0.028174825 0.34668893 0.11922086 0.3847371 -0.37065378 -0.47862875 0.94896287 -0.08081806 0.22943729 0.16728225 -0.3705854 0.28973085 -0.67482 0.47406414 -0.17789216 -0.43192267 -0.18203954 -0.22940022 -0.6378016 0.101723336 0.17424266 -0.12569328 -0.36468616 0.16124421 0.44361326 0.22529086 0.34310457 0.19706298 0.83572054 -0.53951085 -0.3851081 -0.81178117 -0.84931636 0.13315846 -0.44809023 0.49472472 0.46272537 -0.43840933 -0.05814235 0.57871246 0.26964846 -0.37467247 0.344661 -0.3316799 0.18522593 0.53850037 0.27750602 0.2378763 0.46391907 0.50761956 -0.25854892 0.5974957 0.11613247 0.50128037 -0.17706439 0.32955268 -0.13989393 -0.07891478 0.56990826 -0.30696002 -0.21154587 -0.23033993 -0.034120858 -0.57615393 -0.18124539 0.11672162 -0.0849053 -0.041551255 -0.14009313 0.38902506 0.5745758 -0.012453389 -0.114429325 -0.20767266 -0.12366418 -0.10388787 0.31796655 -0.17122445 0.30549186 0.21642153 0.3776366 -0.745915 -0.19928679 0.46311107 0.5621273 -0.13021149 -0.0069463174 0.20661435 -0.018626228 -0.3187381 -0.0011123497 0.008992574 0.1314914 0.11755351 0.044307124 0.09851818 -0.3940641 -0.005885685 -0.083165616 0.19871758 -0.43164873 -0.7608994 -0.30152482 -0.41135946 -0.5084483 -0.74161875 -0.38500547 -0.25883895 -0.3080421 0.7741111 -0.6509692
1004 0.12741941 -0.36451715 -0.25109082 -0.06799789 0.22178155 -0.17447136 0.6724233 -0.14452516 0.40080607 -0.06460383 -0.19237937 0.6368104 -0.12826481 -0.07841659 0.4320978 -0.45296848 -0.23038189 -0.015739394 -0.26490295 0.26002938 0.81967777 0.18600321 -0.1345243 0.4140913 -0.13018963 -0.38381585 0.32320964 -0.14476897 0.12936182 -0.2043637 0.7371947 -0.051512472 -1.2543639 -0.0066085528 -0.024284538 -0.41819078 0.031983092 0.5534776 0.016277833 -0.015801566 -0.28873846 0.3462046 -0.31454727 -0.13014752 -0.21362974 0.9281659 -0.29083246 -0.36380035 -0.265007 -0.07728973 0.8220302 0.6770616 0.28188223 -0.4201318 -0.07575895 0.4233938 0.26685137 0.5167767 -0.13850716 0.2950213 -0.32771853 1.2016096 0.25082144 0.11240566 -0.41226158 0.42556918 0.2061537 -0.102431074 -0.38282365 0.6179183 0.47487062 -4.6873272e-05 -0.2099539 -0.27989155 0.40108657 0.25249204 -0.10667195 0.22136724 0.18212825 0.2632395 -0.0041528055 -0.45592034 0.48814481 -0.048578177 -0.21852332 0.29899114 -0.11951354 -0.07825061 0.072597966 -0.09021939 0.14710152 -0.53071964 0.16208023 -0.1335412 -0.122371875 1.5018517 0.17692073 -0.104640335 0.080009885 -0.12450678 0.31525135 -0.21557398 -0.5907237 0.5298288 -0.05970048 0.23241143 -0.2851178 0.50541854 -0.25716975 0.23624377 0.3655997 0.098247655 -0.2974508 -0.4144784 0.025888145 -0.03701659 0.72248304 -0.0774276 -0.85823935 -0.7016048 0.19284207 -0.018737629 -0.9076319 -0.38843003 -0.44405314 -0.0010887644 0.008249691 -0.16591614
2142 -0.081611894 0.074397385 -0.45624882 0.4991916 -0.319854 -0.044764366 0.14382324 0.19756389 0.30637625 0.014651053 -0.51992047 0.08187016 -0.33260766 0.33716488 0.49827248 0.3477159 -0.1209791 -0.384384 0.12603357 -0.11410199 0.15942132 -0.1725425 -1.1011186 0.30225343 -0.24330354 0.06448286 -0.39184347 -0.243191 -0.61499774 -0.5693598 -0.009643895 -0.056350593 -0.58576816 -0.09860462 0.5532429 -0.36739352 -0.4885237 0.19108069 -0.44945467 -0.5059639 0.17142881 -0.106319465 0.33756864 0.25543445 0.2808615 0.3687041 -0.14403386 -0.24976239 -0.3270342 -0.24751663 0.10621417 -0.067439586 0.09329086 0.28831083 -0.1392821 -0.028212914 0.650437 -0.17025138 -0.25044376 0.4159561 0.15308692 -0.41554984 0.28777766 -0.058438025 0.47570723 0.33568802 -0.19026335 0.1628657 -0.21025419 0.72016966 -0.18811524 0.22962676 -0.2243694 -0.03701812 -0.04763395 0.68186295 0.03248739 -0.40544876 -0.22683337 0.28319073 -0.16104713 -0.17115223 -0.3845667 0.15844902 -0.23067424 0.3202015 0.04349691 0.43451083 0.099312 -0.16339041 0.21470965 -0.6037831 -0.0427661 0.5613491 0.16442642 0.8575998 0.35472143 0.55033237 -0.74915546 0.014632344 -0.21014008 0.28569445 0.0886101 -0.10412085 -0.5757781 0.018273652 -0.08808808 -0.4887128 0.29761717 -0.20877834 0.8017258 0.5358933 -0.15528564 -0.48297068 0.116220854 0.44833988 -0.2322675 -0.22199705 -0.87883687 -0.5609719 0.01192429 -0.63624626 -0.95803154 0.72177655 -0.039227575 -0.406145 0.833307 -0.5325837
1338 -0.27348885 -0.11587592 -0.47860098 -0.50429076 0.1397458 0.18276863 0.5669172 0.25520664 -0.0056494833 0.467779 -0.42330346 0.25603476 -0.64119685 0.13922957 -0.22792593 0.08160525 0.0791203 -0.13939779 -0.013851668 -0.111555025 0.18722476 -0.07082443 -0.46173638 0.05699569 0.23820508 -0.300588 0.17739318 -0.0731129 -0.06266348 0.2083906 0.35328484 -0.41800967 -0.31712297 -0.2033838 -0.036348484 0.060308106 -0.15480264 0.083371185 -0.03416133 -0.6135773 -0.28039348 -0.23670648 0.33170873 -0.3620475 0.17108503 0.2219586 -0.271779 0.32513523 -0.17811449 0.31786323 0.32665128 -0.036287438 0.3240759 -0.13118331 -0.14027338 -0.075224794 0.10914193 -0.16410655 0.053400457 0.48378155 -0.052021857 0.16957447 0.34595352 0.009800219 0.42068806 0.51576203 0.2508669 0.007356978 0.31407028 0.10244384 -0.03942331 -0.15113871 0.271595 -0.23904617 -0.6044317 -0.037937168 0.0041772774 -0.5404182 0.5493406 -0.17478414 -0.34153453 -0.5537493 0.011689517 0.21617836 -0.4542887 -0.28802976 -0.27168664 0.016156964 0.64676857 -0.50862235 0.46588317 -0.082672276 -0.16002423 -0.027155813 0.25041232 0.4001356 0.20418683 0.075263284 -0.04941589 0.12462657 -0.019098168 0.31926674 -0.35067487 0.084784366 -0.040874172 -0.08579017 0.009315288 0.0802142 0.08159851 -0.001988981 -0.03956246 0.08241401 0.3194979 0.094150916 0.8049311 0.3713691 0.35055566 -0.66439474 -0.51946133 -0.48514178 0.18632 -0.43320832 -0.16192393 0.17108352 0.063416526 -0.30880463 0.7306565 0.041785836
1104 -0.08218054 0.06767566 -0.43792552 0.4969496 -0.32500842 -0.03527153 0.13427795 0.22288522 0.30827883 0.040477972 -0.53433895 0.07571449 -0.35837734 0.32375035 0.48950404 0.3734431 -0.10346528 -0.38920859 0.13752773 -0.10927444 0.1853307 -0.18217084 -1.1101738 0.2955111 -0.22130926 0.05562241 -0.41337794 -0.2325119 -0.6307 -0.5503442 -0.0044586672 -0.06657938 -0.58211666 -0.07495868 0.553835 -0.35132533 -0.509471 0.19814444 -0.43437478 -0.5025506 0.16507456 -0.14810267 0.34348643 0.23333555 0.29285526 0.33646598 -0.15365683 -0.24264087 -0.32055488 -0.22332026 0.10765713 -0.07359933 0.09702583 0.30934027 -0.14624718 -0.02429644 0.6432042 -0.1868647 -0.24309368 0.4093406 0.14161986 -0.4398935 0.29062158 -0.051316515 0.50450456 0.3146846 -0.20092769 0.17404677 -0.20934327 0.72057533 -0.17875007 0.21661049 -0.2457263 -0.041287344 -0.06606014 0.6892423 0.034189872 -0.3941803 -0.23603247 0.26964775 -0.16330786 -0.19693872 -0.3986676 0.16062294 -0.21523172 0.31108287 0.045044146 0.43065763 0.08469594 -0.17924987 0.23545824 -0.5978682 -0.058425486 0.55010504 0.18688281 0.8336052 0.3353441 0.5495362 -0.78074116 0.026194857 -0.2098448 0.28229073 0.09941265 -0.113694064 -0.597793 0.017795388 -0.069150195 -0.4894744 0.30075905 -0.22616234 0.8041417 0.5264448 -0.16929314 -0.4745084 0.13238494 0.45981354 -0.24701913 -0.23623316 -0.8522273 -0.5544199 0.007166919 -0.6411793 -0.9500715 0.7328263 -0.01554925 -0.4070984 0.83078796 -0.50669163
1001 0.12886205 -0.38050416 -0.28391698 -0.03393114 0.23785128 -0.1998602 0.6916185 -0.13545746 0.38818604 -0.03610207 -0.21184312 0.59082294 -0.16961375 -0.09039015 0.42802793 -0.4423531 -0.24583155 -0.08261528 -0.22725749 0.2600009 0.84456086 0.18617229 -0.13582945 0.45100924 -0.106258914 -0.33946934 0.3326865 -0.14525636 0.14912012 -0.20629352 0.73042893 -0.06184525 -1.2489288 -0.0063999724 -0.059868895 -0.44830704 -0.005013076 0.54509276 0.029642053 0.0002202215 -0.30580232 0.36306962 -0.27931368 -0.1522396 -0.19421071 0.9581358 -0.32764903 -0.3685295 -0.29114068 -0.08674936 0.8202859 0.66877687 0.29268146 -0.45029837 -0.123764604 0.43223202 0.28006673 0.51284444 -0.15545803 0.3394549 -0.30515954 1.1817725 0.2729693 0.103881724 -0.38172323 0.3934778 0.22205354 -0.09960318 -0.36817038 0.61382645 0.47018147 -0.018914362 -0.21132758 -0.29974148 0.4230766 0.24014844 -0.14620657 0.20447673 0.14486606 0.2550475 -0.0026725621 -0.47162607 0.51474905 -0.02638029 -0.20177129 0.27672392 -0.122760795 -0.04613423 0.05687214 -0.13600156 0.15039392 -0.53543574 0.10806544 -0.1520956 -0.13221313 1.4640795 0.21256219 -0.06920827 0.05745714 -0.111347035 0.32824063 -0.2308648 -0.6072212 0.5060279 -0.06891886 0.2283563 -0.2573245 0.50171584 -0.24587685 0.23017514 0.37210214 0.11836262 -0.30717236 -0.44013688 0.06528439 -0.0655215 0.69827336 -0.08591571 -0.8265812 -0.73265135 0.18458548 -0.04236098 -0.9337052 -0.3576419 -0.428056 -0.022226403 0.051119376 -0.16730347
95 -0.18259273 -0.2637066 -0.27200204 -0.6354495 0.13199718 0.10678555 0.49465826 -0.059675444 -0.20165546 0.4145407 -0.14695714 0.023797406 -0.71538806 0.43502864 0.12064126 0.33092836 -0.28488335 0.068431996 0.33961844 -0.16986275 0.1627286 -0.225304 -0.5166415 0.3915971 0.2022792 -0.62536585 0.04874298 -0.1972508 -0.19738634 0.4212047 0.29396933 -0.24020386 0.0011344021 -0.12924619 -0.22145268 -0.32526085 -0.021270867 0.15434842 -0.24338728 -0.5559161 0.31948987 -0.013781408 0.53378487 -0.052420624 0.16198295 0.43580157 -0.3818471 0.15613998 -0.5012488 0.30250648 0.1887368 0.0031589316 -0.16455919 0.12676643 -0.28829485 -0.18889637 0.04852915 -0.16423284 -0.010499969 0.24475388 0.11619243 0.41620758 0.23742633 0.07944839 0.87358487 0.5015206 0.41564095 0.0031618765 0.045835227 0.23570095 0.11552528 -0.39632428 0.27328128 0.09299981 -0.92803305 0.3027583 -0.19402722 -0.44904277 0.4860865 0.077185914 -0.2611944 -0.5606174 0.038126588 0.2212457 -0.42447838 0.019589141 -0.49554294 0.25899053 0.90846944 -0.4383759 0.32029527 -0.39688602 0.11037352 0.17621693 0.18475053 0.582441 -0.037529513 0.4319275 -0.32574767 -0.10047898 0.16869314 0.21887271 -0.31860933 0.25403053 0.1776099 -0.12321046 0.18599395 0.077021964 0.32674405 0.033407535 -0.101607606 0.007650617 -0.20744906 -0.2112359 0.76304394 0.042435892 0.19431934 -0.5101943 0.25547963 -0.27941367 0.23810579 -0.30080935 -0.0730207 0.18549198 -0.12254732 0.15201691 0.2842583 -0.5361812
109 -0.08530992 -0.07302669 -0.24605241 -0.34315738 0.16121913 0.12870452 0.23125389 0.07375909 -0.19093095 0.46567872 -0.31561026 0.17474544 -0.6136952 0.37766114 0.12324578 -0.011879531 -0.17096432 0.0056943917 0.18503454 0.12664023 -0.03868991 -0.24353327 -0.5248498 0.32084885 0.23403145 -0.57867527 0.09424298 -0.14947642 -0.3239668 0.19973087 0.25398 -0.18374696 0.11411176 -0.21613705 -0.17719059 -0.2640654 -0.08156945 0.026204364 -0.17523563 -0.70004094 0.29897362 -0.093464464 0.3757869 0.24511734 0.45760104 0.37936103 -0.51871955 0.23433417 -0.61607444 0.39608505 0.09085897 0.16607103 -0.23607525 0.19508675 -0.05486183 -0.13035226 0.17579229 0.039092835 0.081120215 0.57226866 0.03454768 0.45495874 0.059695564 -0.08242014 0.47747895 0.41661194 0.35494414 0.06848801 0.004802187 0.12440853 -0.08104932 -0.068862304 0.40821898 -0.21154235 -0.70028514 0.15690914 -0.09635526 -0.35434774 0.7436523 -0.10907936 -0.48336288 -0.6325717 -0.1531717 0.28817365 -0.3546216 -0.0399957 -0.17423557 0.22687161 0.54553044 -0.34016463 0.42899552 -0.35502395 -0.12485469 0.004870835 0.27991915 0.57526636 0.08062668 0.26342806 -0.14188221 0.1738094 0.045595165 0.22722857 -0.320313 0.17548051 0.1425806 0.16642082 -0.12796327 0.075633585 0.35589603 -0.20633113 0.13425003 0.20420796 0.103464685 -0.22628467 0.6599107 0.32247478 0.2017996 -0.5896254 -0.0479848 -0.4129761 0.12991673 -0.09878063 0.050828066 0.4193697 -0.13932328 0.115604915 0.36823505 -0.24401107
1959 -0.18031093 -0.07633791 -0.27539998 -0.46843818 0.22074112 0.015572472 0.25223613 0.04596774 -0.26997134 0.4417298 -0.15045913 0.05120203 -0.67929584 0.43571007 0.14155598 0.14802198 -0.23807617 -0.09196946 0.31770393 0.09015184 -0.015729668 -0.29357213 -0.46975902 0.32801896 0.23241815 -0.59784406 0.0990391 -0.16010024 -0.31780896 0.14565487 0.23783004 -0.2834426 0.044055704 -0.103348605 -0.20753372 -0.25735998 -0.10376824 0.029762134 -0.19214714 -0.70877594 0.19953513 -0.02676711 0.46085888 0.12838314 0.26878977 0.29554692 -0.4867024 0.315998 -0.5943444 0.29200798 0.07430798 0.13390085 -0.22616349 0.21857467 -0.21533418 -0.18015963 0.1185539 -0.14579138 0.07102787 0.5133713 0.07768538 0.46939877 0.1557068 -0.037647586 0.52462155 0.46210545 0.41286 0.0004662556 -0.06685697 0.24077684 -0.15245618 -0.12312994 0.32341683 -0.14741386 -0.67775506 0.10356205 -0.14861132 -0.4112686 0.7755268 0.03140257 -0.37144467 -0.6167375 -0.105892375 0.20759885 -0.4801172 0.041811936 -0.2523829 0.3323037 0.6979665 -0.35305434 0.34471482 -0.44531715 -0.10010701 0.109120816 0.2015876 0.56431 0.15930784 0.40387282 -0.10860903 0.10043404 0.051343422 0.11366898 -0.37051952 0.13017486 0.14021276 0.13188016 0.0010653149 0.08076184 0.3652527 -0.026071794 -0.012299577 0.24327892 -0.00044693702 -0.17736684 0.6867794 0.2568441 0.14393166 -0.5912387 0.03179904 -0.38980314 0.096892335 -0.13219686 -0.10105833 0.3320337 -0.10580875 -0.051783275 0.27426717 -0.3461577
1390 -0.25309736 -0.45437682 0.0014593389 0.7697788 -0.38250375 0.5055632 0.4493492 -0.03972853 0.57326365 0.29075572 -0.811261 0.063077345 -0.315074 0.5998857 0.5930592 -0.08616874 -0.11870562 -0.273023 -0.49753386 0.7207184 0.8529149 -0.26786986 -0.19399852 0.38167736 -0.034372218 -0.5795051 0.28216875 -0.44199902 0.19817089 -0.180042 0.18009892 -0.06568331 -0.8650077 0.056664024 -0.48536313 -0.2975346 -0.47225273 -0.11714973 0.23836754 -0.2681036 0.2400472 -0.59316605 -0.12289587 -0.32311398 0.11445704 0.103657454 -0.5869919 0.311096 -0.25610027 0.40345478 0.41307443 0.73952717 0.21097413 0.18520157 0.00065369386 -0.22987896 0.51381606 0.4556584 -0.32503238 0.91054994 -0.37672243 0.5802998 0.11383373 0.14929996 0.090755075 -0.0992622 0.30386287 0.39400214 0.29623926 0.14073989 -0.07654299 0.23238225 0.079235666 -0.19125876 0.06500838 0.0392867 0.31439078 -0.55511415 0.18335633 -0.27012026 -0.45012942 -0.20585857 0.27706754 0.535763 -0.27833688 0.32216555 -0.22421962 -0.15468615 0.25579035 -0.44519985 0.16401476 -0.25106815 -0.027522082 0.3000212 0.23765655 0.1696357 0.17520526 -0.37747627 -1.0880326 0.5834455 -0.008407701 0.23432048 -0.3932023 0.55003095 -0.21926022 -0.09371197 -0.12772152 -0.1402429 -0.025764493 0.23664169 0.6234383 0.11132162 0.66102225 -0.31520745 -0.38757545 0.07653423 0.53611666 -0.2201265 -0.6693815 -0.44866243 0.10617885 -0.5814483 -0.36565253 0.15567505 -0.48748612 0.1696224 0.49293575 -0.42177206
397 -0.32385522 0.27220392 -0.39738896 0.14244139 -0.13772699 -0.44603193 0.25328842 -0.14207347 0.31082803 -0.10821481 0.12138444 -0.070646204 -0.56926 0.09088342 -0.39572215 0.39806187 -0.5713646 -0.17876953 -0.10341803 -0.10824265 -0.011429106 0.47712272 -0.9422854 -0.26298156 0.26970452 0.05948273 0.21058874 -0.44796908 0.08105529 0.27046576 0.81064117 -0.30471712 0.05225405 -0.20532659 0.018887665 -0.09509873 0.22083935 0.5776183 -0.34513897 -0.45697385 0.6543802 0.26727995 0.22657853 -0.13849425 0.43730327 0.65828484 -0.37408116 -0.5901691 -0.18437316 -0.10255113 0.4063979 0.51720196 0.022993846 0.43862322 0.31812143 0.011871126 -0.38278046 0.34655517 -0.45317787 -0.11083391 0.040639747 0.115937285 -0.14405018 -0.13752055 0.56813 0.52278227 -0.08545063 -0.32918283 -0.07423765 0.45854583 0.39102617 -0.2334073 0.53385574 -0.23321007 0.021747902 0.830628 -0.22303014 -0.49517018 0.04032971 -0.24493119 -0.2290153 -0.25843596 0.42185593 0.2742888 -0.25957915 0.27593756 -0.6452491 -0.07589582 0.2096186 -0.5263957 0.83443063 -0.8138861 0.2911094 0.09420625 -0.024009986 1.172632 -0.16184895 -0.08067308 -0.5177739 0.28664815 -0.30537325 0.13125217 0.19756354 0.68620664 0.036949344 -0.18302967 0.076005496 -0.11759718 -0.22924504 -0.33137736 0.29643998 -0.08585852 0.32001087 -0.7912911 -0.15466954 0.15290329 -0.22601593 -0.33550963 -0.7953719 -0.61116374 0.2484061 -0.50318766 -0.45586154 0.7451811 -0.2945262 -0.5867365 0.55832726 -0.040580213
2037 -0.15884994 -0.4582041 -0.17588788 0.0040136194 -0.10001998 -0.08475822 0.52786374 0.00067394733 0.11901568 0.12456951 -0.3826387 0.23692659 -0.4751278 0.35303465 0.13552885 0.07243232 -0.2648854 -0.14352834 -0.096145295 0.04343191 0.4856517 -0.040735055 -0.66379535 0.4063646 0.08765195 -0.21301574 0.15094733 -0.27865228 0.04868224 -0.08088288 0.39030066 -0.17414993 -0.7058029 -0.046716336 -0.04906725 -0.33677515 -0.31761113 -0.051067702 -0.21405257 -0.51709634 0.11032332 0.068215184 0.21679282 -0.24277437 0.27410483 0.56752515 -0.32536146 0.065452136 -0.695084 -0.16815023 0.2870257 0.14663398 0.169562 0.2124587 -0.002815372 0.04768456 0.2694018 0.055801872 -0.13987134 0.26059446 0.00707581 0.535918 0.33959594 -0.079726666 0.34616747 0.39026973 0.36796755 0.028966896 -0.023119349 0.45615396 -0.0636541 0.1719899 0.0949473 -0.2901489 -0.24359205 0.28355166 -0.06747688 -0.5194023 0.19022481 -0.089334674 -0.37020075 -0.48765042 0.23420523 0.11900409 -0.59815574 0.07530247 -0.10409089 0.1303352 0.293529 -0.5345006 0.3455679 -0.39117548 0.1906352 0.3230868 0.055019 0.66273457 0.14183399 0.21128285 -0.5161273 0.01560676 0.029159432 0.37450853 -0.38532808 0.36921924 -0.004747359 -0.20327097 0.014079537 0.032887097 -0.13816151 0.04524411 0.33306375 0.32635286 0.14885768 -0.47947013 0.2503535 0.12325153 0.2835767 -0.48166102 -0.54890037 -0.64391774 0.13314496 -0.35483557 -0.5930482 0.23846933 -0.15774694 -0.14974976 0.66327024 -0.42475498
730 -0.16861795 -0.42796105 -0.23258218 0.035413336 -0.018434657 0.110139765 0.36995792 0.0322088 -0.0946006 0.004378279 -0.3895432 0.37228745 -0.38897872 0.19637047 0.22677784 -0.2054261 -0.32762903 -0.039044533 -0.2788071 0.09751578 0.31037936 -0.020573765 -0.50366366 0.45120883 0.08981016 -0.32020944 -0.0671087 -0.38513705 0.013151642 -0.10169002 0.2793569 -0.1628296 -0.78763485 0.050318677 -0.056069992 -0.51578593 -0.27698603 -0.13283595 -0.075928465 -0.3548884 0.011381987 0.16834927 -0.008793112 -0.26587847 0.111547306 0.6662352 -0.28865293 0.26925525 -0.6512912 -0.32984596 0.20776701 0.07693932 0.21514785 0.21642315 0.12260806 0.066344395 0.316728 0.08905828 -0.067039445 0.3092564 -0.11216713 0.49445876 0.22045775 -0.12702335 0.056790087 0.44469306 0.36572596 -0.058604337 -0.051878914 0.2541795 -0.085990116 0.4838207 0.2197184 -0.4107322 -0.15827742 0.18709472 -0.06772035 -0.18048343 0.28707507 -0.14910427 -0.27089617 -0.37704486 -0.0034360413 -0.06818857 -0.4667211 0.08029235 0.10500741 0.1788115 0.22851151 -0.44293132 0.024736177 -0.18682209 0.44563058 0.34041896 0.07375972 0.57757413 0.29047847 0.19413435 -0.18058777 0.0029294097 -0.04911298 0.28435004 -0.50320816 0.24117883 0.009647339 -0.033900768 -0.16301723 0.0662994 -0.093911275 0.13070141 0.37169975 0.439425 0.17495628 -0.27415502 0.2654478 0.15447494 0.22175452 -0.25523934 -0.50363475 -0.5963002 -0.09373998 -0.1464474 -0.5512614 0.13359125 -0.18146394 -0.06186625 0.6675761 -0.438545
1883 -0.08654133 -0.53957886 -0.19642963 -0.035227526 -0.015815707 -0.17439364 0.46797493 -0.15216348 0.080181204 0.06251768 -0.29099908 0.26057544 -0.44041267 0.31611466 0.14124027 0.052392337 -0.30453715 -0.1558881 -0.084819 0.046642814 0.41013443 -0.005066795 -0.61998826 0.36388603 0.11747892 -0.23462424 0.18487145 -0.2653709 0.026976453 -0.10768017 0.4129709 -0.12009119 -0.71601105 -0.043207396 -0.0055788746 -0.28506052 -0.32429737 -0.14792737 -0.21176846 -0.42964992 0.09017411 0.0765179 0.21576989 -0.22876652 0.260708 0.60071576 -0.30267632 0.051766437 -0.7065752 -0.2444587 0.28225395 0.1440955 0.12752824 0.12330619 0.080549575 0.007210357 0.19984727 0.0538074 -0.14047751 0.15809765 0.016634604 0.5625194 0.31106588 -0.043727428 0.3041149 0.35341623 0.3663055 0.03456088 -0.09149997 0.4295813 -0.017214498 0.20502704 0.06691838 -0.27582315 -0.23126923 0.17967133 -0.1001233 -0.52422875 0.16180024 -0.09668582 -0.35057926 -0.50847346 0.21842478 0.09567018 -0.51855594 0.07574625 -0.1441621 0.146795 0.2663033 -0.45169988 0.3001748 -0.28681618 0.18943097 0.2891125 0.055957075 0.62868166 0.12645073 0.26478398 -0.44368878 -0.03663518 0.022152117 0.3142565 -0.3848787 0.4331587 0.0037774486 -0.23033714 -0.024404483 0.0029577562 -0.1823069 0.10499182 0.37999803 0.3213563 0.10778211 -0.5020233 0.23416536 0.06640552 0.286769 -0.48549825 -0.5040311 -0.60234934 0.16905 -0.25545865 -0.59389967 0.18693073 -0.1837188 -0.21428181 0.6087323 -0.3856157
1260 0.008279107 -0.30317166 0.5959423 -0.15328826 -0.07951611 -0.027960956 0.21872088 -0.034051154 0.016488168 -0.007166053 -0.017672136 -0.15669115 0.0165493 0.9812376 -0.0032071944 0.07618148 0.035133623 0.26000288 -0.2443154 0.49821362 0.67880845 0.26831856 -0.6041285 0.29888675 -0.45832673 -0.61334366 0.25877398 -0.27478012 -0.10270513 0.3009625 0.13568623 -0.118085496 -1.0614231 0.2010895 0.18604295 -0.4705998 -0.19788796 -0.2556605 -0.16013448 0.046532556 0.07088514 -0.38912573 -0.117101714 -0.66104966 0.6144826 0.21080036 0.30665645 -0.23953909 -0.6410522 -0.47818974 0.019664532 -0.26870668 -0.24377787 0.10784934 0.19711486 -0.1940648 0.37981668 -0.014798854 -0.21977675 -0.24913506 -0.4842388 0.24129397 0.52407074 -0.596501 0.18436365 0.21455652 0.5556136 -0.024565758 0.17361085 0.9068599 -0.07386069 0.41796848 -0.29838887 -0.012438191 -0.6078105 0.12617254 -0.34883705 -0.23472378 -0.30044544 -0.16207008 -0.60786045 -0.5956069 0.43209648 -0.42978612 -0.12999137 0.042252786 -0.14128146 -0.20192641 0.37621713 -0.37605798 0.2382936 -0.30906665 0.12462229 -0.045398787 0.2870848 0.029639015 -0.62508786 -0.15245335 -0.55157053 -0.3331729 0.1318695 0.16856237 0.03533754 0.4934726 -0.061721645 -0.26137128 0.13674927 0.3681367 -0.25897968 0.30775347 0.6252389 -0.08525031 0.3326173 -0.62977886 0.23061709 0.4702807 0.5237368 -0.5550053 -0.21255556 -0.5367796 0.4930135 -0.38978764 -0.8222617 0.24679635 0.18906273 0.3030119 1.168338 -0.3245442
1041 -0.16822071 -0.17334048 -0.2079229 -0.33779448 -0.332668 0.2604839 0.2844444 -0.177048 0.14020157 -0.10537866 -0.66022795 0.1247629 -0.5249001 0.23669045 -0.29335967 -0.40021068 -0.60358644 0.19835667 -0.50675803 0.3419869 0.3598068 0.4451621 -0.07391723 0.39346305 0.14227375 -0.24931951 0.37397465 -0.29743028 -0.12865369 -0.2255411 0.14720468 -0.26536027 -0.38431886 0.16439018 0.20983689 -0.8040079 0.14730541 0.079891115 -0.44383016 -0.20751214 0.5173332 0.20677857 -0.10353439 0.22874208 -0.14361984 0.75973284 -0.3498854 0.4318992 -0.42564076 -0.6942681 -0.071108304 -0.07663919 -0.087823406 0.4937939 0.18232903 -0.40411276 0.12616917 0.108411275 -0.8542715 0.26803795 -0.06850283 0.25817117 0.41118747 -0.4354478 0.17055574 0.58462244 0.44634342 -0.16187616 0.4192782 0.5289351 -0.1723138 0.48676035 0.46732268 -0.04889499 -0.27982134 0.022033533 -0.2441824 -0.2834813 0.16865969 0.07302221 -0.53935415 -0.44032347 0.25951642 0.6710737 -0.19965164 -0.13699348 -0.35177815 0.6375167 0.81001455 -0.24313515 0.05684475 0.28983 0.7988354 -0.038191713 -0.04792253 1.0060121 0.08553863 -0.44292694 0.09087571 0.32351416 -0.006526653 0.5116837 -0.2074264 0.44301784 -0.09832005 0.06539265 -0.19708377 0.42069525 -0.24768633 0.12758261 0.43023738 0.2775392 0.82666135 -0.7654164 0.049088236 -0.2733207 -0.104566455 -0.29676905 -0.7023982 -0.918227 -0.20969597 -0.47254673 -0.4420522 -0.63443816 -0.2786899 0.45759425 0.971828 -0.33757532
359 -0.4263847 -0.50625837 -0.08216795 0.27765197 0.121223986 -0.24230888 0.2869429 -0.36673146 -0.10875869 -0.9689953 -0.017488027 0.4184989 -0.15655026 -0.030687321 0.2065589 -0.28614327 -0.61276615 0.009609003 -0.345148 0.24020562 0.04875728 0.019072732 -0.362699 0.528238 -0.14338979 0.2832164 0.10773317 -0.29394615 0.4255903 0.013467397 0.6457889 0.25556237 -0.96714646 0.118487984 0.12864658 -0.88641685 0.028808642 0.026918765 0.31910047 -0.25801027 0.40933812 0.88248277 0.16363966 -0.11272534 -0.27469394 1.0304828 0.16416426 -0.29496017 -0.9355824 -0.7544463 0.11815537 -0.36566648 0.10619187 0.054473948 -0.072851054 -0.029440166 -0.09213781 -0.15437543 -0.13374534 -0.26751062 -0.2665304 0.68881345 0.1908521 -0.31014556 -0.4408635 0.78331614 0.22636321 -0.5182157 -0.1440048 0.55728835 -0.33749345 0.35884055 -0.09087891 -0.67359036 0.2777096 0.33384824 -0.6306675 -0.6722036 0.17211446 -0.13162224 -0.30582651 0.054167055 0.25842637 0.16078013 -0.44119474 0.52361894 0.74922216 0.75489616 -0.6201521 -0.52123886 0.17400996 -0.049729742 0.5597684 0.6394557 -0.18860316 0.6974127 0.2664821 0.44319177 0.040465295 -0.092782944 0.11763548 -0.13615376 -0.41204306 0.13282093 -0.22159173 -0.18267195 -0.5977689 0.5774006 0.02609586 0.32921553 -0.14581147 0.67703885 0.0047870097 -0.8658591 0.17017393 -0.06959199 0.036970142 0.14941503 -0.49254665 -0.75154006 -0.21312991 0.20055482 -1.1770447 -0.028141456 -0.34674045 -0.75048614 0.6329302 -0.32154486
1259 -0.011017729 -0.27412942 0.58907926 -0.22560456 -0.0773891 -0.01074216 0.20559524 -0.03274197 0.0027705864 0.032596022 -0.019298257 -0.16141082 -0.011149299 1.0007229 -0.010694227 0.07589269 0.03387961 0.26943436 -0.23143089 0.48881298 0.69108737 0.28828344 -0.57315606 0.3126522 -0.46326748 -0.6543658 0.26562306 -0.29388982 -0.112715945 0.30835253 0.14985289 -0.13676049 -1.0575092 0.223706 0.18484266 -0.480866 -0.16642767 -0.25942308 -0.17182739 0.03311896 0.08117271 -0.4011227 -0.10705225 -0.6588862 0.6003109 0.20828715 0.29743904 -0.22399148 -0.613184 -0.47228265 0.022461707 -0.2887155 -0.23808436 0.10305715 0.1780331 -0.21216995 0.37722737 -0.0124255 -0.23279491 -0.23587646 -0.49077037 0.24479523 0.53260404 -0.5875616 0.20248853 0.23623843 0.552782 -0.013890908 0.20268823 0.9189367 -0.08912306 0.3843007 -0.2879569 -0.0031137315 -0.65613246 0.10484023 -0.36085066 -0.24046512 -0.27116325 -0.13814795 -0.6129944 -0.6120718 0.44075152 -0.42332354 -0.10989096 0.03461861 -0.17394528 -0.19310954 0.43016973 -0.36520034 0.24145523 -0.31218353 0.1398554 -0.07908191 0.2794511 0.005047042 -0.62245476 -0.15995856 -0.5393594 -0.338411 0.14185308 0.16862631 0.035679102 0.4697901 -0.06878077 -0.25918064 0.1369046 0.39230162 -0.24139549 0.32237208 0.6267104 -0.10464881 0.34405315 -0.6256388 0.27010587 0.472278 0.51532656 -0.5966034 -0.2254017 -0.54013526 0.50001276 -0.40134233 -0.79996425 0.23616104 0.17221126 0.31202793 1.1818688 -0.32254648
2073 -0.14519426 -0.44732437 -0.1580376 0.034695383 -0.09193436 -0.10981825 0.51955926 -0.028194165 0.11799494 0.053703815 -0.355735 0.24873734 -0.42602372 0.33784568 0.15444478 0.048072662 -0.27074242 -0.13701275 -0.11315789 0.05113904 0.4876915 -0.019425366 -0.66637206 0.4143708 0.07807587 -0.16413619 0.15526237 -0.27594993 0.08262704 -0.11780874 0.3939949 -0.16170868 -0.745307 -0.033817355 -0.03169319 -0.36066005 -0.3200314 -0.0526613 -0.19092971 -0.47692707 0.10421033 0.114380464 0.20895158 -0.23490135 0.2707403 0.6053355 -0.3016131 0.019118588 -0.70589 -0.23050146 0.28600225 0.1205917 0.16240637 0.19652145 0.00068549946 0.041603144 0.24909292 0.07219591 -0.1420557 0.21173677 -0.006988791 0.5464508 0.32975888 -0.08534303 0.28007087 0.37899265 0.35282618 0.0011903414 -0.034347147 0.46817526 -0.06169088 0.18777406 0.06857927 -0.3016089 -0.17797856 0.31191546 -0.08367418 -0.5097253 0.15881695 -0.06688229 -0.36249587 -0.44787845 0.26633158 0.10255312 -0.5806565 0.09802411 -0.054693513 0.16239092 0.2343291 -0.5265225 0.3226792 -0.39126784 0.22100727 0.3443817 0.020246075 0.6803461 0.1359654 0.22084834 -0.5229616 -0.0048107198 0.053860016 0.3284978 -0.37261212 0.37140775 0.017707504 -0.2046833 -0.008046649 0.05143692 -0.16294006 0.055926524 0.32991207 0.34190843 0.12880033 -0.5133943 0.18799621 0.1054676 0.29219523 -0.42939815 -0.5657037 -0.6358913 0.117034346 -0.33787265 -0.64353526 0.20064661 -0.1820038 -0.17808573 0.62996835 -0.42124724
1039 -0.1729659 -0.17927699 -0.18738301 -0.3496668 -0.32991207 0.26566225 0.28195015 -0.20269074 0.12891874 -0.10508871 -0.6618453 0.12878874 -0.53089136 0.22371516 -0.3005163 -0.38601395 -0.61674976 0.21063974 -0.5658254 0.36229488 0.32348067 0.45191726 -0.07143594 0.37723383 0.17221677 -0.25615358 0.36163178 -0.30944106 -0.113421656 -0.21739247 0.14434417 -0.26662874 -0.35997263 0.18540113 0.2176517 -0.819858 0.15603586 0.05709916 -0.42028177 -0.1755765 0.54249907 0.21628055 -0.12071916 0.22016473 -0.17533064 0.76325655 -0.34266752 0.45768943 -0.41422373 -0.69160235 -0.062105794 -0.049696002 -0.11414015 0.4842323 0.20378625 -0.4232448 0.12190281 0.11627115 -0.8638022 0.27656284 -0.07223574 0.2523114 0.39628544 -0.44328338 0.17603938 0.5841034 0.43521503 -0.14732005 0.43002653 0.53534806 -0.18677025 0.49861324 0.4695188 -0.05945855 -0.30089903 -0.0012114171 -0.24073422 -0.29903677 0.22030438 0.081174195 -0.5336721 -0.42896345 0.25774163 0.6782016 -0.200169 -0.14661168 -0.36617705 0.647789 0.843615 -0.2439304 0.04929081 0.28389204 0.82054514 -0.034560144 -0.037123375 1.0104696 0.10025539 -0.46571457 0.11115056 0.32400337 -0.023666782 0.49610466 -0.2173565 0.46012342 -0.09758257 0.082345866 -0.21372294 0.42014495 -0.25795966 0.1443426 0.43536025 0.30878538 0.8490629 -0.76379997 0.03512527 -0.25571355 -0.109427616 -0.29194504 -0.6956204 -0.908645 -0.20809174 -0.44965962 -0.4396092 -0.6446759 -0.2973724 0.47247067 0.9756531 -0.34775484
1225 -0.37938294 -0.52937543 -0.066308394 0.26624298 0.113470994 -0.2912038 0.31275475 -0.38785854 -0.11460261 -0.94187576 0.018584738 0.41829693 -0.1585556 -0.034812197 0.19738851 -0.2581572 -0.61588645 0.036115956 -0.30744588 0.19389823 0.09140729 0.08294302 -0.3851934 0.506907 -0.11903013 0.27965686 0.1446247 -0.2861579 0.42727906 0.038383696 0.63330364 0.23177613 -0.98587984 0.119641304 0.14105543 -0.8665915 -0.018918758 0.04462077 0.2905816 -0.24020353 0.38347074 0.9228072 0.13553485 -0.110697046 -0.2826228 1.010545 0.16361079 -0.3110692 -0.9554215 -0.7529235 0.090022504 -0.35704997 0.06971769 0.04489568 -0.033324882 -0.022841904 -0.06957345 -0.14427805 -0.12746978 -0.30688053 -0.2212346 0.70394546 0.21660823 -0.31926134 -0.42077142 0.7657346 0.2390376 -0.5346963 -0.14018328 0.5672468 -0.33747762 0.33666992 -0.100444645 -0.65011716 0.27087617 0.32753405 -0.62438476 -0.64872134 0.14594375 -0.1153182 -0.30737156 0.02010565 0.27578658 0.12513684 -0.46752274 0.5076569 0.6880916 0.7403722 -0.58170235 -0.5054701 0.20389189 -0.054614022 0.5433977 0.62910914 -0.1740448 0.7356709 0.25143027 0.43204755 0.061530598 -0.10426552 0.114427224 -0.1051772 -0.4424356 0.14760625 -0.22285868 -0.16998433 -0.57530904 0.55815953 -0.019094802 0.34024525 -0.15134515 0.6926186 -0.04969608 -0.8707851 0.18643525 -0.07531367 0.0337954 0.116887905 -0.47215527 -0.7685467 -0.17955206 0.17988268 -1.1822627 -0.024415579 -0.31662714 -0.6914318 0.6072202 -0.32374537
2488 0.36075225 -0.30684417 0.18679291 -0.5708499 -0.3690137 0.3416641 0.3011967 0.44782293 0.146311 -0.099461466 -0.41999674 0.72555363 -0.38912597 0.2200146 0.21701871 0.09629976 -0.18570901 -0.21952732 -0.2841548 -0.1245708 0.3650992 0.2050414 -0.27495813 0.60041624 0.14262857 -0.23800409 0.28137553 0.026151681 -0.25698292 0.25308016 0.18383963 -0.102357246 -1.0312251 -0.25469613 -0.28077346 -0.46957964 -0.39091685 -0.38464046 -0.01651577 -0.56842077 -0.27316186 -0.35899836 0.18186444 -0.1244691 0.22173646 0.42257002 -0.8450551 -0.3279853 -0.38171288 -0.311393 0.9949078 -0.22372401 -0.07604358 0.11138595 0.26654336 -0.38121408 0.38184765 -0.27549535 -0.14618026 0.17438464 0.5010166 0.419167 0.28555062 -0.05341626 0.2860011 0.057313785 1.0622115 0.29810807 0.41693294 0.84368086 -0.40784743 0.32878616 -0.4478231 -0.25079876 0.16829762 0.22214681 0.0331887 0.16342954 0.1700128 0.16785847 -0.12737097 -0.43181103 0.22939163 0.27976102 -0.19028987 0.58410496 -0.11066987 0.5771239 -0.05889133 -0.19294886 -0.22247306 -0.44389108 0.37969744 0.3145153 0.00758717 0.13110495 0.017416667 0.3190117 -0.22138074 0.21243559 -0.03662754 0.48522732 -0.34105563 0.5287774 0.07932176 0.4663445 0.1219332 0.016135527 -0.096114665 -0.06491281 0.3897219 -0.23293054 -0.2843325 -0.5366104 0.24808562 0.009319197 -0.11580905 -0.18443792 -0.20460768 -0.4004395 0.02752736 0.131964 -0.94065493 0.39549327 0.3160815 0.28848508 0.49447006 -0.09622604
