2708 128
163 -0.2533683 0.008457094 -0.16997553 0.27596077 0.62959874 -0.22908926 0.028349139 -0.017726494 0.10759523 -0.081741735 -0.19012061 0.43270555 -0.28983107 -0.35502264 0.38372526 0.16495588 -0.01580373 -0.1055501 -0.08052885 -0.3520244 -0.22214511 0.109633476 -0.11961621 -0.18099067 0.15689063 0.11912214 -0.1307263 0.15280683 -0.0875218 -0.026199536 0.3069088 -0.31689698 0.28654838 0.25555754 -0.019275187 -0.04117746 0.074809484 -0.20272821 0.023862615 -0.13297689 -0.14139082 -0.09121792 0.048439674 -0.047789015 0.23471439 0.089640014 0.30598998 0.25271416 0.4009291 0.07321553 -0.29910415 -0.2335712 -0.026288519 0.106066614 0.053017467 0.10009017 -0.38394925 -0.35362464 0.37560865 -0.20256285 0.11753644 0.026255414 0.19017495 0.19330359 -0.26462746 0.45546046 0.09656238 -0.5182183 0.039919242 0.23174122 -0.22803234 0.21719252 -0.25223032 -0.03558731 0.12636141 -0.23811896 -0.030708183 -0.523342 0.2912528 0.095297046 -0.41363722 -0.08793546 -0.07961658 0.26541844 0.017050402 -0.113700785 0.4806201 -0.337235 0.46979237 0.0038522263 0.009685428 0.05376358 0.23072284 0.48484328 0.19931549 -0.06366673 0.27185142 -0.17052925 -0.0067293188 -0.14503562 -0.33001983 0.63287836 -0.28739223 -0.2913708 0.21814886 0.07482625 0.14614736 0.21541634 -0.18059376 0.015741417 -0.18619093 0.41522262 0.5420014 0.41283578 -0.16505763 -0.072179265 0.07883821 -0.5065027 -0.29817808 0.44700187 -0.18993 -0.23713535 0.422297 -0.15324749 -0.2514806 -0.05475085 0.08013998 -0.27618286
747 0.17020081 -0.3199099 -0.3498681 0.76759195 -0.32559285 -0.090564616 -0.03042555 0.06636453 0.0060517974 0.13833493 -0.17641455 -0.17851873 0.15620011 0.07190592 0.8558721 0.36772478 0.2155304 -0.19789529 0.04418162 0.11433435 0.21106377 -0.0030103165 -0.22513635 -0.3099071 0.14306162 0.18636732 0.11748676 0.08509908 -0.09126969 -0.47382012 0.47763938 -0.3840909 -0.027840737 0.20866126 0.20540115 0.37141448 0.18748851 0.35865927 -0.095037706 -0.041050624 -0.37521705 0.027379038 -0.12156888 -0.26626942 -0.2548599 0.048186235 0.11276023 0.02714013 -0.118262246 -0.06278751 -0.12402009 0.018112883 -0.11884755 -0.15555681 0.45327085 -0.12444588 0.15975834 -0.15110452 0.63709414 -0.20620374 -0.14842035 0.49522564 -0.22672111 0.022175457 -0.1317337 0.25004604 -0.0126517825 -0.477638 -0.21382453 -0.10387673 -0.48886248 -0.43375993 0.23293884 -0.33904365 -0.019797044 0.0009357835 0.19490515 0.043671966 0.4545935 0.10193939 -0.26805285 0.018691042 0.0060289293 0.096748404 -0.23617397 0.05738417 0.21355294 0.5258404 0.5450664 -0.1555755 -0.097841375 -0.11564794 0.031570334 0.3140685 -0.67214924 0.3040872 -0.08705582 0.017789805 0.052125234 -0.2726507 0.21381783 0.19757271 -0.19070859 -0.010424874 -0.041405663 -0.18981875 -0.05910666 -0.19869822 -0.42250478 -0.14164735 0.13454188 0.025625516 0.32713565 0.22140293 -0.16765356 -0.09208584 -0.56147474 0.061116032 -0.22429283 0.18044864 -0.06651976 -0.13597122 0.5138725 0.20045333 0.25587836 0.09741691 0.13658947 -0.20773375
565 0.14438528 0.13255537 -0.10870843 0.28669438 0.16139448 -0.16872221 0.047119923 0.111976065 -0.195396 0.20811309 -0.1491467 -0.066997096 0.51463777 -0.20476179 0.18710591 -0.042334434 0.15787661 0.13703959 0.13881516 -0.27426592 0.13125893 0.17502725 0.013695961 0.11417559 0.052021317 -0.04570875 -0.04121308 0.5929299 0.4368149 -0.18173061 0.12652999 -0.13969296 0.3785923 0.30416334 0.07118468 0.19960669 0.14092444 0.09201954 -0.24636774 -0.29806313 -0.10108763 0.19912365 -0.13826948 -0.044337682 0.1411349 -0.08497656 -0.15902853 0.2645601 -0.009937925 0.1853587 -0.16711514 -0.5492858 -0.06207733 -0.07321014 -0.3899665 0.49863648 -0.075503245 -0.027504535 0.46439415 -0.22639953 0.73047537 0.7833301 -0.015160195 0.3405269 0.21278228 0.2048039 0.061710365 -0.46174064 0.012426311 0.29088128 -0.33690152 -0.17756455 0.20601517 -0.3983889 0.14560272 0.010306758 -0.043456297 -0.17914793 0.47398025 -0.30072263 -0.16059904 -0.3886026 0.26888493 0.005214501 -0.1386568 -0.034267817 0.08401507 -0.027999291 0.7193918 0.05254899 0.047694165 -0.1938416 -0.12942809 0.1031748 -0.12494122 0.4667458 0.16213052 0.24961586 0.18957153 -0.30791298 0.0969583 -0.24481201 -0.08539288 -0.26160344 -0.35240224 0.031660326 -0.41694075 0.32372782 -0.16433923 -0.15356292 0.34030265 -0.13415037 0.37197277 0.033033673 -0.07763013 -0.4290778 -0.5530043 -0.041367162 -0.41698474 -0.1060571 0.25949162 -0.07936664 0.39774826 -0.2503155 0.07411326 0.028578987 0.053452246 -0.54595387
427 -0.50087494 -0.37745562 -0.20201112 0.4302582 0.10444609 -0.09446464 0.008021748 -0.21708487 0.06326714 0.2069974 0.24173683 0.1832572 0.11875946 0.17883484 0.5105334 0.22078107 -0.4685199 -0.27020398 -0.05363016 -0.0064195767 0.27137944 0.19451843 -0.09264624 -0.44981578 0.43472335 0.33054635 -0.12897597 0.2681447 -0.20312606 -0.105106026 0.22987433 -0.60391045 0.12464848 0.29400206 0.08490311 0.27925143 0.14053936 -0.16280589 -0.3346752 -0.053539008 0.3049863 -0.15226814 -0.15382476 -0.13563195 -0.14201725 0.37236166 -0.016621629 0.0616094 0.087059885 0.31800324 0.32690793 -0.34025764 -0.14593945 0.0066928784 0.3613864 0.0074942866 0.084301315 0.25383788 0.1383894 -0.11456175 -0.051676914 0.21443978 -0.10821673 -0.073534355 -0.3178956 0.37031415 0.20944215 -0.002179712 -0.18193555 -0.2335135 -0.4185735 -0.6393955 -0.10275729 -0.5709053 -0.19456154 -0.000763432 0.32350162 -0.29958758 0.15482427 0.27237737 -0.05354495 -0.10848825 -0.17829676 0.04476647 -0.14129378 0.541902 0.053507663 0.1302813 0.25800353 0.18103239 -0.26217481 -0.064514704 0.08407903 -0.08139524 -0.25258034 0.05134237 -0.35057527 0.08881066 0.12305245 -0.5842623 0.16414869 0.26007146 -0.48018026 -0.2716534 -0.37309068 0.25471085 0.104913965 0.20526636 -0.50417954 0.12834391 0.20778534 0.06482158 0.39440674 -0.0057186736 0.08002121 -0.20138308 0.011621488 -0.08006371 -0.1927226 -0.16953646 -0.030607017 -0.23702514 0.56385225 0.3380614 0.37652296 -0.0837323 -0.2240143 -0.4131036
611 -0.26437575 -0.24225582 -0.45117128 0.29949048 -0.16689157 -0.3132343 -0.19828674 0.13065019 -0.058837064 -0.2432945 0.3715215 -0.34028056 0.43851987 0.46174678 0.49779496 0.4763557 -0.06920308 -0.22612454 0.43486893 -0.13093586 -0.1408527 -0.13849005 -0.088631175 -0.09876801 0.4096259 0.11353561 -0.104157396 -0.2721318 0.12946303 -0.18002889 0.29459628 -0.7152772 0.20963922 0.47606432 -0.22018652 0.25002077 0.33908987 0.12054114 0.22212936 -0.13141617 -0.18016866 -0.008803133 0.013863833 -0.011882086 -0.35256976 -0.08701292 -0.33223325 0.45550004 0.27890328 -0.017719721 0.24801299 -0.05383014 -0.33018982 -0.5580392 0.19035365 -0.20698588 0.5225679 -0.20221236 0.081760265 0.16210575 0.31861293 0.33387515 0.09545913 0.46502793 -0.3601303 0.4547246 -0.5368975 -0.29524148 0.30893025 0.15525484 -0.35820833 -0.35947302 -0.47461826 -0.3300774 -0.09288152 -0.0261981 -0.008250762 0.15877068 0.17611937 -0.25086078 -0.27402225 0.030447423 -0.21565911 0.4153717 -0.36966598 0.2622349 0.41082993 0.27528003 0.24372059 0.2257219 -0.17259648 -0.14068685 0.101717696 0.3857524 -0.26826265 0.30389157 -0.27726066 0.09620432 0.4242308 -0.12611227 0.24302298 0.09587048 -0.09525318 -0.22169912 -0.2531532 0.02385549 -0.036185622 -0.11634457 -0.4225269 0.18138565 0.24599108 0.08593105 -0.046904426 0.20692116 0.12915194 0.010950382 -0.6017339 -0.1121214 0.2712844 -0.36465174 0.251991 -0.018594643 0.1728613 0.10210699 -0.16439493 0.017780244 -0.44867837 -0.11299676
74 -0.32193282 -0.06038888 0.4003238 0.36613992 -0.4123028 -0.39015394 -0.089001805 0.10622901 0.13271077 0.09623626 0.1550305 -0.19048935 -0.058687333 0.4393258 0.42850846 0.09362359 -0.18893743 -0.02342963 -0.16321811 -0.10413751 -0.105879426 0.058758542 -0.19305244 0.07070005 0.5563935 -0.16548303 0.17116176 -0.056776542 0.29385263 0.033404164 0.2022815 -0.666055 0.15225674 0.29264468 0.16795783 -0.04396776 0.641871 -0.11722243 -0.40030327 -0.008358079 0.016492365 -0.24516366 -0.459676 0.10600262 0.07809488 0.1108319 0.22857872 0.38129157 -0.36849558 -0.12324895 0.064259134 -0.055123296 -0.31362763 0.18040927 0.19325037 -0.09208975 0.4565251 0.06925605 0.23491067 0.665999 0.18308504 0.13115369 -0.17070521 0.17226878 -0.17461398 0.49850306 -0.048554935 -0.47437352 0.2277488 0.030521534 -0.3656087 0.35314333 0.38617834 -0.5622295 -0.04193181 -0.43094993 0.00078277104 -0.32460925 0.6202584 -0.32506436 -0.33936667 -0.096091524 -0.28132582 0.21907417 -0.45479447 0.04510277 -0.014212175 0.2446707 0.30296516 0.1484301 0.065215416 -0.097295396 -0.41600287 0.13401154 -0.339215 0.42628297 0.1678694 -0.17332909 0.13996187 -0.06562222 -0.47755465 0.26690412 0.37117139 -0.21765578 -0.43603313 -0.16979715 -0.0441444 0.054612093 -0.03747577 -0.2230571 -0.011356804 -0.19379899 0.69694823 -0.34468976 0.17188302 -0.4072052 -0.083544716 -0.26036552 0.10741584 -0.3043772 -0.0654762 0.11834038 0.49866927 -0.54423416 -0.18979599 0.21549986 -0.2994208 0.09765495
552 0.13912284 0.2444568 -0.53868455 0.33891636 0.2789716 0.06620798 0.17159736 -0.013417665 0.017240671 0.121761486 -0.20389856 0.3966689 0.66548413 -0.12323098 0.36335418 -0.20519723 -0.30353665 0.017320978 -0.29849142 0.12546471 -0.037153337 0.28155932 -0.33155304 -0.35030666 0.019829411 0.19097005 -0.1611676 0.31152156 0.4559457 -0.2768969 0.27545452 -0.38018405 -0.022925187 0.11189612 -0.064758725 0.13224946 0.2332528 0.019247726 -0.13519588 -0.06701489 -0.08297156 0.14412601 -0.21395497 0.19243723 0.020304453 -0.17425568 -0.0032466452 0.39602962 0.39327097 0.47536165 0.14195395 -0.6848342 0.19123384 -0.23352835 -0.19434068 0.22321887 0.1105022 0.15975599 0.43119475 -0.3602801 0.70760465 0.52325493 0.1339082 0.36398703 -0.02916576 0.31492594 -0.054080136 -0.31703958 -0.25588655 0.010435372 -0.6928331 0.18528882 0.16248764 0.21163115 0.1140544 -0.047389254 0.16834886 -0.28146803 0.42525324 -0.39006308 -0.35800263 -0.4510981 0.029045448 0.6900684 -0.427363 -0.1443162 -0.24810413 -0.060644995 0.7487162 0.18752979 0.115029655 -0.28439686 -0.38399774 0.018672122 -0.16430435 0.48774984 0.44668677 0.057350755 0.106735036 -0.31438756 0.2716554 -0.34137928 -0.0153221525 0.034277968 -0.24215956 -0.093617536 -0.061865825 0.123024374 -0.23128329 -0.26674238 0.26691374 -0.07744334 0.10176957 -0.22537388 -0.18769296 -0.02229143 -0.38268307 0.17937963 -0.66631424 -0.2339475 0.31195402 -0.1630939 0.16205889 -0.021192355 0.3589199 0.053989347 -0.12945126 -0.24443085
430 -0.5463652 0.3961083 -0.06634138 0.38466185 0.09762657 -0.6072383 0.05132863 -0.0015850638 0.083520874 0.22400963 -0.7270604 0.33670264 0.2473324 0.34033513 -0.14169273 0.48772532 -0.0073291045 -0.14386939 -0.36823037 0.21658084 -0.13130277 0.31285718 0.08181774 -0.054528195 0.19983596 0.32381335 -0.0037267562 0.5648691 -0.19695842 -0.42666364 -0.059794668 -0.22739373 0.11459226 0.2040749 0.32042947 0.56525594 0.032344043 -0.003167544 -0.29885668 -0.15327506 0.24534428 0.19128165 -0.22610448 -0.12029438 -0.106379054 -0.37192902 0.2109865 0.18194395 0.19145197 -0.24960996 0.17105426 -0.53730875 -0.17765577 -0.406307 -0.1536502 -0.11400095 -0.17266706 0.4266757 0.15345994 -0.1457952 0.08952465 0.084622495 0.5208147 0.48409054 -0.6015968 0.25179747 0.19019745 -0.16041137 0.1080831 0.1820088 -0.57887536 0.4060874 -0.017678402 -0.12794533 -0.2747193 -0.67528737 -0.058370274 0.05638832 0.15031368 -0.44906288 -0.061063215 0.4257068 -0.21773884 -0.14916049 0.1399488 -0.03350854 0.47781214 -0.060204998 -0.032889027 0.49223405 -0.16697696 -0.5123521 0.043257695 0.12764327 0.3135224 0.25509304 -0.26669875 0.19477788 0.30468 0.22920513 -0.47020873 0.2649918 0.11019075 -0.08515468 0.040028688 -0.04491233 -0.49212328 0.03039935 0.001373285 0.2963845 0.08355177 -0.10252154 0.51251405 0.15334503 0.32037258 0.27971905 -0.19771646 -0.45945808 -0.23084739 -0.058486897 -0.037542254 -0.10952702 0.20700946 0.010817416 -0.21810065 0.45346916 0.04236557 -0.27450427
745 -0.41286886 -0.484638 -0.23483683 0.5952335 -0.17091905 -0.1895282 -0.07781411 -0.1986868 0.22003157 -0.050373968 -0.1287566 -0.15615006 0.13556887 0.4159569 0.2632111 0.17915265 -0.18509462 -0.26074493 0.27078304 0.061871555 -0.3344389 0.03630816 0.0071483683 -0.54155105 -0.13018304 0.35756904 -0.0016915523 -0.12344052 0.44395512 -0.31541932 -0.14234091 -0.595945 0.1827813 0.27546057 0.29167676 0.259574 0.32616863 -0.68391556 -0.19374254 0.21534388 -0.037706606 0.08569311 -0.037495896 -0.40928638 -0.15085074 0.066801935 -0.04949953 0.43298993 -0.06114953 0.03176887 0.040354837 0.07976903 -0.4973241 -0.48641714 -0.08538137 0.33124658 -0.035255317 -0.012540516 0.62429994 -0.09984853 -0.18700671 0.33323458 -0.36518112 0.09140449 -0.26835412 0.38839194 0.16211043 -0.51910615 -0.013535033 -0.052910287 -0.471571 -0.13711382 0.2470031 -0.5328311 0.31640217 0.26390094 0.13350016 0.22830336 0.60131806 0.0061800526 -0.21350569 0.11368488 -0.2537757 0.034917846 -0.49819642 0.52045274 0.21846756 0.25190973 0.8117843 0.005538756 0.12430558 -0.17856935 0.24868034 0.57035255 -0.5893691 0.18225999 -0.4217581 -0.39618975 0.025610376 -0.40894833 0.23826927 -0.18407063 -0.012567567 0.07021485 -0.29725006 0.09618759 0.60903966 0.06799443 -0.5038993 0.2698301 0.20950139 0.05934911 0.11334593 0.31628937 -0.08880947 0.16725679 -0.5073342 -0.015487476 -0.0171384 0.15976082 -0.25113133 -0.16655518 0.5096971 0.11849427 0.266416 0.18557094 -0.118901506 0.23618267
638 0.00085382495 0.083602466 -0.38592625 0.5740439 -0.053937394 -0.109238565 0.08028701 -0.44223252 0.12512664 0.5542711 -0.4476375 -0.17690076 0.4352704 -0.02424787 0.47460935 0.0011746035 -0.007291456 0.05597551 0.02850952 -0.23636118 0.23166864 0.14432962 0.1639455 -0.009605441 -0.13752367 -0.117214054 -0.019374369 0.5333725 0.26345548 -0.21779048 -0.11889412 -0.11174774 -0.2632732 -0.25963226 -0.1860295 0.44943202 0.117758065 -0.1032319 -0.17922375 -0.30552182 0.6845163 -0.015023034 0.044322502 0.14917223 0.0583769 -0.1322695 0.023857554 0.18834499 0.32123715 0.12874751 0.2872416 -0.2450843 -0.12173177 -0.042984247 0.36034608 -0.23417349 -0.18147229 0.43007165 0.3642362 -0.117604084 0.16473407 0.29516068 0.19197188 0.31865463 -0.5004268 0.33805847 -0.23538128 -0.20930412 0.5566928 0.27395675 -0.5284302 0.21738075 0.08258172 0.2087614 -0.11374647 -0.16254678 0.0073653227 0.55393964 0.051523812 -0.092894234 -0.19168933 -0.17504229 0.2497052 0.40525743 0.52235395 0.10162658 0.079131104 0.14348827 0.24217612 -0.16706182 -0.35810468 0.18634167 -0.099043034 0.052496668 0.1952597 0.0669772 -0.44305632 -0.00091481634 0.44973326 0.22929744 -0.1489913 0.41542336 -0.14627527 -0.35939753 -0.31203955 -0.5743644 -0.051375158 0.09880934 -0.5933097 -0.12956245 0.39310196 0.1902589 0.44168445 0.1422316 -0.35365093 -0.15834425 -0.4049733 -0.34777892 -0.1980197 0.4534479 -0.4191463 0.010624156 0.15761507 0.085348405 0.02643652 0.3897737 0.2657649 -0.23247331
344 -0.12769426 0.27255553 -0.014348715 0.6323972 0.23465085 -0.34844464 -0.30826768 -0.2168878 0.10672546 0.5420311 -0.26782474 0.4392666 0.34928375 -0.23219626 0.37054104 -0.05746414 -0.079979114 0.29649332 -0.35221222 -0.18560003 0.25254965 0.274879 -0.8553785 0.06288108 -0.084170334 0.113723576 0.20721854 0.78464824 0.2296726 -0.7334878 -0.14739034 0.03402989 0.01726621 -0.23518834 -0.18207322 0.114357166 0.19620723 -0.04147548 -0.044006526 -0.3240746 0.722895 -0.38924068 0.39240927 0.39420933 0.351056 0.3189447 0.107824616 -0.0075967354 -0.1314581 -0.04729976 0.3929783 -0.36728048 -0.111327514 -0.24446443 0.22224125 -0.07388579 -0.10399942 0.07097209 0.31189492 0.045051537 -0.43496087 0.69046384 0.09439508 0.49836135 0.011628112 0.4194381 0.119537465 -0.35242912 -0.1848592 0.14834961 -0.56893176 0.473077 0.04294115 -0.20858917 -0.2941145 -0.740571 -0.28755352 0.020012146 0.36668596 -0.206104 -0.16234641 -0.13522448 0.4172843 -0.12811553 0.17734009 0.18874836 -0.053964265 -0.15940295 0.5391204 0.10138128 -0.37967107 -0.2094278 0.356328 0.16107479 0.383553 0.13019696 -0.25444254 0.25159898 0.17649144 -0.32988867 -0.17046651 0.35301566 0.30200732 -0.02037026 -0.2502518 0.2307675 -0.27349803 -0.34603438 -0.36259115 -0.38210213 0.23181458 -0.09845218 0.29602975 -0.25095198 -0.09306693 -0.06709363 0.038945615 0.35514992 0.0648778 0.060377438 -0.26165363 0.32518557 -0.22310495 -0.35190204 -0.29779753 0.687191 -0.1545543 0.027483089
294 -0.31924382 0.12671128 -0.27835286 0.32079217 0.25660396 0.1442043 -0.11619277 -0.13389893 -0.028293729 0.10377197 -0.39293513 -0.09258055 0.5890199 -0.39423725 0.83929163 -0.055261813 0.21487927 -0.18386993 0.2234949 -0.49233502 0.18642971 0.38696912 -0.41219115 -0.14231974 0.054217618 -0.00055743195 -0.1919461 0.44389805 0.47911915 -0.09296623 0.45884106 -0.33329105 -0.104160205 0.122307226 -0.07721446 0.3021252 -0.028054519 -0.010263934 -0.13809621 -0.107515685 -0.2958305 0.25681862 -0.2981992 -0.25931928 -0.2643959 0.1663524 0.11512745 0.1720894 -0.12801741 0.20426945 -0.2223067 -0.25963256 -0.15765008 0.0025013231 0.35702306 0.4036585 0.1540411 -0.08294334 0.32733607 -0.20226406 0.4746254 0.5008505 0.13607743 0.16682075 -0.14770165 0.18319552 -0.07415075 -0.3501795 0.0575432 0.37739307 -0.45945033 0.17869279 0.015490472 -0.19583954 0.17667237 0.31833664 0.04859848 0.18738703 0.28753036 -0.28146547 -0.09403829 -0.19906579 0.14149828 0.35901326 0.017434778 0.19266546 -0.026273377 0.06904495 0.3107016 0.18400319 0.18537553 0.06636056 -0.3215726 0.17567395 -0.11430326 0.25383648 0.39876816 0.066976465 0.25678843 -0.22137676 -0.07255385 -0.4091988 -0.2605923 -0.345518 -0.2973249 -0.014540837 -0.3095512 0.1970025 -0.57490504 0.03645424 0.65675986 0.0178852 0.38855922 -0.10441668 -0.11949187 0.20833613 -0.38046017 0.17709553 -0.40956482 0.16802941 -0.19930705 -0.3679472 0.39173624 0.10977038 0.37262827 0.24376838 0.0040544756 -0.105192006
566 0.10783807 0.20630814 -0.38725263 0.36496708 0.12944847 0.21833353 -0.07266181 -0.40730894 0.16024394 0.36061952 -0.44235703 0.21910201 0.13293126 -0.18649669 0.51990086 -0.3841436 -0.022717291 -0.0066728992 0.0502754 0.18901496 -0.07425266 0.19147633 -0.23830128 -0.1473006 0.02560043 0.36263457 -0.1489279 0.5539446 0.15823066 -0.25652373 0.40489647 -0.25787884 0.08427759 0.3493345 -0.24505489 0.06374035 0.27623957 0.07358904 -0.2957678 -0.4367372 0.19585556 0.08951405 -0.31482393 0.05077469 -0.2226324 0.017374974 -0.30868903 0.17208202 -0.063520364 0.25045434 0.09524314 0.022195298 0.13405973 0.17675316 0.28640333 0.43692794 0.19841416 -0.14957263 0.1231102 -0.23811704 0.2650743 0.65471804 -0.3637 0.41235766 0.07809365 0.23400614 -0.064231485 -0.044381738 0.16956341 0.20233129 -0.45287946 0.026109036 -0.12757474 -0.75363314 -0.074660815 0.2794524 0.091361105 -0.22867921 0.50254333 -0.4999398 -0.16655204 -0.6136531 0.23165043 0.22932673 0.28279144 -0.2850739 0.007614655 -0.4887796 0.58424443 -0.11828258 0.08588503 -0.22558372 -0.24011543 0.33600873 -0.5537716 0.27663052 0.5623845 0.020433236 0.05423162 0.05233572 0.25459018 -0.322359 -0.12955941 0.020290235 -0.1081325 -0.06308306 -0.15400751 -0.16552949 -0.03414897 0.27528727 0.44911683 -0.017392319 0.120144136 -0.073157035 0.08234405 -0.20627055 -0.34907705 -0.009744857 -0.43323347 -0.06911993 0.13595474 -0.27744445 0.43783015 0.103592046 -0.2886891 0.35859734 0.17914498 -0.11072741
523 -0.35587138 -0.07339462 0.43284997 0.57398236 0.3209255 -0.23824684 0.29888675 0.2553298 -0.16725399 0.12063458 -0.03218869 -0.010516988 0.40648365 -0.27224126 0.23222996 0.19126628 -0.053345297 0.11910811 0.091512874 -0.4176894 0.08088979 0.016312705 -0.19401142 -0.08801999 -0.10895643 0.38709477 0.1089215 0.022843495 0.010696235 -0.442683 0.5096017 -0.033663206 0.42533553 0.27422825 -0.2967789 -0.007970701 0.09892022 -0.05300655 -0.049771328 -0.104956746 0.005071408 -0.09799962 -0.12362876 -0.38799623 0.43549317 -0.17596069 0.4816416 0.14085168 0.02634487 0.39937437 0.061649926 -0.4277982 0.14266099 0.11396576 -0.5169416 0.23727055 -0.32185256 0.213202 0.36293766 -0.13689935 0.47509038 0.67857337 -0.22553666 0.0008224258 0.40891755 0.39894107 0.19484968 -0.5549094 0.40621638 0.10732397 -0.31874433 -0.19268553 -0.11237013 0.045540094 0.21419802 -0.09594935 0.3361791 -0.23154505 0.30690035 -0.16060504 -0.22607766 -0.38356495 0.31779867 0.17895167 0.057555098 -0.42067015 0.1543881 -0.48480722 0.081449054 0.020402713 -0.17397866 -0.36202794 0.21041676 0.31901643 -0.22224335 0.26237115 0.07045845 0.26211274 -0.31324464 -0.22733507 -0.055195108 -0.06657945 -0.10004107 -0.2296384 -0.03417155 -0.12720624 -0.13514987 0.24802215 -0.08600496 -0.23133768 0.8029598 -0.035390392 0.19194567 0.11777506 -0.0606629 0.09298246 -0.16892065 0.04063113 -0.34652746 -0.16696912 -0.14592223 0.21458045 0.5450663 -0.19344397 -0.44743082 0.34327856 0.0017701839 -0.39058754
157 -0.4525745 0.34231302 -0.41129792 0.08848283 0.32157618 -0.095592126 -0.1272331 0.15008065 -0.021676818 0.2134869 -0.11049471 -0.16146843 0.1872604 0.61836416 0.0794164 0.40692994 -0.23662642 -0.25724545 0.34574336 0.17839769 0.49068955 0.30601242 -0.4596882 -0.035770144 0.06787986 -0.3607804 -0.004558821 0.0012581041 0.061664246 -0.4385723 0.45306507 -0.19141792 0.5553738 0.4535734 -0.1679715 0.27970418 0.53687274 0.0431389 -0.31465918 0.016977364 -0.23794098 -0.13759758 0.22144528 0.37509355 -0.15317327 -0.2745644 -0.25084755 0.2938226 -0.07543065 0.052509487 0.38694462 -0.080335334 0.036501784 -0.31808552 0.47381943 -0.1482029 0.0381572 0.37440786 0.8656774 -0.08891784 0.5652663 -0.120218426 -0.17406262 0.24871252 -0.121126994 0.36457205 0.2985882 -0.33209082 0.19656189 0.2649945 -0.4142668 -0.21479222 -0.052415457 -0.15533426 -0.39461932 -0.36482918 0.12416669 -0.37024546 0.42318994 -0.29599735 -0.06488926 0.22509111 -0.26011917 0.37990636 -0.043199264 0.46487775 0.12910888 -0.09478211 0.09379035 0.21111296 0.20132059 -0.08874262 0.46403143 -0.08197918 -0.607695 0.4297896 -0.42209747 -0.19952624 0.71288395 0.0864694 -0.2888594 0.53574634 0.22449332 0.037864007 -0.26734364 0.4691948 -0.19330546 -0.4794809 -0.48775595 -0.011621491 0.022201607 -0.21511924 0.20721535 0.3376172 0.3594231 -0.574042 -0.15216097 -0.32373473 0.022499245 0.16164109 0.13260517 -0.16645232 -0.1860783 0.14561138 -0.03875348 -0.16227403 -0.65422297 0.14980248
576 0.1526768 0.07668241 0.042484228 0.36842665 -0.26652536 0.030419474 0.112350315 -0.556046 -0.055078458 0.091753125 -0.26744598 -0.37372574 0.11132576 0.5319102 0.4431003 -0.2131027 -0.13560537 -0.475498 0.06745389 -0.27860093 0.36899117 -0.392366 -0.3765608 -0.04194463 0.43669796 -0.08159071 -0.1551443 0.07845169 -0.061776426 -0.5312729 0.13444722 -0.6055938 0.012957327 -0.07486613 0.037035327 -0.081250645 0.4846601 0.042836014 0.28754863 0.15602654 -0.16682297 0.15370935 -0.12190338 0.06922439 -0.20638613 -0.037839092 -0.35924855 0.19737329 0.004604726 -0.520827 0.17830135 0.29754603 0.042884383 -0.5969342 0.16090849 0.3084146 -0.12554063 -0.2010366 0.5119597 -0.27643955 0.09967119 0.34869656 -0.10763609 0.086775124 -0.26439214 0.42543295 0.27594635 -0.6403286 -0.37884948 0.05334842 -0.69797486 0.026813872 0.55709255 -0.6158544 0.06796861 -0.339389 0.14169613 -0.1573391 0.6415859 -0.17111884 0.05760699 0.31919783 0.20372702 0.042813446 -0.42688006 0.4815615 0.30802086 0.5871894 0.65618014 -0.03477499 -0.7057691 -0.36874193 0.51167417 0.6812655 -0.7860944 -0.49624345 -0.36822987 0.3635571 0.31568456 -0.69542485 -0.6110263 0.15169336 -0.35996833 0.107797936 0.038791403 0.07753617 -0.16172342 0.15561116 -0.47345492 0.30302718 0.2253482 0.08633428 0.13849251 0.6829229 0.012188621 0.5699546 -0.43095756 -0.2475534 -0.49072248 -0.1507639 0.17182606 0.09093052 0.6469679 0.50248045 0.17650558 -0.049757637 -0.4943363 -0.0074148723
1354 -0.0058586625 -0.008490997 -0.122115314 0.58588517 0.20109388 -0.090432584 0.32368016 0.06553912 -0.025753533 0.03159687 -0.6594202 0.27942902 0.34978795 -0.05563729 0.17666051 0.26442364 -0.5557 0.3818947 -0.43866283 -0.20010723 0.058006726 0.41835812 -0.7075791 0.106805645 0.08773193 -0.16206764 0.4521074 0.6643398 0.014564242 -0.83511883 -0.25612804 -0.27477297 0.516645 0.15322544 0.108581915 -0.35818565 0.445775 -0.50295436 -0.09249015 -0.22237 0.21130675 -0.1830891 0.17644686 0.3755738 0.07978033 0.2151603 0.028836 0.16652872 0.1886878 -0.1712441 0.07883271 -0.05869313 -0.03896601 -1.0703717 0.2050109 0.55295384 -0.09453047 -0.4343815 0.14377452 0.28254965 -0.3191939 0.21630342 -0.16466881 -0.40357327 0.13036443 0.38759223 -0.04187036 -0.1619142 0.22673595 0.17659616 -0.2909047 -0.22708613 -0.0063672997 0.18060671 -0.009286307 -0.7584081 0.001891174 -0.036848698 0.47713104 0.318484 -0.21787858 -0.3202902 0.12216985 0.23505808 -0.411348 -0.22578081 0.39360923 -0.07755254 -0.1513649 0.08580375 -0.9123489 -0.28695637 -0.15838549 0.025326714 0.35382974 0.49424124 0.10724941 0.8599417 -0.1601884 0.15919557 -0.06398921 0.14769898 0.3220887 -0.2894023 -0.38330835 -0.27916506 -0.034787238 -0.30786 -0.2102043 -0.21925965 0.32380602 0.15444908 0.17427257 0.25261432 -0.21087813 -0.035147965 -0.3999931 -0.45387936 -0.25494945 0.6859592 0.3305652 0.09519343 0.08100567 0.19000009 -0.38321868 0.5992155 -0.013512357 -0.33012825
378 -0.14150408 0.23386447 0.25175297 0.56967443 0.24320297 -0.48839897 0.017610254 -0.53276813 0.021162638 0.5238719 -0.27601752 0.3105875 0.58408195 0.25778776 0.33963898 0.053522408 -0.31595412 0.30683076 -0.37115043 0.3538679 0.20372567 -0.018325545 -0.27736798 0.22044684 -0.2826729 0.1455239 0.1154445 0.32817653 0.19549124 -0.5819992 -0.20781207 0.049137305 -0.082188375 0.14858365 -0.3881275 0.31698802 0.24644105 0.001086471 -0.60423034 -0.11031785 0.46866283 0.33346555 -0.3106703 0.20411186 0.3036609 -0.1297567 -0.25992486 -0.36136684 0.101881914 0.26986918 0.613277 -0.25340313 -0.2997095 0.06184875 0.4186182 -0.564037 -0.19098206 0.20042677 -0.028530728 -0.15043104 -0.079333745 0.11213406 0.056365535 0.07932907 -0.21919103 0.64211446 -0.12711181 -0.06449701 0.24530956 0.45511797 -0.45324764 0.079927325 -0.3986394 0.29852128 -0.11603527 -0.27694312 0.025158808 -0.113330215 0.5563879 -0.24270485 -0.202235 0.090994366 0.36654967 -0.39807868 -0.48316187 -0.016726462 0.00990393 0.054679494 0.69001657 0.1955834 0.016593512 0.37122163 0.12180544 -0.14181475 0.24801937 0.13140519 -0.14432414 0.52997905 0.44656038 0.15790854 -0.2062488 0.2044839 -0.2331291 -0.26496866 0.02351338 0.14689563 -0.4080372 0.04594802 -0.35291266 -0.17014818 0.07714079 0.16530782 0.3175066 0.6462222 0.24534102 0.0164695 -0.41454324 -0.052251834 -0.04820715 0.19552904 -0.21999069 -0.044638265 -0.12636858 -0.1797148 -0.61089647 0.48836395 -0.06527185 -0.094780356
453 0.029515548 0.16684218 -0.11914944 0.1936793 0.46240687 -0.15011004 -0.025810437 -0.68801284 0.15714449 0.21471676 0.48472875 -0.13449524 0.27953207 0.42148638 0.26261893 -0.106882975 -0.36254165 -0.2693294 -0.31055504 0.1267362 0.4982631 0.61019593 -0.7339794 0.2692975 0.047954705 0.29466537 0.11700907 0.17679083 -0.24234465 0.39541698 0.12403985 0.15763222 0.18331783 -0.33270156 -0.888573 -0.049836606 0.4629606 -0.28076765 -0.22422154 -0.28857478 -0.15301338 -0.027315449 0.20262957 0.22995016 0.042250995 -0.29545215 -0.7683645 -0.24029142 -0.21784113 0.37151143 0.28240094 0.09283285 0.051766004 -0.16350742 0.042896423 0.23274253 -0.6185373 0.5331007 -0.031447947 0.061801583 0.020616895 0.16811278 0.16052662 0.10399326 -0.3182107 0.6715821 -0.06192725 -0.56810397 0.3453716 -0.23105858 -0.63462055 0.2641517 -0.19442263 -0.394386 0.14932707 -0.80008286 0.0595352 0.22449304 -0.011282295 -0.32774565 -0.12836792 -0.13533902 -0.35172606 0.0892905 0.085340396 -0.046727233 -0.22558579 0.38597316 0.5674509 -0.28705254 -0.5427891 0.0057918816 -0.06931477 -0.1291195 -0.14250164 0.28582016 0.11491187 0.3498665 0.29323745 -0.058590043 -0.4315566 -0.30940205 0.18372507 -0.030803991 -0.08989886 0.0040745437 -0.050617576 -0.29233718 -0.22097006 -0.110637724 0.017822703 0.31028718 0.36630723 0.11275237 -0.20743503 -0.19124325 0.12047112 -0.38813642 -0.2484957 0.7060532 -0.118617944 0.25726208 0.10034229 -0.17056952 -0.59548783 0.5949444 -0.2551794 -0.1539566
793 -0.32238144 -0.41242355 -0.28148016 0.39411533 0.62732506 -0.34651968 0.30212575 -0.4105157 0.0021602404 -0.11566146 -0.5250023 0.3618877 -0.26408073 -0.3900071 0.6023888 0.5559085 -0.2880807 -0.040445987 0.045971442 -0.13816392 0.37313554 -0.13150416 -0.3109318 -0.02831681 0.16887149 0.40127802 -0.38306114 -0.043374624 0.08727926 -0.22694692 0.4449213 -0.3255284 0.046789456 0.26461115 -0.44508395 0.1183786 0.26957345 -0.6330635 0.056058638 -0.205727 -0.01760568 -0.029454459 0.046600014 0.03298016 0.29691392 -0.0141408555 0.28956744 0.185284 0.69113326 0.13857412 -0.21612161 -0.14561214 -0.030833116 0.039218936 -0.12227353 -0.034119435 -0.40523958 -0.7379985 0.49274075 0.18739574 0.337785 -0.03404025 0.29788163 0.37619415 -0.24890819 0.52218735 0.06571334 -0.27921435 0.008919492 0.04269737 -0.39399102 -0.055968318 -0.5878657 -0.41281128 0.4245774 -0.21631859 -0.15990481 -0.5202811 0.28417426 0.20007224 -0.24154638 0.224167 -0.12816814 -0.057516646 -0.32501936 -0.39067683 0.31673297 -0.23492293 0.40039364 0.09627598 0.20379643 0.056352492 0.3995804 0.5123831 0.3473066 -0.071870886 0.36720031 0.06357538 -0.032089096 0.07143991 -0.10246986 0.24090636 -0.37116385 0.049987756 0.438738 0.124572635 -0.22573729 0.16396996 -0.2709066 -0.064962216 -0.0027327412 -0.1870933 0.27645043 -0.054074176 0.18464369 0.044129603 0.09790545 -0.5744305 -0.45219678 0.5027379 0.009148024 -0.15646169 -0.112231985 -0.17623234 -0.41836154 0.38756722 -0.26800808 0.04116397
672 0.24045376 0.11588807 -0.057392374 -0.0024799688 -0.13595243 -0.093684554 0.12786044 -0.57556146 0.08098638 -0.10282797 -0.0754955 0.020947488 0.24690622 0.1537706 -0.019951455 0.03309516 -0.54826283 -0.17510755 -0.34214586 0.31133187 0.44425496 0.4776985 -0.65006614 0.09225398 0.27915704 0.028059043 -0.08453515 0.15148051 0.07707711 0.14537176 0.37734038 -0.46962732 0.2898921 -0.28085902 -0.77661777 0.20471609 0.4865445 -0.7300471 0.029344635 -0.1274645 0.25493103 -0.4425905 0.45902428 0.29938543 -0.29593095 -0.18358357 -0.28814134 0.065068014 0.14474322 0.09822562 0.22822426 0.15656953 0.13879019 -0.25253543 0.23693916 0.06355428 -0.0376475 0.25929052 0.42547324 -0.080985144 -0.06584942 0.54497194 0.24419747 0.49939567 -0.31176576 0.1656474 -0.38181067 -0.496692 0.39300945 -0.44584015 -0.6437858 0.56397706 -0.66309536 -0.19599724 0.1460176 -0.44847688 -0.18949921 0.07480154 0.2027511 -0.42622122 -0.0043091225 -0.37210444 -0.039015062 -0.23276277 -0.27572158 -0.10085723 -0.10132336 0.14786707 0.29212287 0.07161225 -0.08086585 0.0031177863 -0.15290806 0.24783643 0.4066485 0.36218604 0.26791567 0.24206236 0.23027815 0.38338882 -0.6043817 -0.11067742 -0.30274478 0.18661816 0.32768643 -0.26792473 -0.14787872 0.17167106 -0.11974208 0.05076702 0.1805797 -0.24615906 0.48527235 0.07566212 -0.28891385 -0.15429042 -0.0027420667 -0.09155583 -0.3461499 0.5722604 0.2150547 0.23328924 0.09280161 0.12196909 -0.5136246 0.35381523 -0.53196883 -0.34466583
635 -0.4895794 0.23630887 0.009546203 0.4559306 0.06675454 -0.13395242 0.058029626 -0.19873098 -0.13458094 0.35348022 -0.66039205 0.120411225 0.31571564 0.18299247 -0.07022736 0.464753 -0.08391752 -0.6054997 -0.4537413 0.1868568 0.075165905 0.23515414 -0.0390327 -0.088774346 0.12848084 0.50339675 0.07493705 0.6716765 -0.12050529 -0.25541005 -0.07956547 -0.45064145 -0.15970558 0.20758903 0.011050509 0.36492398 0.08449619 -0.25706092 -0.35353994 -0.2210029 0.23679739 -0.014664582 0.19149408 -0.101171054 -0.00017344166 -0.32610017 -0.34101275 -0.1995887 -0.34210616 -0.20981131 0.16901107 -0.5190835 -0.455471 -0.26144272 0.023354039 -0.38393876 -0.030576305 0.32935917 0.13277876 0.073051475 0.17724574 -0.3319166 0.34786886 0.6054378 -0.5916037 0.1391757 0.44691375 -0.12095187 0.07381314 -0.14713156 -0.8110521 0.0758855 -0.124193065 0.11523915 -0.03338176 -0.7462624 -0.57744145 0.11505788 0.099765986 0.028281972 -0.2275031 0.08606485 -0.46227273 -0.14099474 0.34454307 0.045770448 0.31699136 0.02734101 0.23952001 0.050082527 -0.25588104 -0.16821383 0.15030219 0.18704775 0.41060063 0.5520951 -0.35912123 0.27843568 0.18190494 -0.00010789506 -0.47852516 -0.093049675 -0.15668695 0.11502234 -0.23096266 -0.47055689 -0.31797186 0.19094107 0.00819759 0.17697023 0.36976466 -0.0030290866 0.26619884 0.3471493 -0.16732918 -0.34317273 0.05575665 0.18607388 -0.43707567 0.37418133 -0.39215553 -0.24221814 0.23697437 -0.05088582 0.015590628 0.6569607 -0.0063046613 -0.32328796
1644 -0.4079745 -0.4153859 0.16294251 0.23830904 -0.014253683 -0.12907383 -0.010944088 -0.0769091 0.17461333 0.22026502 -0.06789562 -0.3221074 0.045866255 0.28969803 0.044439387 -0.2698448 -0.3588841 0.17823973 -0.3130901 0.11011088 -0.024404291 0.2713279 -0.068979405 -0.03655309 -0.19254108 0.35766768 0.22404951 0.550977 -0.012443168 -0.23718701 -0.31342104 -0.31312084 0.25779298 -0.015023698 -0.19069713 -0.06813444 0.6071958 -0.06779405 -0.48164937 0.0646853 0.14425352 -0.21605965 -0.03242727 0.15941137 0.19333738 -0.26544175 -0.2843095 -0.020787828 0.501129 -0.52323097 0.44017592 -0.14087547 -0.15108307 0.15666664 0.10317892 -0.36616543 -0.09073141 0.24634592 0.22077163 0.11012362 0.07518041 0.55163294 0.28214914 0.47817183 -0.0985449 0.2924724 -0.33650428 -0.3837782 -0.73164785 0.25914562 -0.8950995 -0.186079 -0.27188462 0.25695157 0.07532967 -0.1725888 -0.16253439 -0.21303412 0.2825039 -0.091699556 -0.35650343 -0.2044396 0.32259554 0.09549995 -0.33520994 -0.0636312 0.37090093 0.17283452 0.43555886 -0.23603429 0.22495025 0.20532994 0.101906486 0.32678553 -0.07645042 0.058096427 -0.0056589665 0.4226584 0.1493688 0.2966985 0.12707508 -0.0041042184 0.22605485 -0.5778058 0.17328475 -0.008424688 -0.24866366 -0.28824532 -0.43746793 -0.022776157 0.18497272 0.46536264 0.49164066 -0.031464282 0.02321767 -0.093486495 -0.17739956 -0.2395379 0.1769236 0.2795868 -0.2442144 0.19969559 0.21553399 -0.28433856 -0.19442394 0.6815834 -0.059888493 -0.2951297
910 -0.35203597 -0.0075782095 -0.28593314 0.38563317 0.6133718 -0.28448576 -0.09359156 0.2590443 0.23646942 -0.112133265 -0.15239564 0.035598863 0.3834249 -0.32656288 0.3166923 0.36470056 -0.23839004 -0.23550308 -0.38375628 -0.65348595 -0.14787287 -0.23494555 -0.104306675 -0.15008686 -0.14148211 0.070954 -0.2558796 0.47776896 0.39710608 -0.53223985 0.16161719 -0.33659077 0.22861086 0.63613003 -0.05717101 0.089373566 -0.12529758 -0.21287224 -0.3565292 -0.17914502 -0.2422128 0.13026205 0.14603803 0.21648335 0.30231088 0.03929301 0.4243543 0.24233592 0.2405942 0.3028445 -0.30624974 0.031381086 0.25527686 -0.2626829 -0.14217712 0.35205683 -0.27864045 -0.23058882 0.0837002 -0.30488873 0.5745368 0.30318642 -0.1016534 -0.091385715 0.41082412 0.25774065 0.33082622 -0.109925605 0.07154645 0.22918259 -0.63782823 0.118670955 -0.12285961 -0.3399037 0.08431968 -0.14235096 0.026786948 -0.28050148 0.25664666 -0.014502901 -0.2347305 -0.33404255 -0.24934165 0.08584823 -0.15919697 -0.56906295 0.14607061 -0.018197246 0.6124876 0.03490864 -0.25261834 -0.24776007 0.29683036 0.24934866 0.63441414 0.4389292 0.3040662 0.04519995 -0.04219835 -0.054783944 0.21800987 0.277715 -0.16192093 -0.04282814 0.20301765 -0.12742068 -0.27604347 0.19357015 -0.07434319 -0.21882649 0.1041503 0.31334397 0.7098479 0.14009213 -0.49305525 -0.33810583 -0.49148163 0.13935791 -0.44103 0.17884226 -0.19829698 -0.064274974 0.3592326 -0.12321369 -0.39715543 0.07247081 0.031520933 -0.4407141
14 -0.10005752 -0.3545482 -0.03267198 0.45645958 0.3849469 0.4263049 -0.30153444 -0.47244298 -0.38900435 0.3329282 0.37544036 -0.4351916 0.46897122 0.613383 -0.029017208 0.13799702 -0.5112977 0.13101403 0.009231338 0.28048816 0.43058112 0.6299351 -0.34588635 0.056288254 0.3131071 -0.11419061 -0.14819394 0.2147475 0.18370238 0.09249374 0.03657986 -0.20926629 0.356818 0.5643746 -0.8561759 -0.11847902 -0.22688131 -0.6523987 -0.14251773 0.1172035 0.21969308 0.14997368 -0.39047194 0.38224944 -0.18976516 0.063535824 -0.32336223 0.14207464 0.30081406 0.0029617888 0.54649717 -0.61686784 0.018980015 -0.6643804 0.30374476 0.37217072 -0.11137472 0.06656935 0.41081524 -0.0638711 0.018564368 -0.23184453 0.1599125 0.5805594 -0.49580896 0.56496394 0.1561844 -0.31770256 0.34814426 0.25712976 -0.6270864 -0.2659559 -0.5017829 -0.42425606 -0.27211523 -0.31620944 0.4376803 -0.41634378 0.23222572 -0.06139883 -0.042545352 0.099404976 -0.7074968 -0.16111892 -0.4378497 0.23597427 -0.1201732 0.2567657 0.3197824 0.21088347 -0.2843239 0.06734795 0.25696573 0.46656477 -0.32696435 0.37847635 -0.22578895 0.23906392 0.40613326 -0.037834454 -0.14791827 -0.29926246 -0.23628698 0.029702865 0.123150095 -0.036962878 -0.23118488 -0.14328116 -0.2590775 0.17285374 0.01462647 -0.25805312 -0.21890265 0.078256086 0.06912217 -0.2725197 -0.0105497725 -0.16121127 -0.5263807 -0.020086356 -0.64302456 0.084943 0.38548377 -0.2284621 -0.3544538 0.5093481 -0.7717969 -0.19289325
109 -0.23598924 0.07078681 -0.4382547 -0.046376146 0.009479056 -0.11615169 -0.08692959 -0.54593235 -0.19421095 0.45014995 -0.081054285 0.16360493 0.39966935 0.24447645 -0.056712974 -0.20929295 -0.37249163 -0.3449781 -0.29895926 0.061757006 0.2557312 0.21548876 -0.39406246 0.047100287 0.07045719 0.12373479 -0.1689292 0.6292613 0.12920788 -0.004146715 -0.006143534 -0.7219315 -0.018259002 0.09653944 -0.4463439 0.43374115 0.2747718 -0.5708616 0.0753978 -0.4790363 0.2110889 -0.11657817 0.87018764 0.40816844 -0.07023997 -0.28665715 -0.565407 -0.23932861 0.19642626 0.25719357 0.15171112 -0.35176647 0.018473182 -0.26296356 0.06828032 -0.0023680858 -0.14736843 0.5787291 0.3592408 0.15534557 0.35793754 -0.2326371 0.5318233 0.77613497 -0.11183461 0.82502943 0.31344727 -0.033908658 0.2754307 -0.5365283 -0.88481975 0.1550237 -0.14439769 -0.26885018 0.117985524 -0.6218892 -0.36473498 -0.1294363 0.22907704 -0.13899429 -0.27757958 -0.30283913 -0.5472081 0.0036858357 -0.13746114 -0.046679776 0.48496285 0.1489311 0.2509992 -0.050530847 -0.31474087 -0.015597818 -0.07440812 0.1547304 0.23219796 0.6818844 0.26085746 0.2073162 0.41283423 0.20775355 -0.40133876 -0.03963394 -0.014256705 -0.13835983 0.2948357 -0.28618252 -0.18848632 -0.04686541 -0.15168314 -0.054377098 0.17059536 -0.009781376 0.29606876 0.22548512 -0.06075155 -0.13511686 -0.06060931 0.10312968 -0.024207504 0.30927297 0.20387848 0.23294993 -0.21806195 -0.10787098 -0.2647636 0.45469537 -0.35752842 -0.29884046
1527 -0.03621536 0.25254554 -0.16259743 0.45749894 -0.06569984 0.07610964 -0.29428345 0.22955427 -0.081492834 -0.14976431 -0.2013715 0.15212947 0.36711237 0.3899002 0.43767178 0.16039497 -0.1542862 0.15348193 -0.32497114 -0.2561674 0.09353028 -0.18021 -0.13138191 -0.0064964863 0.5435721 -0.14722173 0.13939883 0.23907857 0.060821034 -0.35986057 0.14542049 -0.6002494 0.16829208 0.33333898 -0.4069471 0.239817 0.37729985 0.2670109 -0.07669935 -0.319935 0.33882296 -0.20594536 -0.073764876 0.71496516 -0.053147618 0.5482428 -0.22433686 -0.18455455 -0.28393787 0.63020116 0.24799885 0.15501283 -0.17109592 -0.3273062 0.50092643 0.37882876 0.057469748 0.45148668 -0.5976199 -0.20566106 0.39271381 0.186995 -0.7009421 0.36718023 -0.6368661 0.5138891 -0.311175 -0.20619677 -0.0029404259 0.116768286 -0.49726665 -0.017402474 0.32705435 -0.5812306 0.081791915 -0.514033 -0.101491876 -0.21555085 0.22306117 -0.26945552 -0.10941096 0.24479917 -0.082185805 0.27413985 -0.27684677 -0.54747486 -0.2707447 0.091193244 0.6196129 -0.2705233 0.020228956 -0.58742523 0.38294154 -0.08788192 -0.030518595 0.15707046 0.42183346 0.05306272 0.06657493 -0.365193 -0.18086658 -0.23549673 0.1209034 -0.4063202 -0.23827352 0.27027777 0.1321082 -0.4745543 -0.016170125 0.3141867 0.1642335 0.45586798 0.4500981 -0.021860203 0.1887695 -0.4981172 -0.5143203 -0.17321156 -0.27567735 0.51247793 0.0003901786 0.18034467 -0.001535887 0.2105976 0.64568186 0.36954892 0.013456335 -0.18701808
1713 -0.6392831 -0.22343105 0.14694329 0.94015956 -0.23468998 -0.36382926 -0.69699407 0.5396527 -0.07316701 0.32918927 -0.019575853 0.05669098 0.42620325 0.61087793 0.12648225 0.6746568 -0.5671153 0.133394 0.32082167 -0.97850776 -0.30235693 0.08824148 -0.26613525 -0.37526438 0.2560536 -0.14587751 0.3244834 0.041383535 0.11821207 -0.6336224 -0.07207186 -0.3151447 -0.121274985 -0.11465025 -0.47751874 -0.052398082 0.75335306 0.0024413415 0.6584316 -0.4815856 -0.34800863 0.47208172 -0.32970697 0.03878824 0.3346713 0.38813978 -0.49318856 0.39626023 0.40923324 0.37561464 0.3185824 0.042378183 -0.32696962 0.04176344 -0.023330228 -0.42837116 -0.6322563 0.2391076 0.5128456 0.6860297 -0.17304374 -0.20065476 0.27547628 0.14413302 -0.4494894 0.3879622 0.11291585 -0.32763684 -0.083992556 0.24672608 -0.25226024 0.23358716 0.27862853 -0.7824426 0.19933791 -0.92004085 -0.230141 -0.63482857 0.39232802 -0.24014834 0.26213965 0.10590315 -0.35736883 0.043961678 -0.46891922 -0.103758894 -0.5209302 0.3206201 0.9847511 -0.0141465245 0.04038088 -0.6817781 -0.39711612 0.5731442 -0.2643031 0.30269596 0.7309622 -0.03133284 0.059201404 0.26924682 -0.22010009 0.08463443 0.017235296 0.41479373 -0.265117 0.22933623 0.031384967 -0.16523106 0.03353082 0.057575636 0.22131857 -0.08135248 0.22897288 0.42895365 0.48806283 -0.22463016 0.2201435 -0.19739383 -0.8277504 0.41041648 -0.27122578 0.058015272 0.2466437 0.28608972 0.005212709 0.43157378 -0.07330348 -0.3379939
570 -0.14058134 0.1800396 0.186894 0.5304938 -0.2919399 0.16617541 0.11865829 -0.7859879 0.016943853 -0.094343394 -0.4368279 -0.36768666 0.10215121 0.5039793 0.58155745 -0.29250214 -0.34347802 -0.5197681 -0.27842104 -0.3739927 0.58385986 -0.30563542 -0.5871377 -0.029484559 0.5324924 -0.16900876 -0.2955075 0.17457835 -0.14968418 -0.77451885 0.08696444 -0.6081901 -0.11450543 -0.045148678 -0.12258514 -0.021375349 0.26465556 -0.1560553 0.24331972 0.04669777 -0.19240528 0.21442749 0.09882453 0.1515456 -0.21170405 -0.13996853 -0.56592077 0.4344538 0.16829549 -0.65523714 0.10620912 0.1670445 -0.07644041 -0.81198376 0.05464068 0.49542052 -0.3045244 -0.12348842 0.5025495 -0.25331342 0.14091699 0.25122884 -0.052589316 0.20557581 -0.2598287 0.5321782 0.39332414 -0.42906737 -0.4048595 -0.001197257 -0.824621 0.25857684 0.4892356 -0.48810488 0.31341922 -0.4508754 -0.04074712 -0.5088585 0.7862732 -0.07511753 -0.060975436 0.15454473 0.16263609 -0.06725705 -0.49210694 0.3988461 0.42239246 0.36520308 0.5044825 -0.15100221 -0.9185697 -0.47074968 0.47976628 0.60168475 -0.88700277 -0.5892773 -0.41100055 0.34376383 0.010970609 -0.7731583 -0.68160135 0.17958857 -0.30214244 0.0960977 0.003187908 -0.06517226 0.024817627 0.16931558 -0.17683813 0.5019796 0.31127012 0.20140024 0.05169472 0.47072732 -0.12557255 0.6517633 -0.5205353 -0.19166984 -0.65981466 0.37502694 -0.012785014 0.093761116 0.35814953 0.51447475 0.00084512937 0.2698588 -0.6196877 0.085373364
136 -0.038562287 0.15757641 -0.01727843 0.6153512 0.4765861 -0.58347493 -0.3133 -0.3836393 0.11522077 0.08054714 -0.7415735 -0.3878812 0.5768475 0.120457575 -0.21232401 -0.16907522 0.013000004 0.1321315 -0.16459826 -0.37964338 0.0912636 -0.04971949 -0.40847886 -0.1245367 -0.24380133 0.06385039 0.15034768 0.8967275 0.27219307 -0.0050419495 0.025743347 -0.36789662 0.17832854 0.19387256 -0.1726233 0.34925807 0.11464758 0.3659126 -0.47217155 -0.36234713 0.24909917 -0.055809867 -0.07426254 -0.04171401 -0.29684082 0.2891316 -0.035736967 -0.05885041 0.3295647 -0.2625639 0.097614855 -0.08940003 -0.2507292 -0.399047 -0.1914225 0.20014794 -0.14370492 0.3220814 0.21681172 0.35371345 0.31073847 0.32698596 0.25743738 0.22042194 0.29683888 0.32089218 -0.823423 -0.41333234 -0.22090784 -0.046302594 -0.24051934 -0.008721085 0.06846675 0.09533956 -0.06122412 -0.55951166 -0.22411261 -0.36032397 0.46710902 -0.0400688 -0.20424445 -0.3860273 0.2130463 0.03455726 0.1433684 0.054700583 0.050599687 -0.20228368 0.6496039 0.1328695 -0.36186248 -0.44348782 -0.27510983 -0.03542304 0.08826372 0.40200874 -0.1426824 0.18764955 0.40312222 0.23710611 0.00386264 -0.1676503 0.29615578 -0.4235033 -0.25512064 -0.4108729 -0.089886166 -0.028754033 -0.18737164 -0.115927905 0.59681463 0.15476693 0.16233951 0.38364068 -0.30042014 0.01136276 -0.3523781 -0.55308205 0.042297557 0.26935908 0.26291934 0.20764749 -0.04269753 -0.16005363 0.08482186 0.7934463 -0.22838335 -0.43211916
41 -0.5186349 -0.13900633 0.32883954 1.1087834 -0.11063394 -0.47738495 -0.68328565 0.33423626 0.013014596 0.41833168 0.054735735 -0.19683354 0.41379297 0.6241856 0.12601086 0.46596906 -0.567557 0.08571004 0.27220336 -0.8363786 -0.16792448 0.33539823 -0.20577596 -0.59801954 0.3467051 -0.20879193 0.45482647 0.21989177 0.23428099 -0.746235 -0.039336972 -0.2777763 -0.1869787 -0.27694738 -0.43273452 -0.12737823 0.5779237 0.030283177 0.5594273 -0.45017034 -0.22798711 0.40297666 -0.23811024 -0.036264233 0.3046642 0.34834716 -0.29791185 0.5139687 0.32339147 0.4016629 0.19317906 -0.022886906 -0.24318202 0.20552072 -0.01283637 -0.4142076 -0.61316466 0.24071173 0.318814 0.5818012 -0.44716322 -0.32883683 0.049608503 0.27195153 -0.32375914 0.32608697 0.038757876 -0.23825975 0.09789135 0.0056372844 -0.4910693 0.20975918 0.3365375 -0.53629917 0.17372163 -0.71299267 -0.319085 -0.76714486 0.27451506 -0.36677304 -0.08369092 -0.024551002 -0.5344473 -0.04332224 -0.12053096 -0.23989196 -0.5400742 0.40549523 0.84080297 0.04903066 0.05915703 -0.53206694 -0.4044135 0.7991737 -0.23275913 0.09949515 0.7554673 0.33779284 0.24953869 0.3220966 -0.21600628 0.1687186 0.19980818 0.5442719 -0.39257017 0.098722756 -0.18012339 -0.17830056 0.011046664 0.10010851 -0.007972412 -0.13722321 0.09148169 0.5918746 0.4438173 -0.16538899 0.22822031 -0.2771317 -0.99091697 0.17984872 -0.120206535 -0.010340867 -0.07939624 0.28184336 0.042933986 0.33929023 -0.20613328 -0.25390676
1520 -0.23576774 0.2095024 0.30964363 0.5846469 -0.47696173 0.15355407 0.16267715 -0.8276677 -0.0620346 0.032004263 -0.47983164 -0.5621298 -0.010627121 0.6446445 0.71793765 -0.22995803 -0.3884494 -0.50054264 -0.36825776 -0.42940283 0.6600584 -0.44325337 -0.4952923 0.07777806 0.5355669 -0.08333347 -0.17471804 0.24811044 -0.1851759 -0.81642073 0.27724227 -0.39666328 -0.1215958 -0.039229836 -0.12805648 0.13041386 0.27271396 -0.15070072 0.23084627 0.0068776896 -0.28699765 0.16976142 -0.12864345 0.2033359 -0.17665654 -0.12795113 -0.710148 0.4912232 0.23963703 -0.6749578 0.17362738 0.11611259 -0.12803856 -0.6922504 0.03106265 0.31449717 -0.264853 -0.10682116 0.5688787 -0.07891182 -4.5305933e-05 0.36646098 -0.0136563005 0.29325503 -0.4250315 0.53079426 0.3356905 -0.34641862 -0.51922756 0.096179165 -0.83154947 0.27983317 0.33204722 -0.3961712 0.23332374 -0.36461756 -0.10709664 -0.5070623 0.7250768 0.14188482 -0.12812603 0.16345787 0.062931985 -0.023527144 -0.58518225 0.30782798 0.4244424 0.32860777 0.36620638 -0.06976953 -0.77182245 -0.36692208 0.5396612 0.6961888 -0.82264084 -0.6028323 -0.38067752 0.37673983 -0.023100758 -0.88995326 -0.6810851 0.21040307 -0.2961465 -0.011783298 -0.12078995 -0.15822294 0.028501453 0.14522055 -0.14485353 0.49091184 0.37075043 0.27968553 0.1375979 0.5455749 -0.06414746 0.61542326 -0.46337304 -0.10130626 -0.70138115 0.3627086 -0.06595766 0.056165826 0.31770727 0.20556466 -0.013249999 0.28843626 -0.5389534 0.070413105
1328 -0.08535072 -0.052530706 0.16711475 0.16910425 0.21314043 -0.11409616 -0.073238365 -0.46391574 -0.15251285 0.06212626 -0.005608607 -0.36118633 0.31865478 0.2685385 0.13745134 0.07242111 -0.18337281 -0.014345817 -0.44570664 -0.059395466 -0.08738614 0.42008844 -0.08344433 -0.14534132 0.09379596 0.13501753 0.45185065 0.7485375 -0.114136994 -0.35912648 0.017028777 -0.2650667 0.3455478 0.67640495 -0.103947826 0.4790497 0.30110598 -0.4253152 -0.42910892 -0.049770456 0.5849667 -0.15458821 -0.04968021 0.39420134 0.13729772 0.32323247 -0.034064684 0.13170812 0.3050552 -0.47888 0.59724057 -0.17584458 -0.018870374 -0.45241395 -0.21501683 -0.20693035 -0.24145855 0.39422733 0.18108529 -0.07990588 -0.08817914 0.021332838 -0.030019665 0.13139898 -0.61367285 0.032009836 -0.15627608 -0.15592335 -0.45512185 0.41196626 -0.70236135 0.06199036 -0.56212187 0.11827224 -0.105389826 -0.46715945 -0.037527535 -0.3068365 0.17597158 -0.2939384 -0.27186206 -0.16270456 -0.10684172 0.44968775 -0.21229927 -0.11226241 -0.014127342 0.18487382 0.19774628 0.1513393 -0.30149993 -0.16997495 -0.01591292 0.095347 -0.41111624 0.28873232 -0.0838004 0.46543846 0.31341603 0.31764743 -0.27759564 -0.2552759 0.08204374 -0.40034246 -0.2626118 0.07682269 -0.7357063 0.21147741 -0.0074257012 -0.028182784 0.15791732 0.4347071 0.49880418 -0.08100326 0.27105138 -0.23340568 0.035560373 -0.21840885 -0.13665514 -0.2518566 -0.6583646 -0.049225006 -0.11543521 -0.46353376 -0.042132676 1.078743 -0.06643661 0.021092722
1136 -0.4493818 -0.33466578 0.16874558 0.5012978 0.40604353 -0.055010915 -0.25284582 -0.025264997 0.39014116 0.118453436 -0.30959955 0.47821927 0.25436136 -0.5382642 0.5429355 0.13561311 -0.5195165 -0.21767662 -0.22352064 -0.5286782 -0.16352256 0.032295704 -0.29816058 -0.23899725 0.36103165 0.22623807 -0.292098 -0.018633084 -0.3594783 -0.07241932 0.027270336 -0.29990053 0.24304163 0.3037863 -0.18529573 -0.047646236 0.12127738 -0.28143972 0.26340285 -0.09455373 -0.28062508 0.027835159 -0.03336371 0.14350016 0.68337375 -0.15696591 0.37886065 0.21597216 0.48450467 0.016145283 -0.27230233 -0.084172785 -0.23940568 -0.29944143 0.19479248 0.0045996853 -0.42633033 -0.256374 0.26333165 -0.5067484 0.17700088 -0.113762856 0.297386 0.109398164 0.014452367 0.121531166 -0.08831805 -0.18012603 -0.08641825 0.02615681 -0.08963165 0.17943116 -0.12956661 -0.19324525 0.37890992 -0.31486478 -0.07059178 -0.3923026 0.44923544 0.11303277 -0.12958021 0.17762446 -0.1674304 0.013312581 0.047523748 -0.15588214 0.44799173 -0.17131847 0.48181885 0.07228994 -0.0031675294 -0.40061763 0.34824753 0.61077315 0.07500927 -0.34422588 0.087949775 0.16798982 0.33480737 -0.15065145 -0.10769343 0.48770875 -0.43494195 -0.28500482 0.5760395 0.28177264 -0.041088752 0.22966418 -0.26532683 -0.349209 -0.05415871 -0.0025765754 0.8635568 0.27502868 0.417744 -0.18796727 -0.041439895 -0.43225104 -0.5561003 0.7223543 -0.15927638 -0.35838562 0.34905627 -0.15308638 -0.5206607 0.060929593 -0.30005828 0.08514291
569 -0.3119929 -0.09299819 0.26805958 0.539277 0.4944177 -0.26059058 -0.15254559 -0.6058914 0.64695406 0.12196045 0.30465996 0.18666661 -0.09654632 0.31503215 0.33922625 -0.07889004 -0.270712 -0.3693802 -0.09440912 0.22615302 0.28784418 0.19299522 -0.07042496 0.39757884 0.16184305 0.35788804 0.023910703 -0.039411757 -0.20857093 -0.063435264 -0.12254179 -0.59197026 0.034523085 -0.122687995 -0.1413289 0.1783112 0.08630978 -0.22325619 -0.43244916 -0.056305654 0.17659703 0.068160914 0.12657899 0.18980466 0.013013714 -0.28554168 -0.32342902 0.15257192 -0.008191228 0.5032814 0.5192326 -0.45031607 -0.18982305 -0.357738 0.46251437 -0.18465689 -0.5442658 0.36381394 0.09830538 -0.063824005 0.23595771 0.2727289 0.4218067 0.32338846 -0.3985866 0.63124907 0.08941246 -0.5706237 0.07232976 -0.2320768 -0.32289106 0.45898604 -0.34548154 0.049913567 0.13388693 -0.61843336 0.24000825 -0.09015332 0.22027537 -0.15425122 -0.29309952 0.14892137 -0.27730602 0.11540265 -0.004810045 -0.20768218 -0.13742247 0.35867983 0.36186844 0.10026077 -0.29880142 -0.06282681 0.044462875 -0.19568431 0.1728226 -0.097847156 0.3901938 0.2692703 0.42371383 -0.09430059 -0.271477 -0.39237162 0.077935815 -0.40835905 -0.108961254 -0.06448364 -0.12838249 -0.011856113 -0.33213183 -0.002919796 0.031976324 0.35187736 0.11709876 -0.007884815 -0.123619586 -0.0036879114 0.23564261 -0.5012313 -0.014547783 0.51590157 -0.42636102 0.08526 -0.2197609 -0.3892865 -0.33178416 0.2572452 -0.544222 -0.06666854
1240 -0.29606134 0.07677866 0.06588265 0.38129982 0.16776745 -0.47122595 -0.37050903 0.29976517 -0.109549075 -0.11137681 -0.057774138 0.07282014 -0.108851776 0.67469156 0.3743331 0.39619353 -0.016516088 0.5781775 -0.15838233 -0.083784744 0.24926238 0.3537618 -0.017695088 -0.34579378 0.54721475 -0.15755334 0.18901755 0.33077037 -0.20166084 -0.3495898 0.28984234 -0.36760738 -0.13085608 0.39132833 -0.43248355 0.45663372 0.7239835 0.3422847 -0.1227112 -0.20422679 0.09497359 0.31260425 0.004968671 0.35224202 0.12146657 0.29836756 -0.3022599 -0.069249116 -0.44240794 0.36913973 0.33149606 -0.13459642 -0.14394347 -0.15384816 0.6348543 0.062718526 0.1598237 0.5452989 -0.30022693 0.07482344 0.22178063 0.16850346 -0.17709614 0.32402948 -0.5611168 0.41291973 -0.12326178 -0.04618609 -0.1449094 -0.060256656 -0.55229723 0.17500095 0.42047963 -0.37603685 -0.05000113 -0.7239824 0.08536115 -0.52065104 0.22366567 -0.25060454 0.17674857 0.54401803 -0.13887204 0.14428541 -0.4302336 -0.2166023 -0.31709445 -0.024290552 0.35214195 -0.1499018 -0.07279777 -0.35672283 0.5289086 -0.12634301 -0.30190662 0.071436584 -0.044487808 0.12821853 0.15364158 -0.34410137 -0.35642934 -0.050854776 0.42878708 -0.3057114 -0.2504566 0.29038188 0.43833557 -0.47314227 0.0024169623 0.39932102 0.08023738 -0.14939453 0.37705708 0.045558278 0.09788387 -0.45711008 0.15539363 -0.12772328 -0.15538177 0.4521789 -0.047266643 0.045967937 0.3156681 0.18174979 0.395526 0.28247535 -0.3366805 -0.28662103
1290 -0.42178446 -0.2048343 0.49557135 0.45045668 0.20879224 -0.02517026 0.18757533 -0.3543082 0.25187463 0.13162462 -0.050364316 0.16175888 0.17625399 0.33484975 0.50793815 0.24175458 -0.42115098 0.31867635 -0.25642434 0.028170422 0.5808787 -0.02005951 -0.14019133 0.13790026 0.10264916 0.04113801 0.069628984 0.6025792 -0.18485965 -0.112671115 0.08465222 -0.2560427 -0.13730435 0.12045546 -0.7266866 0.09763423 0.38023204 0.1285947 -0.47647512 -0.14292967 0.1903478 -0.281447 0.11277472 0.5136589 0.11203853 -0.104277685 -0.35797954 -0.25598457 0.12735043 0.21065527 0.45401523 0.046881776 -0.16788487 0.012006266 0.07891493 -0.20427246 -0.27785677 0.1746996 -0.27870163 -0.2842073 0.10758662 0.24347042 0.041176345 0.27829528 -0.27297324 0.72097135 -0.4766053 0.026270106 -0.23659807 0.14551654 -0.5642413 0.23882437 0.03894543 0.037100613 0.20757702 -0.41002068 0.07107536 0.30235022 0.022940742 -0.58716756 -0.36885837 -0.11095264 0.11078395 -0.3051984 -0.40124777 -0.18933967 -0.33027038 0.026542544 0.9466849 -0.11478127 0.13289791 -0.101456024 0.085959114 -0.084762596 0.18850331 0.2999723 -0.036182333 0.2002805 0.48951182 0.052086737 -0.11400845 -0.17469639 0.03172424 0.005777662 0.075836785 0.20520522 -0.67281294 -0.09965027 -0.070452385 -0.45405656 -0.022104276 0.07032878 0.14341198 -0.11344108 0.039358024 -0.14692646 -0.20822725 -0.4501738 -0.09316867 0.39769086 -0.3697277 0.08064869 0.2579826 -0.4207732 -0.6479941 0.6625602 0.18005052 0.27509174
591 0.059563365 0.2556964 -0.1226694 -0.16612947 0.10402149 -0.32146573 -0.15394644 -0.5065544 0.11619399 0.46673182 0.014786691 -0.12346587 0.5655353 0.30540177 0.17111689 -0.14590436 -0.2943975 -0.009916803 -0.21494468 -0.12315832 0.34247276 0.46517244 -0.5112698 0.06473794 0.35985887 -0.011934119 -0.01515579 -0.13348223 0.14903045 0.2615174 -0.08765306 -0.06603172 -0.104191 -0.04260844 -0.71611655 0.27574873 0.4567635 -0.70229965 0.3085877 -0.19362038 0.32728356 -0.13622871 0.64844793 0.44849065 -0.41857105 -0.08813488 -0.5429416 -0.023973074 -0.12522113 -0.11914069 0.072432175 -0.4331912 -0.0044990317 -0.32762936 -0.09716151 0.101004764 -0.28214017 0.50621647 0.26003617 0.030047141 -0.006361034 0.07826606 0.5077117 0.61058795 -0.16131604 0.24583538 0.027005281 -0.21285746 0.02875887 -0.43030995 -0.7163682 0.8320048 0.0819877 -0.25398624 0.21385878 -0.632148 -0.1436478 0.035133477 0.29815754 -0.24957356 0.06744545 -0.35665542 -0.35010827 0.35461178 -0.4268181 -0.36376935 0.0969665 0.054310936 0.6713067 -0.4385948 -0.40625644 -0.13771261 -0.0265249 0.06384868 0.2511491 0.38374954 -0.12575614 0.22428913 0.3848145 -0.28348628 -0.6283524 -0.3813475 -0.091464 -0.06611165 0.17714174 -0.1841566 -0.31142208 -0.24372639 -0.10642909 -0.024381451 0.023298291 0.0038496847 0.17077705 0.38133135 -0.26106384 -0.44507644 -0.0060579814 -0.20717564 -0.4670849 0.31473383 0.10050561 0.03880169 0.035457127 -0.21831666 -0.42202464 0.42040262 -0.27756506 -0.16934462
250 0.040987793 -0.5230761 -0.12074276 0.35889226 0.056532677 0.02744705 -0.20548144 -0.07252617 -0.08176058 0.08458382 0.4250464 0.11809827 0.3691657 0.43087032 -0.113977164 0.3405672 -0.4308664 -0.29132348 -0.12825185 0.08588695 0.14821514 0.332235 0.10827837 -0.5008598 0.25469986 -0.065459184 0.11180048 0.0256247 -0.08885367 0.29368687 0.37788337 -0.49768615 0.33015946 0.14677528 -0.5938011 0.10360713 0.20196036 -0.5056961 -0.103366174 -0.009545824 0.060917452 -0.05204779 -0.45083445 0.006469868 -0.06659532 -0.19782168 -0.048453715 -0.080345266 0.12672617 0.20976105 0.5202156 -0.393081 -0.13865386 -0.3263432 0.18247174 0.19380358 0.3314436 0.05177969 0.20270991 -0.31213066 -0.013970606 0.107423395 -0.7491069 -0.16617286 -0.30148426 0.47210974 -0.08680554 -0.14275901 0.38165978 0.18795566 -0.37266466 -0.1036553 -0.33656824 -0.52110255 -0.036153074 -0.4435329 0.5707722 -0.1322055 0.36315796 -0.36008555 -0.018095458 -0.12573521 -0.83362293 -0.15271877 -0.4590291 0.32467866 0.06851428 0.3245672 0.3570179 0.17638214 -0.012165171 -0.51625466 0.05212861 0.5759473 -0.5397773 0.14146973 -0.60279095 0.26618943 0.17191325 -0.1321428 -0.291581 0.023718879 -0.46632487 0.28180647 -0.09278008 0.21536355 -0.16335241 -0.16185027 -0.087532915 0.44564036 0.24221842 -0.12990433 0.100636795 0.06287149 0.0041409973 -0.41694236 -0.035120394 -0.24855155 -0.4972739 0.03012137 -0.14656208 -0.12087593 0.56436485 0.3735164 0.31665 0.054077476 -0.6654895 0.011242288
76 -0.3444072 -0.12273108 0.17758879 0.45914924 0.1918904 -0.070111744 -0.059432525 -0.17912295 -0.12409252 0.36868802 0.44513047 -0.104101285 -0.07771373 0.37173486 0.14211711 0.55177075 -0.23064415 -0.3393899 -0.17608592 -0.07216613 0.16484961 0.2226737 -0.14697872 0.013368947 0.27381095 -0.27775213 0.009173842 -0.07292922 0.1267139 -0.13693497 0.31121856 -0.4625741 0.07795947 0.14936136 -0.41390473 -0.14151543 0.6983341 0.08022592 -0.20162462 0.17351212 0.22198756 -0.21823043 -0.40466213 0.022320716 0.3179937 -0.13043891 -0.07675919 -0.2368525 -0.45821276 0.16655429 0.39321077 -0.2698397 -0.038358733 -0.22433326 0.03405838 0.055273153 0.32526284 0.11964684 0.26610798 0.13830669 0.12112283 0.051995806 -0.10454809 0.1059725 -0.25883564 0.766002 -0.44045055 -0.48520783 0.22464138 0.18383874 -0.8215716 0.25511715 -0.14788345 -0.6916166 0.18745618 -0.7906083 0.21810125 0.1421969 0.57460105 -0.3448106 -0.029410768 0.06130165 -0.73689383 -0.11682698 -0.74531853 0.21769649 -0.12681206 0.40099472 0.33055222 0.524945 0.34093896 -0.4550009 -0.07067488 0.12749754 -0.6624169 0.3482254 -0.06834417 0.050353583 0.22156546 -0.12528425 -0.25251284 -0.118927814 0.07046291 0.22866562 -0.2464262 0.4678671 -0.18096875 -0.52329135 0.14630707 0.46665728 0.118231684 -0.4740251 -0.19203946 0.048118968 -0.12712336 -0.4932303 -0.2402283 -0.41102058 -0.3142917 -0.23791513 0.07773134 -0.011866704 0.5136895 0.0872319 -0.33287182 0.21171218 -0.7849577 0.06758935
478 -0.08959361 0.49388793 0.078860365 0.66075027 0.30214182 -0.21557862 0.25749242 0.047157068 0.07266537 0.11979421 -0.038066566 -0.041441966 0.6148562 -0.034724887 0.48955625 0.22946686 0.13316375 0.026095513 -0.32817185 0.339962 0.0284478 0.1032769 -0.28647712 -0.14838836 -0.002697746 0.15950632 -0.040159307 0.67370623 -0.103459544 -0.23576477 0.16700545 -0.13915986 0.1570401 0.6148225 0.21359316 -0.036919933 -0.24301524 -0.04533361 -0.14160441 -0.21205644 0.45363384 -0.38459504 -0.19177106 0.09420512 -0.4253139 -0.009738569 0.41903245 -0.29832843 0.36076212 0.21853848 0.14429565 -0.2260435 -0.47176567 -0.35343313 -0.3570327 -0.031858645 -0.480654 0.25597793 0.11969265 -0.081124194 -0.16557856 0.59677374 -0.28998986 0.23971416 0.1712964 0.5803816 -0.24476843 -0.26885056 0.012679273 0.011803511 -0.22029085 0.001310985 -0.11616988 0.023847654 -0.10090624 -0.055122018 -0.031756844 -0.00052387925 0.3766445 -0.20295703 -0.4048047 -0.43530655 0.31859338 0.12059404 0.10224965 -0.036347765 0.52371377 -0.26014233 0.45279914 0.07181978 -0.19466949 -0.50132847 -0.04556158 -0.114938125 0.25866115 0.43449038 0.12717895 0.2851918 0.34037274 -0.06765549 -0.17529854 -0.048205994 0.046832997 -0.017231032 -0.12848279 0.12621711 -0.32036594 -0.056955278 -0.8142817 -0.43179742 0.44165593 0.22489636 0.5330789 0.5741228 -0.043308575 0.027075516 -0.49082315 -0.0655187 -0.3258194 -0.235593 0.011217414 -0.258923 -0.06607755 -0.24528296 0.011809651 0.2962631 -0.16855401 0.028696949
1459 0.33432582 0.4855663 -0.32769656 0.3116299 0.20141774 0.17877892 0.08564351 0.17584151 -0.32356402 0.25833654 0.12041021 0.21198457 0.422632 -0.13802856 0.20475212 -0.2689063 -0.14755437 0.046425443 -0.029899376 -0.23891643 0.17435838 0.18919852 -0.12555759 -0.23564509 0.02546789 0.14004175 -0.04508419 0.13317412 0.54955894 -0.06292845 0.22366539 -0.29887837 0.14036256 -0.045891922 -0.4096795 -0.071600765 0.20656319 -0.11412302 -0.15031023 -0.06861793 -0.019375164 -0.19589032 -0.089594126 0.11763481 -0.049621545 0.17030127 -0.02497244 0.012965922 0.026449246 0.6368309 -0.099245474 -0.4958819 -0.29904458 -0.18301673 0.25761732 0.77943665 0.3423612 0.41044182 -0.21806997 -0.049112253 0.7286912 0.54389364 -0.37155297 0.58212596 -0.12782583 0.38827065 -0.13492854 -0.31432328 0.09467162 0.18772443 -0.7281955 0.014204491 0.03763101 -0.2929211 0.23514023 0.08859672 0.08711172 -0.0971414 0.3065257 -0.24487858 -0.252387 -0.06651422 -0.08133347 0.48953998 -0.11145713 -0.33951646 -0.16179204 -0.07423601 0.96064234 -0.041293617 0.17892356 -0.20664969 0.046721816 0.34572312 -0.45609975 0.51568377 0.5505178 -0.030404702 0.28544527 -0.15366203 -0.011636482 -0.07630949 -0.12738544 -0.13642347 -0.10433865 0.17066948 -0.07704642 -0.28245914 0.045127247 0.085327744 0.5603454 0.10378822 0.18048187 -0.0070884493 -0.022877123 -0.2615248 -0.32041445 -0.08434517 -0.57388747 -0.002826308 0.60702205 -0.25428945 0.15784253 -0.04689249 0.12951799 0.25708047 0.14039466 -0.24379969
66 0.24462463 0.026627278 -0.42593715 0.19871576 0.2775242 0.2817855 -0.056826137 -0.0027569677 -0.2008601 0.20339316 -0.5794249 -0.053453404 0.45947734 0.060001723 0.29489747 0.28507045 -0.12045021 -0.06702828 -0.59021074 0.3266368 -0.112538755 0.49387607 -0.22968802 0.032138854 0.21056457 0.28267732 0.56946933 0.44724822 0.2989459 -0.72349733 -0.17287114 -0.23281921 0.22541729 0.7421426 0.13930675 -0.19119094 0.030113634 -0.057810247 0.07010538 -0.49895263 0.18471783 0.24648869 -0.08999492 0.11489825 0.12773542 0.03874027 0.31257448 0.35912836 0.21227044 -0.047466367 -0.2642084 0.14558545 -0.396873 -0.24663858 -0.17757934 0.20356497 0.1341173 -0.09149993 -0.14513153 0.045639936 0.23637412 0.2865869 -0.13436507 -0.118987665 -0.31934774 0.63970935 -0.20564455 -0.22066635 0.027808195 0.2376777 -0.27813867 0.07551604 0.0033312193 0.10739705 -0.13857755 -0.76213944 -0.21785343 -0.1522899 0.26462707 -0.1110406 -0.43860424 -0.331302 -0.17003734 0.4510651 0.13375726 0.37032184 0.17701069 0.21560958 0.21406797 -0.12215923 -0.36222303 -0.11533705 0.24253383 0.18070213 0.16434884 0.058487386 0.40453196 0.37168851 0.28233632 -0.13653117 0.08304984 -0.30808035 -0.04546652 -0.22665776 -0.47469693 0.036124595 -0.4005794 -0.7049745 -0.16250837 0.02560928 0.25256777 0.25227755 -0.0267871 0.30464 0.32589677 -0.21019962 -0.5092916 0.017527822 -0.38863 -0.11873683 -0.36567476 0.013856671 -0.06536037 -0.13389061 -0.23950548 0.5829541 0.4865013 -0.58495194
1153 -0.57257456 -0.6047546 -0.2880986 0.54016304 0.4270032 -0.39395455 -0.123341724 -0.15582623 -0.3302042 0.116057344 -0.08987779 0.2749551 0.0016876342 -0.39875054 0.63262284 0.12310238 -0.46186826 -0.25010896 -0.25164694 -0.38858378 0.053562783 -0.18531367 -0.26745525 0.081349336 0.3447292 0.20494045 -0.4400904 0.1129947 -0.2319796 -0.46525744 0.27595693 0.07717998 0.06383438 0.5632814 -0.17766161 0.11786659 -0.13172698 -0.48635358 -0.011540756 -0.22165866 -0.20580424 0.09854766 -0.07591515 0.14541061 0.3077838 0.015108738 0.32214195 0.6433209 0.39505506 0.062380426 -0.21031316 -0.15433933 -0.14691271 -0.17486586 0.082871154 0.17707005 -0.29751274 -0.8496086 0.4572469 -0.44143358 0.50302 0.09561753 0.41647786 0.37741798 -0.09628045 0.15938485 -0.07337148 -0.45249242 0.42024523 0.112838306 -0.48041475 -0.102290675 -0.60441023 -0.0017995881 -0.003512356 -0.14570056 -0.2490339 -0.5767642 0.31752262 0.28438166 -0.26088908 0.115065984 -0.5778511 0.16770174 -0.1393584 -0.37264404 0.3587934 -0.3979046 0.41921207 0.0041821925 -0.2454068 -0.17267714 0.43361878 0.7048098 -0.2011596 -0.025121408 0.11964477 -0.211894 0.26652217 0.0003476634 -0.26173714 0.5124389 -0.03324511 0.10534747 0.2990731 0.08648548 0.21721159 0.30192178 -0.43660527 0.024666565 0.17011586 0.2095849 0.72387004 0.27029616 0.07603218 0.22598603 0.13317937 -0.39872614 -0.1904816 0.4349623 -0.01927537 -0.13416493 -0.07961429 -0.13512285 -0.25810215 -0.12513618 -0.029438408 -0.3072177
686 -0.537907 0.028944438 0.142709 0.19604008 0.20158736 -0.02369699 -0.017704718 -0.17688923 0.17848259 0.29687923 -0.62135214 0.121663645 0.36787528 0.29901358 -0.06896762 0.1043993 -0.052140478 -0.5399971 -0.5084406 -0.056848582 -0.33249307 0.5943126 -0.24941699 -0.061213654 0.4039025 0.5842264 -0.021107888 0.40979195 0.10218889 -0.55824095 0.026534174 -0.39561808 0.090470254 0.27792862 0.2208134 0.3172795 0.10376004 -0.12109942 -0.22135197 -0.6227982 0.11807287 0.23087977 0.02385307 0.22706544 -0.017470643 -0.005368833 0.048140302 0.39806962 -0.011764959 -0.10111661 0.1734383 -0.4068074 -0.36226627 0.16288003 -0.01159795 -0.11437942 -0.08178747 0.15874204 0.34575742 -0.2221086 0.03967 0.16936037 0.19910105 0.39089003 -0.4387263 0.45846024 0.22053337 0.08226977 -0.23766832 -0.05527612 -0.26815015 0.18918698 -0.24671935 0.12393447 -0.18014261 -0.3519109 -0.2175961 0.06696548 0.08580245 -0.195851 -0.26557678 0.18393126 -0.23740557 0.13257018 0.2386443 0.008599656 0.5543786 -0.2970659 0.0907095 0.3133621 -0.14521654 -0.085527666 0.07224672 -0.23013389 0.046731852 -0.05875475 0.08967755 -0.21607581 0.55511445 0.33664167 -0.6322253 0.005327078 -0.20253144 -0.14627734 -0.032776833 -0.08511876 -0.5324439 -0.20255066 -0.040439885 0.20846255 0.32348362 0.0831337 0.43937835 0.33093733 0.43999133 -0.3557964 0.0388782 -0.37033978 5.2762844e-06 0.37099972 -0.0969313 -0.0897575 0.08244618 -0.1371274 -0.15018542 0.8134549 -0.0869353 -0.2357623
188 -0.28109452 0.03605441 -0.08125449 0.17906456 0.46783888 -0.26367575 0.34664297 0.061817963 0.070840284 -0.08932627 -0.43608359 0.16255179 0.061559647 -0.02771809 0.2930631 0.29864457 -0.0918365 -0.035911985 -0.03684766 -0.4705613 -0.009398505 -0.005188257 -0.27409747 0.027142622 0.13053392 0.6430096 -0.09951646 -0.10559623 -0.035736047 -0.117320545 0.20521858 -0.14198713 0.33054495 0.22849396 -0.32806337 0.09450702 0.19431932 -0.3967026 0.17151731 0.11197797 0.01563084 0.19126223 0.09568121 -0.20811675 0.4918214 0.33994868 0.20673957 0.113372974 0.29598576 0.015890874 -0.49367726 -0.74515283 -0.25180778 -0.111893915 -0.09109931 0.28316164 -0.11354096 -0.3934586 0.7921436 -0.13843001 0.33040783 0.6117705 -0.019587541 0.04164529 0.06863487 0.33688015 -0.035558157 -0.4220362 0.0695361 0.56299853 -0.48447388 -0.02507569 -0.21685632 -0.13656047 0.11772208 -0.04707446 -0.45765674 -0.28190687 0.44698748 0.4044851 -0.34740448 -0.13186546 0.031703036 0.10444746 -0.45766276 -0.5963435 0.4161062 -0.27644518 0.06728572 0.18201694 -0.08787422 -0.07756967 0.43942222 0.30097052 -0.083141595 -0.13371307 0.32911906 0.45767862 -0.08008735 0.1508807 -0.05236063 0.45648655 -0.27911717 -0.118140765 0.6780929 -0.056553487 0.26893073 0.08534367 -0.05420296 -0.16513379 0.61553866 0.19296017 0.68316483 0.3127644 -0.38000005 -0.24995646 0.021210903 -0.1861429 0.1574141 0.41092536 0.1131912 -0.3366117 0.26424208 0.027388828 -0.24820812 0.12268166 -0.05338815 -0.23328689
2499 0.007578074 -0.20160389 -0.22586311 0.3571525 -0.2578612 0.14947328 -0.34166765 -0.21911864 0.14082024 -0.05622724 -0.037528206 -0.3640971 0.08990701 0.86916286 0.58804655 0.17518306 0.11079188 -0.060186643 0.10950104 -0.7201554 0.23494136 -0.07092071 -0.6616569 0.054111473 0.5626018 0.078539 -0.09970056 -0.15071331 -0.13218121 -0.2652608 0.04233184 -0.3934304 0.09559078 0.58570814 -0.016356561 -0.001427839 0.53835917 0.17933284 0.18584001 -0.47516915 -0.62196976 0.14367099 0.10838522 0.051634427 -0.45453498 -0.15185712 -0.80816096 0.29995385 0.3388928 -0.2816379 0.4241653 -0.08563031 -0.036278434 -0.5735797 0.26390216 0.25494713 0.3810741 -0.33444068 0.25186172 0.06940484 0.54708654 0.36176887 0.17669596 0.21650201 -0.1418682 0.5571133 -0.013230531 -0.67068267 -0.20159903 0.31665075 -0.8017968 -0.32163784 0.026536291 -0.42483625 -0.061766945 -0.21687086 -0.019533725 -0.40817717 0.46264634 -0.31428725 -0.20377706 0.25802782 0.03839652 0.45236796 -0.09071094 0.46926713 0.53388405 0.44067848 0.35949525 0.33486527 -0.3873135 -0.2720425 0.46158448 0.62277806 -0.9033995 0.08588786 -0.21764955 0.00784476 0.20371239 -0.19620974 -0.21648516 0.1585617 -0.37825865 -0.14202668 -0.1152964 0.01455233 0.036446594 -0.17590852 -0.4301373 0.03680144 0.2532142 0.2689393 0.09414854 0.58026916 0.3227814 0.239195 -0.45226672 -0.117599055 -0.010984484 0.010388688 0.15891358 0.03734856 0.32972896 0.34386382 -0.12642702 -0.1989322 -0.52677584 0.14035444
1569 -0.4522092 -0.14903806 -0.13780807 0.5529 0.21912937 -0.31876358 -0.45596033 0.1883933 -0.21520834 0.5477621 -0.8117347 0.42190692 0.60876083 0.08335364 -0.41907507 0.033314656 -0.48819453 -0.33818838 -0.09140849 0.080589734 0.35776514 -0.059496306 -0.42895612 0.13004823 0.053514864 -0.074295975 -0.12092835 0.7527423 0.04371692 -0.36155528 -0.32495812 -0.26235867 -0.066478506 -0.13898775 0.34611645 0.34976366 0.27388212 -0.04827617 -0.35299054 -0.074013956 0.1356312 0.0035533034 -0.059855927 0.26785344 0.027298195 0.122175656 0.11557284 0.18660647 0.25027394 -0.30447236 0.34081784 -0.1550725 -0.5725271 -0.6221034 0.011820073 -0.08226552 0.009919772 0.54193515 0.4269652 -0.16304721 -0.19361316 0.19140992 0.11291315 0.49032113 -1.1768152 0.67107594 0.29173347 -0.30289984 -0.15215683 0.30526268 -0.19266476 0.370274 -0.04928634 -0.10165231 -0.17314896 -0.49607572 -0.2729177 0.062422756 0.18077673 -0.3018563 -0.1309918 0.14407599 0.2113218 0.297738 0.26602605 -0.08992543 0.41155145 0.25336185 0.24051239 0.13028792 -0.44847873 -0.18501496 0.28657475 0.52509105 0.09116077 -0.017577844 -0.39511925 0.3840314 0.3743705 0.19814602 -0.7947109 0.18252319 0.11020725 -0.16845869 -0.52329147 0.002413549 -0.7113992 -0.3151339 -0.23395866 -0.044246364 0.44454923 0.17382556 0.4067114 0.25121185 0.105271585 0.33685955 0.0068888227 -0.02173778 -0.23712215 -0.008126363 -0.25225815 -0.04003793 0.24656865 0.20989089 0.0017451278 0.58878744 -0.160919 0.15241618
2153 -0.5317517 -0.20117615 0.08313209 1.0140692 -0.29422924 -0.38547513 -0.69386125 0.26406196 -0.10951954 0.53056955 -0.034915 0.05132867 0.40404668 0.4906492 0.21014065 0.62576306 -0.67703044 0.21510623 0.34427932 -1.0178087 -0.3121083 0.5119928 -0.18154861 -0.2857575 0.28249815 -0.124495566 0.24551822 0.17884894 0.047784906 -0.6303028 -0.021529347 -0.30806947 -0.3077904 -0.056239516 -0.39622658 -0.026847892 0.90595806 0.08932447 0.45904046 -0.55585694 -0.31292287 0.43754423 -0.3864708 0.0048223604 0.2988236 0.18445785 -0.7383007 0.53431284 0.38810518 0.28960884 0.42747802 -0.054535396 -0.24990997 0.028356014 -0.3211573 -0.29162735 -0.7701154 0.269537 0.56285256 0.6127574 -0.16890863 -0.23765235 0.27414602 0.215263 -0.42446348 0.45835832 0.011600155 -0.58751655 -0.025804197 0.37914944 -0.19936869 0.36212394 0.08525714 -0.7773485 0.24113154 -1.0884829 -0.2776653 -0.41733333 0.30844116 -0.16061425 0.07609863 -0.03587657 -0.12643085 0.19899316 -0.38520455 0.22446701 -0.702475 0.34531158 1.1060666 -0.032392 0.13063319 -0.794913 -0.5019834 0.3453395 -0.28434053 0.5039984 0.73385936 -0.054530583 0.18070193 0.4100059 -0.28331584 0.16407134 -0.17213337 0.3803007 -0.32375073 0.19389032 0.17812371 -0.13181958 -0.0065514604 0.08527205 0.18991378 -0.16193804 0.12273337 0.372491 0.20480454 -0.22942789 0.37949654 -0.07100623 -0.8163197 0.21151598 -0.15635964 0.05075197 -0.000759674 0.3098058 -0.30663103 0.5853285 -0.1600604 -0.4857751
129 -0.54438543 -0.36896947 -0.39752993 0.3694577 0.2031366 -0.48105475 0.07914471 -0.21415089 0.088156186 0.34917396 -0.21797226 0.2767227 0.15615936 -0.115599275 0.28003514 0.06700262 -0.075242266 0.009411065 0.08587495 -0.37091848 -0.12983766 -0.03987195 0.10783366 0.0023429834 0.029904589 0.22335362 -0.13061869 -0.02539044 -0.16557853 -0.4728326 -0.022703 -0.42252415 0.41346762 0.42580083 -0.2766295 -0.023382628 -0.1291041 -0.20529556 -0.20145595 0.08896796 -0.30614576 -0.045285627 -0.2027522 -0.2877304 0.63205415 0.25106433 0.25120708 0.1045315 0.18148936 0.19395314 -0.25680897 -0.44565248 -0.077524155 -0.027087374 -0.21120846 0.27365506 -0.39759898 -0.11745729 0.6209777 -0.36055854 0.18431722 0.19084717 -0.057275213 0.44710326 -0.103007905 0.3477678 0.04075913 -0.08009429 0.034925867 0.5145321 -0.76745725 -0.26462188 -0.17127258 -0.30178404 0.44442597 0.2828462 -0.07578877 -0.14070734 0.28631026 0.32354125 -0.27318773 -0.026229668 0.08007092 0.097466685 -0.45264375 -0.04793938 0.46205673 0.1271198 0.21531552 -0.44298166 -0.38427672 0.026779797 0.4012151 0.6782648 0.12467579 -0.06141674 0.3093646 0.12552047 -0.35547125 0.3806979 -0.12141867 0.19024818 0.23678225 0.016807599 0.30457315 0.19175456 0.40239224 0.123974204 -0.30763817 -0.28109565 0.05141273 0.14900173 0.7622351 0.17084043 -0.28970096 0.22456422 -0.28892136 -0.24394374 -0.11838266 0.43227017 -0.20894125 -0.31110686 0.42390662 0.2458651 0.000117723015 0.29967678 -0.3107318 -0.41175136
1178 -0.07319633 0.26924974 0.0986411 0.6650029 0.721045 0.27321234 0.11353187 -0.12353325 0.17658599 0.36145303 -0.35192716 0.31130254 0.45013776 -0.21727355 0.30870637 0.29793075 -0.40205836 -0.38882807 0.35463545 -0.703849 -0.23389027 0.34445253 0.22178018 -0.11203662 0.18336006 0.11426442 -0.2532943 -0.18076779 -0.20184833 -0.76780003 0.49101746 -0.094831854 0.060103316 0.09762288 -0.4401166 0.027139602 0.5783733 -0.35530388 0.17451927 -0.120934054 -0.086511314 0.16074231 -0.24990663 0.28089783 0.20698164 0.17208198 0.30025518 0.19639455 0.3168582 0.10556348 -0.13089228 -0.48294652 -0.23989807 -0.08034517 -0.3100093 0.3255146 -0.016913876 -0.4787282 0.37396523 -0.11903057 0.59102774 0.29185274 0.14916864 0.6485027 -0.15108697 0.40426826 0.076820366 -0.574014 0.11953143 0.5761132 -0.14905041 -0.057890397 -0.2988014 -0.19933723 -0.14472002 -0.22853255 0.0014394217 -0.13649847 0.3412974 0.33894795 0.06558762 0.09660326 -0.024650136 0.12345673 0.280772 -0.3670599 0.15740414 -0.083057515 0.3420151 -0.15653767 -0.6029379 -0.10887509 0.025134526 0.21435124 0.12920645 -0.23669545 0.448591 -0.08100367 0.19904801 0.19637851 -0.37985253 0.5511624 -0.29371762 0.20220731 -0.06823864 0.121125326 0.4891708 0.14980648 -0.0384235 -0.113030866 0.54927963 0.22881246 0.51472133 0.1793986 -0.25009373 -0.08892419 0.10861176 -0.7148789 -0.68510854 0.55006224 -0.045486484 -0.12691149 0.4433271 -0.041740626 -0.30920035 -0.18226223 0.098993905 -0.09995648
2175 -0.5833106 0.11876625 -0.16539888 0.5559511 0.45964125 -0.32759383 -0.14840348 0.1569808 0.23108721 0.018736696 -0.25453818 0.18710108 0.16137607 -0.19326872 0.11719824 0.5473723 -0.30555558 -0.40990087 -0.12675323 -0.9099138 -0.18525459 0.102688365 -0.13014968 0.18275939 0.47446114 0.42768657 -0.16305798 -0.1552689 -0.062198516 -0.69069934 0.091995634 0.11077317 0.057842407 0.2543957 -0.28751844 0.055990856 0.28546417 -0.77588856 -0.042600572 -0.30788353 -0.02850054 0.36126286 -0.35762677 0.09988661 -0.02630088 0.04348171 -0.073301286 0.09008973 -0.03682262 -0.10950183 -0.15174705 -0.2749076 0.03206963 -0.14923376 0.07484027 -0.09058299 0.21122019 -0.41228414 0.28614584 -0.037231628 0.3550371 0.079545915 0.36853176 0.5022798 -0.29215506 0.32205695 0.31530866 -0.42057908 0.23238793 0.5615244 -0.3310926 -0.049313337 -0.26766402 -0.087707736 0.19963326 -0.04831415 -0.19168872 -0.43404588 0.4123562 0.20142265 -0.51545185 -0.15552406 -0.28190863 0.2328835 -0.23430295 -0.28559834 0.53694105 -0.118522696 0.06123645 0.17977299 -0.008925435 0.073929496 0.23246457 0.77095294 -0.04433672 -0.35166833 0.2783116 0.18915422 0.021529747 0.060755815 0.08274689 0.7098656 0.021053586 -0.09490424 0.24594654 0.061480653 0.42858183 -0.0913253 0.13656269 -0.46012834 -0.06310813 0.24700092 0.5946942 0.1362891 -0.3489068 0.051665828 -0.10209327 -0.6341878 -0.30564928 0.2614344 0.06602595 -0.321213 0.22366212 0.1288596 -0.03538504 -0.17701255 -0.12256498 -0.16866337
640 -0.041537043 0.07528503 -0.123002514 -0.00756648 0.013762977 0.02287559 -0.026302706 -0.54474413 -0.0047964295 0.52276367 -0.3214417 -0.05083017 0.6030478 0.39849237 -0.04248682 0.014148948 -0.2799522 -0.27995327 -0.4633777 0.36547107 0.372831 0.41802937 -0.39040473 -0.048058007 0.2260784 0.07233486 -0.079046346 0.20694958 0.10438732 0.10347985 0.08389567 -0.21373764 -0.003477032 -0.11644988 -0.5122425 0.45897266 0.39050055 -0.67691386 0.21783988 -0.3555281 0.18828227 -0.028779393 0.61828023 0.38488203 -0.59010583 -0.13986179 -0.5545739 0.14707507 0.07870379 0.17717282 0.27656457 -0.33347696 0.19480047 -0.4605813 0.12658782 -0.10949581 -0.27609906 0.535915 0.30895433 -0.028080164 0.12580353 -0.069418155 0.588025 0.7340873 -0.4658188 0.30822557 0.23149253 -0.3313005 0.24522056 -0.32809037 -0.69244486 0.5132446 0.037524484 -0.39109614 0.10561747 -0.7093264 -0.41571555 -0.1782416 0.32626438 -0.27546507 -0.0046609947 -0.25986472 -0.46599826 -0.023911595 -0.035297688 -0.21179424 0.37993395 0.15212788 0.26875377 -0.1732164 -0.31345624 -0.110742494 -0.03592412 0.34627643 0.42323005 0.4391012 -0.01857963 0.3193344 0.31963375 -0.006815561 -0.69152504 -0.3155046 -0.14542122 0.10905495 0.16691013 -0.61165905 -0.08665808 -0.10273065 -0.08930913 -0.020339066 0.14164561 0.08324077 0.29269803 0.24557091 -0.3014779 -0.2849863 0.18743396 0.08449191 -0.60078 0.3849833 -0.20850168 0.20085527 0.15944733 -0.015357385 -0.26218152 0.33924654 -0.32086393 -0.2605455
426 -0.17886578 -0.2995855 -0.07526982 0.53974944 0.2583349 -0.116764694 -0.18123412 -0.18534423 0.0096425945 0.20979181 -0.47756568 0.44117445 0.4929591 -0.19712965 -0.19699545 0.17811613 -0.3118696 -0.056248534 -0.21882272 0.1607659 0.081262045 -0.15455365 -0.31707123 0.0660907 -0.15083832 0.48517296 0.09984312 0.6352324 -0.017316047 -0.43822888 -0.33014774 -0.29326874 -0.36116505 -0.17427862 -0.32966003 -0.1687234 0.015632663 0.251315 -0.49157974 -0.20320675 0.48426867 -0.020929992 0.28596598 0.3422387 0.28180215 0.020419773 -0.02417731 0.023321342 0.015585015 0.038563374 0.01868159 -0.032178335 -0.64369977 -0.26471764 0.00825299 -0.40962353 0.19039974 0.021382527 0.4931848 -0.024024682 -0.2871383 0.18519239 0.19454752 0.15636505 -0.27860242 0.604874 -0.05427858 -0.39108893 -0.33689177 0.15319175 -0.62754196 0.12806423 -0.22369815 -0.013357488 -0.1491184 -0.5763901 -0.5124552 0.34819826 0.1648748 -0.58676684 -0.5484805 -0.55347186 -0.05955867 -0.26026538 0.0011101939 0.08230456 0.13649228 0.19445099 0.48392048 -0.3849061 -0.39458287 -0.21575196 0.12765652 0.045488905 0.22384924 -0.13283521 0.071923316 0.2223034 0.26205182 0.19173044 -0.6511215 0.09278948 -0.14827536 -0.11254003 -0.27160683 0.19668135 -0.5522403 0.010833559 -0.25928536 -0.27019173 0.40832415 0.35063848 0.26482192 0.41017362 0.17306781 0.18103707 -0.26700166 0.16198306 -0.15796795 0.5617345 -0.4463724 0.23449661 0.40269575 0.050788373 -0.42314374 0.64450055 0.08260824 -0.11246392
809 -0.35809916 0.18186909 -0.55159473 0.76679754 0.008770233 -0.20411205 0.077748366 -0.07576373 -0.15231973 0.6497491 -0.4025896 -0.047378186 0.6831176 0.11784828 0.50051063 -0.33710846 0.027613165 -0.3123183 -0.68408906 -0.8627032 0.54876894 -0.030184262 -0.8911061 -0.46980777 -0.25885615 -0.20753469 0.2126549 0.64314437 -0.17245679 -0.17887703 0.61718196 -0.49782476 -0.35278103 0.50177234 -0.6089413 -0.020384664 0.3474811 -0.12285944 0.24067368 -0.03960577 0.27503502 -0.0052569453 0.7650369 0.1886922 0.080660075 0.6045104 0.07431549 0.19630174 0.19511901 -0.09093361 0.20624621 -0.0804423 -0.52420706 -0.30358538 0.10702911 0.08438236 -0.03616776 -0.038976423 0.5078155 0.06569447 -0.45750397 0.8568951 0.034686193 0.9862502 0.31649244 0.5472777 0.1426278 -0.3844886 0.15440789 0.008040438 -0.38846305 0.3803871 0.47058195 0.20853038 -0.36987382 -0.5431252 0.44161198 0.28269705 0.3467147 -0.0028529814 -0.356957 0.28725967 0.30585876 0.4430436 -0.15759853 0.25423974 0.50716674 0.58711916 0.5887022 -0.20173937 -0.40812397 0.0118699875 -0.16802144 0.6225928 -0.48055384 -0.25869006 0.024602149 0.31578374 0.23045355 0.008948502 -0.19749539 0.13834701 -0.22002196 0.32386047 -0.25252503 -0.34174207 -0.041224506 0.01927935 -0.0096568 0.2919068 0.113388374 -0.1030625 0.58874995 -0.03276032 -0.23552646 -0.2522538 -0.0626376 0.093311325 -0.32766673 0.8025402 -0.28824753 -0.090589516 0.05489646 0.30329987 -0.105093844 0.2042684 0.34264618 -0.06983571
558 0.42690712 0.12246209 0.1521186 0.2611425 0.42767596 0.0191836 -0.23210448 0.02416708 -0.15353818 0.19753058 0.13447967 0.03647182 0.024135614 0.14569606 -0.1421309 0.27210322 -0.19373254 -0.11411025 -0.12831599 -0.321197 0.19938952 0.13330342 -0.1917375 -0.019899322 -0.124289855 -0.13122194 0.19179925 -0.07183875 0.05104793 -0.09609309 0.21934909 -0.097487345 0.28117555 -0.19022739 -0.52766454 0.17833683 0.43076566 0.030969374 -0.011244823 0.015302459 0.2893787 -0.24108838 -0.06840721 0.27979007 0.10239082 -0.08430023 0.02205225 -0.442553 -0.5709366 0.33780542 0.16640645 -0.049489457 -0.19541225 0.088838704 0.15870583 -0.015487323 -0.07492858 0.4230085 0.030852709 0.28733137 0.26954645 0.33464366 -0.5012055 0.04919983 -0.34502414 0.6265964 -0.4291374 -0.10524473 0.17196766 0.31338686 -0.73842824 0.2312927 0.110461585 -0.59997255 -0.19928786 -0.33300012 0.07257311 -0.03463588 0.5426934 -0.7692435 -0.15627415 -0.18385516 -0.5204991 0.25412038 -0.31032234 -0.052719943 -0.105919614 0.048387412 0.9794029 -0.24481028 0.2580524 -0.47624227 -0.2613004 -0.026906872 -0.14538512 0.47836843 0.28186765 0.2850785 0.5367073 -0.1909031 -0.23706554 -0.3470383 0.049509056 0.38040078 0.10099026 0.4023401 -0.16227187 -0.63744944 -0.06793585 -0.06969485 0.52811986 0.047136374 0.1950301 0.08168318 0.14759798 -0.58395547 -0.34618357 -0.62387115 -0.4355759 0.35242406 -0.22798054 -0.15503046 0.9358852 0.09135641 -0.20886324 0.44825107 -0.30509833 -0.4564383
359 -0.15504946 -0.24006516 -0.27246842 0.36136907 -0.4171299 0.0034981328 -0.23297766 -0.28219086 0.2918597 -0.010209927 -0.072676435 -0.42273232 -0.06731408 0.86150414 0.7850135 -0.04153465 -0.07468818 -0.024261815 -0.0005747501 -0.66804254 0.23739287 -0.18971692 -0.5822289 0.030358868 0.54480267 -0.107687294 -0.057769567 -0.14130452 -0.0868552 -0.40124065 0.17588808 -0.1752973 0.11409369 0.51362646 -0.006250575 0.15950662 0.38854834 0.107535064 0.08840224 -0.34087768 -0.6083322 0.24203129 -0.21504158 0.0057287277 -0.44653997 -0.14703904 -0.4054937 0.2963092 0.44490713 -0.4327787 0.5340801 0.11787852 0.1396779 -0.4967536 0.22787303 0.2572582 0.38979667 -0.21495476 0.37788993 0.13986422 0.41128698 0.342277 0.059874974 0.40291828 -0.1116088 0.59767747 0.003604965 -0.86694497 -0.24926984 0.47317874 -0.93959785 -0.39489418 0.14702119 -0.37316054 -0.057282522 -0.21955408 -0.111235745 -0.47068882 0.3923968 -0.2776238 -0.2457804 0.044767078 0.11379402 0.4064558 -0.0764328 0.4949061 0.15800208 0.41296217 0.3645817 0.3553546 -0.42002106 -0.38920668 0.6009494 0.86975735 -0.9735224 0.09838251 -0.36252496 0.06985899 0.07453447 -0.41004616 -0.23841408 0.25125372 -0.38342836 -0.07246601 -0.068831764 -0.063044116 -0.012771286 -0.0005602675 -0.3367321 0.016787322 0.19250491 0.2895291 0.26151946 0.8296152 0.39884558 0.29498625 -0.51272583 -0.0731731 -0.16188641 0.06558995 0.1395482 0.07495902 0.4574671 0.2230045 -0.098522164 0.028900405 -0.3229297 -0.12601435
881 -0.40740418 -0.11162524 0.42597368 0.5191672 -0.36038333 -0.5131735 -0.07316109 0.008275424 0.519058 0.2627032 -0.060111377 -0.1020225 -0.25931644 0.43224934 1.1213061 0.12095117 -0.32995507 -0.1816172 -0.0010256949 -0.63124716 0.21126863 0.15254128 0.006824925 -0.07274671 0.07501382 -0.24751303 0.11256829 0.42133942 -0.19351526 -0.16908386 0.44107518 -0.21003431 0.29623207 0.17482162 -0.11797171 0.17725034 -0.11660176 0.069580756 -0.036291372 0.20077632 -0.3297594 -0.055396214 -0.3455608 -0.06345708 -0.12968779 -0.40505672 0.109971225 0.13229057 0.18603843 -0.28326306 0.21163677 0.12878123 0.112693645 0.14812733 0.21357049 -0.094833136 0.22844277 0.13600445 0.4749593 0.10346658 -0.014493679 0.2230768 -0.12322903 0.35042027 -0.20486502 0.20180842 -0.38471022 -0.68183845 -0.14583409 0.313296 -0.7285293 -0.11733729 -0.1439496 0.16874324 -0.19764242 -0.1961022 -0.19812866 0.116306156 0.39388022 0.12027425 -0.46304524 -0.18819156 -0.37547678 0.05212997 -0.4052393 0.09980909 -0.4785824 0.3630487 0.17407031 0.06779809 0.19525063 0.016172836 0.2640699 0.45233208 -0.24443464 0.049519468 -0.16954465 0.03317097 0.015603954 -0.48529246 -0.35008863 0.20757923 -0.012349268 0.0899888 -0.17182764 -0.1787101 0.034898445 0.008782091 -0.11796782 0.06779214 0.18460274 0.33369073 0.5039679 0.029384207 0.21344012 -0.07627644 -0.14396325 -0.15701538 -0.13986583 0.5192747 -0.30219463 -0.060019463 0.4108295 -0.5020035 -0.34615383 0.43228322 -0.03782138 -0.08708178
1484 -0.48882008 -0.15766826 0.49624994 0.3312456 0.060587343 -0.6830868 -0.08307821 -0.25116482 0.5478617 -0.07239815 -0.04668764 0.027418884 -0.06179674 0.2709312 0.39734298 0.032982048 -0.037558395 -0.27395606 -0.17843375 0.13021843 0.14338925 0.5684351 0.035721663 0.06122486 0.37560296 0.042867843 0.074925534 0.3409671 -0.56868154 -0.39965585 -0.13962343 -0.7789052 0.221406 -0.0552214 -0.14749105 0.31807798 0.63083076 -0.15753195 -0.5215657 -0.13270591 0.19249718 0.4021981 0.18582658 0.32076666 -0.14799793 -0.30435944 -0.07819599 0.22901626 -0.30210593 0.16827664 0.3695464 0.020911869 -0.31581742 -0.20605156 0.377218 -0.18532328 -0.35628825 0.26278582 0.18901941 0.12035319 0.024313666 0.5124123 0.14656177 0.14075358 -0.4392642 0.7115429 -0.1956975 -0.50876683 -0.27481195 0.008410466 -0.1515274 0.67515886 0.09955978 0.06007604 0.07862206 -0.44891405 0.19077003 -0.073828824 0.3729 -0.32845587 -0.18017864 0.35516813 0.28467056 0.16754787 -0.09817351 -0.06881295 -0.1293925 0.26478258 0.5206558 -0.03877855 0.0042241937 -0.054793753 0.07555704 -0.14756268 -0.117658496 -0.014998502 -0.064983815 0.32308897 0.50061727 0.012277024 -0.49249494 0.030484237 0.5471454 -0.30521125 0.1346988 0.3661526 -0.07931043 -0.13018751 -0.49573436 -0.050383195 -0.0012319653 0.010293258 0.34056816 0.0038210382 -0.14152326 0.24964334 0.13728149 -0.838276 0.10324387 0.23576596 -0.43305707 0.20867264 -0.041617554 -0.20579782 -0.39458063 0.45020437 -0.30399397 0.13238518
415 -0.21471657 0.2696106 0.15112169 0.33592084 0.34488147 -0.17860605 0.23731877 -0.013266779 -0.17712064 0.26173025 0.00029407535 0.047305267 0.23866662 -0.18765 0.3101795 0.4267676 -0.09741024 -0.054848034 0.114301376 -0.5013393 -0.25332657 0.2747778 -0.13896152 -0.14039339 0.01810588 0.47238493 -0.14990628 0.003615505 -0.44049165 -0.3146701 0.23175687 -0.26154673 0.0758814 0.011989767 -0.39664808 0.07715462 0.41957584 -0.22242205 -0.01960867 0.17654449 -0.2654924 0.14770822 -0.15177305 -0.08349121 0.296091 -0.026064673 0.41362208 0.34978616 0.3498366 0.39866573 -0.24060246 -0.651225 -0.019570943 -0.009537266 -0.22312403 0.5516472 -0.06869603 -0.28123263 0.48710224 -0.242344 0.53410566 0.5124423 -0.38376895 0.2534328 0.05037418 0.5181264 0.15182278 -0.28535953 0.12739691 0.3165935 -0.20036504 -0.084819086 0.107290946 -0.2953803 0.31256062 -0.10811866 -0.021051288 -0.24342813 0.27989623 0.30863494 -0.16013369 -0.31526348 0.095960855 -0.08490087 0.14966036 -0.661345 0.42475632 -0.20776936 0.20834585 0.12857722 -0.438774 -0.19346277 0.46762848 0.29535022 0.10277766 -0.03842181 0.5209873 0.057173 0.12725489 0.18653288 -0.08394703 0.17338364 0.021850968 -0.033161443 0.19962916 -0.12292192 0.2513317 0.3968925 -0.25487173 -0.30509034 0.54021597 0.19409712 0.8122252 0.40753677 -0.45502195 -0.03959392 -0.059717216 -0.45500004 -0.2278272 0.14338054 0.13386984 -0.3138811 0.4081012 -0.09941935 -0.3660122 0.10355929 -0.032344513 -0.09442409
519 -0.8323142 0.06270952 -0.37224388 0.6162727 -0.5903643 -0.84244996 -0.3469994 -0.018394994 0.11858977 0.20867041 0.28270397 0.08755104 0.3142157 0.52906984 0.5631989 0.0883491 -0.53202754 -0.026175074 -0.4043982 0.16633719 0.018937454 0.2830341 -0.277834 -0.28937295 0.5638108 -0.47742856 0.14206488 0.47193536 0.27594107 -0.7959834 0.3608198 -0.7617317 0.3926814 0.19123293 -0.08036722 -0.10548428 0.4784651 -0.06085894 0.11932711 -0.0775776 -0.21438907 0.3243068 -0.34304875 -0.20093088 0.08570287 0.69663507 -0.35327178 0.7129123 -0.11479144 0.22488399 0.2011799 -0.28787917 0.10375049 0.01577509 -0.023875164 -0.3786506 0.025235657 0.28435072 0.15140016 0.45855698 -0.33160198 -0.029230084 -0.31534067 -0.3257741 -0.29276004 0.61572886 -0.05345021 -0.3275611 0.13153046 -0.0056873243 -0.42555836 -0.11606766 0.15372351 -0.8052349 0.029126124 -0.6200127 0.18226954 -0.7402374 0.17786741 0.07296122 0.22202906 -0.19241555 -0.8413833 0.017533945 -0.15680881 -0.16815203 -0.16286969 0.46479684 0.36931363 0.19077255 -0.19681528 -0.052540526 -0.12794584 0.20605448 -0.2155698 0.06982261 0.39831737 0.6340894 0.0835288 -0.39481574 -0.1478397 0.32052916 0.07307506 -0.07887722 -0.7313427 0.07839391 -0.31984088 0.41052663 -0.41668665 0.015612739 -0.07575197 -0.8347752 0.50871533 -0.062365394 0.18080351 0.11851658 0.012687178 -0.42589718 -0.15539016 0.117924154 -0.071181156 0.10630499 0.5596712 0.23894997 0.11250994 -0.33709097 -0.3132254 -0.40213117
967 -0.13037531 0.08435799 -0.4852774 0.1176193 0.11108562 -0.50685465 -0.253169 -0.18752193 0.13438869 0.7320919 0.14138392 0.3701053 0.22851995 0.052855726 0.16838826 -0.4116491 -0.62281936 -0.019131454 -0.3081093 -0.13906059 -0.12818041 0.27099416 -0.1925449 -0.17648755 0.28776515 -0.0028504974 0.036838066 -0.085004985 0.13592383 -0.0071125003 -0.2561694 -0.67311287 0.10142498 0.05215384 -0.6331817 0.5356166 0.38918492 -0.3177941 0.0033790467 -0.12773299 0.07898331 -0.079966605 0.37672338 0.073757224 -0.11359974 -0.12280549 0.03978244 -0.07525581 -0.15031199 0.16388069 0.07664643 -0.8262928 -0.18567681 -0.318143 0.1766578 0.25539356 -0.24191718 0.8644187 0.35543773 0.0009998076 0.16650347 0.030888077 0.4644871 0.5834917 -0.020477168 0.29184735 -0.03335576 -0.11279005 -0.014084192 -0.1473515 -0.83339983 0.096524745 -0.0814316 -0.023668118 0.31303245 -0.09220437 -0.22064489 -0.05158991 0.24627142 0.11805713 -0.27166978 -0.19914223 -0.09295023 0.38236845 -0.2033742 -0.2605264 0.0017946356 0.24750002 0.5505956 -0.18655767 0.1298844 -0.1386774 -0.34394997 -0.0987914 0.050710134 0.6607077 0.20464514 0.12436608 0.24065365 0.20071232 -0.015318762 -0.15390427 -0.2550347 -0.51214445 0.40954566 0.2814659 -0.35387948 -0.075477265 -0.4571283 -0.04245685 0.20845447 0.45472214 0.2106037 0.33672118 -0.4141981 -0.33148205 -0.13063896 -0.18913122 -0.10058491 -0.081023715 0.17379664 -0.10706076 -0.17270975 -0.3379912 -0.2564595 0.14511856 -0.086845525 -0.49112383
2421 -0.6142713 -0.24741232 0.26450488 0.5533574 -0.553034 -0.60361356 -0.3303661 0.1069392 0.086154215 0.29569075 0.2103902 -0.12707941 0.29152355 0.37791172 0.26259938 0.37184206 -0.47855595 -0.26817784 0.02710821 -0.3525127 -0.10262473 0.24989568 -0.4470503 -0.2516757 0.56784254 -0.3763052 -0.024035346 0.1456758 0.25341713 -0.40562838 0.22000287 -0.80022824 0.11117408 0.11928431 0.010912871 -0.20473836 0.54182374 0.15534884 0.28211144 -0.12453523 -0.1809263 0.123056546 -0.46165702 0.03661342 0.13450284 0.17015964 -0.27156258 0.1817066 -0.09327427 0.23471701 0.18825518 0.06195283 -0.25392482 0.06167819 -0.12386313 -0.24422383 0.040881272 0.18470256 0.25831878 0.63699394 0.09628521 -0.20971142 -0.085335255 0.057778057 -0.25120956 0.56659585 -0.054647405 -0.4197329 0.30357158 0.044882324 -0.24788655 0.30415857 0.14268285 -0.9508117 0.24289936 -0.55394226 -0.20077996 -0.46670893 0.53329253 -0.28574398 0.07012178 -0.16032596 -0.54954445 -0.2476389 -0.339588 -0.033895764 -0.34177154 0.30352148 0.55741423 0.41587687 0.17131925 -0.21522506 -0.39471227 0.33408543 -0.4331116 0.46519238 0.41540083 -0.13901624 0.11766678 -0.0722796 -0.37212378 0.1478634 0.34752697 0.15069374 -0.41940394 -0.08638042 -0.2473532 0.11727191 0.1626033 -0.16263178 0.031282287 -0.5882457 0.508799 -0.27306685 0.18459895 -0.34531906 0.137324 -0.01722619 -0.23052378 -0.12433859 0.044172682 0.22154069 0.44107363 -0.2958798 -0.29419643 0.26261982 -0.23275127 0.03176317
1687 0.4044869 0.4371923 0.2957088 0.69389683 0.45171782 0.44515896 0.03804922 0.4711881 -0.33377847 0.45462683 0.105777085 -0.07247042 0.4294669 -0.27775884 0.11348918 -0.16046312 -0.09609665 -0.16845044 0.1817723 -0.27795532 0.2477411 0.20436418 0.007685044 -0.21477027 -0.098915905 0.090674676 -0.018502908 -0.114464976 0.22510573 -0.11480684 0.24023739 0.051930163 0.43858302 0.051475212 -0.27606443 -0.018908879 -0.00859896 -0.07272196 0.08261179 -0.001297475 0.20993157 -0.19967507 -0.37267584 0.048207197 0.4973634 -0.15716252 0.338742 0.017855864 0.022971857 0.12483688 -0.073426925 -0.60389286 -0.024250546 -0.19476041 -0.06752516 0.57404554 0.23261063 0.247146 0.12385553 -0.1854024 0.3560943 0.5150647 -0.5215099 0.4413399 -0.3039234 0.54134923 0.09412179 -0.2849837 0.13837634 0.44190526 -0.65537685 -0.12027545 -0.2260366 -0.2987302 0.09105693 -0.108034976 0.12455611 0.1593931 0.2697801 -0.26326543 -0.15639134 -0.21991809 -0.09949509 0.29109895 0.17969681 -0.45357987 0.05327153 -0.100551106 0.66228247 -0.12332005 -0.062007375 -0.2044483 0.12735225 0.12899113 -0.31998956 0.48243776 0.048064414 0.15104844 -0.006263318 0.06191853 -0.1483788 0.08693796 -0.19761631 0.5224993 -0.116332255 -0.07703847 -0.16063154 -0.08227628 -0.30353078 0.0065511335 0.3905392 -0.02113481 0.1901952 0.16450253 -0.42065883 -0.47932664 -0.14879094 -0.3652129 -0.89210683 0.020205358 0.12055892 -0.088236496 0.31566438 0.11273273 -0.013850299 0.24458942 -0.34127274 -0.14199424
738 0.24240343 0.5404793 -0.43563148 0.24641442 0.27378988 0.002958549 -0.2533215 -0.108387746 -0.017435279 0.15030743 -0.050826408 -0.17744376 0.8295058 -0.09763654 0.2811454 0.25846493 -0.31026736 -0.15814434 0.027556013 -0.22501177 -0.27563012 0.079024464 -0.05445156 -0.20791535 -0.1629456 -0.0935291 0.032703094 0.16165662 0.50871706 -0.12494055 0.19015153 -0.1270782 0.17409402 0.46046916 0.10062679 0.05777933 0.376945 -0.17432341 -0.15166011 -0.37377742 -0.2521056 0.15900016 0.28111976 0.15491827 -0.033954762 -0.02021539 -0.40154317 0.19085023 0.250733 0.72368217 -0.10667382 -0.7451168 -0.30821314 -0.36188585 -0.143396 0.34461185 -0.0019352982 0.19739251 0.5729601 0.26303557 0.8478576 0.5953081 0.027233323 0.3812322 0.33283994 0.07837701 0.37690797 -0.17405581 -0.11127065 0.52207124 -0.668706 -0.18209435 0.10982332 -0.11877708 0.18980059 0.40936205 0.15871161 -0.14338863 0.52714896 -0.20664942 0.017232802 -0.6041941 0.06657827 0.3669866 -0.21241668 -0.020057818 -0.10195478 0.15921105 0.77169704 0.22809951 0.16041751 -0.30273005 -0.13082081 0.24632134 -0.234441 0.5750764 0.16667129 0.3329561 0.054900058 -0.1022326 0.006861991 -0.030485196 0.07004484 -0.28335628 -0.2721798 -0.22772624 -0.27572334 0.036467694 -0.24352941 -0.18470219 0.27139357 0.09264433 0.3537833 0.10244824 -0.15080681 -0.25275454 -0.32721713 -0.14992209 -0.73563766 -0.2509662 0.1779 -0.18865429 0.34708148 -0.3525656 -0.11869746 0.23495398 0.05079298 -0.5595073
2220 -0.5760417 0.08591399 -0.31828278 0.4283038 0.33051136 -0.30996612 0.08563619 -0.13146383 0.16825405 0.55778575 0.30211046 0.15828629 0.3438636 -0.17295223 0.27148294 0.3688485 -0.21172065 -0.14781609 -0.023213094 -0.5846445 -0.060067367 0.028845247 0.22782312 -0.29056188 -0.106531344 0.30850488 -0.08880784 -0.13905445 -0.1484958 -0.38445476 0.28172863 0.23181808 0.53417856 0.2810111 -0.16160585 -0.08624121 0.074618995 -0.2600838 0.002181152 -0.11628432 -0.14179082 0.30650216 -0.57045287 0.07836609 0.27460927 0.26030967 0.14244775 0.44032645 -0.04983658 -0.068677224 0.285431 -0.16431051 0.010169062 -0.025957456 -0.461596 0.24700762 -0.33493653 0.12401744 0.69097996 -0.3428106 0.15006426 -0.08345671 -0.024613652 0.32022068 -0.13456218 0.27563295 0.10456389 -0.22342572 0.19098125 0.46498135 -0.57987195 -0.067320175 -0.3756362 -0.12353677 0.24598233 -0.17180574 -0.22192077 -0.3315014 0.57952726 0.1464448 -0.38851237 -0.16367108 0.2509727 0.17176291 -0.18600044 -0.5559716 0.67715627 0.035051286 0.5067997 -0.23090763 -0.3857088 0.028136123 0.30949557 0.8528374 0.35691154 -0.25323737 0.251956 0.019736653 -0.48741084 0.16527334 -0.1502833 0.7726062 0.09694119 0.08099307 0.1292595 -0.11310139 0.75442666 0.20311318 -0.07959428 -0.45336103 0.1996048 0.08123211 0.59630924 0.3592451 -0.57823545 0.17538965 -0.5208667 -0.41767344 -0.5409819 0.32602546 -0.03657503 -0.045101658 0.30019206 0.2013008 -0.160073 0.11186616 -0.20988983 -0.6306745
995 -0.36733443 0.3413731 0.022209655 0.4182474 0.3637901 0.21313848 0.15061659 -0.30081466 0.018299827 0.6567669 -0.3556846 0.08878216 0.48710617 0.030735536 0.2918012 0.2521993 -0.2811323 -0.07659867 0.21029371 -0.59200007 -0.17522006 0.4815701 0.2358359 -0.12593684 0.00711304 0.09931161 -0.34092087 -0.068257116 -0.4193548 -0.45224026 0.23424248 -0.021189028 0.09537372 -0.14564441 -0.43808842 0.093807906 0.4371125 -0.28313094 0.00068261265 -0.088459626 0.0013258744 0.3527511 -0.2640888 0.5073586 0.20902513 0.31413165 0.18169364 0.06502208 0.37816054 0.13499027 0.20163481 -0.18303852 -0.18968716 -0.021499895 -0.48832288 0.20699781 -0.12038994 -0.35331473 0.5479301 -0.33478948 0.35125265 0.22139862 0.0021884586 0.8902623 -0.16903295 0.5573526 0.121228576 -0.48655713 -0.023342976 0.28519604 -0.20743343 -0.030662851 -0.22390524 -0.04732394 0.20917647 -0.40877083 -0.18722439 -0.009605843 0.23878574 0.3268181 -0.31572363 0.11443761 0.27696258 0.19464792 0.41595873 -0.34787652 0.3488023 0.008159154 0.3399163 -0.044809293 -0.5545767 0.11120994 0.4004088 0.26669928 0.2918968 -0.3677637 0.4279074 -0.06404861 0.05025708 0.34989977 -0.2976146 0.44534457 -0.3439994 0.006854273 -0.013297473 -0.0057405964 0.5821755 0.32420558 -0.40636778 -0.39227486 0.34643182 0.31958553 0.73765975 0.4551525 -0.4727107 -0.015928019 -0.03511237 -0.59795564 -0.7115011 0.62361807 -0.20673688 -0.16970502 0.38155383 -0.018118165 -0.33917665 -0.009143832 -0.116113745 -0.17890042
342 -0.57684195 0.41974422 -0.46196675 0.31235245 0.1619116 -0.10715012 -0.024019243 -0.4763829 -0.29081142 0.37979442 -0.97844154 0.20048758 0.6533416 0.43394807 0.39984378 0.33442396 -0.74293464 -0.18562621 -0.4229252 -0.708496 0.21127939 -0.56272703 -0.32500482 -0.03568907 0.6911786 -0.14387788 0.58571714 0.18926804 -0.17000507 -0.019762855 0.16698398 -0.32258013 0.07034053 -0.10895557 -0.6522114 -0.027234958 0.59202105 0.26547146 -0.29793286 -0.37556866 0.058274906 0.036508955 0.6947308 0.6712947 0.32696533 1.0387943 -0.3486264 0.048848208 -0.23659983 0.7916177 0.23219866 -0.2606757 -0.4680138 -0.6485739 0.17961551 0.46855482 -0.09306412 0.22276603 -0.06395331 -0.61257434 0.30758056 0.28862286 -0.3146123 -0.06911159 -0.78446656 0.010083964 -0.29045534 -0.11810937 -0.011978896 0.33599105 -0.07495049 -0.37072176 0.53693056 -0.754813 0.11460957 -0.43298006 -0.3615196 -0.5009512 0.29232603 -0.026118493 -0.17401692 0.038453214 -0.43448657 0.49361864 -0.4420139 -0.41752365 0.042638693 0.6831944 0.44101986 -0.23825452 -0.087292664 -0.7806201 0.43779978 0.58674115 -0.4474667 -0.17706496 0.6829117 0.14696166 -0.051514503 -0.19579035 -0.18321003 -0.12266537 0.08518238 -0.55350137 -0.27499807 0.14809842 -0.046792533 -0.23765989 -0.11849712 0.19270162 -0.049989402 0.28500792 0.42611215 0.38439026 0.14164384 -0.37597606 0.1895647 -0.5982929 -0.5944266 0.53357035 -0.023100063 0.2789242 -0.009061708 0.1700294 0.32691813 0.08437322 -0.0025537333 0.23489115
