425 128
41 0.34944332 -0.012841346 -0.30892375 0.04350914 -0.6172175 -0.014196709 0.04193233 -0.037743285 -0.21422079 0.26629442 0.055995207 -0.5716475 0.18980122 -0.018363573 0.33195972 0.2608277 0.16166508 -0.16850838 0.21883698 -0.076814495 0.037626322 -0.4284791 -0.17346872 0.0337678 0.27732232 -0.0049339696 -0.6070782 0.18270592 0.40955877 0.04981261 0.20632295 -0.15238176 0.118123315 -0.0502046 -0.09474427 0.04484973 0.08509253 -0.37660363 0.13738802 -0.36097917 -0.5347956 -0.15562846 0.0824207 -0.3379152 -0.47421798 -0.4164255 0.37226653 0.120489165 -0.24684815 -0.34075734 -0.12915337 -0.21855563 -0.28010067 0.6511831 0.030841608 -0.0019042202 -0.58932996 0.20553508 -0.14615823 0.4601999 -0.16913629 0.15960945 -0.13170682 0.5354324 0.053347368 0.43229562 0.035167806 -0.0758968 -0.2556056 0.43196046 -0.39879966 0.3221236 -0.3762951 -0.068657175 0.006650183 0.10878506 0.028759569 -0.0053115897 0.4810124 -0.22909252 -0.2852176 -0.33957648 -0.3116913 0.043596163 -0.17025985 0.1984946 -0.52562684 -0.5549496 0.18413404 -0.75059986 0.34145674 0.062225122 0.2542626 -0.020060783 -0.53095573 -0.2730012 -0.1543006 0.18072715 -0.7161156 0.18724498 -0.07506446 -0.22494689 -0.2028779 -0.15458198 0.072445445 -0.16480799 -0.20880172 0.5208022 0.20559627 0.013652515 -0.055190712 0.36487776 0.121176325 0.06385529 0.14790602 -0.56087923 0.01756885 0.070124485 -0.08235264 -0.014671073 0.114726655 -0.033071693 0.033338856 0.21822405 0.46722412 -0.4833962 0.03496889 0.0595086
1067 0.1601237 -0.40419447 -0.24708593 0.12903427 -0.75466746 0.41161075 -0.20041591 0.039942365 -0.3458683 0.33294168 0.0727622 -0.5533459 0.14112633 -0.1513273 0.29049847 0.34905133 0.114068985 -0.015529484 -0.20140235 -0.047882676 0.22702515 -0.29665193 -0.297923 0.16936435 0.3891425 0.072814874 -0.31299487 0.2600119 0.12596524 -0.2514782 0.1562401 -0.030451357 -0.23990886 -0.20351528 -0.1399638 -0.12285106 0.5509417 -0.26580822 0.19504397 -0.33322197 -0.19725038 -0.38359806 -0.082388684 -0.26134264 -0.57500017 -0.30191648 0.4419536 0.22863135 0.12586473 0.0458669 0.025288476 -0.2360536 0.047339365 0.34754625 -0.21790369 -0.40807596 -0.52646476 0.18929486 -0.099954635 0.15871316 -0.2821118 0.10850223 -0.37235925 0.659168 0.026267895 0.28939995 0.14555252 0.398317 -0.5089641 0.4070442 -0.16812497 0.5027244 -0.5829367 0.09117695 0.23269609 -0.08765812 -0.008436488 0.52019876 0.29674456 -0.009973236 0.02438998 -0.5264204 0.013915718 0.07399926 -0.023195276 0.06565811 -0.35037807 -0.5677961 0.4398948 -0.5019785 0.09360261 0.072659515 0.28425246 0.25044867 -0.20334497 -0.19626433 -0.28309208 0.5555034 -0.62770605 0.0054803584 -0.14412932 -0.10629324 -0.15286325 -0.10631672 0.4395413 -0.054165732 0.2178898 0.556767 0.08984337 -0.1591474 -0.016061151 0.5773957 -0.2938438 -0.22444296 -0.332635 -0.5598346 0.06582819 -0.46998736 -0.6359312 -0.102082156 0.104521066 0.13498755 0.17073265 0.105021276 0.48088336 -0.5088422 0.06289197 0.20177309
2514 0.31044328 -0.20339672 0.2296494 -0.5051931 0.3284867 -0.013685653 -0.01716358 0.32320622 -0.17940536 0.22143622 0.46352413 -0.82319736 0.0061297473 -0.1974929 -0.20046851 -0.19162811 0.20561978 0.07976495 0.12427985 0.0008199176 -0.30032706 0.14466573 -0.4351572 0.0727267 -0.2890929 0.67968947 -0.17426762 0.3884684 0.336173 0.1490672 0.03300587 -0.39461976 0.19267772 0.107685655 0.0519937 -0.7330503 0.5793511 0.44890627 -0.16987416 0.15700462 0.1627388 -0.30709767 0.17803013 -0.1602508 -0.031317912 -0.61673146 0.113992065 0.0062487973 -0.14636195 0.13534597 0.06317893 0.43583938 -0.30955294 0.047305256 0.52506006 -0.4325986 -0.54467916 -0.28875658 -0.12240343 0.40718445 -0.26132175 -0.24427983 -0.44357142 0.18063544 0.11913418 0.43103266 0.18991739 0.1953829 -0.4039215 0.50017595 -0.501118 0.30088225 -0.46968713 0.08993701 -0.2854016 0.04146742 -0.06691647 -0.002794523 0.3023071 0.1024351 -0.12484958 -0.35324702 0.48854923 0.20713097 0.13385181 -0.074859895 -0.06664558 -0.07321606 0.8946445 -0.42363307 0.18338275 0.01768251 0.32977286 -0.23866336 -0.11584329 -0.28369316 0.21602869 -0.22927241 -0.10393893 0.32218754 -0.07563371 0.55082405 -0.5062218 -0.16336074 0.0053018606 -0.09198134 0.28533503 0.4704562 0.029001003 0.36558497 -0.7229201 -0.07714524 0.1395182 -0.32447582 0.4161642 -0.22291316 0.2617466 -0.18502574 -0.21137594 -0.6498742 0.13036472 0.21706343 0.51035905 -0.08156811 0.79835427 -0.35198936 0.39629593 0.8510583
1769 0.30637732 -0.19199042 0.25434577 -0.5074124 0.32683656 -0.0360433 -0.0224446 0.30894712 -0.18993302 0.21798185 0.4767761 -0.801655 0.0047743428 -0.17383322 -0.17649469 -0.15576546 0.21671307 0.066274665 0.10818886 -0.012017323 -0.33707738 0.092655696 -0.44046405 0.08309072 -0.2827316 0.687796 -0.15510748 0.41586563 0.32528716 0.13342138 0.07063762 -0.42913455 0.20465699 0.112817995 0.070372164 -0.69397295 0.59585327 0.4470851 -0.16286902 0.15130652 0.17554386 -0.30511898 0.19830053 -0.1739255 -0.013706113 -0.6189842 0.1479171 0.017878614 -0.15530832 0.14553101 0.106160976 0.49774706 -0.32357368 0.07955484 0.50839496 -0.3988096 -0.5534598 -0.2938467 -0.13895208 0.43705192 -0.26119855 -0.23933725 -0.40738526 0.19391632 0.09744211 0.4254358 0.17668876 0.218647 -0.43581715 0.49706522 -0.5145801 0.31972262 -0.5072423 0.12628335 -0.29653066 0.066793054 -0.08351322 -0.040540654 0.31627584 0.0999604 -0.09542804 -0.34754774 0.50697875 0.19308206 0.12871389 -0.088693485 -0.0800126 -0.07400472 0.8810133 -0.45617917 0.18922953 0.0076140547 0.3345875 -0.2233642 -0.12282624 -0.30618265 0.18147576 -0.18892947 -0.07893717 0.32017192 -0.05688315 0.5791546 -0.506383 -0.19218533 -0.010936315 -0.094778314 0.29154962 0.4776368 0.025337763 0.32290614 -0.76151896 -0.0987101 0.13410786 -0.33312523 0.3940766 -0.21261513 0.257995 -0.21532302 -0.23811632 -0.6391466 0.12227408 0.2045745 0.50216204 -0.10222748 0.80548036 -0.36732233 0.42464516 0.8355982
581 0.63853514 -0.5550468 0.07161813 -0.37468797 0.07060422 0.3677868 0.42027497 -0.57082695 -0.12225151 0.022667652 0.22098833 -0.49197045 0.6324022 -0.62816375 -0.83956546 0.25217834 -0.46803138 -0.066350766 0.27652964 0.13552667 -0.64296216 0.13645104 0.12372267 -0.26633835 -0.30794883 0.6424668 -0.36171558 0.013179187 0.666837 0.57202536 0.34359655 0.35550812 -0.086964995 -0.0776964 0.053601462 -0.67689294 0.032415483 -0.23160423 0.4016028 0.10957231 0.14699937 -0.1743385 0.2580095 -0.8025172 -0.018755183 -0.7635866 -0.3225692 0.09113908 -0.35255706 0.26413795 0.40948886 0.15617926 -0.27172375 0.77271414 -0.033313844 0.17728357 -0.671119 -0.6990364 -0.38854745 0.109602526 0.0503162 0.483031 -0.5846204 0.8802556 -0.6724519 0.039307404 -0.2359974 0.6993676 -0.5845908 0.33256507 -0.26665044 0.039335348 -0.18175545 -0.045211934 0.2489892 -0.68974745 -0.35144967 -0.13452104 0.46172795 0.26216716 -0.5527355 -0.91162103 0.4190493 0.43428215 -0.2698342 -0.29791555 0.15158959 -0.20053451 0.28584784 -0.42155707 -0.3205377 0.14769782 -0.26475108 -0.65434813 -0.59065676 -0.21668448 -0.00337904 0.011885258 -0.3144849 0.39156005 -0.046134148 -0.44003195 -0.2948602 0.493257 -0.41391638 0.15476577 -0.1956922 0.64984256 0.10797925 0.2289203 -0.27088553 0.11321861 0.22343217 -0.08202165 -0.14692454 0.28442574 0.0060086297 0.24516727 -0.141057 -0.2568215 -0.13877705 0.20540243 0.27296877 0.43883345 0.30079287 -0.6594222 -0.3437253 0.7105185
1229 0.08161041 -0.45320493 -0.09102266 -0.08031976 0.07891574 0.47104737 -0.29334438 0.48964128 -0.22319444 0.057070218 0.46081367 -0.90196484 0.110294275 -0.39659226 -0.46145242 -0.03814871 -0.18230188 -0.023548452 -0.022059653 -0.32743073 -0.056142785 0.23323369 0.046839908 0.32123762 0.05917253 -0.14527524 -0.5921614 -0.16114345 0.92619354 0.56500435 0.3453748 -0.106546365 0.27423456 -0.8445321 -0.014250637 -0.7940681 0.0740966 -0.15263826 0.28050572 0.17607622 -0.11550474 -0.39207134 0.2673567 -0.1742498 -0.34218612 -0.51216114 0.4090255 -0.11267561 -0.24450228 0.04487287 -0.42910177 0.63655144 0.42415115 0.23018207 0.38049233 -0.61144483 -0.086008206 -0.3668932 -0.09852077 0.1632323 -0.24230833 0.32918417 -0.5621581 1.078174 -0.4289191 0.258005 0.21091309 0.6252474 0.14570479 0.38168123 -0.32416365 -0.19683145 -0.23620364 -0.09791035 -0.09180725 -0.65139794 0.22761594 0.15647146 0.6689734 0.30570623 -0.56360734 -0.4313232 0.22072788 0.48862156 -0.72640574 -0.0413004 -0.114990555 -0.9689085 0.64877707 -0.1902608 -0.44102064 -0.74832344 0.090668894 0.025315732 -0.6938499 -0.35596555 -0.24571374 0.21575913 -0.51982385 0.5520152 -0.84787625 -0.5383204 -0.49600708 0.24056812 -0.39249185 -0.59202796 0.43923864 0.34269765 -0.27998975 0.04257315 -0.33629048 0.18692373 0.060033146 -0.89993066 0.13949595 -0.12883686 0.020281272 -0.015559537 -0.25941566 0.11330385 0.11404798 -0.31776688 0.42228708 0.3780413 0.27045262 -1.2084104 0.37419215 0.82689476
1311 0.019374022 -0.59600085 -0.44592464 -0.5408757 -0.34117532 0.13452642 0.09301225 0.43033683 -0.013231831 0.3625794 0.36784753 -0.5028869 -0.2369133 -0.88400024 -0.20572215 0.31181234 0.38707072 0.20901714 0.46695346 0.1951671 0.042082682 -0.3043239 0.13578583 -0.2775045 0.19064122 0.1832594 -0.58231246 0.7760068 0.506421 0.21509795 -0.54176086 -0.06398196 0.22570223 -0.24974509 0.16836682 -0.17230359 0.6907842 -0.173965 0.2613363 0.0066586314 -0.09880153 -0.2822064 0.12663405 -0.29574358 -0.123258464 -0.78184116 0.56387985 0.04867362 -0.33047634 -0.63663894 0.19294286 0.19903877 -0.5244796 0.3717215 0.38606486 0.068516254 -0.32750383 -0.16286668 -0.37939855 0.32803485 0.0030585087 -0.27107236 -0.026994346 0.17378229 -0.6013432 -0.32572332 -0.18820743 0.14402458 -0.004259066 0.84853625 -0.48493874 0.3077923 -0.2950101 0.5148496 -0.06999477 -0.81421053 0.36262512 0.6110462 0.7657842 0.45154902 -0.44726145 -0.5600891 -0.004958085 0.26539332 -0.046377018 -0.46126214 0.020558791 -0.495658 0.71534336 0.32702327 -0.11198325 -0.06537269 0.8488776 0.04245146 0.17536548 -0.17864096 0.46393123 0.57992095 -0.880063 0.9258724 0.29488808 0.045939285 -0.6175675 0.20949522 -0.17210579 -0.42960724 0.15692069 -0.17733988 -0.23931319 0.21143584 0.21324088 0.08939241 0.44794014 -0.6782375 -0.09139306 -0.35090673 0.15790546 0.3348817 -0.29309762 -0.0071480386 -0.2502652 -0.07604264 0.89977014 -0.07110745 0.9137331 -0.8436943 -0.22420084 0.2713602
113 0.30353045 -0.07169554 -0.30669355 -0.038397394 -0.54307103 -0.12769781 0.09151354 -0.029058315 -0.14755332 0.16036895 -0.02212042 -0.63873655 0.17687237 -0.10031697 0.41002297 0.19269459 0.10556694 -0.15166284 0.24178706 -0.1281656 0.057451192 -0.33690867 -0.16430473 -0.11074731 0.1710845 -0.053147182 -0.58267605 0.21296242 0.3448402 0.08107482 0.20874342 -0.15537801 0.17613615 -0.046947908 -0.06929927 0.05355049 0.06436551 -0.3318869 0.25578848 -0.26955527 -0.5265015 -0.13028687 -0.042823114 -0.34215692 -0.33149144 -0.47915986 0.40439698 -0.0146127 -0.23278373 -0.39919087 -0.20658068 -0.038287118 -0.31537136 0.59533614 0.15425523 0.140308 -0.52648634 0.15978488 -0.13981412 0.5638525 -0.028600492 0.15240921 -0.15860237 0.46090525 0.0425001 0.48467413 0.15270054 -0.08031653 -0.25215387 0.41619992 -0.44323394 0.21762416 -0.42413455 -0.10601016 -0.07786698 0.12457484 0.054261677 -0.010781627 0.58512557 -0.14659633 -0.29510137 -0.36541295 -0.29238403 0.13667098 -0.27142534 0.2813078 -0.5609537 -0.57687324 0.2956237 -0.81281793 0.4162208 0.010928629 0.354596 -0.19603042 -0.65513873 -0.24703659 -0.25833037 0.20294285 -0.61007106 0.21328078 -0.16066097 -0.19291407 -0.35273755 -0.1702917 -0.06693809 -0.09948857 -0.19339736 0.5893138 0.16043045 0.09413106 -0.11234733 0.274523 0.050945845 0.046312213 0.18346591 -0.6139224 -0.0589385 0.10621784 -0.001432633 -0.023439912 0.0023055705 -0.0967022 0.109712146 0.16696452 0.5209371 -0.51598406 0.08100219 0.15488334
2439 0.38805336 -0.14056803 0.28941336 -0.48258445 0.36531392 0.01562041 -0.087326035 0.41260526 -0.12565841 0.25471875 0.5428759 -0.8452164 -0.015309874 -0.1349634 -0.2205123 -0.17693596 0.20690334 0.0268884 0.081420675 0.08944866 -0.3260595 0.20240846 -0.4324413 0.18773393 -0.3234834 0.74980396 -0.072030656 0.3133174 0.28897795 0.21698049 0.07302586 -0.4227721 0.258299 0.08238656 0.06985993 -0.7882079 0.49913296 0.44828358 -0.21719676 0.12740773 0.11689377 -0.34629428 0.27926788 -0.13993725 -0.0699885 -0.62596035 0.1791612 0.039316338 -0.18169694 0.12301415 0.12213114 0.44349974 -0.22068414 0.117767654 0.41083094 -0.41226372 -0.5334195 -0.32567382 -0.20280337 0.30436027 -0.3012579 -0.21265015 -0.51217806 0.2664593 0.09330242 0.39036915 0.10975249 0.17916633 -0.30964857 0.387453 -0.50617564 0.13434204 -0.504023 0.15692894 -0.2725298 0.15731905 -0.121211514 -0.011936152 0.40770274 0.019945353 -0.20899108 -0.39584216 0.3728714 0.19886656 0.17435329 -0.08147903 -0.09289998 -0.022663718 0.9343427 -0.42388952 0.116563775 -0.024547983 0.19043274 -0.23853888 -0.15876247 -0.34532657 0.2317717 -0.26560637 -0.059889905 0.2957039 -0.11694523 0.45031554 -0.63948554 -0.22597137 -0.024808537 -0.14298502 0.16030714 0.43096116 0.10699565 0.32413146 -0.7195854 -0.14936899 0.16866845 -0.33076844 0.49207383 -0.20525548 0.36319107 -0.3226644 -0.2895975 -0.5352067 0.14154406 0.24453367 0.3664723 -0.1778554 0.7915866 -0.4327339 0.4632331 0.8966697
33 0.31256685 -0.06142469 -0.35104656 -0.041023955 -0.6267296 -0.12606463 0.0625969 -0.032424007 -0.17594081 0.15282272 -0.019930102 -0.6343662 0.20043823 -0.13421695 0.36834905 0.26783785 0.11080664 -0.17054993 0.26620722 -0.1411457 0.024742953 -0.2846002 -0.108541705 -0.10535462 0.15893342 -0.05398407 -0.61757475 0.19404331 0.38078642 0.102479264 0.19196013 -0.15023908 0.16610721 -0.071480796 -0.08595676 0.031866774 0.088141404 -0.35894927 0.25948104 -0.28597942 -0.47872767 -0.098893106 0.01285358 -0.38853258 -0.3503044 -0.4480405 0.33210045 0.018269606 -0.18767913 -0.43758965 -0.19257955 -0.04241984 -0.29646525 0.6049973 0.20163313 0.13261339 -0.5788908 0.13524453 -0.112601735 0.5894595 -0.052794635 0.20682006 -0.15942605 0.4950682 0.041286092 0.50076425 0.14158122 -0.12384769 -0.23592095 0.4048635 -0.428799 0.18359965 -0.42397353 -0.18337627 -0.052190516 0.12589422 0.065715976 0.03343621 0.5854226 -0.12454214 -0.2875967 -0.37606055 -0.2635822 0.18651089 -0.29165864 0.18292175 -0.5977534 -0.5604573 0.29985023 -0.79542106 0.424377 -0.04159576 0.31639558 -0.17622024 -0.6555222 -0.2763121 -0.22158398 0.22860973 -0.61040324 0.24174692 -0.09967332 -0.19283198 -0.2696895 -0.114120625 -0.07481362 -0.10847716 -0.16087079 0.5358989 0.16367312 0.102067694 -0.039745122 0.2919288 0.051789325 0.046173748 0.2030004 -0.63006735 -0.06995113 0.11010238 0.023516515 -0.011504476 0.017754607 -0.17488313 0.10957098 0.20083073 0.5435345 -0.4889976 -0.003710122 0.1415935
1191 0.54682946 -0.3357714 0.19255213 -0.037615635 -0.46887004 0.36766598 -0.09723704 -0.15061103 0.0034649337 0.17001309 0.013441001 -0.064304344 0.39239505 -0.3624319 -0.50284284 0.34651184 0.17306617 0.3900343 0.069046274 0.5984054 -0.21002258 0.4472284 0.24439622 -0.4758995 -0.26559174 0.6979395 0.3147176 0.5872879 0.4495817 0.0062198485 0.035790846 -0.17407149 -0.012198393 0.49161047 0.016282964 -0.6355055 0.18092875 -0.21549109 0.058483716 -0.35432506 -0.24288245 -0.15512756 0.29793742 -0.81642133 -0.6337056 -0.10576289 0.43131822 0.23333883 -0.068631604 -0.13883027 0.5518513 0.14121276 -0.1705451 0.6714518 0.0303176 0.36401516 -0.5370903 0.02578701 -0.06194772 0.667158 -0.66970974 0.314493 -0.04759002 1.1335658 -0.35557586 0.44938496 -0.47309348 0.59329623 -0.8851361 0.16988079 -0.6699251 0.62260383 -0.19773565 0.8502781 0.31365153 -0.5368425 0.323022 0.8295662 0.72609866 0.37612292 -0.09285305 -0.17580713 -0.3354764 -0.018000927 -0.077759884 -0.6587465 -0.24292824 -0.032772027 0.30664882 -0.05839841 0.21651383 -0.032878693 -0.059422363 -0.22962297 0.18545619 -0.8308178 -0.13448553 0.437169 -0.13232389 0.48344752 0.11587167 -0.14835413 -0.11705178 -0.06973402 -0.1472389 -0.26432025 0.014745886 0.57254696 0.28850147 0.044500254 0.03536779 0.23943514 0.38772988 0.012179603 0.36567762 -0.23534511 0.39338052 0.091701634 -0.15652412 0.20075247 -0.3043983 -0.21572345 0.26863497 -0.5126085 0.6635644 -0.42151102 -0.46782312 0.48615527
1390 0.5652174 -0.5981411 -0.21214329 -0.022079939 -0.2567818 0.3281911 -0.088546455 -0.058902465 -0.027391203 0.19237776 0.20358892 -0.30654678 0.23092826 -0.32654786 -0.6524535 0.4384816 0.06376925 0.49172735 -0.13271734 0.53308976 -0.4467331 0.487071 0.5803062 -0.55735195 -0.3640982 0.3277112 0.10260693 0.26855925 0.9547502 0.30371174 -0.19985133 -0.021076893 0.00902101 0.1428022 0.27195823 -0.6314546 0.2841902 -0.11670837 -0.16835779 -0.03649887 -0.36804327 -0.12242076 0.31007 -0.8593346 -0.12171757 -0.15135187 0.44771963 0.5020648 -0.04286851 -0.38993496 0.48324573 0.5952293 -0.43590662 0.57570237 -0.15921713 -0.017101603 -0.20730087 -0.07288249 0.13362302 0.45902124 -0.8369036 0.4334285 0.13360877 0.78164613 -0.116962954 0.19283532 -0.20421875 0.4751729 -0.6630397 0.19023557 -0.6184168 0.6434215 -0.27364925 0.72593796 0.16513385 -0.36638153 0.39607465 0.6368283 0.5582187 0.15359832 0.05147317 -0.3563311 -0.2936448 -0.06305257 -0.3777877 -0.08854589 -0.17019907 -0.09601667 0.47100884 -0.15309216 0.0809679 0.15292464 -0.010414815 -0.006033454 0.28005397 -0.6871325 0.06995617 0.4971159 0.06038299 0.6057272 -0.08830078 0.093550354 -0.34194872 -0.06503058 -0.023257561 -0.39590102 0.18994278 0.33505696 0.4056152 -0.11708067 -0.09087245 0.3129413 0.2935927 -0.3597856 0.51591164 -0.39989206 0.41332185 0.35167 0.1080472 -0.0250681 -0.5155078 -0.3902128 0.40670344 -0.38253638 0.28684616 -0.36807182 -0.14272587 0.6185106
1066 0.17450301 -0.51370925 -0.34214023 0.09192727 -0.797735 0.5521021 -0.26918435 0.11768659 -0.35990903 0.48403126 0.06911795 -0.5470929 0.19205678 -0.23169969 0.14079598 0.35159558 0.09706984 -0.028449416 -0.24579433 -0.093923464 0.18676275 -0.1811088 -0.21561497 0.057648867 0.2382602 0.11328398 -0.31592602 0.31007612 0.1340524 -0.26864758 0.1685331 -0.08516229 -0.20467833 -0.13613768 -0.19276766 -0.17386426 0.5587668 -0.20215814 0.23353639 -0.3873966 -0.18481535 -0.37056798 -0.17391443 -0.2706808 -0.6447685 -0.3041832 0.331976 0.26508436 0.16820198 0.018988814 0.06993038 -0.17985938 0.12289438 0.33548385 -0.23238462 -0.43623975 -0.4323493 0.1528561 -0.11232765 0.20610939 -0.33125517 0.11116907 -0.46831748 0.72624266 -0.075550266 0.18558922 0.06550142 0.5079295 -0.4932077 0.334467 -0.16323037 0.46190745 -0.49275205 0.052452326 0.16553442 -0.25248417 -0.030954497 0.55557424 0.25027198 0.069943145 0.04073473 -0.45117363 0.05902111 0.03363602 -0.057033855 0.03889399 -0.3391199 -0.54297465 0.3371726 -0.3831065 0.056798745 0.022468442 0.31106123 0.26247212 -0.14529276 -0.21312226 -0.33295104 0.6009028 -0.6361418 0.010721879 -0.18656969 -0.15820082 -0.15148838 -0.012105369 0.3734724 -0.049802206 0.27676764 0.5113672 0.11602608 -0.102187365 0.026744822 0.7036281 -0.2977247 -0.31225476 -0.37009618 -0.518725 0.04431098 -0.48893267 -0.5721372 -0.18650049 0.11367334 0.078023836 0.2010283 0.09128275 0.51630247 -0.5302915 -0.088327095 0.30800688
42 0.25592002 -0.18179186 -0.20455645 0.07912854 -0.5843499 0.14314099 -0.034323342 0.053479537 -0.1975522 0.42910412 0.0003931512 -0.5895234 0.15538599 0.0070251473 0.35441184 0.060121108 0.19730318 -0.1864554 0.08816155 0.022591332 0.19728859 -0.36108226 -0.34844375 -0.0146645475 0.3163014 0.07374943 -0.47094598 0.25850284 0.22481991 -0.11052066 0.26234487 -0.1979753 0.061355446 0.021366518 -0.09620291 -0.006090717 0.012494145 -0.38868243 0.049898542 -0.4555444 -0.60875994 -0.29016742 -0.0271233 -0.25440398 -0.60275877 -0.32435468 0.5798284 0.17644566 -0.269223 -0.18189925 -0.0012719595 -0.27041426 -0.20300393 0.6860056 -0.17125991 -0.10785487 -0.407427 0.37177542 -0.19748946 0.3285883 -0.13127519 0.09665442 -0.2696226 0.68436563 0.118155934 0.4212901 -0.019645141 0.15749265 -0.32698005 0.38777205 -0.4719887 0.39250237 -0.37117714 0.11940004 -0.00752848 -0.025662951 0.033042524 0.04071822 0.33707917 -0.2667074 -0.23305328 -0.33099255 -0.38465804 -0.02221919 -0.03513419 0.30954647 -0.36941844 -0.51608014 0.19810714 -0.64755267 0.29289657 0.17656782 0.25376293 -0.005679665 -0.37861225 -0.24660009 -0.3018623 0.20859955 -0.68638194 0.10820315 -0.2914355 -0.21767569 -0.2931149 -0.3158724 0.29967135 -0.151659 -0.27143133 0.6572479 0.24482082 -0.0821148 -0.085047685 0.5090234 0.043718018 -0.0033190083 0.03664056 -0.67983395 0.16052566 -0.07544016 -0.3129814 -0.16340673 0.07678452 0.046120092 0.056075968 0.09016534 0.4761695 -0.5281362 0.09909416 0.14924403
50 0.23613507 -0.18501198 -0.24373662 0.08508058 -0.62419015 0.13313307 -0.033271465 0.078692175 -0.21681324 0.43521518 0.034611307 -0.6051961 0.12265761 -0.008470622 0.34254527 0.14790316 0.14456642 -0.1786625 0.063742004 -0.0024112759 0.17560379 -0.3645421 -0.29599923 0.0001563823 0.26404566 0.030463174 -0.4740753 0.2597209 0.23363385 -0.11587439 0.20655674 -0.21849012 0.030559389 -0.028627092 -0.083805576 -0.0045667742 0.09688839 -0.34920308 0.102285415 -0.41568685 -0.5518326 -0.26200166 -0.06950973 -0.26974896 -0.5767207 -0.35978565 0.49912852 0.18945347 -0.21314186 -0.22901115 0.0189567 -0.24480852 -0.17010915 0.6583894 -0.15763901 -0.10073193 -0.4401059 0.34932613 -0.16389291 0.37225208 -0.14627682 0.11238614 -0.27686033 0.6240679 0.054647658 0.37523612 0.011995676 0.15222543 -0.3220041 0.37371302 -0.44338673 0.3850787 -0.38659582 0.07001417 0.021002142 -0.027045244 0.031137433 0.08851107 0.35748604 -0.15810409 -0.20598568 -0.30885956 -0.3627491 -0.0036867599 -0.0895186 0.29360065 -0.41266397 -0.57235646 0.21506798 -0.68357545 0.29439786 0.13262157 0.29629162 0.049826697 -0.36572957 -0.21968251 -0.31376234 0.26339698 -0.67279077 0.10362141 -0.244073 -0.20894921 -0.2907341 -0.24612468 0.26201528 -0.13399507 -0.20062621 0.6338691 0.24936856 -0.049885888 -0.012916161 0.499147 0.0112215355 -0.083971664 -0.011532989 -0.6259589 0.08039945 -0.13492614 -0.31452265 -0.11360117 0.030788844 0.030567668 0.062337253 0.11970651 0.51100594 -0.5254174 0.052064154 0.14708325
45 0.2118864 -0.18504284 -0.20645802 0.09362264 -0.6007583 0.13641556 -0.048527345 0.07790052 -0.19394642 0.4537941 -0.00034847332 -0.58616084 0.1323118 -0.002654715 0.33272228 0.087076284 0.19157864 -0.16667369 0.095703624 0.014166138 0.18190785 -0.36112916 -0.33419788 0.010643481 0.296601 0.047276504 -0.4547235 0.25149438 0.21229605 -0.09925177 0.23714194 -0.20134754 0.029667519 -0.009115246 -0.058977645 -0.01805093 0.051517252 -0.35160422 0.05206222 -0.46047932 -0.569499 -0.2768942 -0.038701434 -0.22735862 -0.5953264 -0.30721432 0.53783756 0.1907363 -0.24433342 -0.20785245 0.040458884 -0.21149887 -0.18515104 0.6415828 -0.17356768 -0.0839189 -0.37524438 0.36222312 -0.18423 0.33206272 -0.12879324 0.09617956 -0.2740798 0.63771296 0.103377394 0.37062535 -0.038759377 0.16802667 -0.30283582 0.3549686 -0.42223632 0.38462797 -0.33436015 0.11861855 0.019106776 -0.030445792 0.030187214 0.077327006 0.3336372 -0.210759 -0.21550862 -0.30215856 -0.3715305 -0.02198879 -0.057788454 0.27610382 -0.3591489 -0.53304166 0.20011248 -0.62630785 0.26702356 0.17273267 0.27994636 -0.015273611 -0.34080747 -0.21705757 -0.27892697 0.24532264 -0.65282184 0.112537675 -0.24316755 -0.22749583 -0.2762826 -0.31385365 0.2782456 -0.13850315 -0.22432685 0.6148354 0.21819381 -0.07438815 -0.051058523 0.48713344 0.030234618 -0.011841193 0.020061763 -0.6649216 0.15227896 -0.10028273 -0.3020755 -0.13275923 0.07687179 0.02909905 0.05972062 0.10218781 0.4828304 -0.5108798 0.09094919 0.13248487
62 0.37895572 0.0608139 -0.34046602 -0.06551429 -0.5671585 -0.107244775 0.06346696 -0.0027793632 -0.16323127 0.16768523 0.10568236 -0.5966896 0.1534668 -0.050395876 0.3042263 0.2527604 0.18206038 -0.12908326 0.3212596 -0.1237572 -0.028365353 -0.38551143 -0.07877223 -0.042803768 0.22817263 -0.033672865 -0.71838814 0.13369276 0.50507945 0.17029941 0.15592657 -0.18102534 0.18444674 -0.12689984 -0.0512046 0.008616354 0.07449848 -0.37751105 0.117263325 -0.2487534 -0.518072 -0.14383592 0.122700565 -0.36610332 -0.39784268 -0.49272612 0.29038334 0.103494145 -0.26374862 -0.47232413 -0.20019484 -0.10907197 -0.3462736 0.6838615 0.20907843 0.04419445 -0.62977743 0.12255654 -0.13625531 0.52882594 -0.13996004 0.17847583 -0.08164621 0.503576 -0.00011796752 0.4865698 0.0850314 -0.15155134 -0.17131725 0.46209818 -0.4657226 0.2247851 -0.40369827 -0.15446785 -0.017867835 0.12634076 0.07775906 -0.058768287 0.581018 -0.16470942 -0.37354717 -0.29477856 -0.30324998 0.16642182 -0.24131246 0.18472998 -0.5662058 -0.6072941 0.27575395 -0.8193443 0.3706966 -0.018189313 0.33614638 -0.08752696 -0.6602054 -0.24980651 -0.085384205 0.12865685 -0.6910295 0.24729587 -0.032597017 -0.22960544 -0.26361582 -0.07549818 -0.09059681 -0.20033234 -0.22758567 0.48629686 0.21129122 0.094840564 -0.08596239 0.24967207 0.18806328 0.033173587 0.27038795 -0.5443398 -0.048690286 0.117102735 0.068382196 -0.016340762 0.10575997 -0.13058409 0.083716094 0.2628298 0.55114985 -0.51647633 0.0163974 0.074142456
1467 0.25916207 -0.24221875 -0.35096022 0.018552313 -0.6580846 0.3446101 -0.198062 0.17725712 -0.219002 0.6539788 0.10051556 -0.60358536 0.17781545 -0.034863222 0.12790816 0.114829056 0.13522527 -0.23209189 -0.04122047 -0.003060842 0.077753484 -0.22221515 -0.15383242 -0.06946968 0.15827462 0.13550271 -0.48490125 0.30194393 0.23576684 -0.16783012 0.23140043 -0.32782736 0.062059373 0.0046805376 -0.14528975 -0.010943079 0.091268875 -0.27819678 0.10092486 -0.48846796 -0.5488699 -0.262402 -0.16242209 -0.2262915 -0.75059927 -0.3472416 0.34582978 0.29232496 -0.20966053 -0.21358143 0.06777435 -0.22815871 -0.06787655 0.6313172 -0.22914489 -0.2316701 -0.29182526 0.3221522 -0.24992982 0.3412109 -0.24687861 0.06325758 -0.3898227 0.72564936 -0.087630756 0.18464807 -0.08563014 0.34905922 -0.23144169 0.3199939 -0.44110173 0.26779893 -0.27630952 0.05761287 -0.052857365 -0.25845245 -0.052398242 0.07039031 0.20241809 -0.09676605 -0.24804695 -0.09574772 -0.33974883 -0.100238204 -0.066167735 0.25563446 -0.28499472 -0.50350744 0.057403933 -0.4765608 0.22774589 0.06926093 0.37422124 0.15523766 -0.26047882 -0.23035172 -0.32015517 0.280598 -0.6753162 0.08311197 -0.29506668 -0.27431113 -0.26015177 -0.1291173 0.23820522 -0.18912017 -0.22524983 0.52327144 0.31858373 -0.029142039 0.021914858 0.66595054 -0.0012999577 -0.25206816 -0.048024755 -0.5934067 0.025885459 -0.257814 -0.31232736 -0.26524055 0.07975188 0.04142439 0.016358629 0.14935248 0.54786557 -0.51419705 -0.15476601 0.22852509
2413 0.29577687 -0.15394802 -0.20945242 0.09701446 -0.5510078 0.045867108 0.04713371 -0.04749201 -0.19002944 0.31688094 -0.048188504 -0.5847852 0.16739342 -0.0027530317 0.4072593 0.11339865 0.11282056 -0.18050064 0.11351967 0.044393037 0.20036143 -0.37597093 -0.27779543 -0.0790529 0.2601386 -0.008231217 -0.417302 0.2797086 0.2461725 -0.11570788 0.27192336 -0.13677165 0.083895564 0.088562086 -0.07564495 0.064497806 -0.00046657608 -0.39096734 0.1412531 -0.40394047 -0.6412828 -0.21803643 -0.065281965 -0.3454989 -0.48330933 -0.35669732 0.5800306 0.053288795 -0.28748742 -0.233432 -0.044423345 -0.15764868 -0.21141672 0.664436 -0.092562035 0.05563368 -0.40664566 0.3498084 -0.18631269 0.46281707 -0.109259546 0.12570195 -0.24446566 0.5918941 0.077141955 0.44693166 0.04771124 0.09169676 -0.36018884 0.3643601 -0.46113923 0.3879271 -0.39869374 0.104659006 -0.033329856 -0.02068482 0.04016872 0.05457073 0.41606823 -0.21288705 -0.21644026 -0.3610727 -0.4023134 -0.035836484 -0.12337398 0.32369688 -0.424863 -0.4929535 0.17807108 -0.67830306 0.36615214 0.15287472 0.27376333 -0.09257313 -0.41372085 -0.2607459 -0.3502883 0.23517063 -0.6308059 0.12312657 -0.2777543 -0.1828784 -0.30389422 -0.32384166 0.1699046 -0.12283897 -0.27650854 0.7053051 0.22406827 -0.032883637 -0.0898045 0.41020113 0.01639826 0.027600478 0.06442182 -0.651196 0.074414395 0.056486398 -0.23069657 -0.03587137 -0.038978357 0.021747654 0.05925266 0.078874096 0.44453046 -0.5403712 0.108638726 0.16391322
1736 0.41132516 -0.17243509 0.25051245 -0.4765799 0.35463068 -0.004381175 -0.087991856 0.37417373 -0.18699767 0.26891106 0.5158961 -0.8605688 0.041529097 -0.10844786 -0.22036913 -0.16398787 0.19376968 -0.0036425632 0.0651035 0.09417936 -0.32668397 0.18699461 -0.37680128 0.16197218 -0.2769616 0.76317453 -0.09496957 0.32572252 0.30824623 0.1915772 0.12178494 -0.40223145 0.25213644 0.11119815 0.045364045 -0.75254005 0.50770134 0.4617414 -0.17283121 0.07503841 0.087444454 -0.36474094 0.23398772 -0.19051756 -0.084975906 -0.6418536 0.16831695 0.04093398 -0.1954587 0.114099175 0.09924504 0.4684438 -0.21106088 0.1386577 0.39976424 -0.43143633 -0.5361489 -0.35495183 -0.20397419 0.31128475 -0.30018634 -0.23126917 -0.55174303 0.25980404 0.07838664 0.39915222 0.11462037 0.16454327 -0.32871094 0.39081517 -0.5186545 0.14917536 -0.5355615 0.13820104 -0.31101838 0.13112654 -0.16536961 -0.009968254 0.3675001 0.030388758 -0.21537405 -0.45922643 0.38982886 0.15510397 0.15502247 -0.1321511 -0.0958789 0.016192717 0.9376493 -0.42091528 0.15837662 -0.019630557 0.20843035 -0.24517016 -0.14143673 -0.3571706 0.22873633 -0.2926919 -0.05844094 0.2861014 -0.12691575 0.4784955 -0.636881 -0.216643 -0.048595335 -0.11963667 0.14204188 0.45872214 0.09240111 0.3617005 -0.69538355 -0.13048033 0.15719813 -0.34396335 0.53933686 -0.23870994 0.3338413 -0.28360522 -0.28852105 -0.55352217 0.13388017 0.24518493 0.34895796 -0.14751163 0.79924214 -0.48334897 0.4405007 0.89408964
2093 0.11710346 -0.30020383 -0.24436048 -0.53368366 0.49657738 0.8378179 0.22561634 0.4824728 -0.12608176 -0.10323529 0.117531486 -0.1273835 -0.16070147 -0.26713496 0.0042550256 -0.0016597946 0.8583258 0.30691698 -0.0790056 0.072727814 0.42308572 0.0047477446 -0.23314977 -0.6060569 0.24687959 0.26215258 -0.18628046 0.30287597 0.46711832 -0.49034634 -0.097240694 -0.2811732 0.071222365 -0.27487174 0.008431488 -0.20999953 -0.12573323 -0.19593404 -0.8630808 0.2715635 -0.17398779 -0.5584368 0.18284734 -0.38945186 0.061987888 0.14763568 0.9545988 0.27355012 -0.13458289 -0.32010183 -0.42415205 0.012031461 -0.50635725 0.04373344 0.36696547 -0.40488186 0.035031546 0.36469412 -0.29644808 0.054986645 -0.2884923 -0.3993467 0.29479286 0.70636284 -0.26205197 0.18323112 0.045245983 0.6982941 -0.803948 0.3097511 -0.17540799 0.25052562 -0.42799035 0.19872849 -0.2503052 -0.48797977 0.13241377 0.22734122 0.28662026 0.009339447 -0.21808866 -0.20959222 -0.00039184032 0.26989576 0.1730599 0.11631143 -0.122114934 -0.732609 0.58279705 -0.10816371 -0.101417564 -0.0073359637 0.19277272 -0.28983665 -0.32567397 -0.49978077 0.09436318 0.0042013996 -0.6321254 0.35083562 -0.2675887 -0.29275462 -1.029241 0.29329813 -0.016892444 -0.04203419 -0.20295125 0.48113158 -0.22843009 -0.16613588 -0.6494604 0.19883588 0.28374672 -0.028972816 -0.06286955 0.062741384 0.21220379 -0.29830047 0.03670463 -0.34776777 0.23655263 -0.63091254 0.82675636 -0.57624584 0.119517304 -0.4292798 0.102155715 0.38728935
1062 0.10828484 -0.28920057 -0.26061007 -0.5559695 0.50571 0.8625428 0.22375637 0.50007933 -0.15685076 -0.10214333 0.1418916 -0.14003572 -0.1397207 -0.27394706 -0.015641833 0.03043214 0.8830918 0.29761255 -0.07013467 0.05962546 0.40386757 -0.018832728 -0.2479138 -0.6421366 0.27193514 0.2647644 -0.16745514 0.3059971 0.48352444 -0.49658883 -0.08251695 -0.28983417 0.06600289 -0.27847522 0.023712555 -0.19296888 -0.09749287 -0.18660916 -0.843719 0.2757665 -0.15450113 -0.5732458 0.20536587 -0.41908577 0.0488934 0.13772155 0.9658562 0.2878236 -0.14208828 -0.3362503 -0.4243839 0.005296743 -0.52406806 0.06009389 0.3070879 -0.38415015 0.011306344 0.35293463 -0.32734978 0.056179293 -0.33348897 -0.4306247 0.31520537 0.6962549 -0.2951582 0.16371456 -0.0047035366 0.7315762 -0.8194839 0.3122498 -0.18310222 0.26209912 -0.47066107 0.20337744 -0.25583756 -0.48472872 0.106007375 0.26035857 0.2956121 0.004454717 -0.20965382 -0.21902983 -0.025109284 0.26146755 0.18585372 0.07917728 -0.09911865 -0.69641346 0.5780507 -0.11154772 -0.107465245 0.021402527 0.19538866 -0.26208007 -0.33800197 -0.5097214 0.11618467 0.0176169 -0.6435903 0.32577002 -0.24623936 -0.29431954 -1.0501707 0.32228372 0.0055471887 -0.063788876 -0.2140753 0.4952248 -0.2091066 -0.1872857 -0.6811605 0.17589861 0.2917595 -0.008337443 -0.0907113 0.07046696 0.19698834 -0.29312423 0.07031514 -0.35058618 0.23770194 -0.6053417 0.8238561 -0.5668769 0.11955458 -0.43028584 0.12680869 0.4202496
2652 0.4480716 -0.3974642 -0.091661595 -0.11753291 -0.39029098 0.493767 0.09678621 0.10200933 -0.23120773 0.09878169 0.115115725 -0.49457815 0.24721512 -0.52396244 -0.25382608 0.040647253 0.1741842 0.1667799 0.05800603 0.050066877 -0.04417041 -0.15094325 0.06610644 -0.24510358 -0.0073735015 0.47539863 -0.5121603 0.23906988 0.61669546 0.13618614 0.13490546 -0.11801598 0.06235375 0.03314075 -0.02598175 -0.40444964 0.3522065 -0.09939109 -0.07263507 -0.06528493 -0.3451272 -0.5197868 0.14538297 -0.4120398 -0.29967958 -0.42780596 0.5327093 0.034339435 -0.1823197 0.017239187 -0.10518748 0.3839938 -0.4345499 0.2858511 0.15604293 -0.2647446 -0.25032824 -0.12004783 -0.43223086 0.37830466 -0.30197158 -0.010757627 -0.17387639 0.70370114 -0.17558251 0.46039253 0.12472471 0.56837976 -0.37739027 0.4507571 -0.38164786 0.20832472 -0.43713155 0.32661635 -0.06679636 -0.44847545 0.15977225 0.35354757 0.53926355 -0.027533023 -0.43889284 -0.39568987 0.31723428 0.06024129 -0.02419675 -0.0071721044 -0.17989153 -0.4889976 0.6925081 -0.33831483 0.18918565 -0.05747048 0.3067589 -0.20360887 -0.2680174 -0.28933734 -0.10084415 0.124523215 -0.46923205 0.32328612 -0.022530572 -0.27204654 -0.2762209 -0.041813362 -0.17032047 -0.10489724 0.14353941 0.35292757 0.12870485 0.2547735 -0.42667875 0.3506403 0.20797841 0.075278185 0.16892305 -0.13452852 0.12316961 0.07157198 -0.15201536 -0.11022047 0.21056488 0.028386578 0.5003217 -0.088084124 0.38474193 -0.65442353 0.14583954 0.35561317
2195 0.3340667 -0.15366206 -0.32650948 0.03305277 -0.56444526 -0.08928569 0.10072477 -0.103121765 -0.1623953 0.20829837 -0.08001829 -0.6211231 0.21440431 -0.08867545 0.40496433 0.18083234 0.07120704 -0.18738803 0.18662821 -0.04217113 0.09229789 -0.2987061 -0.15360346 -0.16594544 0.1328774 -0.051633835 -0.48206332 0.27347302 0.31532595 0.009554546 0.26879895 -0.13130608 0.14943308 0.075924076 -0.10138927 0.059617985 0.030242478 -0.34212214 0.2878019 -0.35567197 -0.57958364 -0.122823894 -0.09048324 -0.39546505 -0.3536923 -0.41866088 0.47454432 -0.06046457 -0.23377387 -0.35869825 -0.14644165 -0.02246788 -0.23575237 0.6556604 0.098096944 0.1836212 -0.442271 0.22573838 -0.14693536 0.62789017 -0.024089566 0.20639 -0.2149285 0.512144 0.056789443 0.48429045 0.13042882 -0.01533202 -0.3198958 0.37107912 -0.42597362 0.2506816 -0.37494403 -0.049179118 -0.08833316 0.028156005 0.025969043 0.043824144 0.55163604 -0.16025932 -0.26071915 -0.37751478 -0.3420693 0.040084206 -0.2704874 0.25210655 -0.5403954 -0.49712753 0.20580107 -0.71595085 0.43911752 0.023615142 0.26885027 -0.23521759 -0.56225085 -0.28755292 -0.33521795 0.24527164 -0.574497 0.19251992 -0.2115786 -0.19070458 -0.32768148 -0.20951165 -0.057036076 -0.088230304 -0.21384001 0.6589725 0.15577072 0.074293755 -0.07382836 0.33485696 0.013728535 0.06933407 0.14600678 -0.66222346 -0.0190434 0.18373522 -0.038035937 -0.0061041163 -0.057279732 -0.09347026 0.063896105 0.11404139 0.4871384 -0.5235139 0.023945553 0.21246706
88 0.59164774 -0.51133347 -0.13449813 -0.19856533 -0.5486501 0.70019495 0.11234334 0.17140363 -0.3387794 0.12203443 0.14262065 -0.6465625 0.32704565 -0.6737394 -0.28622425 0.078601375 0.27466846 0.20608145 0.10804147 0.100052044 -0.053998496 -0.24696614 0.06320441 -0.32308513 0.010825108 0.57535213 -0.7132868 0.34817627 0.8195369 0.16789728 0.16445301 -0.15910956 0.09815663 0.04120094 -0.019463982 -0.49459487 0.46910614 -0.12439277 -0.07266297 -0.15311323 -0.4916565 -0.6949619 0.19187537 -0.54656535 -0.40088803 -0.5981508 0.6965789 0.072824456 -0.26640096 0.006013166 -0.118758276 0.49006617 -0.5852821 0.40376365 0.19466962 -0.348072 -0.3726452 -0.12226499 -0.5764116 0.54496795 -0.4469203 -0.022193072 -0.20993604 0.96543616 -0.27323046 0.57745886 0.1472268 0.7279495 -0.53632265 0.62041795 -0.4991724 0.2988593 -0.5806323 0.4412911 -0.0913044 -0.62440264 0.1717557 0.48658702 0.7087639 -0.056516957 -0.5292799 -0.5354625 0.40321827 0.11188103 -0.01920039 -0.02329371 -0.24512754 -0.66655123 0.9064602 -0.47203174 0.21217257 -0.0985592 0.49008176 -0.2853254 -0.37924132 -0.3588114 -0.08711217 0.2221402 -0.66441894 0.445826 0.004644521 -0.3671425 -0.38313022 -0.040365092 -0.22522558 -0.1777315 0.2302612 0.5004786 0.1744548 0.32400084 -0.5668846 0.48529932 0.2828023 0.081503406 0.20337428 -0.20698297 0.17448786 0.08111974 -0.25214458 -0.20641832 0.24275894 0.041461214 0.6940893 -0.12317796 0.5845709 -0.90731186 0.20896664 0.49224252
1291 0.535502 -0.45533267 -0.08763157 -0.12144245 -0.4567581 0.59019345 0.09840408 0.10298195 -0.2926416 0.08741468 0.07640099 -0.52733034 0.3048873 -0.5941799 -0.2825219 0.037040994 0.18343699 0.16409527 0.088068545 0.08645707 -0.051891297 -0.19395652 0.086475134 -0.23790614 -0.0002554907 0.5228182 -0.57482874 0.2858654 0.6823875 0.16769321 0.17444304 -0.08701351 0.07264445 0.08206864 -0.017202565 -0.433931 0.39649844 -0.0969287 -0.05727971 -0.1465234 -0.40026262 -0.5833969 0.140807 -0.4711067 -0.3167507 -0.49058354 0.5808962 0.033496298 -0.2126479 0.05412459 -0.091822274 0.43531555 -0.48031485 0.33114916 0.14435 -0.30427822 -0.29404545 -0.13515759 -0.4827358 0.46707293 -0.37192142 0.005377515 -0.19653079 0.7992934 -0.22160603 0.51128256 0.1330516 0.61538255 -0.4585912 0.49761125 -0.40653032 0.23569266 -0.46450758 0.37977552 -0.07698221 -0.5152589 0.15220764 0.41080043 0.5842189 -0.07145751 -0.44345942 -0.46495196 0.39213824 0.058077347 -0.015424249 -0.02378878 -0.20059207 -0.52378213 0.76950556 -0.38805476 0.199876 -0.08253737 0.37118804 -0.26316082 -0.2897146 -0.3101382 -0.094479404 0.15471677 -0.51697695 0.3762845 0.019325113 -0.31991512 -0.25697833 -0.033899218 -0.22314294 -0.12050298 0.20685583 0.41569382 0.15871145 0.3093625 -0.46079475 0.4038452 0.2445933 0.12307392 0.1854566 -0.11778962 0.15041952 0.10541316 -0.2111111 -0.14786929 0.23006211 0.059815813 0.57022417 -0.10931991 0.46661562 -0.7446235 0.19182447 0.39851126
2515 0.4781987 -0.20441782 -0.3167757 0.26180717 -0.28278357 0.8208128 0.6780074 -0.3905505 -0.0343499 -0.053713955 0.084375806 0.061551172 0.23458478 -0.6270523 -0.21788399 -0.17101462 0.22979568 0.8023123 0.20300412 -0.035867084 -0.075733714 -0.45925322 0.24266198 -0.13603555 0.24270615 0.34994587 -0.3940015 0.68523777 0.5516641 -0.23859493 0.1781176 0.031211572 -0.31254572 0.06859928 -0.2567922 -0.65420836 -0.008721175 0.058430456 0.2546104 0.41646463 0.040409565 -0.94292605 -0.7199425 -0.46583587 -0.4987988 -0.33267123 0.521294 -0.17919698 0.40990356 0.24346392 -0.034582723 -0.2620572 -0.46216866 -0.020279236 -0.020300863 -0.14898711 -0.5582027 -0.10175155 0.23489968 0.29776725 -0.21129836 0.011592606 0.57908654 0.61342317 -0.12439083 0.6167861 0.16527367 0.23478045 -0.548562 0.5631964 -0.13297383 1.1356407 -0.07543942 0.46541095 -0.17413402 -0.26282856 0.584257 -0.45592728 0.18058075 0.28158247 -0.2277593 -0.41127515 0.7416454 -0.013500648 0.046182998 0.35448062 -0.023584938 -0.3510443 0.6437935 -0.4629593 -0.09978138 0.4252307 0.45052645 -0.60129994 -0.25012052 -0.77892584 -0.38493216 0.25892287 -0.3284336 0.32369322 0.0096849715 0.28983527 -0.38875103 -0.013222198 -0.7414354 -0.026673 0.3331363 0.8886243 0.33198327 -0.17126967 -0.28883705 0.026396029 0.11848207 -0.009395784 -0.13340494 -0.25140432 -0.07342923 0.18849982 0.13657583 -0.30426326 0.16193691 0.35515472 0.964416 -0.32059664 0.16024487 -0.20211829 0.34677118 0.26532346
1531 0.5959312 -0.29515567 0.36202884 0.12522025 -0.21883091 0.7883434 0.041038178 -0.4116033 0.28530088 0.2592739 0.16023064 -0.5572971 0.41579634 0.014841719 -0.2651611 -0.15981852 0.11439829 0.23363727 -0.00056457095 0.67282116 -0.21102358 -0.27066272 0.18535113 0.32197395 0.044596575 0.76751477 -0.031176593 0.4784059 0.13578331 0.2123044 0.10933864 0.32499474 -0.1951836 0.043103524 -0.16778587 -0.2054642 0.022226939 -0.15725455 0.012051924 -0.1894953 -0.47889325 -0.7123423 -0.14652812 -0.18697397 -0.3127764 -0.44407725 0.5678385 0.13234897 -0.04328182 0.57653254 -0.5413389 -0.41065875 -0.6537897 0.23908845 -0.74529916 -0.27592438 -0.29183027 -0.08143073 -0.52750397 0.12575684 -0.46328312 -0.38866553 0.08633614 0.37065187 -0.49502662 0.5851999 0.1493834 0.3630445 -0.7976044 0.33589527 0.3511583 0.08408459 -0.58105946 0.6009463 0.03495433 0.18186034 -0.22127223 0.44632155 0.22778274 -0.7785245 -0.80213326 -0.4219454 0.09970811 -0.44073537 0.5218077 -0.1324898 -0.21110539 -0.40003872 0.924601 -0.42971677 0.30245963 0.19163208 0.21275406 -0.39942384 -0.38819358 0.02396748 0.08172213 0.039333794 -0.3391337 0.14681254 0.29270396 -0.45837513 -0.27859002 0.1473783 -0.41471326 0.070822634 -0.54345185 0.29353452 0.12707695 0.28109503 -0.18530679 0.32323524 0.81380296 1.2461343 0.295295 0.48223493 0.33594042 -0.0753692 -0.11551303 0.013715167 0.5485132 0.73202384 0.08436662 -0.44066516 0.4235468 -0.384575 0.3434638 0.010075366
1158 -0.25436956 -0.21861522 0.12175213 -0.75833094 -0.99843574 0.65966403 0.011991606 0.65250397 -0.28648522 0.11927009 0.45122412 -0.58960474 0.5205918 -1.0034628 -0.85975575 0.043956112 0.063393556 -0.31004018 0.52090216 0.13037096 -0.23126803 0.0062717055 -0.46218303 -0.5016726 -0.02159783 0.34223795 -0.32740083 -0.28165242 0.7247746 0.6696811 0.058436774 -0.4836567 0.3801507 -0.32818744 0.24062963 -0.8963033 0.518176 -0.1284803 0.37968484 -0.093933605 -0.014331983 -0.43490833 0.41183504 -0.065762185 -0.25963393 -0.29714504 0.21650358 0.24770136 -0.36692494 -0.049107824 0.12552375 0.06715384 -0.4132988 0.3380823 -0.28236896 -0.2386845 -0.42226496 0.008597294 -0.4890701 0.0007986062 -0.061144013 -0.25510675 0.08712602 0.8980855 -0.38244694 -0.013976466 -0.7293779 0.45863864 -0.6319697 0.58017176 -0.5809748 0.0008998162 -0.25859672 0.47706127 0.26411462 0.06298212 -0.4585935 0.3124357 0.89608437 -0.28868398 -0.4907584 -0.32687357 -0.16275723 0.7640321 -0.35747808 -0.15861362 -0.27254748 -0.35693288 0.8881861 -0.26918998 -0.39218378 0.3024107 0.036767896 0.1783613 -0.63329935 -0.18612099 0.3598072 0.2831965 -0.23738596 0.31148154 -0.05541985 -0.3563921 -0.5984303 0.13116886 0.4161235 -0.66676396 0.038695652 0.26397172 0.7339413 -0.19369355 -0.41397437 0.17311212 0.15925342 0.1261273 -0.18533117 -0.011642617 -0.117862895 -0.2797562 0.14780717 -0.49529514 0.474495 0.36568436 0.419627 0.114951305 -0.07469299 -0.13733506 0.27729315 0.6746814
1211 0.3573858 -0.6517494 -0.11658929 -0.2537933 0.4448769 0.6148493 0.26561922 -0.27711865 -0.236663 -0.42577982 0.2856379 0.32597312 -0.05666416 -0.6975895 -0.81311655 0.3742644 0.401669 0.2838641 0.24286143 0.37785718 0.09109516 -0.27966294 0.18018733 -0.50129366 -0.058369778 0.58077633 -0.62228286 -0.025225831 0.5360341 0.07968284 -0.12919404 0.20915249 -0.1886903 -0.08351842 -0.10339111 -0.2583262 0.54262257 -0.18005584 -0.20824856 0.36766148 -0.24610984 -0.38648397 0.3882044 -0.65913206 0.19677958 -0.28200302 0.47968563 0.10437483 -0.23639345 0.2855025 -0.49990365 0.36217666 -0.5814522 -0.5387518 0.45992562 0.10786662 0.015489703 -0.37056214 -0.8391796 0.12756099 -0.2834107 0.19731534 0.14767925 0.33481574 -0.77220184 0.15003443 -0.06385216 0.7369182 -0.17465477 0.029157808 -0.1809439 0.23017168 -0.3771568 0.8305385 -0.3537504 -1.3209612 0.53860515 0.8761447 0.85396236 -0.09257944 -0.3320161 -0.41058066 0.86038786 -0.053572845 -0.07269775 -0.54955924 0.35337737 -0.32016876 0.54587835 0.3277474 0.15237375 -0.006604761 0.5364686 -0.043751616 0.47810802 -0.5657974 -0.16717133 0.3913972 -0.35895595 0.47149804 0.4959671 0.10633333 0.061689023 0.48138088 -0.30338266 -0.12856348 0.07694986 -0.04938015 -0.053701587 0.09528873 -0.79787254 0.43362296 0.6536781 -0.16157341 0.061777696 0.54320043 0.20980611 0.6347563 -0.018610187 0.22990134 0.21840057 0.16146338 1.2211503 -0.7398216 -0.19429517 -0.6502959 -0.22234087 -0.0044437093
255 0.7748249 0.24404314 -0.12852266 -0.07247351 -0.052166525 0.31964636 0.020281564 0.23552833 0.023257636 0.20136668 -0.28405967 -0.9403019 -1.7588382e-05 -0.3264172 -0.14100814 -0.5404318 0.26388732 0.8316737 0.28713655 -0.38108158 0.039217357 -0.26274338 -0.55500215 0.28498268 -0.34768102 0.5867012 -0.8391162 -0.08594844 0.1253496 -0.010166888 0.09815231 -0.010682231 -0.2996661 0.14832132 0.25021654 0.13577679 0.12740001 0.08082447 -0.07043745 -0.42500916 -0.74637884 -0.31894076 0.39725295 -0.070727505 0.4138317 -0.82997656 0.2803586 -0.16164882 -0.30266502 -0.079538316 -0.12677206 0.09410459 -0.025595777 -0.11110047 -0.048705555 -0.42012194 -0.25033438 0.014056099 -0.97042775 -0.09277138 -0.5626675 -0.43766204 -0.29492274 0.50720775 -0.29527643 0.5321007 0.3737646 0.05802166 -0.42410168 0.49389327 0.0107461335 -0.3865062 -0.9246164 -0.5436546 -0.7355754 -0.46996078 -0.16723938 0.29310435 0.3375527 0.16822132 -0.31949422 -0.77540183 0.7480871 -0.18614453 0.40565723 -0.2523893 -0.08684533 -0.9756392 0.810817 -0.2104651 0.06511455 0.029669328 0.08140358 0.065251015 -0.54445374 0.32012898 0.0016699934 0.074589364 -0.41510662 -0.52289724 -0.023094047 -0.38339788 0.24336898 0.18292409 -0.36828685 -0.3983633 0.40818918 0.53400767 -0.12670667 0.365434 -0.23262765 -0.06038987 0.35049516 0.5040169 0.15052661 0.059597682 0.14570402 0.56081384 0.17311907 -0.23453403 0.19225574 0.17415707 0.8308336 -0.08023922 0.2312129 -0.6893209 0.24397315 0.6942128
2068 0.39274436 -0.26832724 -0.6883248 0.1514037 -0.11547273 0.6499782 -0.15479594 -0.2268602 -0.000588464 -0.29136586 0.23659764 -0.12218135 0.73469895 -0.089250244 0.2846514 0.45848775 0.5540727 0.3146205 -0.06821617 0.07355418 0.060041133 -0.17556664 0.2673624 -0.62246627 -0.34435567 0.41828105 -0.40990892 0.18697199 1.2771834 0.24816999 -0.12076816 -0.17729172 -0.24909496 0.42991275 -0.49187067 -0.90945697 0.23682849 0.3645184 -0.07890767 0.53876483 -0.020871611 -0.49828544 0.039382342 -0.007859577 0.29190964 -0.28390908 -0.17125997 -0.19208737 0.24500744 0.090059474 0.057474058 -0.21869935 -0.15551189 -0.044651665 0.11434996 -0.29822904 -0.19758232 -0.138389 -0.16655296 0.2804428 -0.59612226 0.024456713 -0.15804173 0.9403852 -0.019093117 1.0881003 -0.045185696 0.757485 -0.39283052 0.80643004 -0.31180537 0.30887213 -0.28970584 0.23404905 -0.34003234 -0.24674289 0.41633773 0.36881974 0.7734119 0.026955185 -0.5135662 0.2256405 -0.07426013 -0.19732998 -0.46796843 0.08326277 -0.31891248 -0.65578336 0.5225275 -0.16923691 0.2255858 -0.21305047 -0.40302923 -0.23910895 -0.116917625 -0.61169285 0.07972942 0.032281965 -0.17541847 0.06970835 -0.5971654 -0.66101134 -0.5381596 -0.28917477 -0.23454018 -0.3042315 0.5148844 -0.035115473 -0.10393495 0.2518565 -0.4236986 0.4222095 0.38237715 -0.39209324 0.35615796 -0.050266035 0.20149481 0.030774588 0.35627347 -0.47339877 0.5870654 0.38795105 0.046259057 -0.0085197175 0.06284407 -0.5469418 0.0041684494 0.69841975
475 0.4018328 -0.3582862 -0.0720502 -0.089688376 -0.33497712 0.4675669 0.12847711 0.097529836 -0.24125484 0.07950916 0.06283046 -0.3877906 0.22829615 -0.44267112 -0.22084436 0.035873864 0.15917458 0.11868831 0.08535895 0.046167105 -0.0529354 -0.16877855 0.06986625 -0.21304226 -0.017050916 0.3827921 -0.44399592 0.2541819 0.55123097 0.10496733 0.10929968 -0.1039814 0.043643594 0.04341524 -0.019540712 -0.3374256 0.26383293 -0.092583865 -0.08146697 -0.09288727 -0.29868788 -0.47819084 0.09878483 -0.36541587 -0.2346439 -0.37926275 0.47487098 0.02636977 -0.16123688 0.027230032 -0.10142034 0.29697415 -0.3935033 0.24816163 0.1376721 -0.22988354 -0.2486108 -0.09237913 -0.38433936 0.36637628 -0.2630837 -0.004859181 -0.15214312 0.6197049 -0.16755915 0.39484623 0.082992636 0.48256695 -0.36498618 0.38560033 -0.31556153 0.19646168 -0.36481053 0.2662101 -0.050147787 -0.4559016 0.12271622 0.28128707 0.42217883 -0.04870045 -0.3497764 -0.37722963 0.31901625 0.05304927 -0.0023578957 -0.008354232 -0.15067014 -0.4254392 0.60459936 -0.29984215 0.13795261 -0.055811513 0.30308598 -0.22061881 -0.25084782 -0.22438106 -0.08261071 0.14508191 -0.39993146 0.30166417 -0.031333026 -0.26806027 -0.22636011 -0.004752741 -0.1733845 -0.10426362 0.119499564 0.3214951 0.13469411 0.23750462 -0.36723164 0.3239446 0.23441577 0.095503815 0.1168878 -0.102427 0.11934768 0.09598796 -0.14751026 -0.14000991 0.17775397 0.036766194 0.47101495 -0.09365888 0.36103052 -0.59931016 0.15637556 0.30594727
1582 0.6042372 -0.17200705 -0.103967324 -0.10606404 -0.20103286 0.98699945 0.83076525 0.2029146 -0.3820135 -0.41479364 -0.28862378 -0.15163691 0.29438558 -0.96480954 -0.5780101 -0.19488038 0.08667047 0.4543936 0.20493186 -0.0097233765 -0.135839 -0.15050161 0.40225726 -0.5953414 0.36998013 0.33286875 -0.42644715 -0.13687079 0.68554294 0.4578037 0.09072019 0.44962916 -0.120355755 0.0073533263 -0.07412685 -0.1978099 0.17204909 0.31191498 0.091832 0.18916668 -0.18056536 -0.69154745 0.03738979 -0.65017545 0.042314846 -0.22310723 0.59592724 -0.5149515 -0.34077495 0.055053778 -0.4128051 1.058357 -0.7066874 0.16778336 -0.08711977 -0.14379919 -0.064444415 -0.36910093 -0.47848487 0.301177 0.014590517 -0.34774807 0.22954212 -0.01672375 -0.61258614 -0.36981717 0.3619982 0.74680626 -0.112563305 0.59440815 0.015159219 -0.13559459 -0.16868961 0.026888667 0.37898123 -0.6349856 0.28898838 0.1831055 0.26416567 0.09174149 -0.4715376 -0.76831704 0.64123005 -0.22937925 0.1653752 -0.14954461 0.021626452 -0.24171616 0.744042 0.37940544 -0.27656218 0.20175962 0.06669491 -0.4106773 -0.43886727 -0.38209906 0.38864768 -0.24236658 0.06365579 0.4122272 0.8686734 -0.72162783 -0.42473787 0.37372008 -1.0441698 0.23885724 0.1016755 0.52201736 0.14055896 0.41225666 -0.4145166 -0.003304703 0.12358971 0.96775687 0.08864588 0.49195328 0.045195147 0.75436234 0.32192516 0.49280718 0.40354276 -0.06370813 0.35803297 -0.44300583 -0.016685573 -0.7246737 0.48432884 0.20968898
2532 0.32328257 -0.15013584 -0.11103681 0.14216347 -0.36190352 0.4200557 0.40832815 0.49188092 -0.28545806 -0.19481187 0.504673 -0.3580039 0.07299597 -0.8445227 -0.43688557 -0.53000295 -0.146996 0.5364579 0.018323066 0.18530756 0.47199696 -0.16374354 0.16538738 -0.36363 -0.07572559 0.7937177 -0.47609547 -0.12147822 1.0293546 0.40413296 0.29088718 -0.52598035 -0.3835044 0.14827266 -0.37147808 -0.032374207 0.11266553 0.28788242 -0.42411432 -0.014391396 -0.45187405 -0.92625237 0.5870708 -0.20070569 0.013336405 -0.28183815 0.82464427 -0.035264682 0.17786527 -0.01793371 -0.3953923 0.27096668 -0.22759527 0.52140176 0.050524104 0.0102002565 -0.43522304 0.5766762 -0.9317239 0.05304961 -0.42267615 0.24860753 0.30847123 0.50118726 -0.81094724 -0.21584348 0.5741446 0.4537361 -0.058924645 0.6463745 -0.16707611 -0.35488603 0.00068679714 0.18890035 0.76580745 -0.8473771 0.21312632 0.3747424 -0.15521921 -0.24157293 -0.61635673 -0.20044321 0.4359718 0.5273472 0.576307 0.42937812 0.35833555 -0.78900105 1.3306109 -0.08055468 0.41310042 0.28076586 -0.0034819795 -0.23731399 -0.5419436 -0.06324364 0.53061986 -0.2760593 -0.77336514 0.031172367 0.03420445 -0.2761309 -0.21641251 0.49393097 -0.07502705 -0.17523295 0.21525177 0.74030215 0.84486735 0.10486023 -0.18947548 0.1454394 0.18097141 0.6065463 -0.23114853 0.20327337 0.077552855 0.18952045 0.21502392 -0.19505064 0.011423473 0.20131724 0.0847663 -0.17006725 0.16658811 -0.19473277 -0.20186986 0.09572046
1865 0.49892318 -0.41113943 -0.10035201 -0.14251171 -0.39558873 0.5750108 0.10354388 0.10741598 -0.27201298 0.09006666 0.07953829 -0.51431334 0.25983635 -0.5618781 -0.2562262 0.049701408 0.19623294 0.13052471 0.083095565 0.09345873 -0.034642424 -0.18367301 0.059439097 -0.25450045 0.018036185 0.48936397 -0.55380756 0.27759114 0.63185954 0.14459032 0.15005787 -0.10660629 0.093112566 0.06520261 -0.014536372 -0.40533745 0.37214473 -0.102843516 -0.07702316 -0.15244573 -0.39544922 -0.5431068 0.14470884 -0.44736576 -0.33072543 -0.44425508 0.5801921 0.04688201 -0.21257068 0.032450855 -0.098818816 0.3894951 -0.4746394 0.33541483 0.15623419 -0.2843019 -0.30356467 -0.09018739 -0.46469894 0.44268912 -0.34405294 -0.00032017575 -0.17618251 0.75781965 -0.2054222 0.45577848 0.113398105 0.5822285 -0.4463916 0.4778343 -0.38859203 0.22775136 -0.45215717 0.3716556 -0.059297014 -0.47946694 0.12972893 0.39516976 0.54924583 -0.056785468 -0.42595965 -0.42532104 0.34758788 0.057030197 -0.009682257 -0.010494079 -0.19311506 -0.5292747 0.73493373 -0.36003217 0.18674831 -0.062753886 0.3688723 -0.24086136 -0.29699105 -0.30747175 -0.09189115 0.15050231 -0.5131227 0.35596538 0.016478311 -0.2893612 -0.29419073 -0.043959893 -0.19656782 -0.11609653 0.14943218 0.4105588 0.1491933 0.28839615 -0.46026254 0.39006644 0.24289845 0.116412565 0.17188813 -0.11931869 0.14020345 0.08736468 -0.18714538 -0.13546018 0.2167381 0.016780132 0.55369955 -0.13853575 0.44686458 -0.7089368 0.16672768 0.3635634
900 0.6978949 -0.078351796 0.74210614 -0.32254001 -0.38604107 0.23942791 0.4056615 0.04977786 0.15758865 -0.3206676 0.08181279 -0.49654618 0.2038451 -0.48317438 -0.20279999 -0.57082593 0.38446936 0.25289595 -0.20067893 0.25999457 0.3411764 0.11085506 0.1202369 -0.49504003 0.08637797 -0.17109428 -0.5980983 0.025666041 0.5115145 0.34092408 -0.39301887 -0.39202124 0.25390667 0.13044238 0.27313575 -0.3557844 0.4574856 0.06767187 -0.17194064 0.098366626 -0.9526895 -0.5582088 0.4988301 -0.3975899 -0.43609276 -0.35624593 0.327001 -0.20228395 0.025186561 -0.5783961 -0.5021359 -0.17950323 -0.73997533 0.30706203 0.5746836 -0.33627972 -0.29485205 -0.49375182 -0.06723004 -0.0067316596 -0.51881695 0.24494986 -0.32198176 0.70684844 -0.24960381 0.2498292 -0.15366822 0.8212957 -0.40388864 0.013841004 -0.6449814 0.40096036 -0.623778 0.61183 -0.22896868 -0.6905152 -0.08466318 0.4465676 0.5199151 -0.113620356 -0.26065752 0.18111484 0.29496366 -0.59645635 -0.23621227 0.54054856 -0.18765637 0.42842638 0.14920105 -0.19903046 0.14819837 0.005472006 -0.023061708 -0.024461536 0.035258252 -0.48210624 0.009454211 -0.005373608 -0.21866313 0.12401762 -0.21051824 -0.104438454 -0.13078585 0.33345038 -0.26605877 0.30351233 -0.16564426 0.41017774 0.34869182 0.29009065 -0.65051234 -0.049773287 0.08521756 0.057603598 0.35232273 -0.2621564 0.3319659 -0.44148785 0.06689056 0.3513487 0.135592 0.25696245 0.6215357 0.1516159 0.524265 -0.23121668 0.3338261 0.13898459
1754 0.33105692 0.02525405 -0.32860035 -0.09079336 -0.56887144 -0.13161154 0.056806214 0.028613854 -0.15329747 0.16836943 0.012078376 -0.61381024 0.16289118 -0.088551395 0.3518482 0.19331937 0.11452986 -0.20636939 0.29232094 -0.18281174 0.0071096155 -0.32800922 -0.10141393 -0.096360095 0.1422647 -0.041374877 -0.6956695 0.14775041 0.38591924 0.14752395 0.20156682 -0.19559038 0.23477933 -0.07695696 -0.06308254 0.0753059 0.012953872 -0.34128472 0.21899624 -0.2858395 -0.5415328 -0.10119499 0.0074755345 -0.31798843 -0.36046872 -0.48717082 0.31936958 0.0511503 -0.26236096 -0.43257007 -0.23916492 -0.053241026 -0.34108496 0.6094624 0.16371575 0.09979619 -0.5141484 0.12982881 -0.19871624 0.55756795 -0.03270457 0.1336242 -0.11835885 0.45396435 0.017227111 0.4601891 0.14136356 -0.1293689 -0.13454206 0.40687576 -0.47680485 0.0951123 -0.3946596 -0.17440048 -0.106210366 0.12608244 0.07839103 -0.067943305 0.58907837 -0.19000947 -0.34655008 -0.28536615 -0.274469 0.17002413 -0.2618318 0.2578105 -0.5310491 -0.58084226 0.2690829 -0.8008289 0.42260283 -0.0416946 0.37456596 -0.16880867 -0.6820464 -0.20559551 -0.19795397 0.119293556 -0.6141453 0.2322399 -0.1056044 -0.23884557 -0.28002626 -0.10883628 -0.09188052 -0.12839179 -0.22201142 0.5018251 0.21422148 0.14288741 -0.10074402 0.27444115 0.11571706 0.02949919 0.23876509 -0.55069894 -0.086248584 0.11513035 0.057944793 -0.03973393 0.070722595 -0.13528776 0.09528892 0.2109327 0.5007231 -0.5091675 0.05488827 0.11812072
1435 0.26181144 -0.03355837 0.029465107 -0.2599747 -0.31520852 0.36021563 0.3635507 -0.038334634 -0.4068188 0.06365302 0.3351844 -0.089652635 0.2766241 -0.7479741 -0.39205363 0.6099025 0.32510924 -0.008712103 0.37304825 -0.22378121 0.24905764 -0.34593427 -0.19044027 -0.11685437 -0.45516908 0.2512076 -0.58385366 0.017149923 0.32891473 0.09757647 -0.082606606 -0.031902194 -0.23257767 -0.2008617 -0.22449054 0.122706845 0.05354252 -0.49853277 0.068896964 0.521009 -0.1333157 -0.41875434 0.7784672 -0.3822511 -0.19888349 -0.93694973 0.19017558 0.07352303 -0.25445518 0.08644758 -0.40628868 0.28188342 -0.75539833 -0.42903706 -0.39078578 0.23098923 -0.74030256 -0.6108121 -0.48459232 -0.13481969 -0.5743438 -0.3586582 0.0413243 0.5177482 -0.5316855 0.49262968 -0.07316878 0.74034935 0.10828733 0.07472128 -0.27039072 0.3572286 -0.58514446 0.31079614 -0.08970804 -0.45119813 0.509975 -0.021598049 0.38567796 0.28950426 -0.1316022 -0.5425597 0.68145525 0.30670974 0.3164831 0.47958377 0.30778706 -0.50683254 0.37206927 -0.2879061 0.043443628 0.3528877 0.46233195 0.4432852 -0.5985513 -0.35398692 -0.075701445 0.081818976 -1.0053313 0.13298942 0.011527608 -0.2578621 -0.112678096 -0.37201563 0.29550114 -0.13027248 -0.020227548 0.23931824 0.4701379 -0.14059612 -1.0796815 0.28434667 0.45491764 -0.12762377 -0.38364235 -0.07676861 0.096281536 0.14930503 -0.14599153 0.102299675 -0.12337273 0.33084637 0.53504723 0.026067609 0.59785366 -0.5301167 0.2627372 -0.3282968
1233 0.5481616 -0.23648797 0.23785613 -0.07636932 -0.53419554 0.35220557 -0.0679874 -0.18394409 0.0017048842 0.14442936 0.003778006 -0.04013766 0.42038426 -0.35794404 -0.4233993 0.30656812 0.18700068 0.43498924 0.08178791 0.6071101 -0.17598471 0.3969399 0.18153541 -0.44680077 -0.27939117 0.74305505 0.3336763 0.6118109 0.3919134 -0.01525864 0.07934642 -0.22358981 -0.026792174 0.5719537 -0.038801853 -0.5526277 0.14259547 -0.2015735 0.039302353 -0.36620393 -0.26325017 -0.18564038 0.26857343 -0.774838 -0.68214846 -0.12628075 0.4270648 0.16716729 -0.025044331 -0.087086216 0.5465053 0.03897023 -0.18081327 0.6845634 0.07044165 0.3881981 -0.5856015 0.016757093 -0.10040473 0.6488949 -0.6678247 0.30879658 -0.031835556 1.1520818 -0.38319454 0.4552077 -0.49590677 0.5977502 -0.9054756 0.17090677 -0.6580736 0.6557819 -0.21359412 0.8351453 0.34189305 -0.5151126 0.29051116 0.8318335 0.71165293 0.3456093 -0.10119739 -0.17763682 -0.2931202 -0.015412457 -0.027234187 -0.67653525 -0.26355204 0.0056023444 0.28283408 -0.027630381 0.22988725 -0.041808184 -0.09486816 -0.26751778 0.1702525 -0.8036883 -0.16103175 0.40769482 -0.14951085 0.42052168 0.141529 -0.16099147 -0.0640449 -0.03889855 -0.18944947 -0.2191857 -0.0081355255 0.5964041 0.26022738 0.07305315 0.063742064 0.24878725 0.3492896 0.07639768 0.3563745 -0.19701056 0.38659444 0.044105537 -0.159192 0.19059859 -0.25730044 -0.14429654 0.2041245 -0.49744377 0.66290796 -0.3691244 -0.5159448 0.41693416
109 0.33005148 -0.13354257 -0.3466604 0.034549233 -0.5781743 -0.081640005 0.08174183 -0.090826996 -0.1798102 0.20729883 -0.04204054 -0.6158604 0.22738063 -0.07738657 0.41141424 0.21963498 0.08385594 -0.19385904 0.18311355 -0.061630674 0.10459399 -0.31223968 -0.15000002 -0.14005604 0.13848428 -0.04349155 -0.5026666 0.2557428 0.3343424 0.007821728 0.25186357 -0.13788413 0.15564926 0.054320566 -0.10148775 0.081073664 0.03468923 -0.35403755 0.26167384 -0.34583658 -0.5846243 -0.10826447 -0.04480399 -0.3941591 -0.36215594 -0.41908273 0.44521657 -0.013531707 -0.2325691 -0.36950606 -0.16703536 -0.06272265 -0.24564274 0.640553 0.10387754 0.14805265 -0.4765059 0.21797244 -0.14402017 0.60517496 -0.0648902 0.19412108 -0.20128147 0.5200433 0.05074325 0.4991412 0.12317171 -0.02638211 -0.32684827 0.36625177 -0.42535838 0.24792124 -0.39917403 -0.06680971 -0.090250574 0.04750497 0.03788153 0.049032103 0.5561701 -0.17609294 -0.2613936 -0.371144 -0.33570474 0.05894697 -0.27806997 0.2371664 -0.57085824 -0.52425474 0.20456219 -0.7422336 0.43353122 0.0011551896 0.25622126 -0.18501176 -0.5742535 -0.2884148 -0.31876513 0.22901452 -0.6234373 0.19401793 -0.20061591 -0.19907056 -0.31057653 -0.19390899 -0.029137872 -0.11167316 -0.21579798 0.6146814 0.17258136 0.072984554 -0.06726736 0.3406358 0.04346716 0.06415865 0.16306381 -0.6242359 -0.023200676 0.1637516 -0.033806514 0.0005774569 -0.033254158 -0.10551125 0.07190976 0.13389434 0.4802985 -0.5135575 0.005328473 0.18927564
382 0.48670757 -0.4329951 -0.104446635 -0.1295569 -0.4128062 0.5713409 0.08816185 0.13276264 -0.27034435 0.088276595 0.08740225 -0.51186895 0.25853947 -0.5600764 -0.25499403 0.035035446 0.20169285 0.14842221 0.080458194 0.0742474 -0.0253152 -0.19252457 0.062388066 -0.2584168 0.018139865 0.48776287 -0.5465334 0.28837353 0.62850547 0.136001 0.15850453 -0.09944758 0.08106201 0.05628881 -0.013316312 -0.38734487 0.34637192 -0.101932645 -0.095251955 -0.14608885 -0.38547015 -0.5457494 0.14328219 -0.43441167 -0.31131837 -0.4599648 0.5787543 0.046882816 -0.20892328 0.031158505 -0.111570455 0.37203407 -0.46329513 0.32036212 0.16306728 -0.30590814 -0.28253102 -0.08869961 -0.46327695 0.4373601 -0.34753963 -0.018469526 -0.1694728 0.755673 -0.21825138 0.464047 0.12441651 0.5608931 -0.43737105 0.48600754 -0.3889418 0.22011624 -0.45626983 0.363027 -0.077659525 -0.48261353 0.13443539 0.39113453 0.5502494 -0.07392888 -0.41743362 -0.43333814 0.3462027 0.06803464 0.00458618 -0.009009225 -0.19810697 -0.524988 0.72747225 -0.377659 0.18574251 -0.07553367 0.37559897 -0.25094604 -0.28955647 -0.2973449 -0.08007704 0.15225367 -0.52903825 0.37140262 0.017531537 -0.29580903 -0.2844999 -0.032877333 -0.18686976 -0.12036744 0.16138144 0.4025832 0.14345461 0.277465 -0.4469369 0.39369085 0.23878801 0.10373762 0.16254744 -0.12603445 0.1411968 0.09685146 -0.2006782 -0.14923403 0.22862326 0.027689923 0.5564625 -0.12601651 0.44071564 -0.71592295 0.17835477 0.3707718
2091 0.5095055 -0.049707297 0.01696269 0.14418302 -0.44630244 0.3413619 0.26315695 0.5877607 0.120441906 0.39552534 -0.2691571 -0.39596105 0.18227325 -0.5815819 0.16920584 -0.3394743 0.38050458 0.3586923 0.21325003 0.54478467 -0.37170666 -0.772717 -0.04639424 0.27454397 -0.0042708875 0.28703132 -0.5297971 0.06607541 0.26057744 0.030053375 0.10148617 -0.23244059 0.28569004 0.029747404 0.33528414 -0.1830694 0.4199883 0.53980136 0.0041899835 -0.24738263 -0.5547737 -0.801021 -0.18952285 0.30550584 -0.05954192 -0.42017487 0.9703734 -0.07258061 -0.49816677 0.15034907 0.22387528 0.7443333 -0.59876925 0.28053224 -0.04597111 0.034448043 0.109370336 0.16496384 -0.8866027 0.48895955 0.16020066 0.06972868 0.0839721 0.3859552 0.0653944 -0.717172 0.2643165 0.37281832 0.19394393 0.6382769 -0.22126019 0.03672826 0.052977525 0.19458038 0.26375052 -0.09638539 -0.2908522 0.3907919 0.952141 -0.082160994 -0.79401535 -0.010844722 0.037625168 -0.26779693 -0.06639782 0.41771108 0.12227841 -0.79249626 1.0433415 -0.35426396 -0.114507616 -0.14577796 0.43763772 -0.281472 -0.31984636 -0.42348713 0.07941271 0.41975573 -0.12472286 0.20679824 0.36216453 -0.80377465 -0.7005394 -0.3140398 -0.31806272 0.08163264 0.29244265 0.42324722 0.010388935 0.014731833 -0.42344296 -0.017170582 0.052555166 0.19701661 -0.20505169 -0.15476613 -0.267869 -0.32134742 -0.49846098 0.28157884 0.04326008 0.46707618 -0.003563596 -0.15094751 0.20629542 -0.86244893 0.8354052 0.1251573
1828 0.32197893 0.4767018 -0.10703569 0.033396777 0.07756702 0.3672708 0.43533713 0.042832658 -0.5773013 -0.32393545 0.41670355 -0.12931348 0.2346749 -0.131841 0.40235084 0.18237312 0.66015744 0.129036 -0.072607204 -0.6324931 0.2040025 -1.0807121 -0.05407267 -0.34216487 -0.115564354 0.30804893 -0.67117745 0.33451635 0.5736383 0.02495093 0.1198788 -0.4704007 -0.021572486 0.23974027 0.17569333 -0.035320923 0.5636882 0.24468549 -0.17945026 -0.19195504 -0.42842475 -0.2777804 0.17917344 -0.5705231 0.028330078 -0.3065685 1.0505427 0.04050751 -0.19265988 0.22592784 -0.2020137 0.70117956 -0.5268241 0.09853267 -0.046795104 -0.39121073 0.20199096 -0.20447066 -0.5318731 0.3643975 -0.15941781 -0.16877693 0.13806203 0.4879544 -0.2859139 0.48382217 0.47759065 1.1092197 -0.34019098 0.36452726 -0.32565174 -0.19039863 -0.7788653 0.16963048 -0.581954 -0.27522534 0.42507237 0.37473112 0.41325703 -0.15481487 -0.09946544 -0.18789923 1.2006679 -0.42677534 -0.18599962 0.018886426 -0.029663796 0.1718907 0.44788444 -0.36060482 0.37289944 -0.58435065 0.42334053 -0.2724756 -0.014026805 0.05228318 -0.568746 -0.417056 -0.4073509 0.06558579 0.5143637 0.07841717 -0.2094391 -0.14687675 -0.4512322 0.09126414 0.5056335 -0.018563738 -0.3504649 0.4658207 -1.0009179 -0.012961053 0.05335564 0.13431346 0.101280145 0.30940437 0.2934398 0.3995218 -0.011999041 0.3600047 0.46737632 -0.16636202 0.48232526 -0.39758325 0.100003585 -0.3651967 0.5246064 0.31818628
1338 0.19170257 -0.27215493 -0.22054526 0.17368054 -0.67125666 0.24943084 -0.09616025 0.04322788 -0.29871857 0.36380795 0.05585317 -0.58589953 0.106041186 -0.035298605 0.3390308 0.20739295 0.101541124 -0.14080836 -0.08208301 -0.0055380175 0.22394806 -0.349653 -0.30712646 0.14486715 0.41800284 0.0641789 -0.41353518 0.29101655 0.20039202 -0.17796826 0.2055127 -0.105201505 -0.10936866 -0.10228961 -0.13243446 -0.030582046 0.23765016 -0.33649778 0.093194075 -0.39026886 -0.4282705 -0.3256627 -0.04207973 -0.30505815 -0.58466345 -0.31607822 0.53134066 0.19404382 -0.08501253 -0.08295849 0.026695943 -0.28999135 -0.063256726 0.543473 -0.19509225 -0.25660697 -0.5040733 0.3232396 -0.11755106 0.24742994 -0.23911016 0.13698131 -0.3326934 0.6652243 0.036312934 0.36350513 0.08798664 0.21149883 -0.4009727 0.41307715 -0.3146278 0.42923328 -0.4724476 0.082943 0.12314116 -0.05083531 0.043084826 0.24292096 0.28034073 -0.11067157 -0.12558205 -0.42251247 -0.20657215 0.0042821323 -0.021022305 0.19303618 -0.38959825 -0.60518926 0.31107292 -0.60528153 0.23115301 0.1242521 0.26325777 0.14248542 -0.2662047 -0.22631907 -0.30631742 0.36333096 -0.6730829 0.06998406 -0.23469262 -0.17269288 -0.19539537 -0.1978025 0.35115993 -0.12819664 -0.07675788 0.6298692 0.16424957 -0.099795446 0.0500686 0.5454422 -0.10567903 -0.13053834 -0.12584075 -0.60507673 0.10426245 -0.24560174 -0.5010676 -0.08278964 0.07405278 0.06309582 0.121944614 0.13788997 0.4947965 -0.5582873 0.06180461 0.13948452
979 0.5175087 -0.50051343 -0.07226732 -0.041855127 -0.40588486 0.2829684 -0.15993541 -0.069558136 -0.03359067 0.18171662 0.16264565 -0.23887318 0.30799586 -0.33195654 -0.55382156 0.41543788 0.09828529 0.49893188 -0.12216639 0.5975002 -0.3790836 0.5034036 0.4429703 -0.54972285 -0.3663496 0.5182816 0.23093952 0.33445287 0.8013698 0.24009757 -0.111426294 -0.12657754 0.005846216 0.27041435 0.1917742 -0.58703595 0.28491476 -0.11675248 -0.11171124 -0.15376388 -0.353533 -0.14423032 0.32780614 -0.8164141 -0.27912375 -0.122442305 0.39825806 0.46283635 -0.058328144 -0.28806305 0.5332965 0.4607554 -0.35018033 0.5903086 -0.1280963 0.0796348 -0.30655372 -0.024129035 0.07581915 0.46247694 -0.8234943 0.38736284 0.08925818 0.9120169 -0.18124464 0.2235333 -0.29853228 0.46966833 -0.73161745 0.19355805 -0.6562762 0.658875 -0.24968176 0.79805243 0.23614614 -0.34878403 0.37064156 0.7357573 0.59788686 0.19999202 0.020903435 -0.28958014 -0.3206592 -0.00922631 -0.28821588 -0.29426432 -0.21323876 -0.052351438 0.46844497 -0.103183866 0.12684295 0.1253348 -0.07818488 -0.04679485 0.26667598 -0.7423192 0.018375313 0.4747182 0.06182831 0.54758215 0.004967773 0.07073762 -0.24979556 -0.07177378 -0.013209245 -0.3981265 0.14487116 0.41479173 0.41438788 -0.10629996 -0.04027079 0.33286712 0.3013425 -0.2099499 0.5230078 -0.3800836 0.43764946 0.23100959 0.027388401 0.0021627606 -0.4593269 -0.3294976 0.303704 -0.44457552 0.40028548 -0.3233801 -0.24270655 0.59347606
1190 0.4941413 -0.0679893 0.03585847 0.109661676 -0.44331262 0.36647248 0.28141636 0.5879402 0.11646361 0.41923502 -0.25453615 -0.42689565 0.19284503 -0.5669591 0.17803738 -0.35295972 0.37697428 0.3670457 0.19837525 0.5352723 -0.3947116 -0.78189546 -0.0366131 0.31131524 -0.008944725 0.27817956 -0.5401251 0.063796245 0.28949863 0.032733914 0.111348264 -0.24122015 0.3010295 -0.009953032 0.3247758 -0.22093272 0.46951488 0.52749133 0.044044882 -0.25213668 -0.54376966 -0.81199515 -0.19930229 0.3109435 -0.057448823 -0.41184565 0.94764525 -0.0709089 -0.4758847 0.16483632 0.1765061 0.71132654 -0.5988795 0.27731565 -0.054460518 0.0004905371 0.11330783 0.12805916 -0.8647221 0.49654913 0.17901024 0.06773173 0.06490358 0.39103052 0.07368181 -0.70657724 0.26458254 0.39995867 0.18094474 0.6797411 -0.23142828 0.04285298 0.017083393 0.19377379 0.2658023 -0.06921924 -0.3092015 0.38583407 0.9530879 -0.11243924 -0.7964854 -0.014643356 0.071064025 -0.29891735 -0.12349541 0.4171396 0.105053075 -0.7898104 1.0599105 -0.37349325 -0.13310261 -0.16073611 0.42349955 -0.27490208 -0.336274 -0.40780747 0.06913777 0.41482085 -0.12356885 0.22748888 0.34349266 -0.8091271 -0.73031425 -0.29839644 -0.31570366 0.07830507 0.31059498 0.41688102 -0.015958618 0.0012779826 -0.4086657 -0.027243657 0.04617798 0.20939748 -0.20769419 -0.13133152 -0.2686992 -0.33558387 -0.5015579 0.26273188 0.05409114 0.48974696 0.00024293154 -0.1397464 0.18627794 -0.87008506 0.86567366 0.14045413
1098 0.4928447 -0.43838355 -0.10709094 -0.14144139 -0.41071725 0.5767809 0.093040735 0.14162865 -0.27307132 0.09062364 0.085593954 -0.51784486 0.261465 -0.5601064 -0.25965902 0.03546584 0.20868039 0.14876716 0.086091205 0.07820985 -0.026130442 -0.18827742 0.06175931 -0.26742014 0.02251081 0.48650724 -0.55775666 0.28692684 0.64355034 0.13072704 0.16467749 -0.106585704 0.08325084 0.052281126 -0.01407859 -0.39941645 0.34929267 -0.10824243 -0.09690817 -0.14618614 -0.39550644 -0.55054104 0.14108363 -0.44216225 -0.31062296 -0.46071926 0.5825794 0.04567566 -0.21403195 0.027032148 -0.11035136 0.37436885 -0.47685456 0.32035288 0.16533802 -0.30337027 -0.27748984 -0.083323725 -0.4715748 0.43715766 -0.36581334 -0.02471195 -0.17032903 0.77324504 -0.22298324 0.474841 0.12459242 0.5697611 -0.44297573 0.490395 -0.39705572 0.2202143 -0.4613917 0.36872238 -0.08137306 -0.49315247 0.12946486 0.38743073 0.5588 -0.0787316 -0.42649907 -0.43549323 0.3379534 0.074448325 -0.0037078205 -0.01003099 -0.20582913 -0.5311248 0.7311068 -0.3742627 0.18507971 -0.08237768 0.3786228 -0.24231851 -0.29729393 -0.29950243 -0.07458971 0.15329148 -0.5328396 0.37810603 0.0116269905 -0.29628292 -0.29283917 -0.033150863 -0.18406747 -0.12881513 0.15910356 0.4074244 0.14573473 0.28332445 -0.45554924 0.39955533 0.24366626 0.10454469 0.16827954 -0.13486548 0.14106882 0.097858794 -0.19639535 -0.15740629 0.23277456 0.024767367 0.56706125 -0.12254658 0.4405543 -0.7181798 0.17628075 0.37413478
1832 0.32172132 0.49728882 -0.11721072 0.02971929 0.087849885 0.3627161 0.47646928 0.016220912 -0.60188353 -0.38291106 0.43739882 -0.100821495 0.22540247 -0.16558607 0.38739663 0.15439193 0.6843908 0.15300621 -0.11724332 -0.622155 0.20480175 -1.1107746 -0.06943772 -0.40841717 -0.07814577 0.3782511 -0.6720838 0.37606648 0.5733812 -0.008449026 0.13534391 -0.48292348 -0.04442548 0.25777426 0.16619779 0.033772897 0.6156514 0.3021743 -0.1965632 -0.15824425 -0.43747967 -0.33439976 0.205706 -0.6147603 0.05033534 -0.31995726 1.0866698 -0.011455651 -0.1761501 0.20414345 -0.2576935 0.705425 -0.57902604 0.06558562 -0.053753015 -0.33108127 0.18113045 -0.18111826 -0.53810656 0.35292602 -0.17436501 -0.14878422 0.15644951 0.39706495 -0.28434584 0.4595566 0.49379954 1.1219141 -0.35949066 0.351479 -0.29808274 -0.17675163 -0.7722141 0.14444433 -0.577196 -0.30738914 0.392808 0.37530628 0.34675997 -0.12733404 -0.058384858 -0.17510928 1.2302595 -0.44330508 -0.15022118 0.008481722 0.025937969 0.17779063 0.43961778 -0.31760028 0.41413227 -0.51799077 0.43258542 -0.23321627 -0.03815317 0.094601475 -0.5007094 -0.43881378 -0.46229303 0.08050025 0.52073526 0.10049853 -0.16446593 -0.095728785 -0.44500485 0.10210768 0.52003765 -0.0037133137 -0.39374733 0.4302903 -1.0088605 -0.052099288 0.022075202 0.20596501 0.051641464 0.32592762 0.3032294 0.430843 0.027111126 0.36322397 0.4731068 -0.14401305 0.5091338 -0.38371927 0.09560371 -0.35348722 0.51051694 0.24098305
2154 0.3507384 -0.17893046 0.21569726 -0.4846692 0.35975078 -0.0061435583 -0.06066222 0.37086427 -0.18120937 0.2543473 0.52047664 -0.7826889 0.001552709 -0.15241794 -0.17713872 -0.14412409 0.24268192 0.043290026 0.055791147 0.06947281 -0.31173748 0.1771275 -0.40023464 0.10652972 -0.3028405 0.7234501 -0.1022272 0.38381836 0.3069215 0.11500181 0.06631734 -0.40487513 0.23807454 0.11168309 0.058880188 -0.7322546 0.5565066 0.4426691 -0.2226803 0.1356603 0.1159569 -0.32351285 0.24653997 -0.181226 -0.0403364 -0.57940793 0.1660593 0.02881015 -0.18937704 0.108693406 0.12485767 0.4373922 -0.25372946 0.090916336 0.46914682 -0.44371754 -0.503537 -0.31465715 -0.19157162 0.34017006 -0.2627529 -0.21908425 -0.49342072 0.24880286 0.09538885 0.36369878 0.13170087 0.1805328 -0.36837232 0.41893682 -0.5231929 0.17352475 -0.49877122 0.13696295 -0.34025252 0.078395836 -0.12206926 0.015798438 0.37063664 0.05979324 -0.16362238 -0.4259033 0.42460057 0.192799 0.13691361 -0.1557394 -0.09236649 0.011048956 0.88529015 -0.3964284 0.16170724 -0.052461017 0.21568368 -0.2284601 -0.08171493 -0.34923774 0.20829585 -0.26244226 -0.096848056 0.29933754 -0.088430345 0.50025696 -0.57510287 -0.19660121 0.005493552 -0.1266715 0.19506976 0.39861518 0.05912927 0.33276495 -0.6980614 -0.10488218 0.1355767 -0.34547523 0.4677038 -0.22010162 0.32855907 -0.23928647 -0.28579202 -0.58240545 0.11132885 0.21114153 0.43521163 -0.16567066 0.7662311 -0.42416298 0.38548633 0.85871434
95 0.45708176 0.055496987 -0.2361569 0.015558732 -0.51130253 0.01788016 0.059567235 -0.006047435 -0.18765877 0.14865974 0.21057351 -0.50424707 0.05697744 0.04527876 0.16335429 0.33738166 0.26442215 -0.080153294 0.31657496 0.020906126 -0.068224296 -0.3760844 -0.05587808 0.084812425 0.39959133 0.014626596 -0.6527171 0.10184637 0.63659394 0.14525722 0.06654243 -0.08452206 0.079491355 -0.25090155 -0.0036764708 -0.164133 0.103140995 -0.50559366 -0.11554223 -0.20934421 -0.44024563 -0.2071893 0.36642578 -0.5010464 -0.4413301 -0.380563 0.3406966 0.29452124 -0.26486742 -0.4120643 -0.061095703 -0.2783492 -0.33410624 0.7850531 0.113927305 -0.14219926 -0.71730053 0.12721233 -0.025515122 0.36261144 -0.27970698 0.20600621 -0.017657988 0.58524144 0.016516322 0.51414776 -0.07177652 -0.19452213 -0.26642913 0.53191996 -0.47990194 0.37770823 -0.39901805 -0.005807513 0.20303755 0.12416589 0.14077635 -0.015539864 0.49236292 -0.19219173 -0.40776673 -0.33690637 -0.35924086 0.18051784 -0.107618704 -0.011154815 -0.50109583 -0.58156735 0.30977967 -0.8106937 0.21395335 0.058950495 0.2202946 0.05586609 -0.49898177 -0.28743678 0.15440173 0.11204975 -0.7563417 0.35802224 0.024112634 -0.2203679 -0.19244717 -0.058572616 0.032002587 -0.3557073 -0.3486024 0.4534056 0.2508128 -0.022653928 -0.018165836 0.21670939 0.39077362 0.052371953 0.30877346 -0.41629943 0.1287189 0.12215098 -0.08581049 0.06501627 0.15239452 -0.13509563 0.15468492 0.31121847 0.5794454 -0.5608892 0.011925518 0.03687959
129 0.2997837 -0.15920818 -0.19358341 0.10879755 -0.58339125 0.122229695 0.002668337 0.07767398 -0.19628517 0.40309036 -0.018475318 -0.6147579 0.11544138 0.028529745 0.35624605 0.05828336 0.18424772 -0.2165163 0.101850085 0.01060654 0.21672678 -0.3811915 -0.33452928 0.019927923 0.31839517 0.04086899 -0.5286926 0.2411469 0.255032 -0.06969389 0.26213163 -0.18935516 0.07383006 -0.0006092205 -0.07379957 -0.012195965 -0.0113875745 -0.41070288 0.028141096 -0.45916286 -0.64909464 -0.2721671 -0.03278261 -0.2946868 -0.59981817 -0.3487922 0.57613117 0.1834182 -0.30231753 -0.21807556 -0.008192456 -0.24145408 -0.2208964 0.69830567 -0.14977635 -0.08114282 -0.42125317 0.38174668 -0.18628159 0.37812412 -0.14071035 0.12792578 -0.27227125 0.70646846 0.08687414 0.46802738 0.0051253666 0.14190918 -0.31790426 0.39060682 -0.49659812 0.3942986 -0.35489348 0.07371974 0.01480642 -0.02878837 0.07442404 -0.0017213781 0.36658648 -0.21327753 -0.26348385 -0.31706733 -0.40899035 0.0048639625 -0.050570864 0.37694517 -0.3893186 -0.6146598 0.21422836 -0.7136273 0.32229882 0.17039226 0.2851761 -0.01952822 -0.39766455 -0.22768682 -0.32400954 0.19714415 -0.69023764 0.14672656 -0.30931082 -0.2612833 -0.29101434 -0.3028705 0.2640911 -0.14129615 -0.3027291 0.7063232 0.2546564 -0.041694332 -0.064149745 0.50594234 0.08959071 -0.022500511 0.068778574 -0.6391258 0.15118569 -0.073083244 -0.2993788 -0.10372435 0.075416066 -0.000118622585 0.08870623 0.12850265 0.5028639 -0.57483804 0.13091198 0.14164175
887 0.23792103 -0.26245835 -0.004621397 -0.11490025 0.080425076 0.85045356 -0.099736035 0.13928641 -0.29647624 0.64498216 0.0145968245 -0.36844432 -0.047771007 -0.24134973 -0.59789324 0.21306795 -0.31572393 0.20436984 0.6301509 -0.26838267 -0.1849323 -0.2644813 0.66472054 -0.6831412 -0.025011241 -0.22386535 -0.3728817 -0.05769063 0.7275391 -0.5323795 -0.23157409 0.59428424 -0.22718513 0.057580393 0.31522763 -0.5358434 0.106941484 -0.425 0.22969191 0.31016913 0.08355457 -0.64823234 0.1816907 -0.24182425 -0.059155833 -0.5835314 -0.083187915 -0.2027385 -0.122063674 -0.17528956 0.0028277962 0.5997451 0.025116071 0.10095422 0.3646375 -0.32461601 -0.004517093 -0.1942631 -0.4284153 0.18048364 -0.4835959 -0.421807 -0.52445984 0.041675728 -0.36314204 0.63389224 0.1943899 0.19723104 0.23496506 0.33974716 -0.10440181 -0.10800852 -0.940153 0.6323991 0.23576862 -0.7629996 0.12115336 0.43709114 0.4585325 0.094829686 -0.5910248 -0.48111653 0.17440121 -0.1671169 -0.07256263 -0.31697866 -0.3684185 0.060955122 0.16968928 -0.6210588 -0.10061239 -0.06772521 0.9178424 -0.31032318 -0.31812546 -0.14668302 -0.034408692 0.2009387 -0.6840504 -0.33857012 0.122185946 -0.11426602 -0.42475274 -0.312164 -0.34044763 -0.058323268 0.064848594 0.7194998 0.48338193 0.5302549 -0.24421905 0.07878785 -0.03960889 0.04481057 0.17320816 -0.26924193 -0.5832904 0.19026847 -0.17935453 0.06450289 -0.2137638 0.26612338 0.5721718 0.30742761 0.48084083 -0.88160163 0.093103126 0.64672476
1259 0.22506234 -0.30200815 -0.014292001 -0.10431038 0.09279436 0.8623067 -0.09478095 0.13818388 -0.30648178 0.6328681 0.024458338 -0.39510402 -0.018182274 -0.2656379 -0.6139441 0.18789978 -0.30002853 0.185048 0.60437757 -0.25681776 -0.19003272 -0.21921594 0.6029243 -0.67554784 -0.036631547 -0.19229858 -0.34763443 -0.03426176 0.72997963 -0.5068254 -0.2375748 0.56617326 -0.21191591 0.04488347 0.29770914 -0.596961 0.13682334 -0.38225213 0.23579626 0.30049238 0.08192653 -0.63399684 0.17371099 -0.2593219 -0.08200602 -0.5609444 -0.06131715 -0.21976635 -0.12941134 -0.15311906 0.007819904 0.59972334 0.021685384 0.09634687 0.36671722 -0.34905663 -0.03587927 -0.19497345 -0.3838889 0.21660161 -0.47004715 -0.39373708 -0.54695725 0.063287415 -0.35421416 0.6366982 0.15985863 0.19351654 0.1928267 0.35399163 -0.09453343 -0.08514633 -0.9258679 0.6322796 0.22370395 -0.7674553 0.10881587 0.44262606 0.45910716 0.112445824 -0.5887231 -0.4661985 0.17183559 -0.16168427 -0.07861191 -0.30995002 -0.37265703 0.043520506 0.18569528 -0.61191344 -0.09734261 -0.065784596 0.90612024 -0.302022 -0.3184434 -0.16815734 -0.04138458 0.20705292 -0.69303024 -0.28592935 0.10031348 -0.119997 -0.4191883 -0.30253896 -0.3324834 -0.08272314 0.09046645 0.70452845 0.45843863 0.5257458 -0.26746583 0.10333728 -0.027424974 0.044033997 0.16019695 -0.26444542 -0.55779064 0.18258925 -0.1785866 0.052337825 -0.18529516 0.27882722 0.5811206 0.28809232 0.509502 -0.8797414 0.104917996 0.67882144
1061 0.11630792 -0.26421595 -0.22877903 -0.5600643 0.47938034 0.87900037 0.22825035 0.50080043 -0.16726968 -0.09591954 0.13215205 -0.1291226 -0.12674026 -0.28781396 -0.022902982 0.032044627 0.86338353 0.28439784 -0.045695376 0.052457646 0.39439166 -0.05012733 -0.25169885 -0.6549993 0.25349537 0.25844082 -0.15593043 0.2881608 0.47770137 -0.49529546 -0.088457994 -0.28886873 0.065650515 -0.25143263 0.049546205 -0.18634051 -0.08188267 -0.19255628 -0.81570834 0.24795733 -0.14020586 -0.5685328 0.20808163 -0.4086157 0.058014654 0.13940765 0.9596597 0.29112056 -0.13967006 -0.31698966 -0.39628 0.042380173 -0.51434743 0.070304796 0.27988485 -0.3635981 0.014371643 0.3655272 -0.35306945 0.06280906 -0.31724796 -0.43130836 0.31536585 0.66809726 -0.29683647 0.15236975 -0.011182599 0.7292616 -0.8088525 0.29484025 -0.18688193 0.2556023 -0.46411726 0.2039224 -0.25401476 -0.46974972 0.110732235 0.26204807 0.28507408 -0.0033530144 -0.1905329 -0.2272396 0.0045704874 0.26495472 0.19770135 0.06762898 -0.09503865 -0.68310636 0.57462204 -0.10977522 -0.11820466 0.029235251 0.19308944 -0.255315 -0.32633725 -0.47593087 0.10592665 0.0118704 -0.6054779 0.2980044 -0.21686436 -0.27889016 -1.0060228 0.28049183 0.015196942 -0.066696964 -0.2047381 0.5000228 -0.18919635 -0.16918336 -0.6775597 0.1638116 0.27403402 0.023704698 -0.10120705 0.085442014 0.18144913 -0.2769668 0.07284698 -0.33996263 0.23457389 -0.58824617 0.815007 -0.5623612 0.088434525 -0.40779465 0.13416885 0.41086227
1959 0.31965867 -0.029429791 -0.33201063 -0.06983346 -0.5721625 -0.122428596 0.051358156 0.010356764 -0.16850507 0.17019321 0.03229593 -0.6243568 0.15691349 -0.093235776 0.33992392 0.22689357 0.11809138 -0.16137907 0.27152878 -0.15485284 0.018886823 -0.29584816 -0.10076371 -0.09178627 0.16164325 -0.025963088 -0.64461213 0.17808092 0.38509345 0.0956433 0.1748066 -0.15446734 0.19213828 -0.094527885 -0.05441596 0.039683767 0.08760765 -0.3474663 0.20858902 -0.2574607 -0.49579287 -0.12923609 0.045020998 -0.37783387 -0.37474993 -0.48550993 0.32627267 0.055563323 -0.23277138 -0.4463445 -0.21968836 -0.058125947 -0.31797624 0.6046387 0.18471654 0.08935745 -0.57477313 0.1084323 -0.15853547 0.5596349 -0.078858875 0.1552696 -0.15515365 0.48191303 0.0043316786 0.47376302 0.10980762 -0.12755862 -0.21426693 0.40916452 -0.45751402 0.1796716 -0.4282918 -0.15932404 -0.06801691 0.10202426 0.0756665 0.00842758 0.58267224 -0.1318183 -0.32599282 -0.32698393 -0.2832853 0.17001045 -0.27367777 0.20641874 -0.57050955 -0.58516127 0.30281526 -0.8208937 0.41605422 -0.043704886 0.37469855 -0.14797895 -0.66536146 -0.2556009 -0.1952838 0.18547416 -0.6426313 0.25683764 -0.09692335 -0.19959396 -0.29271686 -0.089856304 -0.078775205 -0.1387356 -0.21149988 0.5318044 0.18560146 0.10693668 -0.07521097 0.26742494 0.10209072 0.017998282 0.20253548 -0.5828186 -0.06692128 0.08686191 0.00810939 -0.023991555 0.035321727 -0.14944924 0.13250798 0.2132115 0.5791936 -0.5332375 0.014619332 0.13757479
1065 0.077752896 -0.25751612 -0.22986245 -0.55696046 0.4874134 0.86835796 0.23916622 0.5100942 -0.18214802 -0.10415999 0.15306625 -0.14312726 -0.108568706 -0.29912776 -0.039652377 -0.0062685036 0.8744256 0.3046006 -0.039132033 0.07959873 0.3985105 -0.005598164 -0.28950843 -0.6512217 0.24959739 0.25070566 -0.13134234 0.29909962 0.48530045 -0.5093493 -0.10754371 -0.2992182 0.06587746 -0.2742083 0.059231192 -0.20540059 -0.099191844 -0.18246719 -0.81858104 0.25979152 -0.13275376 -0.5795807 0.22111383 -0.38569397 0.07633204 0.15537338 0.9509337 0.2890024 -0.13857035 -0.336571 -0.39330876 -0.0033793345 -0.49879596 0.054756433 0.29587823 -0.3944993 -0.0025967502 0.37936032 -0.3381047 0.049075928 -0.31975484 -0.43729803 0.3308313 0.65760124 -0.32568893 0.1260919 -0.034498915 0.6941547 -0.84540755 0.30279037 -0.16055386 0.2705279 -0.46249843 0.2118261 -0.26342046 -0.4909315 0.08376417 0.30273604 0.2910242 -0.0016713758 -0.1845562 -0.22892109 -0.021832624 0.28188613 0.20036435 0.049709316 -0.10511006 -0.66059893 0.5774147 -0.093192674 -0.15291382 0.037689857 0.1838812 -0.24199466 -0.30435622 -0.47389394 0.12791209 0.009260995 -0.61744326 0.29428354 -0.21929337 -0.27708927 -1.0154595 0.31849945 0.03481993 -0.103953704 -0.19650514 0.47901767 -0.21996148 -0.1815229 -0.65372103 0.15611428 0.28750223 0.021525338 -0.11374609 0.099389866 0.17703281 -0.27227625 0.08788704 -0.35674712 0.23346804 -0.5714817 0.8267888 -0.56851774 0.08242335 -0.3985439 0.12872167 0.43682215
664 0.5579548 -0.6299519 -0.47464693 0.43408352 -1.0531032 0.38782996 0.01700223 0.39080408 -0.23437047 -0.035152804 -0.14551643 -0.18518525 0.4024898 -0.30692318 0.16148432 -0.37228388 -0.20817038 0.5700202 0.10499071 -0.42373112 0.34972602 -0.41185236 0.079618454 -0.56358385 0.08419738 0.24003741 -0.33475453 0.32198513 0.41054866 0.42097318 0.48152828 0.2635087 0.29751977 0.30207452 0.21474284 0.37392983 -0.6305712 -0.09972707 -0.03467457 -0.39465687 -0.39545494 -1.193637 -0.019328836 0.08362494 -0.3198514 -0.47419345 0.83278036 0.07890413 -0.1693158 0.17370555 -0.31415227 0.18786809 -0.64724606 0.32661584 0.12418899 -0.24254908 -0.21003564 -0.38728696 -0.47050858 0.3560136 -0.6006939 -0.33733478 0.57324654 0.7495712 0.24256952 0.17890485 0.05939694 0.72824484 -0.26836812 -0.1471157 -0.037076548 0.17932105 -0.5881935 1.0066246 0.01880312 -0.29816827 0.7483669 0.37949726 0.33449194 -0.06384714 -0.10302635 -0.52271456 0.3748123 -0.21841109 0.49870732 0.18337516 -0.21807858 -0.25448665 0.1916417 -0.41636407 -0.41847175 -0.45705068 0.034507077 -0.32661495 -0.3558571 -0.45215097 -0.03703042 -0.07498401 0.19150801 0.14936882 0.24098346 -0.68596435 0.103108294 0.080334686 -0.38305092 0.12264257 0.29756936 0.44593483 0.09714129 0.03440984 -0.5190216 0.15366608 0.15805559 0.04278577 0.14293076 0.24034345 0.2290875 0.5353516 -0.26669726 0.09244252 -0.379701 -0.40920264 0.17820635 -0.09611453 0.23310314 -0.362873 0.365828 0.113987334
473 0.17396887 -0.4274978 -0.39133188 -0.014535737 -0.75288695 0.48893908 -0.21433744 0.12163375 -0.31655765 0.5300693 0.08426848 -0.5876143 0.17958654 -0.1807471 0.149596 0.294767 0.06837934 -0.1443556 -0.18621872 -0.09502573 0.13697313 -0.12966743 -0.22641458 -0.032757007 0.16317734 0.11973655 -0.3719845 0.28836975 0.15264471 -0.20444047 0.1452678 -0.2426848 -0.105056494 -0.1067343 -0.24603282 -0.10531497 0.360341 -0.23678015 0.24096218 -0.35014012 -0.2665386 -0.30137601 -0.22488087 -0.24616511 -0.6980252 -0.35372463 0.33597678 0.2775966 0.06457914 -0.07259051 0.050649162 -0.28745145 0.073021 0.43413717 -0.24928163 -0.38511604 -0.38568795 0.21175848 -0.14174965 0.2504386 -0.25000083 0.07972149 -0.39999834 0.68133813 -0.09402618 0.15994984 -0.0052759848 0.49846378 -0.42948484 0.39169618 -0.2802642 0.3484579 -0.45201492 0.021080429 0.1360842 -0.2945423 -0.05209412 0.40492874 0.22808114 0.067669645 -0.044800222 -0.28410068 -0.10600534 0.009936448 -0.025264548 0.18474288 -0.34398872 -0.53900373 0.23092109 -0.41080055 0.12043913 0.06377832 0.42171696 0.2796905 -0.21290173 -0.14139956 -0.34657878 0.5050093 -0.6524287 0.00092025206 -0.27629596 -0.22361718 -0.27548152 -0.0060952543 0.3926207 -0.057044234 0.11279238 0.47018552 0.22141235 -0.056930516 0.019662466 0.7582922 -0.17585197 -0.367725 -0.2909026 -0.53053916 -0.0068720514 -0.46833038 -0.4778019 -0.25121698 0.08121774 0.061424002 0.13495816 0.09812198 0.53398234 -0.4714604 -0.1480099 0.27588895
2301 0.587005 -0.64338034 -0.48334122 0.42551893 -1.0135828 0.34422448 0.039497588 0.34648088 -0.19707592 -0.08354537 -0.16671145 -0.1714259 0.43378866 -0.31436485 0.13997036 -0.3336781 -0.22289647 0.5830572 0.109467685 -0.42254573 0.33183306 -0.38049877 0.10446127 -0.55420935 0.06080346 0.23007476 -0.3126426 0.33119676 0.4498135 0.41162148 0.45218801 0.274861 0.2892924 0.27276 0.20119338 0.34118557 -0.62624395 -0.10713117 0.0052360445 -0.36249688 -0.39537635 -1.181903 -0.0021167868 0.008342767 -0.30452782 -0.47141057 0.81064314 0.07845125 -0.16711785 0.15043375 -0.3389977 0.16691165 -0.6615514 0.29703832 0.12949762 -0.1868223 -0.2139445 -0.4081302 -0.42099693 0.33605984 -0.6359302 -0.3240248 0.5852472 0.75416625 0.24904081 0.20403649 0.044047773 0.74756265 -0.2855546 -0.12449153 -0.023938831 0.2298914 -0.5533253 1.0011148 0.008948453 -0.33858895 0.75564027 0.39404538 0.32837027 -0.05243873 -0.12977268 -0.4828799 0.32410076 -0.25770336 0.48094338 0.16682175 -0.15982735 -0.23742157 0.18338919 -0.40497008 -0.4111563 -0.42431796 0.017792363 -0.31740984 -0.36082834 -0.48999456 -0.011992104 -0.043935534 0.1882363 0.17653248 0.18623094 -0.6785908 0.089223206 0.09519661 -0.42203936 0.12628993 0.3049969 0.41771963 0.06293237 0.07234672 -0.49647462 0.1177714 0.19399942 0.043002553 0.16789721 0.22208267 0.21143657 0.5662436 -0.21415006 0.08765499 -0.38894942 -0.4070573 0.18828511 -0.054627728 0.26164925 -0.34361994 0.3483416 0.10916346
1249 0.57734233 -0.64364755 -0.49220186 0.42913 -1.0392976 0.38597032 0.03506585 0.37176588 -0.23782447 -0.0769875 -0.15725744 -0.19800404 0.40694472 -0.34317714 0.13227528 -0.3401861 -0.21380733 0.59169126 0.114450805 -0.4429662 0.36107147 -0.39583027 0.09269877 -0.5628442 0.11503637 0.25462627 -0.3423905 0.3074931 0.44688454 0.4465273 0.49123296 0.3039298 0.27009776 0.28532508 0.18225037 0.3869222 -0.62551486 -0.10213828 -0.005742332 -0.36746603 -0.40030834 -1.1926309 0.0133521315 0.012969834 -0.2881454 -0.51952314 0.8141571 0.04594827 -0.16222212 0.17322625 -0.3609475 0.19924754 -0.66620576 0.3281472 0.120149754 -0.2082496 -0.22423403 -0.4209637 -0.46987805 0.311081 -0.6122453 -0.35335925 0.58059096 0.7566995 0.19915211 0.20905156 0.0683166 0.737979 -0.28632358 -0.114086986 0.0064905477 0.19716448 -0.59680414 0.9926567 0.048846107 -0.3370623 0.7494679 0.3880139 0.3345787 -0.08430071 -0.11389691 -0.5471501 0.39116955 -0.21676639 0.5006378 0.16797018 -0.19052662 -0.28993437 0.18827075 -0.3991674 -0.4224304 -0.42838234 0.022506667 -0.31392038 -0.3857584 -0.4463036 -0.009079971 -0.068683505 0.16129039 0.15886073 0.22178096 -0.6903389 0.09149978 0.12493125 -0.42653394 0.11875823 0.2998896 0.48112166 0.08733537 0.055543844 -0.5059955 0.15121783 0.17699862 0.07371095 0.13667595 0.25158697 0.21994117 0.57905334 -0.23709342 0.095614016 -0.3755986 -0.4170571 0.19577013 -0.068319984 0.2198512 -0.3784926 0.34291604 0.08403783
1436 0.2659778 -0.053057134 0.039714 -0.28136152 -0.31969997 0.37225705 0.35526893 -0.048927106 -0.3907092 0.05066712 0.32660684 -0.086499795 0.2824577 -0.7608624 -0.4065575 0.63225293 0.30732206 0.022668257 0.38000357 -0.20790485 0.25603515 -0.3065627 -0.17519125 -0.11139687 -0.47664037 0.22720137 -0.571943 0.021976745 0.3294038 0.080246985 -0.101381905 -0.02751606 -0.24413167 -0.20842978 -0.23500398 0.091246985 0.060652282 -0.5063992 0.08765449 0.5486432 -0.12330249 -0.40818164 0.7777476 -0.38986966 -0.18464732 -0.93772423 0.17072245 0.07581465 -0.2180082 0.083896756 -0.41397914 0.23142509 -0.7489076 -0.43802762 -0.40075004 0.22592756 -0.74611914 -0.6224518 -0.4638159 -0.15323673 -0.5693166 -0.3733534 0.040049087 0.51598835 -0.53542805 0.515286 -0.07180071 0.7390963 0.08156324 0.0805684 -0.2608912 0.38847992 -0.5868803 0.30306008 -0.07762831 -0.43702278 0.5176468 -0.009737958 0.3828556 0.27903458 -0.11734756 -0.5516621 0.67997086 0.3244709 0.30438614 0.46631327 0.30610493 -0.48784468 0.35699072 -0.26086918 0.05011188 0.35039765 0.4576163 0.4503397 -0.58613527 -0.34442815 -0.079766266 0.10111738 -1.0080396 0.13639925 -0.005067969 -0.24464145 -0.094232984 -0.35049063 0.31526858 -0.14352354 -0.014855886 0.23887959 0.47394708 -0.14569372 -1.064175 0.28731218 0.44768298 -0.12506956 -0.39156386 -0.078069255 0.1054518 0.14980929 -0.1559367 0.10276721 -0.14187172 0.3426034 0.549254 0.030843807 0.6102362 -0.5199428 0.24652739 -0.31579396
1437 0.26739398 -0.059790324 0.022013254 -0.28272694 -0.3218866 0.38020217 0.35047594 -0.030154504 -0.3880923 0.051905867 0.33240673 -0.09214621 0.27279058 -0.7587798 -0.39021337 0.63268334 0.33103773 0.024001354 0.37133187 -0.20781247 0.24920605 -0.3335722 -0.17202477 -0.12107789 -0.4492859 0.2331978 -0.5877885 0.04328945 0.33680645 0.08767547 -0.10053076 -0.036016427 -0.22585154 -0.19351074 -0.21576886 0.09955076 0.08158686 -0.494486 0.083699375 0.5210555 -0.13606848 -0.42620453 0.76298136 -0.3885071 -0.19541228 -0.95031005 0.20300275 0.06759574 -0.23194186 0.067407094 -0.40000552 0.2651899 -0.75616515 -0.40918085 -0.37889192 0.23250955 -0.73622614 -0.60480076 -0.47950864 -0.12726045 -0.55286705 -0.3614375 0.044634197 0.519095 -0.53363925 0.49062923 -0.06190826 0.7476224 0.08910102 0.091008425 -0.27742606 0.3865366 -0.5854835 0.32204822 -0.07583426 -0.4570262 0.53098047 0.0016162256 0.3967341 0.2970756 -0.13235776 -0.55252314 0.67410725 0.3129709 0.30472568 0.4584415 0.302324 -0.5121825 0.3631038 -0.26204005 0.04190267 0.34312257 0.47080442 0.44258526 -0.57053465 -0.3492817 -0.08082959 0.10279073 -1.0177512 0.1552882 0.013365493 -0.2619661 -0.099985726 -0.3600818 0.29696274 -0.13642335 -0.0011412769 0.23715173 0.457741 -0.14149487 -1.0614702 0.29025888 0.44844982 -0.13020821 -0.39376664 -0.09120016 0.10371684 0.15363042 -0.15344228 0.1162827 -0.13516288 0.32783097 0.55183226 0.009078346 0.6122905 -0.5477053 0.24953483 -0.31528345
1003 0.7003787 -0.05260629 0.2054627 -0.41972864 -0.15197286 0.7032214 0.20883793 0.23265848 -0.23349416 0.03332788 -0.104445025 -0.06782291 -0.38672176 -0.41477454 0.07328871 0.28924274 0.4838788 0.47590655 -0.24735554 0.23487705 -0.04665882 -0.13438949 0.55493414 -0.0988027 0.2146068 0.6597856 -0.50614583 -0.17479154 0.27267307 -0.20473336 0.7739557 -0.14874442 -0.13759072 0.50679547 -0.2649571 0.103364214 0.14882703 -0.088100605 -0.4357015 0.026247587 -0.048042137 -0.23761772 -0.24868819 -0.16644609 -0.36372155 -0.69718266 0.65735877 0.19443664 0.15234245 0.09870323 -0.2571517 0.71228737 -0.5916252 0.7069154 -0.098683245 0.14791375 0.31159943 -0.5435507 -0.75556475 0.09684541 -0.09415382 -0.11166466 -0.017332548 0.40388814 -0.34615085 0.618791 0.24046262 0.82658374 -0.12103127 0.54499716 -0.22771458 -0.20816791 -0.69319767 0.47905365 0.3827993 0.15142624 0.051756024 0.2494974 0.52130264 -0.37091509 0.15823929 -0.9530877 1.0167085 0.13811482 -0.017594445 -0.13945284 -0.6265451 -0.81741023 0.2703647 0.05579722 0.20081054 0.24937159 0.25232986 -0.5631686 -0.07353913 0.30360517 -0.23704752 0.07886721 -0.4597472 -0.09048791 0.42392138 -0.7016969 -0.26047647 0.20324875 -0.33545732 0.16465306 0.32309684 0.4886822 0.13139483 -0.39067543 -0.547022 0.23756175 -0.11827886 0.34056777 -0.26989827 0.27748623 0.38866445 -0.25252426 -0.37778324 -0.404419 0.16091569 -0.07885199 0.0959498 -0.3166634 -0.33791786 -0.9671612 -0.059527744 -0.31403306
987 0.5027525 -0.33894262 -0.06647293 -0.16371763 -0.35994887 0.5997698 0.08971327 0.06831666 -0.19865027 0.11615762 0.050965607 -0.47589177 0.27450877 -0.48760292 -0.21784015 0.08465583 0.23683326 0.08572316 0.08285059 0.12101998 -0.008710417 -0.18497893 0.072863534 -0.17222078 -0.055845674 0.42148602 -0.4322545 0.2943562 0.5318188 0.15319987 0.14406037 -0.07930182 0.088014774 0.0537458 -0.01654401 -0.38287953 0.29084018 -0.13843451 -0.05737892 -0.11243298 -0.28920117 -0.43192154 0.0823568 -0.3222105 -0.24851225 -0.32637984 0.5193692 0.004462501 -0.10733646 0.04746636 -0.062089283 0.40394166 -0.37826008 0.32286498 0.117695324 -0.26897445 -0.18845226 -0.094992645 -0.40019345 0.424739 -0.19796832 0.016525919 -0.13846628 0.62007153 -0.15486468 0.3454634 0.10188227 0.5492488 -0.37286818 0.39542004 -0.33902097 0.22627352 -0.34742445 0.2996322 -0.045120087 -0.3489493 0.17410477 0.34349003 0.50675565 -0.028810916 -0.37869117 -0.33686262 0.30471945 0.07245513 -0.011287476 -0.05325736 -0.12262364 -0.43186432 0.6349836 -0.27221525 0.1448607 -0.027910782 0.31881958 -0.23715815 -0.23200795 -0.2632041 -0.10381145 0.14200479 -0.36867532 0.3272947 0.04184174 -0.2707638 -0.26386532 -0.08602807 -0.17924963 -0.10767693 0.0877839 0.313797 0.12112541 0.24859844 -0.45044056 0.34593982 0.12136512 0.092486896 0.16739178 -0.12629491 0.11517789 0.049376063 -0.17975657 -0.08472789 0.15185295 0.030144807 0.44195503 -0.15472949 0.31790376 -0.62469125 0.15236095 0.32146937
1988 0.26301965 -0.20198748 0.22474338 -0.5236876 0.35965502 -0.032365344 -0.026847912 0.3121851 -0.13547589 0.19297978 0.4530859 -0.8344421 -0.025376752 -0.19995396 -0.17320508 -0.20360468 0.23142399 0.080060355 0.14065744 -0.082947634 -0.29486454 0.16094917 -0.39562947 0.042077683 -0.25623214 0.59090525 -0.21488792 0.4351612 0.41555494 0.19895867 -0.0085502425 -0.4260057 0.23063591 0.04036259 0.073382206 -0.76343656 0.6115574 0.40182588 -0.16893226 0.19772625 0.15322107 -0.2943738 0.15111831 -0.09348502 -0.00020405333 -0.58823174 0.12741421 -0.06715469 -0.14429317 0.11919386 0.06112745 0.49753892 -0.34065193 0.07531409 0.6182485 -0.48640126 -0.45114362 -0.26642647 -0.11417125 0.4514397 -0.17703238 -0.22902161 -0.47836542 0.16425112 0.09359892 0.44901404 0.21403837 0.16948509 -0.35543257 0.5505549 -0.5069492 0.24293442 -0.42747998 0.03250223 -0.3325035 -0.0015075665 0.006508722 0.0107166385 0.29670852 0.14481738 -0.1739486 -0.34207508 0.47981024 0.24598978 0.09566877 -0.119128965 -0.08127788 -0.09517857 0.9418438 -0.3789241 0.20017344 -0.08979668 0.42079467 -0.2531822 -0.08976898 -0.22581139 0.23109536 -0.23865525 -0.12227914 0.39800152 -0.076469555 0.53575814 -0.47318763 -0.10706194 -0.0008069415 -0.15133129 0.2614679 0.34572354 -0.067109816 0.4208054 -0.67119867 -0.0619988 0.17337757 -0.35942507 0.4576275 -0.22340372 0.24935073 -0.16889611 -0.19323187 -0.6271136 0.15067782 0.15747426 0.5650192 -0.053431585 0.8163555 -0.3866728 0.38615388 0.8464217
1758 0.44832948 -0.38934794 -0.093001574 -0.111694515 -0.382286 0.52660096 0.100794725 0.09562631 -0.23825692 0.058822025 0.06883763 -0.42419234 0.23937596 -0.4986599 -0.24569327 0.027188346 0.16824567 0.14158702 0.057820056 0.08674979 -0.031395648 -0.16915342 0.08355418 -0.2413512 0.01066604 0.4399422 -0.48971415 0.23872612 0.5827483 0.14530082 0.14795749 -0.083673514 0.06594189 0.06989243 -0.018655177 -0.3548878 0.3179607 -0.07711389 -0.087516 -0.11997509 -0.35875964 -0.4980546 0.12529263 -0.39272392 -0.2586689 -0.37911984 0.50879294 0.021492124 -0.18363616 0.044732295 -0.11315618 0.34895462 -0.42401525 0.27614856 0.1314863 -0.26660743 -0.22248691 -0.084578715 -0.4223044 0.3963153 -0.32083547 -0.0018747294 -0.1404654 0.6938777 -0.20403676 0.4162372 0.10438306 0.5180185 -0.39090213 0.42194924 -0.34207556 0.18413375 -0.3958277 0.33187002 -0.067499146 -0.46741492 0.1283927 0.3552922 0.49383014 -0.07261307 -0.38605282 -0.3973663 0.32138208 0.043032177 -0.0028816832 -0.032049097 -0.16044167 -0.4579532 0.64591426 -0.31305078 0.16940838 -0.08211693 0.2993226 -0.24420612 -0.24909127 -0.26190555 -0.07755067 0.114227526 -0.4430086 0.3142288 0.02593641 -0.29181194 -0.22898532 -0.016419737 -0.19071119 -0.0991007 0.15855077 0.33249104 0.13956232 0.25380594 -0.40080336 0.36332992 0.21102536 0.112334795 0.1580488 -0.07818722 0.13289359 0.10602906 -0.16754879 -0.11524016 0.20897602 0.030683087 0.4940717 -0.12847057 0.3740031 -0.6238476 0.15350325 0.34179685
543 0.51954913 -0.45005152 -0.10823321 -0.113491915 -0.43410096 0.5519462 0.09627288 0.12852806 -0.2649953 0.10793972 0.1098808 -0.5372861 0.25200173 -0.55825996 -0.26958615 0.06411032 0.17501207 0.18923707 0.08894854 0.081566975 -0.051575664 -0.16369273 0.1109937 -0.24927537 -0.010916802 0.4714488 -0.5711472 0.299955 0.68885434 0.1688473 0.1711549 -0.11647132 0.05093927 0.06665426 -0.028943954 -0.4430272 0.37378624 -0.119762294 -0.070818745 -0.113678515 -0.38355204 -0.57383543 0.15942071 -0.44799447 -0.3261344 -0.4896049 0.5281992 0.050235223 -0.1860468 0.017722389 -0.07455521 0.3972766 -0.45094532 0.35950813 0.1570739 -0.25927806 -0.32270628 -0.10950307 -0.43335527 0.46156305 -0.39912054 0.03440049 -0.19140697 0.80702686 -0.21334125 0.49576092 0.11853756 0.58541274 -0.410179 0.49094373 -0.4244986 0.24492873 -0.4612801 0.38709888 -0.035880223 -0.50926113 0.17382854 0.40043548 0.5681897 -0.032296352 -0.43538576 -0.459073 0.32193735 0.07810277 -0.023760948 -0.022356581 -0.20301497 -0.5441894 0.75686014 -0.397684 0.18256459 -0.076838054 0.35114747 -0.261582 -0.29682335 -0.34045327 -0.068696395 0.18805479 -0.51956177 0.37086308 -0.011084208 -0.31429958 -0.27717063 -0.030837169 -0.19523937 -0.14708044 0.17640677 0.44527072 0.18942125 0.2686982 -0.43861902 0.37571168 0.24547058 0.06614299 0.1983033 -0.16066435 0.14361422 0.09963674 -0.20831628 -0.14235291 0.18146919 0.040994383 0.545257 -0.091378875 0.47589326 -0.7285664 0.16351688 0.407387
