557 128
97 -0.3119378 0.31861395 -0.04152363 -0.12880906 -0.002272692 0.37162474 -0.43537718 -0.5044706 -0.049279165 0.3145013 -0.5711929 -0.64831513 -0.8494992 0.32718173 -0.19483751 0.056169264 -0.1294955 -0.48398793 -0.76304454 0.76640326 0.03587206 0.06058633 -0.20863964 -0.002439242 0.21989499 0.7024724 0.0032334614 -0.19200027 0.2290387 -0.0024194685 0.02929748 0.14957993 0.3767417 0.2215552 -0.2034344 0.4037222 0.5262808 -0.27864233 -0.54765505 0.07459258 -0.3596478 -0.081035465 -0.107509226 0.45575663 0.08692363 -0.031074636 0.2543609 0.21220557 0.36392847 -0.18562083 -0.039920583 0.5307305 0.4235197 -0.026280731 0.17211157 0.38501042 -0.047717627 0.06812593 0.28869462 -0.3325869 -0.7022126 -0.30438063 -0.20848139 -0.10237052 0.37985715 0.7028898 -0.17041864 0.0867219 0.024929207 0.13382125 0.40690646 0.3667231 0.047406483 0.4254625 -0.45761615 0.82368994 0.001099984 0.17100397 0.11603975 0.1962913 -0.2906536 -0.86293554 0.55952203 -0.08321209 0.10381581 0.5819134 0.4104777 -0.3423034 0.08834574 0.6246213 0.36875746 1.1566546 -0.53303665 -0.3511577 -0.35135254 -0.4634646 -0.15211052 0.44777358 0.18772626 0.028187105 -0.017730314 0.4831323 -0.21405233 -0.54616123 -0.3457009 0.41694352 -0.26432076 -0.09073915 0.9146832 -0.61161995 0.3185096 0.44297862 -0.55646783 0.053319365 0.7961491 -0.025458097 1.0207138 0.06778347 0.4566478 -0.6933162 0.6462525 0.8101492 -0.23254904 0.30116668 0.16844617 -0.24484888 -0.07820941 -0.14890888
2614 -0.15287502 0.18061636 -0.4002055 0.25901225 -0.34276295 0.38697696 -0.1904813 -0.49884892 0.24270159 -0.07617909 -0.60726964 -1.0565985 -0.60033065 -0.1771793 0.33846277 -0.068802774 0.29533532 -0.10063591 -0.89374447 0.48431057 0.6283816 0.32544112 -0.46524763 -0.350218 0.72384286 0.8572981 -0.045939147 0.032931417 -0.20255406 0.1276347 -0.103027165 -0.22777262 -0.3413824 -0.22119422 0.12433235 0.20524941 0.0074763102 0.013978181 -0.41342786 -0.08133127 -0.48628685 0.085604966 0.012669063 0.32070193 -0.804176 -0.20532428 0.07699377 0.078780584 0.24950634 -0.7892803 0.5292323 0.2994091 0.19742681 -0.36873388 0.45823947 -0.10988885 0.20802481 -0.6559881 0.42780897 -0.06958707 -0.91749483 -0.5834457 -0.43071866 -0.24387667 -0.1282185 -0.06700828 0.109625496 0.8071807 -0.22562325 0.4888273 -0.41345394 -0.14083211 0.26622334 0.01936505 0.1284576 0.36006948 -0.36252663 0.323992 -0.040128812 -0.13431412 -0.86016107 0.09967034 0.052300334 -0.42613304 -0.18064019 0.35172316 0.5701283 0.09703192 -0.62548053 -0.0016204461 0.5021173 1.0076698 -0.7268793 -0.88587093 -0.1374278 -0.8239499 0.13876773 -0.082251996 -0.33457518 -0.66494894 -0.5838952 0.4748574 0.2833446 0.012968944 -0.10283663 0.3500923 -0.32030585 -0.10928769 -0.021796506 -0.6422655 0.24580579 0.2956995 0.09332836 0.06258555 0.3915642 -0.07534835 0.2563374 -0.062129594 0.34440362 -0.43132168 0.18428256 0.18683733 -0.13735878 0.5185954 0.6016223 0.09302243 -0.85775244 -0.070152655
57 -0.44924772 -0.1914147 -0.10511989 -0.35752654 0.13710113 0.01103008 -0.3660714 -0.33184648 0.046940744 0.057850696 -0.20178252 -0.53928554 -0.7564128 0.09132934 -0.14597386 -0.32201007 -0.075933866 -0.034369472 -0.59554434 0.20790458 0.8622076 -0.293027 -1.0133063 0.6042544 0.5305126 0.5393224 0.18800698 0.2596445 -0.8495014 0.6140748 -0.28350183 -0.15224658 0.04856626 0.22638664 -0.13164228 0.38850674 0.07155385 0.20284879 -0.41287082 -0.42417958 -0.7222487 0.37824413 -0.17689367 0.031211369 -0.094388545 -0.032949477 -0.1534037 0.2549368 0.46191916 -0.34354523 -0.70557755 -0.68625927 0.32892832 -0.43935457 0.43765858 0.20160152 0.16521259 0.105347365 0.41084602 -0.045426812 -0.19786103 -0.38007617 0.20811422 -0.15392256 0.5285959 -0.12630838 0.055442754 0.7073923 0.52033097 -0.16452295 0.2737482 0.7611512 0.69049394 -0.39275646 0.22305924 0.5813094 -0.830741 -0.25235528 0.29040655 -0.3837887 -0.29573616 -0.56035656 0.0952971 -0.18442817 -0.5453729 0.49681765 0.33494812 0.11326989 -0.0394248 -0.5627868 -0.018359749 0.7080871 -0.5045047 -0.5345224 -0.34641764 0.23266509 0.109348886 -0.05979341 0.11651902 -0.7099044 -0.40805024 0.45008916 0.5888257 -0.010247704 -0.029608069 0.30727607 -0.13024323 -0.09967585 0.7450099 -0.48583373 0.58953106 -0.35350215 0.10968048 -0.07507935 0.19201738 0.19835772 0.28542513 -0.12671943 0.8970706 -0.26092377 0.38865554 -0.24144837 0.27598158 0.5149673 0.5357332 -0.100480735 -0.3508482 -0.07006912
1813 -0.87188995 -0.23200248 -0.25335228 0.007393 0.059159223 0.32441142 0.15493383 0.30512112 -0.3596444 0.6957027 -0.27559063 -0.20499378 -0.6500703 0.39475822 -0.111199945 -0.12791269 -0.14847058 -0.16462979 -0.55995667 0.58723956 -0.038823426 -0.3672191 -0.2849832 0.77992016 0.33151233 0.6260438 -0.2779897 -0.0759893 -0.8353043 0.16323872 -0.39334583 0.00780674 0.28055763 0.35665274 0.50811213 1.0650159 0.06774771 0.2715641 -0.26963377 -0.38524157 -0.37051764 0.2185058 0.3485501 0.0072641606 -0.7661417 0.044700537 0.52691144 -0.18228045 0.39391312 -0.34123546 -0.050301343 -0.081662975 0.4762836 -0.080879904 0.6339617 0.006970292 -0.08197612 -0.15764347 -0.14410403 -0.28760374 -0.5932632 -0.5489647 -0.52112347 0.023942241 -0.39999235 0.1336958 -0.17457554 0.02290521 0.5532749 -0.28169814 0.03466375 0.44907182 0.24837966 0.50106543 -0.15521134 -0.041793752 -0.6830595 0.10316941 -0.2766094 -0.45190826 -0.18850823 -0.19673666 -0.22769564 0.08005029 0.36137247 0.21015097 0.04076934 -0.27426735 -0.11405099 0.5307294 -0.027480174 0.70712656 -0.38680473 -0.97671795 -0.22849086 -0.8460434 -0.2278447 0.75025284 -0.24250078 -0.44385257 0.5497274 0.65968794 -0.21654154 0.23652439 -0.2759813 0.74952745 0.37041163 0.40714103 0.047691997 -0.6365493 -0.19032057 0.2386133 -0.4010649 -0.18122824 0.22426012 0.23256822 0.2335182 0.2814838 0.5779475 -0.16592032 0.6790631 -0.033990934 0.0035445974 0.32956263 0.012288853 0.056174073 0.02351835 -0.41320243
352 -0.2541133 0.43327916 0.089535326 -0.18388583 0.18011749 0.3180397 0.19054513 -0.30160835 -0.11621251 0.073400654 -0.87872404 -0.53191197 0.26603392 -0.02814249 -0.65469337 0.018534843 0.41394022 0.5110691 -0.12684782 0.41941416 0.54761 -0.3087178 -0.50602084 0.61986285 -0.18668744 0.6843123 0.45007408 -0.15663198 -0.45938426 0.60396415 -0.23347901 0.60211456 0.12088954 -0.08993229 0.21012531 0.3706351 0.1044911 -0.73583287 -0.4015585 -0.35100353 -1.015487 0.19672377 0.42567265 -0.51901865 -0.41315383 -0.5566591 -0.09501985 0.55928093 0.419459 -0.024240252 -0.61213225 -0.31027687 0.60777175 -0.12049406 1.0000572 0.8021968 0.17704163 0.12561817 0.7414186 -0.20213005 -0.46389747 -0.30722025 -0.33186716 -0.3084386 0.1128528 -0.5534794 -0.076028876 0.17159502 0.18927988 -0.5605128 0.37509954 0.27550295 -0.0700426 0.500459 -0.07595397 0.2191811 -0.12794267 0.26854223 -0.10982186 0.32668415 -0.62489426 -0.47165388 0.3071595 -0.1941666 0.24894083 -0.068766296 0.370513 -0.72133267 0.08589753 0.31140637 -0.42477039 0.90313375 -0.6630823 -0.63706833 -0.15319923 -0.6998162 0.25487924 -0.20181277 -0.1843352 0.093112074 -0.2996789 0.14109375 0.29769102 0.120997846 -0.46487364 0.5659121 -0.064718954 -0.6258062 0.08093822 -0.49744657 -0.06816345 0.19223098 -0.1161404 -0.247324 -0.20392951 -0.9698947 0.49262577 0.083872 0.045649603 -0.43876058 0.2375522 -0.21721758 -0.4044139 0.5241228 0.040128298 0.1813458 -0.19678338 0.005481798
1316 0.13403095 -0.0128303785 -0.5677032 0.34608814 -0.16891517 0.5552565 0.22461845 -0.33841893 -0.15399271 -0.041299857 0.08307433 -0.87383294 -0.70871633 0.28164908 -0.15778536 -0.5381387 -0.7553672 -0.08174362 -0.78173506 0.5822231 -0.26294863 0.34523773 -0.14906184 -0.1968626 -0.31913763 0.40514988 0.31723288 0.041982546 -0.79516566 -0.3030958 -0.37774745 -0.19893757 0.6260996 -0.37903035 -0.20121774 0.55707484 0.2613628 -0.3407509 -0.037199467 0.055946693 -0.015817186 -0.40111762 -0.0033272929 -0.2654283 0.1395713 0.69613165 -0.8512389 -0.020231497 -0.058478724 -0.15712084 0.4224769 -0.26896596 -0.47741017 0.24433449 0.499943 0.59863484 0.09720593 -0.7605313 -0.1558077 -0.48626456 -0.7232386 -0.1858854 -0.066178374 0.59622705 -0.58248335 0.28340164 -0.37328 0.14089091 -0.1929958 0.33769605 -0.050856933 0.3856947 -0.37134027 0.42975655 -0.07537949 0.6463558 -0.4753259 0.42844424 -0.65729034 0.09582824 0.100307904 0.17932704 0.40186784 -0.3283736 0.09132076 0.59164613 0.2952096 -0.13953646 0.25521863 -0.30049303 -0.13248673 0.41961822 -0.43927264 -0.2063859 -0.8567824 -0.6039062 0.42611805 0.3259559 0.19796135 0.037463624 -0.11383468 -0.038455572 -0.146145 -0.64168584 0.0041020727 1.0472363 -0.64047474 0.49208376 0.64032966 -0.6943217 0.06480636 0.64207685 -0.30520678 0.36734897 0.6687416 0.29687336 0.4674038 -0.2467735 0.36439037 0.07439863 0.5996474 -0.021848952 0.030914487 -0.2621693 0.5311967 -0.022517186 -0.70300126 -0.41167605
1329 -0.33851355 -0.15103869 -0.07861825 0.027314516 -0.06552731 0.28521165 0.06526765 -0.35642362 -0.19903165 0.3505457 -0.581392 -1.0055225 -0.6441895 0.098149374 -0.13547929 -0.1095515 -0.19970766 0.4585493 -1.1102259 0.46158966 0.521534 0.116957106 -0.4541629 0.36924174 0.2353414 0.8392186 0.23074646 -0.00091732113 -0.57903963 0.4033722 -0.20547265 -0.21263498 0.35007536 -0.32444072 0.26166317 0.63654613 0.5063192 -0.33653045 -0.5765525 -0.36247835 -0.7117995 0.23165067 0.005463614 -0.4316852 -0.41871995 0.20758778 -0.2141971 0.145332 0.49359134 -0.5540165 -0.20773138 -0.14042746 -0.017533846 -0.13596489 0.74337566 0.6600827 0.1254241 -0.29051316 0.2479992 -0.27974963 -0.5253227 -0.664242 -0.4302036 0.10117947 -0.07695589 0.32655632 -0.16489027 0.23929769 0.028855382 -0.002159697 0.21924593 0.3545705 0.07453271 0.18900414 -0.05777141 0.75782025 -0.9455119 0.26922405 -0.12104529 -0.1154335 -0.37022325 -0.28814116 0.23718654 -0.32390043 -0.26559457 0.3485446 -0.04468624 -0.38046756 -0.14495261 -0.041980173 -0.12594445 0.56037563 -0.3284077 -0.33223155 -0.7525805 -0.47928467 0.17113276 0.2686538 0.3750951 -0.33887386 -0.35296947 0.32163113 0.12832019 -0.1252724 -0.27331704 1.047911 -0.17334041 -0.168587 0.5268317 -0.97043955 0.10486674 0.15319951 -0.49956366 -0.2741046 0.16419321 -0.24966814 0.3613239 0.21331348 0.5173806 -0.4584492 0.28368413 0.10474055 0.076762185 0.5089585 0.3914549 0.10483012 -0.3819553 -0.38470685
1174 -0.2791642 -0.104654565 -0.07644926 0.03861199 -0.049468603 0.26203546 0.09645586 -0.266084 -0.15853459 0.258867 -0.45771953 -0.79546475 -0.5310599 0.107756965 -0.12096969 -0.08945438 -0.15231787 0.3506075 -0.9292326 0.34881425 0.43071246 0.057857737 -0.3725306 0.29276007 0.21412511 0.6948818 0.21106286 -0.010082625 -0.46613884 0.3578617 -0.16274601 -0.14906596 0.24819928 -0.26863095 0.2968932 0.5485578 0.42633167 -0.28171715 -0.46688265 -0.3020383 -0.5783501 0.1602243 0.03133868 -0.3298308 -0.36077285 0.15323563 -0.16276403 0.07622721 0.4238136 -0.45756084 -0.17249234 -0.1007752 -0.03118938 -0.12332097 0.64356333 0.5350894 0.09784393 -0.24973397 0.20444718 -0.21789634 -0.4686486 -0.5334195 -0.3795879 0.055585247 -0.070562325 0.31930822 -0.14873149 0.19242501 0.06936471 -0.0010861523 0.1765786 0.30181375 0.055169776 0.16982628 -0.06968333 0.5801491 -0.739396 0.18892829 -0.08120366 -0.11138661 -0.3010361 -0.17745872 0.1664622 -0.25138107 -0.16748002 0.31354392 -0.032650877 -0.34493417 -0.11589919 -0.049888663 -0.13657264 0.4602963 -0.2659476 -0.32160753 -0.6216367 -0.39842376 0.16229823 0.26515442 0.30461106 -0.26063654 -0.28020057 0.2573199 0.12524572 -0.111003004 -0.23616602 0.8865707 -0.1337695 -0.08727194 0.45060048 -0.8426322 0.07769862 0.1485193 -0.41920012 -0.2155983 0.14219376 -0.20086624 0.28345802 0.13609558 0.41924062 -0.37707394 0.2506527 0.07571966 0.08333147 0.40626225 0.3458848 0.09762851 -0.28877357 -0.34672743
2308 -0.3956221 0.004159265 0.8221075 0.44579113 0.3676508 0.129639 0.07446577 -0.3237325 0.044937175 0.37576446 -0.631418 -0.92876977 -0.13277274 -0.1737853 -0.57309866 0.010611289 0.81173307 1.0242803 -1.1856914 0.41673928 0.41134277 -0.10855913 -0.40313023 0.13901702 -0.15175116 0.84386295 -0.2175527 -0.101142615 -0.28061503 0.21191214 -0.32213187 -0.41982427 0.752597 -0.01778293 0.4018809 0.7903641 0.0384808 -0.011638496 -0.6791257 0.24625927 -0.63095474 -0.120299384 -0.081336364 -0.22466563 0.17346701 0.11685396 -0.4097148 0.9090118 0.61124575 -0.43002856 -0.55976194 -0.16527118 0.43035322 -0.64405394 0.35225493 0.9697942 -0.10686507 -0.1835024 -0.22154845 -0.14905345 -0.27588987 0.13308401 -0.12277495 0.29243103 0.13301298 -0.13116258 0.12809786 -0.5160369 0.26406643 0.2256565 0.48320848 -0.36832193 -0.085312024 0.4904453 0.12330875 0.4655772 -0.5333313 0.4358093 -0.42890567 0.27439412 -0.6019256 -0.557107 0.36929393 -0.39868644 -0.10622212 0.18766753 0.1300933 -0.26008227 -0.37324002 0.16107674 0.11782458 -0.07508557 0.026847161 -1.0002131 -0.07280583 -0.6233332 -0.19256982 -0.11812019 -0.22153857 -0.27729553 -0.034862496 -0.18828514 -0.34618273 0.31370658 0.06585853 0.6892983 0.3502437 -0.09936176 0.38234586 -0.46744 -0.20970392 -0.06907554 -0.642344 -0.27330992 0.3486421 -0.40142018 0.39071485 0.35890573 0.18657552 -0.28219816 -0.2820378 0.31812963 0.3395718 0.67724925 0.3336227 -0.1417293 -0.4870385 0.15879585
1292 -0.84307045 0.17872918 0.06266422 -0.15628286 0.26088774 -0.18671757 0.4399275 -0.7002633 0.013572399 0.4824125 -0.5470956 -0.9936024 -0.021511126 -0.24963915 -0.54217833 0.31037623 0.0657274 0.3917386 -1.0105187 0.3074436 0.684368 -0.19796094 0.21693744 0.45223862 -0.22216111 0.8828585 0.81663287 -0.21022364 -0.87366426 0.1358296 -0.2086113 -0.097246796 0.33233482 -0.62706834 0.06647575 0.5876927 -0.13014348 -0.42862135 -0.7123007 -0.09777996 -0.102118 0.22661327 -0.17972912 -0.69619787 -0.67824674 0.08925493 0.32365522 -0.016130622 0.30280006 -0.122663476 -0.36130401 -0.32849228 -0.43275273 -0.20922634 0.6587848 0.36029103 -0.09992173 -0.09177659 -0.48715934 0.2633488 -0.13505669 -0.6397875 -0.426976 0.22469337 -0.2665365 -0.1573467 0.02850684 -0.42455977 -0.41772604 0.39051235 -0.3034293 0.1286806 -0.2939404 0.17702405 -0.4308815 -0.30720866 -0.65496606 0.47734237 -0.20985708 -0.2878479 -0.4093653 -0.15637307 0.16567758 -0.5457468 -0.21494633 0.25268117 -0.17235059 -0.07443968 -0.051763203 0.33458504 -0.5038002 -0.16985658 -1.1163946 -0.09621295 0.074304074 0.0039806846 -0.58456886 0.11287482 -0.072793074 -0.25110534 -0.609177 0.27633163 0.11106703 0.096614145 -0.46752286 1.0071299 -0.075813316 0.1379215 -0.28149542 -0.5708505 0.49683315 -0.04237508 -0.19926639 -0.19862598 0.3368632 0.2598479 0.42058134 -0.13629878 0.5802128 -0.3908696 0.18984258 0.22788407 0.182057 0.31056944 -0.01462437 0.18069924 -0.47921744 -0.13800095
416 -0.07083478 0.13696267 -0.35774118 0.29420704 -0.13856342 0.399797 -0.1515633 -0.19783503 -0.22295372 -0.043872885 -0.031598963 -1.0262105 -0.4180275 -0.12319772 -0.4573903 -0.56574166 -0.016323194 0.28602603 -0.9949316 0.3836586 0.95890677 -0.4423743 -0.31061146 0.22798823 0.023492416 0.85569006 -0.033844933 0.492379 -0.21223965 0.68550515 -0.2687555 0.2545733 0.5391917 -0.05689573 0.6298037 0.4729401 -0.42359132 -0.5619353 -0.5659056 0.2888618 -1.013579 -0.32022974 -0.059909523 -0.32531273 -0.46894708 -0.078169465 0.020571994 0.04289429 0.6193841 -0.632721 -0.110889666 -0.11976662 0.0499286 -0.35300073 0.5548409 0.23955128 -0.46210054 -0.02338446 0.13111925 -0.68622756 -0.465543 -0.45718524 -0.024670588 -0.3849501 -0.40337488 -0.15990748 0.38548598 0.5775201 0.38910073 -0.6279972 0.10400986 0.4629482 0.38006315 -0.20066997 0.112904534 0.54881734 -0.116793595 -0.08402899 0.14187329 0.3894894 -0.23366967 -0.25120503 0.5979412 -0.08917511 -0.51457024 0.5962099 0.38411006 -0.021734836 -0.51273674 0.2705559 -0.026411884 0.35531893 -0.32898062 0.234259 -0.28934544 -0.5373907 0.24994177 -0.020041736 0.04038384 -0.4407183 -0.4337786 0.008883519 -0.36930388 0.1313036 -0.1549365 0.6611764 -0.09947216 0.68235594 0.84923923 -0.7560695 -0.33347854 -0.06069289 -0.1058548 -0.51193243 0.7471258 0.56356424 0.6764918 -0.33822453 -0.15135886 -0.6320308 0.4194634 -0.11279065 -0.020610878 0.040301148 0.5230029 -0.7095361 -0.2730643 -0.11323314
3124 -0.2731361 -0.08205801 -0.045937598 0.053123288 -0.025543025 0.23051296 0.055705667 -0.28129014 -0.16069123 0.24507308 -0.43117672 -0.8032375 -0.5139544 0.057724513 -0.1225969 -0.0382229 -0.13304524 0.38969928 -0.8959375 0.39537218 0.4201343 0.07929925 -0.3221099 0.29424313 0.18176599 0.63693684 0.1803321 -0.011466843 -0.45226544 0.30144972 -0.163306 -0.1294612 0.25981876 -0.27824193 0.28368703 0.49671945 0.38704193 -0.2857521 -0.41068152 -0.27269205 -0.48581558 0.15434924 0.025054822 -0.38094756 -0.34071118 0.16630858 -0.13433202 0.09070535 0.3767294 -0.42208982 -0.1551334 -0.106731206 -0.039005183 -0.09456458 0.6317119 0.50259894 0.10919683 -0.23254769 0.1846205 -0.19266644 -0.47199988 -0.46531785 -0.3757782 0.13142264 -0.097585164 0.2583543 -0.14815801 0.15302128 0.04847182 0.028879924 0.16407122 0.2654334 0.026117856 0.18136463 -0.10522534 0.5633061 -0.73117965 0.23704907 -0.13439606 -0.087801516 -0.28276503 -0.23510064 0.18698348 -0.2586755 -0.18853359 0.27518457 -0.037091658 -0.3148287 -0.12796505 -0.024743084 -0.10325241 0.41206124 -0.2563879 -0.2702787 -0.57838595 -0.35277063 0.14194912 0.2241524 0.2916059 -0.26978713 -0.2640789 0.22505483 0.0582004 -0.13029662 -0.22408569 0.8691462 -0.1432374 -0.075023286 0.36261415 -0.74323475 0.06191101 0.10909366 -0.4214643 -0.22116044 0.10450849 -0.20660132 0.24459629 0.17067939 0.4056518 -0.36860687 0.21174659 0.10784658 0.09464789 0.40609798 0.30427235 0.07854092 -0.31574428 -0.3372899
1716 -0.12958448 0.0034279523 -0.120240554 0.6476325 0.5487746 0.17999882 0.35362524 -0.123780295 -0.7458396 0.0675882 -0.35516348 -0.97617465 -0.40191585 -0.37353712 -0.2184047 0.25919735 0.1408974 0.6594233 -0.84402287 0.24536715 0.8920603 0.16550605 -0.053462017 0.528992 0.15505506 0.5952836 0.59967667 0.08208104 -0.4794599 0.47806153 -0.11539187 0.06395054 -0.12479855 -0.8407059 0.79635316 0.07082144 0.20417024 -0.22650534 -0.052934065 -0.03754827 -0.25119162 0.03760953 -0.016126469 -0.16080742 -0.7232342 -0.081123054 0.14142393 -0.11285761 0.47846338 -0.20880435 -0.3328958 -0.17394136 0.011331249 -0.115083106 1.2243341 0.35635853 -0.08747144 -0.41652268 -0.73869026 0.21707812 -0.14697686 -0.28384987 0.068701774 -0.23630102 0.40822712 0.6160509 -0.1334983 0.2673689 0.81356734 0.12274428 0.4648407 0.6539995 -0.23684551 0.58897126 0.12721197 0.6192228 -0.11690632 0.23923941 0.16731374 -0.28890616 -0.019010464 0.37526783 0.58336544 -0.5469885 0.1773058 0.09370459 -0.06693808 -0.50657463 0.08583203 -0.027023938 -0.24524775 0.40820575 0.040318776 -0.49205387 -0.580859 -0.058941033 0.62901 0.07201991 0.4053863 0.4330272 -0.86921656 -0.4307409 0.37054908 -0.12828557 -0.5810707 0.91748357 -0.087899595 0.09760931 0.13951656 -0.830258 -0.36547306 -0.4989568 0.15718193 0.03330884 0.24700424 -0.7471093 0.21247713 0.26515368 0.07127243 -0.43642804 0.51075554 0.027001966 -0.32102248 -0.29315564 0.0016227578 0.030268423 0.0058581913 -0.45950663
1013 -0.2861488 -0.12132039 -0.04424702 0.021249665 -0.033190854 0.19884917 0.064423844 -0.20793724 -0.17142844 0.2751324 -0.4127165 -0.6720665 -0.42307478 0.09804824 -0.07762492 -0.019239636 -0.15079637 0.35460752 -0.80424935 0.33963037 0.33613092 0.10723897 -0.32199982 0.23478182 0.102124035 0.5921281 0.15739425 -0.0005652784 -0.42422354 0.28521138 -0.15101017 -0.12587304 0.2507259 -0.27601954 0.24636024 0.43769222 0.34894618 -0.24033508 -0.4202769 -0.25684986 -0.4930692 0.18204883 0.0069381986 -0.31719977 -0.30655438 0.16705552 -0.17319106 0.09180174 0.3302339 -0.38133836 -0.14089517 -0.1285393 -0.029389536 -0.094768584 0.545445 0.47888157 0.09950668 -0.22217363 0.16955224 -0.1988527 -0.33624434 -0.4936337 -0.31952187 0.111253396 -0.07023852 0.2129763 -0.11095993 0.19113013 0.037731066 -0.016337603 0.11396968 0.27398476 0.06856002 0.15764418 -0.045796275 0.540522 -0.6954177 0.18509337 -0.09987114 -0.12018094 -0.25208876 -0.17162575 0.14130744 -0.23713402 -0.16847005 0.24930128 -0.025920676 -0.2780838 -0.10924782 -0.042514537 -0.10517342 0.38355032 -0.20656738 -0.25109428 -0.5059718 -0.31615207 0.09356327 0.19841725 0.26276562 -0.23762216 -0.22855243 0.23637316 0.062926516 -0.075721465 -0.22146353 0.79434997 -0.0832495 -0.09805221 0.28029 -0.6788554 0.036341555 0.13482626 -0.32260713 -0.2239667 0.10986163 -0.20051849 0.18878385 0.12558939 0.3115233 -0.31617737 0.17466833 0.06590456 0.07754982 0.34467348 0.25351438 0.09475101 -0.24134186 -0.28719658
1785 -0.30078116 -0.14347927 -0.08870342 0.021737311 -0.055072602 0.2512508 0.059919205 -0.29377243 -0.19222555 0.2932489 -0.48807496 -0.88496226 -0.5557137 0.10254861 -0.11938733 -0.097356305 -0.18704215 0.37942433 -0.9999495 0.4074331 0.46702313 0.10155612 -0.37606195 0.30395395 0.18895026 0.71417296 0.20952354 0.0051702904 -0.49697232 0.34946883 -0.17043582 -0.16435513 0.31234926 -0.28266215 0.2683757 0.5749608 0.43248996 -0.31709248 -0.48987317 -0.31083834 -0.5912683 0.18392895 0.014049992 -0.36842066 -0.38236478 0.1876013 -0.17021462 0.13000314 0.43157458 -0.49853215 -0.16675526 -0.12093153 -0.013607224 -0.12406745 0.65285176 0.5736706 0.105678685 -0.29271665 0.20563032 -0.24789381 -0.48667666 -0.5628779 -0.37183225 0.08369778 -0.09587131 0.29904678 -0.16535881 0.22105964 0.013058928 0.00938343 0.21050116 0.33558476 0.06233928 0.18053256 -0.0529741 0.6554811 -0.7993869 0.22689582 -0.12846924 -0.09223023 -0.32399595 -0.24334283 0.20250526 -0.28704324 -0.19881552 0.3051849 -0.02603578 -0.36319825 -0.12988512 -0.032890607 -0.1289914 0.4740318 -0.29056385 -0.27802378 -0.6449027 -0.43862128 0.16155685 0.25643 0.3340403 -0.30126348 -0.2927781 0.2764124 0.064393975 -0.13575841 -0.2453594 0.9147314 -0.15408467 -0.11656505 0.45768443 -0.8641742 0.09145593 0.15112357 -0.4476828 -0.25190127 0.16784795 -0.21786018 0.320975 0.18765981 0.44464287 -0.41532037 0.25392574 0.102339655 0.060820762 0.43227005 0.34103137 0.0826864 -0.33520505 -0.3582623
863 0.24466619 0.42155337 -0.18733181 0.15417212 -0.06471857 0.16400705 0.33695644 -0.3122163 -0.55487096 0.036841772 -0.37129512 -0.95209557 -0.436422 0.2845518 0.6179306 0.48790085 -0.12328922 -0.25364178 -0.6097009 -0.1288206 0.18199378 0.0969804 -0.2456064 0.51954305 0.40451998 0.37579066 0.46409535 -0.014972781 -0.0008515549 0.13157554 0.11851877 -0.19969317 0.66864324 -0.24065359 0.04663569 0.30414605 0.22939235 -0.58420634 -0.37342963 -0.1047608 0.5388533 -0.1972116 0.7182944 -0.7970775 -0.27733263 0.21936713 0.01590129 -0.36738405 -0.12590414 -0.6228058 -0.30828148 0.0024796065 -0.31841892 -0.39101544 0.15670604 0.38625 0.015781095 -0.065190524 0.8331785 -0.07819732 -0.66102177 -0.5591959 -0.524618 0.17934835 -0.59400356 0.06921039 0.3134197 0.17439815 -0.36643305 0.5396414 0.39259696 0.07010053 0.17369182 -0.012894819 -0.29812568 1.1642851 -0.47081578 0.36899963 0.058781758 -0.34831652 -0.48976457 -0.11573801 0.16485448 0.08659205 -0.5172799 0.28046677 -0.013266378 -0.7896936 0.42643732 -0.18192483 0.1162413 0.7694646 -0.3971212 0.2744802 -0.6497101 -0.18157129 -0.09335287 0.269786 0.3646256 -0.1065991 -0.07234285 0.40895474 -0.041794967 0.3476342 -0.044658948 0.76213264 -0.20694737 -0.07964067 0.31538084 -0.2635841 -0.558675 0.10620661 -0.4924742 -0.18082266 -0.07149494 -0.3290501 0.3880322 0.58349067 -0.11258719 -0.3434027 -0.06465499 0.16142386 0.096634306 -0.15785033 -0.20846681 -0.08548399 -0.029994538 -0.5469948
253 -0.05309554 0.6557335 -0.30268914 -0.59107685 -0.17731178 0.32198393 0.12911782 -0.37459975 -0.082606986 0.8399039 -0.44074646 -0.54863554 -0.75297445 0.34646258 0.25483033 0.10798672 -0.2167337 0.5852825 -0.18328837 0.57505566 0.16259044 0.58485645 -0.20331363 0.39521843 0.33949807 0.107552886 0.66670793 -0.15581064 -0.39541888 -0.14298627 0.06009741 0.2947759 0.34814999 -0.059368476 -0.45927542 0.052939128 1.1661668 -0.41728154 -0.08605125 -0.1738889 -0.86454153 0.07607139 -0.44359517 -0.6759428 0.28893727 0.5576656 -0.7248019 0.3642175 0.33290604 -0.17015384 -0.16568494 -0.24947783 0.1483848 0.3166551 0.49673697 0.77002454 0.25027695 0.13452247 0.22791736 -0.09991876 -0.18647665 -0.2297785 0.2045645 -0.004214553 0.248448 0.5097395 -0.4316353 0.26373518 -0.25080088 -0.2807525 0.55456823 0.30416656 0.14269306 -0.19659954 -0.08203759 0.79840887 -0.603312 0.4240414 0.47368497 -0.6386653 -0.33100167 -0.4025318 0.036779113 -0.07752445 -0.3435627 -0.08265905 -0.23684156 -0.07886934 0.21237215 -0.38305575 -0.27494434 0.49353608 -0.4580664 -0.19801868 -1.0902376 0.087101676 0.19820023 0.3899054 0.28578246 0.19250596 -0.41994554 0.46281305 0.58231527 -0.19993356 -0.18827732 0.35747802 -0.8540441 0.07696359 0.43572837 -0.60095316 0.018471135 0.5517362 0.17910223 -0.17052482 0.14387828 -0.6739405 0.19002266 -0.18795574 0.34620166 -0.43564314 0.12701438 0.12452544 -0.12821913 0.27014318 -0.31126267 0.3978734 -0.423769 -0.1478276
1711 0.20448641 -0.61026436 -0.15714774 0.15222403 -0.080523476 0.8520693 0.28304872 -0.25939578 -0.2157454 -0.21647666 -0.26111516 -0.6116211 -0.51564544 0.15504624 -0.041962016 0.033546764 0.28011137 0.07274124 -1.2328328 0.47484332 0.32490137 -0.021743685 -0.66885245 0.20866795 0.09933354 0.53935724 0.16206984 0.24284755 -0.2989191 0.6455131 -0.31918606 -0.09254071 0.31102717 -0.2998463 -0.21794157 0.08580291 -0.16067466 -0.2768057 -0.14985746 0.14878462 -0.27311665 0.12523319 0.38989997 0.5679382 -0.11357111 0.70101786 -0.65928227 -0.0020262958 -0.03062942 -1.1274251 0.16794483 0.0032967755 -0.9143005 -0.4818141 0.50358695 0.70190877 0.16441973 -1.1939201 0.3670362 -0.1155515 -1.0114353 -0.56039876 -0.47246963 -0.06328679 -0.013137142 0.074453026 0.4771664 0.4258759 0.15553014 -0.06130386 0.82000226 -0.13448192 -0.062424418 0.05729882 -0.05336703 0.31372213 -0.73086476 0.4099731 -0.34114125 -0.14223439 -0.45284653 -0.04682344 0.02661136 -0.21666308 -0.10594869 0.5428943 0.35335758 -0.5878787 -0.37638345 0.52531135 0.013044664 0.346294 -0.38089448 -0.44330597 0.09992313 -0.73771447 0.20136735 0.11768893 0.5544089 -0.2922063 -0.57689494 -0.112180024 -0.6381291 -0.04373619 0.31199446 0.6658906 0.30853358 -0.06289901 0.06979112 -0.79022217 0.05703199 0.24503566 -0.37124705 -0.13159603 0.50588393 0.2654165 0.48740342 0.52927876 -0.27183115 0.030291937 0.15911216 -0.21249355 0.6287118 0.18736479 0.77677804 0.18459664 -0.54963386 -0.71543854
796 -0.5485395 0.19204351 0.029139355 0.53710145 -0.40293556 -0.08142112 0.08467013 -0.42621127 0.16931336 0.39362147 0.23904383 -0.5858474 -0.4342326 0.2699165 -0.116959795 0.068385236 -0.011886473 0.25579235 -0.827406 0.26099503 0.26767296 0.5269906 -0.3973617 0.7148069 -0.2950427 0.38710973 0.2739145 0.3033808 -0.13529804 0.00393008 -0.51543784 0.036492955 0.30996627 -0.26840416 -0.43550214 0.47557327 0.844144 0.034867827 -0.1578152 -0.14658506 0.1543796 0.48287436 -0.32369468 -0.07869123 0.39487082 -0.15139535 -0.50863135 0.102883495 0.091396175 -0.15618753 -0.4062946 -0.68272716 -0.23416157 -0.52969575 0.1507705 0.29244375 -0.23246974 0.15261272 -0.20029469 0.00037886915 -0.4143512 -0.6457124 -0.3164347 0.19211847 -0.4297264 0.44980794 -0.14687066 0.038350187 -0.47855535 0.3626028 -0.0075927163 -0.09712765 -0.09720744 -0.1168328 0.20353876 0.96694976 -0.79514396 0.08316251 -0.071984604 -0.06955924 -0.09154174 -0.33398086 -0.052351158 -0.09675581 0.121170945 0.04102226 0.04467751 0.009734329 0.03156818 0.16506366 0.3255522 0.39814636 -0.053456 0.13129357 -0.48371342 -0.89269906 -0.101188734 0.6761672 0.33001843 -0.71951115 -0.2876159 0.7369404 -0.12931934 -0.3313702 0.8010278 1.1771175 -0.24376047 -0.35114464 0.3149835 -0.30955583 -0.21613628 0.20590629 -0.6953604 -0.20429033 0.07652552 -0.08649535 0.6720526 0.3277955 -0.24135022 -0.5294286 0.45171335 0.1905455 -0.29730088 0.48360738 0.8044131 0.06614166 -0.35961753 0.15097809
3113 -0.2143947 0.33420247 0.23796098 0.094037704 0.44249701 0.23519668 0.26868105 -0.14162931 -0.37492284 -0.39830297 -0.16757429 -1.1507194 -0.60080457 0.055271164 -0.38223612 0.37173206 -0.1252515 1.0063422 -0.31389531 0.53422064 0.28001973 0.0522818 -0.34554094 0.10330314 -0.3458994 0.7170857 0.3924801 -0.2333201 -0.7821093 0.4814864 -0.33054566 -0.18801457 0.18137188 -0.1254474 0.45834428 0.122302525 0.37015864 -0.23753275 -0.4468356 -0.2708612 -0.21326496 -0.23372753 -0.13793361 -0.8377459 -0.08777326 0.49137288 -0.46887863 -0.20515536 0.19703408 -0.29354453 -0.202529 -0.55842865 -0.16681932 0.50626296 -0.12990215 0.83040243 0.31059143 -0.20264086 -0.6973534 -0.3963013 0.26365444 -1.2992578 -0.23895845 0.05929047 -0.6588349 0.37052494 0.010663305 0.24215235 0.34951332 0.38868228 -0.12122106 0.4600768 -0.25867665 -0.44756728 -0.38285863 0.13234106 -0.71056944 0.6503175 -0.32835495 -0.31675327 -0.2156946 -0.2265701 0.28312266 -0.36393237 -0.3101368 -0.06971258 -0.364056 0.17584273 0.26380193 -0.65687996 -0.5982172 0.58398193 -0.082656875 -0.31843334 -1.0796133 -0.06907796 0.1918498 0.015795661 0.2258694 -0.43016574 -0.53443754 -0.21867594 0.16640736 0.069878034 -0.26065013 1.0871956 -0.5264733 -0.0039334046 -0.13966677 -0.7706242 -0.13604955 0.27964568 0.21848063 -0.18072361 0.09160525 -0.011137346 0.69195825 0.09370892 0.8287192 0.2570431 0.056833368 -0.29428956 0.26703164 -0.018860666 -0.071810104 -0.26909265 -0.49526194 -0.06161402
804 -0.24444331 -0.0977711 -0.0749466 0.03732027 -0.043610495 0.20017485 0.06841109 -0.24840888 -0.122756936 0.2237489 -0.3518003 -0.6549113 -0.4074222 0.06346095 -0.08733338 -0.0715748 -0.13000573 0.32628423 -0.7320162 0.29402125 0.35633433 0.08581067 -0.2792318 0.2276471 0.12900272 0.5241738 0.16624744 -0.016745802 -0.35900134 0.26221472 -0.120332964 -0.14234518 0.22791237 -0.23350765 0.18341672 0.39192483 0.31692407 -0.23068216 -0.368561 -0.23116247 -0.42670062 0.14434084 0.05234306 -0.2763422 -0.29940528 0.11132302 -0.10641083 0.08986126 0.34252644 -0.36943236 -0.12520933 -0.08462467 -0.018904343 -0.12434188 0.4879913 0.41606653 0.07193984 -0.18500102 0.15480392 -0.15330836 -0.3432775 -0.44843504 -0.31830186 0.057081886 -0.061091784 0.22561517 -0.09789557 0.13911931 0.028607776 -0.003335568 0.13073778 0.22467354 0.022490388 0.14852268 -0.043834664 0.46606272 -0.58384645 0.19111149 -0.056493923 -0.10424226 -0.24000157 -0.17759879 0.14131872 -0.20019251 -0.16457039 0.2310768 -0.03164352 -0.26549873 -0.069034606 -0.0096362205 -0.10025453 0.37770283 -0.22209337 -0.23266517 -0.48172742 -0.32425404 0.087645076 0.20066643 0.23793112 -0.20457065 -0.23585632 0.21957768 0.08213874 -0.07371124 -0.1820023 0.69369024 -0.08109943 -0.06548278 0.3316661 -0.6411364 0.05038488 0.08924081 -0.324891 -0.19119325 0.092294134 -0.16409457 0.2457023 0.12902354 0.30524108 -0.323376 0.15671985 0.08959384 0.04620193 0.33000913 0.22097564 0.088135876 -0.21911311 -0.23563239
1959 -0.21598649 -0.33931747 -0.30983195 0.28381553 -0.38204524 0.23981304 0.094388925 -0.42837197 0.13398676 0.42563426 -0.38722843 -0.5985 -0.18503293 0.6929906 0.08883198 -0.1528146 -0.11209817 0.687036 -0.39825165 -0.07179267 -0.2264505 0.5485663 -0.46215442 -0.0039975485 0.31995916 0.66563725 0.43416086 0.20295966 -0.46486983 0.34494603 -0.06678836 -0.37975433 -0.14952078 -0.5658615 0.108377166 0.8505606 0.6091254 -0.42593208 0.2241473 -0.19069311 -0.11658227 -0.09052412 0.049322974 -0.4315653 -0.4770279 -0.26001674 -0.52129346 -0.24159461 0.5298795 -0.19438295 0.4360947 -0.14365055 -0.152584 0.03304421 0.5057227 0.48665285 0.28432545 0.17296153 -0.22705643 -0.1096991 -0.60782784 -1.4875228 0.36056697 -0.22174765 -0.22709835 0.57310873 -0.0632409 0.6766285 -0.18122408 0.06937144 0.43355304 0.1805724 0.43339607 0.30759928 0.026187656 0.5483406 -0.99826884 0.40276483 0.07815312 -0.013440268 -0.13564813 0.4281582 0.4431383 0.4102854 -0.22609405 -0.061006054 -0.1978407 -0.25192183 -0.5702108 -0.10905201 0.29091144 0.6820618 -0.24305561 0.0062536844 -0.37238318 -0.70826197 0.1749784 -0.17187043 0.31859317 -0.19198382 -0.694391 -0.094440244 0.078170694 0.376987 -0.314908 0.6930279 -0.057314847 0.021752968 -0.81277704 -0.7932885 -0.6196236 -0.26211432 -0.21135178 0.36598828 0.12127463 -0.14707854 0.4385793 0.17323136 0.083481446 -0.31603456 0.38634825 -0.13956991 0.12599449 -0.2072685 0.36181876 0.0494333 -0.5528136 -0.38158625
1793 -0.22614445 -0.097108856 -0.076274745 0.044226427 -0.036487408 0.2064662 0.033560842 -0.27128077 -0.15953207 0.2513279 -0.3944242 -0.72227734 -0.48442447 0.10433736 -0.118051514 -0.08978803 -0.14552054 0.31623358 -0.8347523 0.35629058 0.37575144 0.11229699 -0.2865834 0.2415336 0.13977218 0.59581023 0.17100751 -0.014572214 -0.42428187 0.2727787 -0.13076638 -0.13774279 0.27173793 -0.23640102 0.21636866 0.4997728 0.36578888 -0.2574718 -0.38829142 -0.24264298 -0.49612385 0.15552264 0.007692026 -0.26888755 -0.2806358 0.15189268 -0.15864106 0.11559635 0.36587226 -0.41980734 -0.1471403 -0.10446015 -0.0054311063 -0.11852027 0.5340849 0.48358503 0.07548803 -0.20596041 0.17369977 -0.19839936 -0.38416195 -0.49200848 -0.31115165 0.07038617 -0.08894819 0.28109863 -0.13834934 0.14282027 0.026010497 -0.013580822 0.15776624 0.2739091 0.037521016 0.16233458 -0.0462366 0.5377628 -0.65751266 0.21027716 -0.094461896 -0.11512243 -0.26760116 -0.20742132 0.16918033 -0.22277223 -0.14518808 0.24232298 -0.031265046 -0.29033023 -0.094670616 -0.027781233 -0.09772613 0.38125795 -0.26427576 -0.2660257 -0.5408852 -0.355155 0.11561034 0.19433989 0.2532584 -0.20898212 -0.22953224 0.1971638 0.07388999 -0.10414411 -0.19633658 0.7732956 -0.12144503 -0.11223069 0.39570683 -0.7368878 0.07992707 0.14661852 -0.37268192 -0.21831143 0.16397883 -0.15966262 0.28707364 0.12799124 0.35938448 -0.3772952 0.19562586 0.09798239 0.084601745 0.3636092 0.2374483 0.09618212 -0.2853323 -0.3005121
1294 -0.28786093 -0.38894603 0.061314225 -0.07628038 -0.058729984 0.07132597 0.028754951 -0.68068254 0.07029722 0.2085735 -0.77543306 -0.8740521 -0.057037298 -0.2521404 0.27491164 0.6711234 0.12044091 -0.03454704 -0.93592775 0.22478963 -0.082327135 0.0004941832 -0.28459784 -0.14063253 0.34776178 0.27181697 0.48042622 -0.417139 -0.3434451 0.41165596 -0.4142912 -0.73609596 -0.26282176 -0.57928383 0.4385142 0.13042533 0.98644054 -0.07920219 -0.12472332 -0.35257092 0.03477268 -0.070683286 -0.0850578 0.23410043 -0.518806 0.4083234 -0.08362079 -0.14175181 -0.14411478 -0.010574049 -0.39925706 -0.19648394 -0.4572794 -0.12804851 0.4073296 0.54317963 0.76645994 -0.8118073 -0.0315303 0.52513784 -0.4932621 -0.50051713 -0.7642003 0.19921573 -0.022571616 0.68255013 -0.3147775 -0.13419896 -0.053188484 0.4029588 0.24584623 -0.19724272 -0.23456149 0.42746815 0.072331965 0.4334083 -0.6556357 0.56034625 0.027678804 -0.21944965 0.04158889 -0.13180983 -0.5036004 -0.27177978 0.17202795 -0.2550354 -0.3745435 -0.590996 -0.1950116 -0.34681126 -0.39943165 0.39216182 0.0072071245 -0.8221735 -0.35397354 -0.26680464 -0.29158953 0.1025776 0.55304533 -0.43340695 -0.3874365 0.07221964 0.2981006 -0.14270808 -0.17728034 1.0239394 0.0871962 -0.56714004 -0.3102953 -0.6650442 0.32488924 -0.114365116 -0.09103254 -0.2854448 -0.7279472 -0.5200098 0.17592692 0.5490843 0.40959176 -0.33903962 -0.36542115 0.29638308 0.13667572 0.9834025 0.16621195 0.4026537 -0.53966266 -0.42082533
1089 -0.3463315 -0.34641838 0.38368553 0.11003295 0.010251922 -0.18431935 0.24672198 0.2780469 -0.5114388 0.7567423 -0.46380556 -0.7317405 -0.8783671 -0.14286532 0.3411142 0.121632755 -0.48970523 -0.11130438 -0.56084704 0.5726176 -0.34772664 0.3220451 -0.30505744 -0.17226681 0.0998329 0.031675473 -0.632827 -0.4630558 -0.4663601 0.040270977 -0.1215278 -0.38826683 0.2880399 0.15977725 0.21457706 0.68034405 0.23241584 -0.1255164 -0.3267659 -0.49801186 0.026433479 0.30735773 0.109247334 0.1010448 -1.0284505 0.2055324 -0.18556628 -0.45245117 0.58233327 -0.1936072 0.1724333 0.53353256 -0.5845841 -0.07311565 0.65783405 0.17187648 -0.47867477 -0.43743274 0.25251827 -0.16664638 -0.65544385 -0.28196448 -0.3393152 0.7081997 0.2062072 -0.02582955 -0.36316907 -0.22687651 -0.00051668566 0.36102173 0.00590104 0.57020664 0.06799354 0.06638151 -0.737453 0.42847404 -0.93472964 0.02681419 -0.39690602 -0.024928126 0.022426717 -0.06819339 0.66563374 -0.5878951 -0.38933316 0.27910644 -0.17205085 -0.011413572 -0.32108554 -0.077749714 0.13396256 0.35052237 0.19909135 -0.2327678 -0.5982057 -0.10720143 -0.005307188 -0.25575763 0.5721194 -0.19322616 -0.34212175 0.7236157 0.08016174 -0.15064396 -0.4440529 0.8092066 -0.36029074 -0.4549269 0.5573588 -0.25658634 -0.06699022 0.34811562 -0.6324554 -0.27055654 0.6163168 -0.10469259 0.23611201 0.32288393 0.6343123 -0.44872996 0.06838886 0.5588412 0.26629072 0.12494011 0.072708316 0.19942734 -0.05581893 -1.0241512
1090 -0.44926766 -0.17840649 -0.086091414 -0.3586043 0.12775053 0.026077043 -0.38926056 -0.3323946 0.042262606 0.078960955 -0.20356944 -0.52667505 -0.7487431 0.09685354 -0.12493286 -0.30874318 -0.07217569 -0.04425516 -0.5910099 0.20773901 0.8314137 -0.2889212 -0.9910314 0.6019447 0.5286901 0.53537345 0.16077054 0.25519457 -0.79833484 0.6083347 -0.26347786 -0.1440314 0.06506366 0.25731802 -0.11712655 0.39094973 0.071819425 0.20520903 -0.4201276 -0.40639392 -0.7129473 0.3666949 -0.17890294 0.04858309 -0.07294839 -0.04763057 -0.13367873 0.27018124 0.46478862 -0.34560856 -0.69811994 -0.65880245 0.32718173 -0.424143 0.39663404 0.20212324 0.15680352 0.11157917 0.42167464 -0.04352815 -0.21299271 -0.36048204 0.21500297 -0.1545222 0.5492751 -0.12825724 0.027250588 0.6794882 0.4877385 -0.15388334 0.2909007 0.7408049 0.67974824 -0.37008116 0.19979493 0.5968969 -0.79243183 -0.25275594 0.2784685 -0.38376015 -0.29272604 -0.58089936 0.12276055 -0.18094568 -0.5364285 0.5025059 0.32381997 0.11553652 -0.037173647 -0.51366085 -0.0061962437 0.70827335 -0.502025 -0.52838916 -0.34386265 0.22077253 0.07437457 -0.056134965 0.11067601 -0.69036597 -0.39566457 0.4635093 0.5694079 -0.006644444 -0.05043271 0.2882577 -0.13127396 -0.11458429 0.75914407 -0.48216867 0.57302666 -0.32739565 0.0875681 -0.09513311 0.21097463 0.19052817 0.32192224 -0.11437567 0.89300454 -0.26620695 0.4033306 -0.20159449 0.28075945 0.5008322 0.50939065 -0.09587078 -0.3451304 -0.081607446
1359 -0.57418215 0.39237395 0.053190406 0.6194644 0.2516163 0.16836509 0.21961376 -0.5213145 -0.14186716 0.2201621 -0.6138487 -0.6244476 -0.80026394 -0.37710983 -0.6350829 0.25344864 -0.25075704 0.002118681 -1.2747501 -0.04688661 0.35782346 -0.5040387 -0.21516258 0.1866773 0.59938544 0.49407145 0.16222526 0.43191478 -0.97306067 0.43406478 -0.33546403 0.09606153 0.25342992 0.10448573 -0.11255779 0.47782123 0.12270205 -0.4862681 -0.087416746 0.049733385 -0.748214 -0.35413048 -0.34662113 -0.24150313 -0.071194544 0.56802213 0.25391042 0.151009 0.39001977 -0.119170815 -0.11807167 -0.15941882 -0.6398657 -0.65108335 0.40440956 0.5854189 0.32998836 -0.04719469 -0.02165416 -0.01226815 -0.69639266 -0.47324857 0.15231656 0.43201232 -0.26852608 0.16552064 0.41282344 -0.2823454 0.52552545 -0.30106965 -0.0019627435 0.14575976 0.20530431 -0.16914335 0.6257438 0.2450731 0.16444892 0.38445807 -0.10518296 0.30847275 -0.389965 -0.24353461 -0.27758303 -0.12774724 0.19951099 0.08334123 0.30600074 0.36437935 -0.5192948 -0.29694214 0.11654045 0.5872242 -0.6181688 -0.3123929 -0.47412777 -0.18075337 0.029779999 -0.11221085 -0.06480022 -0.75188917 -0.010099046 0.25331262 -0.17061253 -0.30337852 0.31323397 0.8777783 0.2308282 -0.24265832 0.7821166 -0.85916793 -0.31280246 -0.26781762 -0.8647819 0.10698409 0.6314063 -0.012924115 0.41670188 -0.06193875 0.6081253 -0.5279661 0.34944782 0.26269913 0.17338675 0.7240231 0.4907247 -0.08643686 -0.22956768 -0.4638128
150 -0.25286856 -0.17263041 0.24452172 -0.37511855 -0.4351742 0.3386198 0.071817115 -0.22502984 -0.5495127 0.05837608 -0.43472183 -0.29645923 -0.40801474 0.03572689 0.08629917 0.13881247 0.00895382 0.6937353 -0.6019262 -0.025527488 0.3341752 -0.17177208 -0.14586428 -0.007319395 0.4046129 0.7899481 -0.025124894 -0.41103727 -0.39782327 0.2569306 -0.08936821 -0.2147925 -0.10242381 -0.08071097 -0.02454303 -0.36594775 -0.27920645 -0.5361948 -0.77691257 -0.31914106 -0.31427985 -0.18625657 -0.013486231 -0.31080875 -0.21685208 0.5601413 0.16919066 0.24946503 0.3658202 -0.5113339 0.07567859 -0.023014836 0.033013623 0.38589048 0.39440566 0.8049334 0.6228107 -0.73958 0.5567101 -0.2554807 -0.15574004 -0.2392455 -0.12889153 -0.28876895 0.1070177 0.33920893 -0.56976575 -0.03699436 -0.26197025 -0.25869638 -0.044063315 0.11551441 -0.022728976 0.17962837 -0.3811479 0.06538016 -0.46048746 -0.16314262 -0.51250154 -0.558414 -0.3982037 -0.37348384 0.060825355 0.02415853 -0.19098492 -0.02173093 0.25697482 -0.28805646 0.3923841 0.116080314 -0.07750771 -0.08827215 -0.40250614 -0.45801252 -0.7276197 -0.48131683 0.18229099 -0.14383073 0.5747356 0.020533666 -0.29648796 0.23957115 0.19112484 -0.2565419 -0.18990849 0.10964698 -0.2333815 0.06861656 0.58851874 -0.4655025 0.89652723 -0.23499702 -0.16368489 0.5349509 0.30292648 0.10202684 0.67890775 -0.023940453 0.71022403 -0.033654533 0.049755055 0.16715898 0.34388164 0.24879515 0.046817593 0.2946565 -0.30501628 -0.49364558
1012 -0.26759517 -0.1148852 -0.07494491 0.028867617 -0.07139362 0.20783842 0.05525355 -0.28844652 -0.13008337 0.25251988 -0.44407114 -0.8199365 -0.5054695 0.07808851 -0.11839667 -0.09511522 -0.1495428 0.35728553 -0.90157473 0.38960397 0.42892498 0.10221068 -0.3410953 0.28754324 0.19915308 0.6710082 0.20947352 0.011318804 -0.48906508 0.32238486 -0.1332079 -0.19117752 0.27454036 -0.25525734 0.2187265 0.5164137 0.40474725 -0.28415936 -0.46309176 -0.291687 -0.56670904 0.17967936 -0.009329693 -0.3458447 -0.33952853 0.13889757 -0.17507504 0.1142759 0.38899502 -0.4469225 -0.17826952 -0.08956046 -0.019626744 -0.15248029 0.59499526 0.5337815 0.11691888 -0.24517064 0.21218793 -0.1950156 -0.44366977 -0.53250015 -0.3607181 0.061437637 -0.06250447 0.29739812 -0.12329464 0.19575062 0.013779699 -0.017016267 0.17301713 0.27032423 0.05833864 0.14701603 -0.022065945 0.60692453 -0.76446855 0.21658862 -0.07330296 -0.07936095 -0.29471248 -0.24002175 0.18136954 -0.23824804 -0.20000628 0.27038398 -0.035843223 -0.31800315 -0.1139451 -0.02070622 -0.09336365 0.4761681 -0.27513254 -0.2571653 -0.5759888 -0.3826951 0.12603655 0.20730707 0.31980884 -0.27411872 -0.25761002 0.24036859 0.10385642 -0.10137837 -0.21733962 0.8480082 -0.12534846 -0.120567866 0.409212 -0.78081965 0.07883354 0.10988476 -0.38977632 -0.22089861 0.115864985 -0.1882402 0.29673326 0.1678272 0.389598 -0.3830036 0.22626889 0.0907354 0.06661773 0.3947166 0.31825724 0.07981854 -0.33272064 -0.3169606
625 0.058028772 -0.23179375 -0.58272004 0.11510494 -0.3572186 0.14684212 0.4494486 0.17187181 0.3163616 0.0006057651 -0.5415004 -0.9011786 0.0048893043 -0.040429767 -0.33227658 -0.4699675 -0.25883356 -0.37791044 -0.58136916 0.25862893 0.5977658 -0.23546253 -0.31898353 0.22446479 0.5220328 0.53826827 0.29350078 0.081479326 -0.9074118 -0.1502751 -0.37539536 0.40835732 0.12016812 -0.43752134 -0.54824203 -0.042746674 0.54646033 -0.4270429 -0.39646342 -0.10187072 -0.55394566 0.52164775 -0.3532978 -0.83119035 -0.36560678 0.47791675 0.018390836 -0.16522029 -0.28761485 0.12527221 -0.05325725 -0.17283666 -0.050710008 0.16091111 0.89764625 0.07199055 0.19628939 -0.1457813 0.41214052 -0.41052115 -0.29348704 -0.1885928 -0.20759079 0.028473437 -0.14985609 -0.0026279846 -0.29161528 0.33696783 -0.008503754 -0.12479184 0.25508606 0.1621993 -0.34838742 0.4069958 0.9065409 0.38260928 -0.8593214 0.2524145 -0.37150717 -0.13242556 -0.0990055 0.20444682 -0.2842816 0.010259729 -0.35529307 0.17956373 0.049478456 -0.3094934 0.2535809 -0.06451984 -0.40066203 0.23659392 -0.31768507 -0.18271695 -0.80811477 0.24606594 0.24171817 0.2165045 0.34330156 -0.1443443 -0.2848593 0.47995648 0.074032396 -0.97401696 0.119828776 0.45179942 -0.031254984 -0.21011719 0.683088 -0.7705863 0.13226493 -0.008934942 -0.39157337 0.07458897 -0.043103304 0.2721455 0.09423057 0.11447767 0.82589954 -0.3534582 -0.12476138 -0.19344592 -0.42203566 0.5085044 0.56493616 0.051725276 -0.5171005 -0.12035971
1210 -0.29732105 -0.11855564 -0.07839148 0.050083965 -0.056411345 0.24639624 0.071462534 -0.2970037 -0.1846945 0.30514315 -0.49456677 -0.86862016 -0.54921097 0.10367154 -0.123053335 -0.07164163 -0.14534172 0.38137773 -0.957593 0.40081105 0.44869956 0.104830615 -0.35557866 0.29034814 0.18330675 0.7122256 0.20428519 -0.015590016 -0.48631367 0.32389128 -0.16144608 -0.18121599 0.311419 -0.28750494 0.25151053 0.5537939 0.426767 -0.29176462 -0.48146853 -0.27996892 -0.59425193 0.17344996 0.026421687 -0.37472627 -0.37200153 0.16379814 -0.16618133 0.116292916 0.4252904 -0.47544488 -0.16733868 -0.11621286 -0.01792046 -0.104866385 0.6338586 0.5579931 0.107382014 -0.28103542 0.19579974 -0.2309035 -0.46903268 -0.5605432 -0.38452545 0.07774305 -0.1001891 0.30695888 -0.151806 0.19868626 0.030161064 0.007939009 0.19292401 0.2951224 0.047950394 0.18050618 -0.06746097 0.61906236 -0.78738004 0.24616624 -0.12377309 -0.101347476 -0.32433417 -0.22951974 0.19792534 -0.27173597 -0.18852913 0.2993479 -0.03053074 -0.35018945 -0.12410455 -0.03158248 -0.115286626 0.48511532 -0.2845681 -0.29956478 -0.62071115 -0.42396683 0.140358 0.24964547 0.3119803 -0.2779564 -0.2815883 0.26522037 0.0825909 -0.086665675 -0.24848942 0.917348 -0.14050822 -0.119214214 0.4147417 -0.8380337 0.086319454 0.13831776 -0.42513365 -0.23766446 0.13563134 -0.20932402 0.31776458 0.18170844 0.43193266 -0.4133669 0.2323308 0.10096606 0.073366106 0.42196715 0.3158538 0.098359644 -0.33965743 -0.3438608
1604 -0.3036398 -0.12038523 -0.08257733 0.04773009 -0.054858413 0.2548214 0.07023588 -0.3038132 -0.18024752 0.3062269 -0.5011559 -0.8836521 -0.5565622 0.10417671 -0.120613895 -0.07769446 -0.14862874 0.38838243 -0.97599876 0.40393415 0.45352182 0.10547665 -0.36505687 0.2906111 0.18926011 0.7248553 0.20559269 -0.013055167 -0.5009959 0.32773337 -0.15823506 -0.18437396 0.31938547 -0.29584044 0.25237232 0.5601772 0.43172702 -0.29759312 -0.49264404 -0.28560847 -0.6035643 0.1729991 0.019016549 -0.38422057 -0.3790392 0.17172721 -0.16869177 0.11747449 0.42946804 -0.48170176 -0.1668003 -0.117519915 -0.02681442 -0.10690423 0.6440228 0.56493366 0.10807594 -0.2908832 0.19512574 -0.23601165 -0.4739699 -0.5648999 -0.39332604 0.076264754 -0.10118538 0.31230655 -0.14988182 0.20266338 0.033654742 0.017499974 0.19394566 0.29652473 0.048459448 0.18164818 -0.06825312 0.6278974 -0.80406904 0.24941263 -0.1231919 -0.10792401 -0.32259837 -0.23778407 0.19188668 -0.27443406 -0.1958319 0.30998537 -0.030770361 -0.35924217 -0.12631235 -0.0314441 -0.11593637 0.49313793 -0.2922177 -0.3006071 -0.6287874 -0.4321131 0.1439257 0.25454977 0.314438 -0.2755618 -0.28277907 0.27033287 0.07441692 -0.09245701 -0.25205973 0.93182766 -0.13906597 -0.11690664 0.42266423 -0.8495003 0.09000478 0.13637812 -0.43399718 -0.2329983 0.13892102 -0.20801802 0.3147025 0.18693092 0.43685967 -0.42355993 0.2349882 0.1043739 0.07916533 0.4270977 0.3151347 0.09596191 -0.34392542 -0.3441721
2181 -0.29415938 -0.112747535 -0.08039495 0.039095305 -0.065541886 0.23404923 0.06059077 -0.32506394 -0.14903612 0.28052703 -0.4858442 -0.8959726 -0.5366202 0.085293345 -0.13902214 -0.09184109 -0.16176508 0.3996668 -0.972631 0.421832 0.4716521 0.11625382 -0.34669152 0.3030378 0.206941 0.74011123 0.2407014 0.0053291554 -0.510943 0.35247558 -0.13992172 -0.20520374 0.30338717 -0.2817681 0.26857698 0.5661506 0.446947 -0.3208662 -0.5150194 -0.3033887 -0.6082292 0.16982816 -0.015523666 -0.4022193 -0.38625282 0.15068197 -0.17853355 0.12131494 0.44503605 -0.48553047 -0.1925383 -0.09518009 -0.0012681824 -0.14672017 0.63935167 0.585054 0.1274491 -0.26696822 0.22468573 -0.21704948 -0.4746541 -0.5950727 -0.39756235 0.05531905 -0.09568171 0.34509325 -0.15073763 0.20235758 0.019162733 0.0042289775 0.18210125 0.2998901 0.037956025 0.17427066 -0.035078485 0.6428933 -0.81028557 0.24105333 -0.09654735 -0.08270526 -0.32970524 -0.26607162 0.20365393 -0.2516522 -0.19787182 0.28243122 -0.038681474 -0.3565007 -0.118961774 -0.024083419 -0.12045251 0.5082099 -0.30745882 -0.279852 -0.6416348 -0.4298705 0.13411759 0.24172632 0.33329937 -0.2854702 -0.28000805 0.25861368 0.10396414 -0.10398401 -0.2561742 0.9236724 -0.15006626 -0.119432345 0.42737016 -0.8656424 0.08222989 0.12939852 -0.4274959 -0.24893962 0.12181786 -0.21613252 0.33604318 0.16974103 0.43153927 -0.43985304 0.24802354 0.11863923 0.052534632 0.43350717 0.3191978 0.08679682 -0.3613138 -0.3463058
2582 -0.23395932 -0.64358705 0.19927858 -0.14278927 0.26325732 -0.090169735 0.16947298 -0.53051037 0.084001444 0.28134233 -0.42959052 -0.546553 -0.5765637 -0.5072536 -0.480344 -0.2278343 -0.036651164 0.2528205 -0.47480318 0.4209071 0.42937666 0.0084425 0.21926035 0.36739448 0.9668744 0.6808257 0.28175408 0.42089018 -0.87289786 0.50636655 -0.34416458 -0.107117236 -0.016281912 -0.040427554 0.62069863 0.25812268 0.09323247 -0.02759311 -0.49237743 -0.25227794 -0.9018088 -0.019634783 -0.26808253 -0.52097416 -0.69672877 -0.010313662 0.28698677 -0.18664847 0.5940136 -0.38165176 -0.12835522 0.4286916 0.10134235 -0.25165242 0.526198 0.0962392 0.3180862 -0.1407214 0.6091172 -0.26425323 -0.58448195 -0.63034976 -0.23163106 -0.30306023 -0.055856988 -0.1220478 -0.7562176 0.25108275 0.5388033 -0.23777565 -0.013901048 0.17667562 0.06786891 0.62688774 0.4298139 0.06817492 -0.14984113 0.116926774 0.12478228 -0.5148499 -0.6905538 -0.2963717 0.5649762 -0.084949225 0.0011809996 0.06517249 -0.06259616 -0.049009938 -0.23570879 -0.08125834 -0.11408829 0.15268861 -0.6557189 -0.011050516 -0.44608167 0.07900076 -0.27372637 0.20279866 -0.18761094 -0.09033029 -0.27988204 0.3231443 0.10613887 0.06338654 -0.5452724 0.32464468 -0.068860054 0.3017083 0.5236894 -0.7245943 -0.19497508 -0.2791067 -0.12457417 -0.51485187 -0.008893522 -0.073065594 0.15380847 0.06433142 0.33222958 -0.24025999 0.20306738 0.5165502 -0.39106002 0.79706657 -0.2205199 -0.2265172 -0.035479806 -0.437327
1444 -0.22724135 -0.63724774 0.19222628 -0.15652508 0.23305221 -0.07657906 0.153444 -0.51826 0.08629793 0.2556465 -0.40831167 -0.52957857 -0.55923444 -0.51143736 -0.4952919 -0.24508074 -0.020494822 0.2133148 -0.45360735 0.41195753 0.4213349 -0.011356433 0.2470667 0.34780207 0.9727081 0.69414014 0.27469248 0.41732407 -0.8601863 0.5162082 -0.32686996 -0.11584636 -0.031944145 -0.059968833 0.61644053 0.23947524 0.08390549 -0.036814477 -0.49797487 -0.25663486 -0.8822725 -0.047835927 -0.2747516 -0.52132046 -0.70707524 0.0003941438 0.309718 -0.17832157 0.59061545 -0.35514858 -0.12395484 0.43315035 0.11519692 -0.24597105 0.5171668 0.08451226 0.31233808 -0.1349785 0.63293386 -0.2623605 -0.56998706 -0.61710495 -0.22369723 -0.3098226 -0.071910486 -0.118525974 -0.7493932 0.26062536 0.546186 -0.24751149 0.012050905 0.17967044 0.058347713 0.6337991 0.45697618 0.05960091 -0.12983517 0.11765396 0.09637827 -0.47386205 -0.6925502 -0.28858602 0.561772 -0.0819647 -0.009366355 0.047217503 -0.063098274 -0.049146842 -0.23743606 -0.08592852 -0.10780728 0.14477387 -0.65465724 0.0069767903 -0.43663773 0.07525591 -0.2609614 0.18904825 -0.17096435 -0.0853626 -0.27054343 0.32484487 0.09014364 0.0649178 -0.5399595 0.28785568 -0.054809064 0.29547206 0.550365 -0.7104757 -0.19114569 -0.25989467 -0.10726437 -0.5205716 -0.006298681 -0.058978412 0.1602954 0.049088262 0.32022113 -0.24854194 0.20695502 0.51848984 -0.42227176 0.7840593 -0.21866426 -0.25611812 -0.040163957 -0.42924282
1736 -0.5514397 0.35552967 0.05082339 0.61716306 0.22236834 0.17584458 0.20877337 -0.53369933 -0.120458856 0.22788642 -0.6237652 -0.6189427 -0.77726656 -0.40162343 -0.66814035 0.19875476 -0.23707728 -0.02553337 -1.2853366 -0.030052103 0.37122402 -0.5103028 -0.2190719 0.1806801 0.6249917 0.50080013 0.1701345 0.4266932 -0.96619976 0.42941257 -0.34659478 0.070096746 0.29449898 0.0892705 -0.1527985 0.46659395 0.118046984 -0.48065728 -0.09719932 0.036506277 -0.7542771 -0.35292447 -0.33292794 -0.22323868 -0.05584288 0.5373207 0.2512936 0.15758598 0.3542315 -0.09961435 -0.09410805 -0.1386829 -0.63472325 -0.6466014 0.44702607 0.58291817 0.32026172 -0.06392721 -0.0011254674 -0.009243291 -0.70006007 -0.4145561 0.13652001 0.44002435 -0.26636767 0.16139 0.42205068 -0.27740952 0.49792263 -0.30961534 -0.010497185 0.12081075 0.2063374 -0.14512818 0.6373826 0.22429317 0.12978414 0.3449264 -0.113130234 0.3046181 -0.37856963 -0.22852266 -0.29762885 -0.1474644 0.17972115 0.11217851 0.29135907 0.37637645 -0.56104285 -0.271104 0.10633971 0.5714667 -0.6151539 -0.27754113 -0.4028727 -0.18279691 0.049647283 -0.092123605 -0.06916441 -0.731844 0.02493986 0.2766608 -0.17917292 -0.31886506 0.33246544 0.89393514 0.23422132 -0.21251497 0.801188 -0.84047264 -0.2925403 -0.25449532 -0.86653084 0.114109695 0.6424307 0.0092462115 0.40613326 -0.048184093 0.58683276 -0.5473499 0.3597102 0.25439313 0.15841259 0.7131915 0.5057852 -0.08640577 -0.22480974 -0.49070948
106 -0.74831456 0.4925515 0.16143169 0.27573735 -0.42790082 0.01033015 0.23634575 0.05281519 -0.16314736 -0.13871534 -0.0943663 -0.71659374 -0.7469156 0.6529917 -0.18684743 0.5273313 -0.6550433 -0.15626882 -0.5134707 -0.14644375 0.3949653 -0.032387413 -0.41468635 -0.015939299 0.15706417 0.7026389 0.27278075 0.07472203 -0.31340536 0.05816084 0.26036695 0.22391847 -0.10483236 0.043328956 0.36287463 0.6033575 0.6827361 0.02138874 -0.32908148 0.2220468 -0.84714377 0.5104912 -0.23320991 0.2740421 -0.38161406 0.10057615 -0.4513033 -0.3748583 0.7675881 -0.23192586 -0.3652096 -0.06881321 -0.43672377 0.43336514 0.2709755 0.32010758 0.2133571 0.049649514 0.3029446 -0.56731135 -0.67737675 -0.81743526 -0.42686394 0.22014397 -0.2829719 -0.034671307 -0.23903607 0.51816165 -0.021313226 -0.17004949 -0.045158558 0.18734154 0.0895993 0.1815375 -0.3030693 0.5024239 -0.16417348 -0.15967517 0.021016506 -0.60793394 -0.011362419 0.1028359 0.20698749 0.10823296 0.20097119 0.63791776 -0.058490545 -0.41052142 -0.12878677 0.11664411 -0.28625408 0.21411265 -0.4284906 -0.07361659 -0.13637897 -0.16959845 -0.2182422 0.07372618 -0.2478193 -0.37851113 -0.66898835 0.16921152 -0.048598405 -0.036871776 -0.2742935 0.541173 -0.60399354 -0.33639142 0.29306397 -1.1389537 0.083060436 0.15003212 -0.6394283 0.13605113 0.36337945 0.33521712 0.49234474 -0.17234631 0.6620494 0.25742635 0.1477528 0.053036373 -0.1994058 0.33457097 -0.109090924 0.46278018 -0.21898247 -0.5935719
2615 -0.15935032 0.17208467 -0.39621577 0.22438025 -0.36505583 0.38454467 -0.18541262 -0.4985628 0.24889211 -0.031671003 -0.5869741 -1.0637089 -0.60367596 -0.18956439 0.33343703 -0.050906733 0.31793666 -0.11319504 -0.8656421 0.46144912 0.61276305 0.26557204 -0.43483114 -0.31669092 0.71700096 0.7958974 -0.0126098525 0.046996757 -0.22017442 0.10904506 -0.09877326 -0.1730668 -0.2936753 -0.18300083 0.12546614 0.19055206 0.0054863915 0.0009260271 -0.41059244 -0.07105353 -0.5054168 0.09120571 0.039490566 0.302585 -0.8025679 -0.20028017 0.09866803 0.10290156 0.23358858 -0.7649433 0.4807664 0.2924238 0.20625399 -0.38430116 0.4310996 -0.15971057 0.20725492 -0.60792077 0.43066704 -0.07671336 -0.8794538 -0.5448021 -0.4400334 -0.2397789 -0.13414969 -0.08309277 0.09502089 0.7543006 -0.26629874 0.43680125 -0.4015542 -0.15803865 0.25700343 0.052430023 0.09883735 0.33531475 -0.32037744 0.30921772 -0.03886683 -0.15909287 -0.82833874 0.05698966 0.0050258795 -0.39822957 -0.13372298 0.33957648 0.57234716 0.06957841 -0.61884 0.032154925 0.48594245 0.97865444 -0.735426 -0.8660979 -0.098304786 -0.7877983 0.12270721 -0.107381865 -0.36033338 -0.6708835 -0.53024125 0.4661978 0.2568143 0.0145611735 -0.08170282 0.32789046 -0.26631713 -0.116457924 -0.012699173 -0.65586317 0.23778401 0.30442613 0.087048784 -0.0016893754 0.39645526 -0.06560917 0.2845719 -0.046187762 0.34383795 -0.43985793 0.15016253 0.18204296 -0.09512009 0.5299353 0.611304 0.09700594 -0.8175657 -0.06788837
36 -0.30808794 0.31961375 -0.04103969 -0.1329636 -0.024517559 0.37441868 -0.408251 -0.5043147 -0.04749118 0.28251246 -0.5647345 -0.6308454 -0.81622505 0.29271257 -0.20386474 0.054147564 -0.13353029 -0.48714718 -0.736762 0.7411824 0.058242347 0.07184809 -0.19193968 -0.014153996 0.2137694 0.6728179 0.023147859 -0.20592134 0.20918815 0.033723895 0.045252398 0.14283383 0.36734217 0.18471682 -0.17921947 0.3912844 0.5003041 -0.27320614 -0.5612734 0.077871375 -0.34908405 -0.08476313 -0.115001224 0.44232902 0.09564843 -0.028877866 0.23025043 0.20545702 0.3528777 -0.19175626 -0.05461538 0.52897376 0.42108577 -0.041043855 0.19941871 0.37506667 -0.056461357 0.07384505 0.3061688 -0.29982525 -0.67365324 -0.29548705 -0.21610603 -0.10366129 0.36737233 0.6686507 -0.1981837 0.09073982 0.020959366 0.11509373 0.41948974 0.3561706 0.05596938 0.43135583 -0.4361371 0.780013 -0.013028888 0.1348222 0.0777558 0.21440132 -0.30615604 -0.82678056 0.55433697 -0.07188883 0.11752756 0.5514674 0.42916608 -0.33618477 0.08607619 0.60508883 0.3587166 1.1002443 -0.5323472 -0.3648767 -0.3327359 -0.4455368 -0.15068951 0.4535138 0.17095186 0.054481648 -0.032245066 0.44815266 -0.19187991 -0.5448017 -0.3446172 0.3819446 -0.2436256 -0.12436403 0.8820018 -0.6099273 0.3098826 0.4430067 -0.5348927 0.05533429 0.7649147 -0.051869895 0.9895369 0.034927856 0.42993087 -0.6774525 0.6400719 0.784227 -0.23671964 0.31956246 0.1812508 -0.21284792 -0.07340187 -0.15830077
998 -0.75903785 0.4692987 0.1569599 0.25012755 -0.45089054 -0.02189772 0.21573645 0.028600262 -0.14170851 -0.129262 -0.10592791 -0.70613396 -0.7557258 0.6261799 -0.17625788 0.5507547 -0.68236995 -0.14609103 -0.49283725 -0.15710741 0.3850951 -0.01494723 -0.39129975 -0.017786795 0.19979988 0.71335614 0.28978735 0.083851226 -0.29975262 0.05071604 0.28471676 0.19075637 -0.111574404 0.030083867 0.35267803 0.57645196 0.6801863 0.04337206 -0.33926466 0.21158512 -0.83311254 0.4868966 -0.25069803 0.23841272 -0.37781423 0.068240695 -0.37907743 -0.39219382 0.78152174 -0.22482066 -0.3368101 -0.035914704 -0.41548148 0.44785884 0.25143963 0.2989093 0.2176485 0.03453067 0.31064186 -0.51862633 -0.68152833 -0.8256131 -0.46250388 0.19223872 -0.2933536 0.01885112 -0.25720736 0.47096398 -0.022294866 -0.18884182 -0.095159724 0.1935821 0.07767304 0.18407047 -0.3151384 0.47225004 -0.14686938 -0.20156492 0.029451657 -0.6275857 -0.019213213 0.092343114 0.22537497 0.13394508 0.21252996 0.64331937 -0.09567423 -0.41619742 -0.11298961 0.10582221 -0.27349868 0.22501998 -0.43305272 -0.05050718 -0.15807539 -0.13819237 -0.21921021 0.074994095 -0.21354762 -0.4070538 -0.63919675 0.18330172 -0.0135449795 -0.045065984 -0.28004548 0.5482204 -0.60097355 -0.33356607 0.3255359 -1.1233379 0.12343826 0.13220061 -0.59379 0.12520406 0.32015437 0.3524262 0.48855388 -0.19490507 0.6745169 0.2590896 0.16676489 0.06742261 -0.22771536 0.33025452 -0.11474318 0.44500607 -0.18180351 -0.58536595
2285 -0.14625865 0.19980213 -0.42090473 0.25663167 -0.435835 0.38106015 -0.2118765 -0.4870201 0.23005322 -0.046129625 -0.57550067 -1.0846952 -0.62971896 -0.15878087 0.36732092 -0.029838935 0.26219547 -0.11129131 -0.85050684 0.4493321 0.6164029 0.29384172 -0.40481925 -0.34999353 0.7207614 0.78769565 -0.0479142 0.03809508 -0.21828833 0.0913864 -0.07446903 -0.14997905 -0.29004842 -0.19394419 0.14166911 0.1923536 0.04597936 -0.0043675452 -0.35482815 -0.048075218 -0.5012743 0.09030922 0.01316965 0.3060435 -0.77071464 -0.19914955 0.09209277 0.118581995 0.213827 -0.7381103 0.5189932 0.27823716 0.19414765 -0.37613592 0.41872826 -0.16501616 0.21015619 -0.5695985 0.440344 -0.094318345 -0.9032537 -0.5493868 -0.44640836 -0.23360743 -0.159301 -0.0859438 0.08632015 0.76323605 -0.28687105 0.3952066 -0.4085201 -0.13577953 0.2651524 0.01295748 0.106325276 0.37858498 -0.28145713 0.29183218 -0.044115216 -0.14969617 -0.77801967 0.0732488 0.017073315 -0.3601338 -0.15883416 0.3324194 0.5820572 0.07805401 -0.62085575 0.045031324 0.49481717 0.9640676 -0.7274274 -0.8011629 -0.13918866 -0.78479224 0.121564366 -0.1292016 -0.33930126 -0.6944479 -0.5142804 0.45105764 0.23491073 0.019809894 -0.07023396 0.32668936 -0.30704215 -0.1695787 0.014090408 -0.6663455 0.2207724 0.3207373 0.047774993 -0.03499217 0.39765775 -0.037263393 0.301437 -0.073939115 0.33456314 -0.43224397 0.16890253 0.18491508 -0.11525395 0.5277941 0.63734466 0.088490576 -0.83190095 -0.0632546
1000 -0.75683534 0.43838975 0.17132716 0.2102543 -0.4941384 -0.062471416 0.21975964 0.012037774 -0.118634544 -0.099048786 -0.12681699 -0.6978257 -0.7919763 0.64074844 -0.1656106 0.5653281 -0.71798414 -0.11024461 -0.45091638 -0.17846598 0.3544424 0.029721197 -0.38282913 -0.05188867 0.22500047 0.7101268 0.29479012 0.07411945 -0.30435354 0.0064543914 0.29633778 0.16716418 -0.103715524 0.051130287 0.30836996 0.552958 0.7067092 0.061291326 -0.35617965 0.19334644 -0.8042899 0.48999807 -0.28075746 0.19167055 -0.35611725 0.060267203 -0.3572379 -0.3937283 0.784761 -0.18410558 -0.29107332 -0.03184042 -0.40328062 0.48888654 0.2189345 0.2908187 0.22029905 0.027678438 0.33614248 -0.5021151 -0.6683887 -0.8240958 -0.4732317 0.1856577 -0.29139063 0.052067902 -0.27364993 0.43744174 -0.030318143 -0.20593613 -0.12428143 0.19525357 0.06459131 0.19072203 -0.345609 0.47577742 -0.15010674 -0.23471993 0.06755104 -0.6694906 -0.033678252 0.1258609 0.23258175 0.14887665 0.20896688 0.60447204 -0.1413226 -0.40189907 -0.07896145 0.07299348 -0.27688453 0.22725427 -0.40408364 -0.0037885269 -0.17349207 -0.09730148 -0.21949336 0.047931544 -0.2049475 -0.43336368 -0.6224029 0.2214729 0.032861296 -0.03587343 -0.28135338 0.53569543 -0.6019515 -0.36706176 0.3061912 -1.1166444 0.13872848 0.113837875 -0.56411433 0.12476334 0.26457736 0.35491514 0.47977406 -0.19926119 0.70836914 0.27106363 0.15822999 0.092892416 -0.24417005 0.34976146 -0.1655063 0.4523642 -0.16764456 -0.5783742
624 0.03921938 -0.1837569 -0.56825507 0.153233 -0.40581015 0.14119388 0.40454966 0.1681027 0.33031386 -0.045200914 -0.53511024 -0.93567866 -0.00764849 -0.008151938 -0.32209024 -0.47150776 -0.23171544 -0.3805192 -0.5478877 0.23261943 0.5701249 -0.20741804 -0.34301892 0.17526996 0.49325353 0.5323452 0.29870144 0.09082719 -0.8833887 -0.16789383 -0.36058852 0.42791668 0.10605731 -0.45788607 -0.5769727 -0.041444372 0.57869357 -0.42149806 -0.37228343 -0.09856915 -0.53567994 0.5511521 -0.36176166 -0.808387 -0.3776603 0.47564012 -0.035957936 -0.16533849 -0.28648344 0.14196393 -0.07214088 -0.20637344 -0.089438885 0.18165493 0.91414225 0.09424367 0.20285878 -0.18828465 0.432003 -0.43920204 -0.33009028 -0.18612675 -0.19321306 0.031695325 -0.16425718 -0.024030074 -0.29346287 0.3530509 -0.06496139 -0.12351059 0.2613845 0.123844415 -0.36972824 0.37150863 0.9188834 0.41944262 -0.8658058 0.22097805 -0.40574715 -0.15372992 -0.08305947 0.19435816 -0.2805482 -0.011240945 -0.36379182 0.17440213 0.06654792 -0.29810905 0.26377988 -0.08819343 -0.40433705 0.24611597 -0.33304492 -0.17165065 -0.8133674 0.20422004 0.24944001 0.1701905 0.37776068 -0.18727124 -0.30135584 0.50232625 0.058552742 -1.0126972 0.14112921 0.44278225 -0.067694664 -0.28511968 0.68365026 -0.7755513 0.09765866 0.0074816053 -0.36639994 0.09885335 -0.057050936 0.29569396 0.11231281 0.10766139 0.81517255 -0.32579386 -0.14082009 -0.20015454 -0.418511 0.5123785 0.56184477 0.044254858 -0.5451152 -0.12644191
2270 -0.22289969 -0.19257239 -0.19060855 -0.35586166 -0.21880311 0.18748723 0.18184423 -0.6170877 -0.11166591 0.6513157 -0.5312782 -0.61258465 -0.5022187 -0.1062311 0.40171963 0.05537662 -0.023281386 0.81954414 -0.45341754 0.31683555 0.6285827 -0.051207073 -0.5193252 0.31969407 0.8426917 0.36593506 0.4151412 0.36589524 -0.5376692 -0.20948192 -0.7396518 -0.13002127 0.38690165 -0.0691949 0.10421387 0.18081139 0.4893138 -0.038525816 0.1351047 -0.5468765 -0.4641461 -0.07663565 0.20644642 -0.4601277 0.2412837 -0.13254818 -0.09197284 0.04158744 0.159165 -0.19948511 -0.2484961 -0.17368181 -0.54206836 0.17467226 0.72957784 -0.104838595 0.20062825 0.014234601 -0.38032937 -0.15365191 -0.7470166 -0.6210165 -0.81082356 -0.26892912 -0.06757814 -0.3067053 0.06682951 -0.54242414 -0.28800744 -0.1620513 0.49701285 0.03816654 0.268074 0.15263394 -0.53786945 0.43018776 -0.32401627 0.7102368 0.34965807 -0.08141724 -0.10074347 0.52783215 -0.35440943 0.11340831 0.59189343 0.03298209 0.12665 0.027443446 -0.1970574 -0.19504206 -0.077028595 0.60212886 -0.29912826 -0.19918104 -0.37940538 -0.3957311 -0.20024748 0.33297023 0.30680105 0.05810173 -0.80546767 0.25690722 0.15711094 0.3812118 -0.014726582 0.8091966 -0.5016035 -0.1100628 0.44052607 -0.5490753 0.32915246 0.121915 -0.5452976 -0.1966605 0.11208798 0.13409863 0.73247737 0.40268022 0.38887486 0.24385934 0.36928216 -0.15956339 0.5217735 0.33432072 0.053109266 0.2997871 -0.347863 0.13562237
623 0.0607613 -0.1986088 -0.5521033 0.14427848 -0.35275936 0.14478955 0.3849727 0.14012776 0.3000075 -0.026250415 -0.5210858 -0.9078938 -0.032652743 -0.022358224 -0.32796046 -0.46369034 -0.25694892 -0.41760063 -0.5528303 0.24689706 0.5649321 -0.21461011 -0.33340096 0.21728355 0.48232415 0.52941436 0.30254862 0.09041508 -0.870284 -0.15397854 -0.35290888 0.42866883 0.117768705 -0.44573823 -0.60231405 -0.051313605 0.55777204 -0.4109403 -0.395971 -0.11092984 -0.53430533 0.53175247 -0.37112436 -0.7895575 -0.3594515 0.47055405 -0.00892819 -0.16051395 -0.3022147 0.124529466 -0.05787326 -0.17410196 -0.08382627 0.1515492 0.9060531 0.0671639 0.18067884 -0.18421972 0.4358154 -0.4335949 -0.30937532 -0.20799282 -0.18787666 0.033034883 -0.18623999 -0.00211666 -0.28560886 0.35910085 -0.019826392 -0.12087797 0.26731294 0.1476757 -0.35994136 0.38910472 0.89632654 0.3689732 -0.8870023 0.2282702 -0.4603821 -0.13808934 -0.08846266 0.12869781 -0.28009525 -0.02501002 -0.3518424 0.18076004 0.05281524 -0.3180251 0.27429435 -0.06458061 -0.38556215 0.24471943 -0.3520111 -0.15757214 -0.77635515 0.21102874 0.23270418 0.209999 0.3637279 -0.17869459 -0.27696323 0.50115865 0.020966688 -1.0230826 0.15102379 0.43832192 -0.03047767 -0.2605424 0.7025792 -0.77786285 0.113566324 0.007626857 -0.3846078 0.111393824 -0.045722507 0.29692927 0.10802681 0.11569731 0.84296083 -0.34905136 -0.13548529 -0.20183048 -0.4075999 0.49047858 0.5950858 0.06911534 -0.52075803 -0.12991466
1903 -0.33505034 -0.12591133 -0.14214787 0.23030232 -0.1609002 0.17732792 0.17155735 -0.32285228 -0.2414478 0.5559673 -0.16182244 -0.8299551 -0.17278787 0.11782773 -0.21190913 0.4403821 -0.059763584 0.4557932 -0.6639903 0.2837138 0.31845272 0.18627685 0.4769301 -0.38345513 -0.14186224 0.49971807 0.531966 -0.19596384 0.052350976 0.038614348 0.3190598 -0.16024083 0.410933 -0.558646 1.0420927 0.6109707 0.53999513 -0.51452035 -0.5318981 0.14551835 -0.20089103 -0.4309871 0.12388778 -0.47239575 -0.71785796 -0.022298688 0.06281015 0.18619737 0.74395955 -0.4196791 -0.17934439 0.23180023 0.13896763 -0.11286743 0.42643246 0.3527049 0.07689475 -0.532445 -0.02959577 -0.11500628 -0.41266507 -0.58009315 -0.59503067 -0.20187491 -0.67614764 0.7907002 -0.796715 -0.11567796 -0.14481467 0.41986284 0.31947523 0.08094877 -0.5159772 0.7656569 -0.3755617 0.15208052 -0.101256944 0.3216091 -0.22805373 0.010442977 -0.31742564 -0.029252917 0.14257349 0.075357795 0.7718416 -0.098319754 -0.0033689046 -0.7948428 -0.016477099 -0.0027191858 -0.18253559 -0.10345264 -0.3375858 -0.12756233 -0.5404045 -0.67307365 -0.05695437 0.7360026 0.109024376 0.48871437 0.031246243 -0.105322294 -0.40551266 0.20709306 -0.5969674 0.9239093 -0.12875997 0.21647301 0.0030058343 -0.91224986 -0.03478155 0.37479252 -0.38371238 -0.31467965 -0.19785714 -0.4044509 0.32432747 -0.09781133 0.18463369 -0.9997599 -0.09984706 0.7944241 -0.25833273 0.52686536 -0.26588312 0.0062883813 -0.23252058 -0.45442092
29 -0.34064233 -0.10978078 -0.13773417 0.21600406 -0.16676912 0.18318367 0.115263715 -0.3023607 -0.27191287 0.53508574 -0.12877537 -0.8305208 -0.16269042 0.13653007 -0.20590755 0.445065 -0.0602891 0.4527605 -0.6689298 0.26442325 0.3478489 0.17071147 0.44524357 -0.392805 -0.13772409 0.5045553 0.5147883 -0.21302271 0.08069939 0.05341272 0.3572683 -0.1766803 0.42834038 -0.55492085 1.0555161 0.60069203 0.55118006 -0.5114535 -0.5722056 0.13036577 -0.19746992 -0.44252113 0.11860195 -0.47300556 -0.7544023 -0.033820644 0.052998994 0.18331231 0.76338327 -0.43001726 -0.1633831 0.22848037 0.14150934 -0.09671477 0.40559885 0.36065933 0.07192917 -0.543467 0.004936601 -0.12827626 -0.42378396 -0.590385 -0.6123903 -0.21168114 -0.6990444 0.8044708 -0.74667853 -0.077653594 -0.1640532 0.44533232 0.33352926 0.076041415 -0.48481658 0.72897583 -0.38365462 0.16795176 -0.1312351 0.31112 -0.22550276 0.008524555 -0.34197634 -0.03199701 0.12832381 0.0819837 0.72480243 -0.09813099 -0.02195571 -0.8117073 -0.013709875 -0.044033978 -0.17991535 -0.08434558 -0.3243318 -0.11300682 -0.54256296 -0.6705947 -0.017706523 0.7454854 0.1204335 0.47767097 0.025591318 -0.10060794 -0.39329037 0.22724225 -0.5735188 0.9232418 -0.13707083 0.2457833 0.016604682 -0.90546006 -0.013056497 0.3906061 -0.36188227 -0.2908285 -0.21032609 -0.43769392 0.2994726 -0.10963219 0.20162381 -0.9940956 -0.14716768 0.78275883 -0.26637217 0.5265765 -0.25506708 -0.026112063 -0.24982266 -0.46254522
2234 -0.23083693 -0.20838746 -0.1794082 -0.3743478 -0.21336046 0.1898572 0.17662092 -0.6007738 -0.090045065 0.63549244 -0.5111948 -0.5889448 -0.5072982 -0.106436945 0.40819517 0.0732484 -0.021458855 0.8156347 -0.45289415 0.28885272 0.6415888 -0.065433964 -0.5237806 0.31288525 0.86136734 0.3467197 0.38965398 0.38846266 -0.53294265 -0.20608705 -0.7277438 -0.10932272 0.38511592 -0.047666594 0.1313759 0.19158193 0.49302718 -0.023051605 0.12165075 -0.54013735 -0.46036595 -0.054541893 0.18224443 -0.4364379 0.2460408 -0.11297048 -0.097858615 0.047153443 0.15018123 -0.19887552 -0.24239047 -0.17716362 -0.5110096 0.1989153 0.72321075 -0.11216871 0.21196964 0.0063433014 -0.37942982 -0.1727726 -0.7375682 -0.632614 -0.7808957 -0.25008953 -0.07164273 -0.31975088 0.04376125 -0.5042008 -0.31055582 -0.15805261 0.499841 0.052071415 0.2850851 0.15904376 -0.52480716 0.46348345 -0.30508533 0.7023717 0.3362027 -0.06697469 -0.09293674 0.51865363 -0.3366906 0.11833754 0.5666184 0.03080837 0.1010932 0.039030027 -0.19230066 -0.21554284 -0.07616621 0.55162144 -0.2816616 -0.16731188 -0.37915242 -0.4023668 -0.19935346 0.32887897 0.30570358 0.013160723 -0.7782164 0.28558138 0.13142714 0.35907072 -0.0042407988 0.7910926 -0.50687784 -0.12653998 0.43189794 -0.5792912 0.32126987 0.14335845 -0.5459272 -0.2071208 0.12869175 0.1314577 0.71165067 0.38534 0.3752018 0.25033978 0.3692052 -0.13504352 0.51509607 0.33032605 0.076253295 0.27378672 -0.32855698 0.09578916
1695 -0.23048711 -0.6312416 0.19284707 -0.13840897 0.26454818 -0.08011197 0.14448228 -0.5469126 0.08569391 0.25855646 -0.41243416 -0.5587093 -0.5728963 -0.51714367 -0.49709898 -0.23548667 -0.016942285 0.26355183 -0.46499088 0.432422 0.44978905 -0.005815901 0.2366087 0.35029778 0.9604446 0.70623636 0.26984805 0.42371905 -0.86871034 0.51766294 -0.34303358 -0.11341656 -0.013900946 -0.064669065 0.6498454 0.2608374 0.089422405 -0.050824236 -0.5012383 -0.24273957 -0.9085479 -0.04401279 -0.2673577 -0.5325692 -0.6942525 -0.026506336 0.29683095 -0.17070408 0.61261755 -0.3844337 -0.12501046 0.4306492 0.1286486 -0.23726405 0.52200764 0.11211695 0.31854668 -0.13464904 0.61554986 -0.28046057 -0.57810116 -0.6269007 -0.22957888 -0.30808246 -0.07307919 -0.112232074 -0.7592002 0.2669605 0.55595154 -0.24818422 0.020100972 0.20107555 0.068677224 0.62847537 0.43982294 0.07290624 -0.11830293 0.1195587 0.124223456 -0.48031357 -0.71877927 -0.2899248 0.5860298 -0.08004531 -0.0013342787 0.05617622 -0.051627938 -0.049842294 -0.24523088 -0.09700376 -0.10028108 0.14468433 -0.6516395 0.0073456266 -0.43655634 0.068379186 -0.2634768 0.19184162 -0.17592353 -0.08592292 -0.28670746 0.30368108 0.091511086 0.0718345 -0.5539459 0.311784 -0.087047696 0.31326184 0.5486274 -0.7357888 -0.19487318 -0.26716337 -0.1200458 -0.5218123 -0.008216354 -0.0670223 0.15795374 0.04252126 0.30281264 -0.25509134 0.19881691 0.5184925 -0.4163907 0.7969282 -0.2222942 -0.26334724 -0.04595765 -0.42339388
596 -0.2114163 -0.64012885 0.1894374 -0.15213971 0.26025456 -0.08171716 0.16019708 -0.5041826 0.090560295 0.26216796 -0.4133464 -0.51216537 -0.5477897 -0.517515 -0.50570774 -0.23868051 -0.039800327 0.21766326 -0.44564286 0.4016599 0.42465764 -0.0027678183 0.26093212 0.36076987 0.96135014 0.6845683 0.26445478 0.41692182 -0.86287296 0.5219786 -0.31597635 -0.10931488 -0.0068098796 -0.052917887 0.6024557 0.22832482 0.06724159 -0.040240567 -0.5145273 -0.2426374 -0.88611656 -0.033054106 -0.27854803 -0.5258309 -0.6915626 0.007868996 0.31922844 -0.1821189 0.5861678 -0.35488287 -0.111969754 0.4354467 0.106541365 -0.2328808 0.52554226 0.07958038 0.30899712 -0.11834383 0.6311047 -0.25085256 -0.57759994 -0.61750835 -0.22587961 -0.31204242 -0.060307577 -0.108879946 -0.7490955 0.23744263 0.5414662 -0.25750986 -0.0071684597 0.17571323 0.06990007 0.6186035 0.4424836 0.043986335 -0.114647046 0.106724866 0.09914188 -0.4790797 -0.6976683 -0.2889283 0.56647605 -0.057997838 -0.004373723 0.05151699 -0.073004216 -0.043381337 -0.22399333 -0.07547299 -0.111074105 0.15388896 -0.6473622 0.024360493 -0.4291967 0.10110855 -0.266058 0.20100203 -0.17183246 -0.07838037 -0.25814286 0.32095385 0.09576514 0.03999724 -0.5188532 0.28924242 -0.04904413 0.29653168 0.5548069 -0.7108456 -0.19168293 -0.2771415 -0.11219808 -0.5182175 -0.0061015333 -0.04002616 0.14300184 0.048732426 0.31143758 -0.24104084 0.21582924 0.5113696 -0.40710875 0.77582955 -0.22668977 -0.23194236 -0.011825925 -0.4341045
327 -0.27615497 -0.13506046 0.25333717 -0.33750504 -0.45730054 0.31843826 0.098295085 -0.22698711 -0.5287947 0.0590499 -0.40765426 -0.29461896 -0.3742988 0.010185159 0.07627197 0.09766664 0.032485325 0.6420368 -0.60189056 -0.03231762 0.33971012 -0.18228877 -0.18604645 -0.019446228 0.45959854 0.79809976 -0.03016912 -0.39632356 -0.37365007 0.2577414 -0.121372886 -0.18585567 -0.097924456 -0.08763635 -0.06923126 -0.34780905 -0.23663025 -0.47235084 -0.8194834 -0.30751672 -0.29691464 -0.16775927 -0.047197152 -0.28201622 -0.23877782 0.49843073 0.18637072 0.19508041 0.35615268 -0.46875957 0.041229527 0.009316116 -0.027186632 0.35953027 0.41124693 0.75195706 0.6054532 -0.7398776 0.60085636 -0.25176385 -0.1827885 -0.25943595 -0.18368858 -0.28102818 0.035519637 0.29482168 -0.5691683 -0.028788636 -0.23143753 -0.21249193 -0.056189798 0.04697612 -0.050908472 0.20379078 -0.36655816 0.06865969 -0.47086826 -0.1567635 -0.48969266 -0.58139133 -0.39829952 -0.3756171 0.034049936 0.015453571 -0.18337616 -0.0034511406 0.21014431 -0.2625211 0.36494976 0.1021075 -0.074313365 -0.09521141 -0.38164973 -0.43482044 -0.7208731 -0.54008234 0.19029807 -0.09004591 0.5876002 -0.019731188 -0.3531544 0.26661348 0.18526603 -0.25691992 -0.16404165 0.12951171 -0.233549 0.106069654 0.61867756 -0.4445683 0.8431047 -0.18600675 -0.1443804 0.50021064 0.25925076 0.077638395 0.6538863 -0.017156728 0.67399484 -0.054798026 0.020551542 0.16444583 0.2942469 0.27043194 0.07162093 0.26825672 -0.30776858 -0.49110425
326 -0.27433866 -0.13099739 0.25912604 -0.32780027 -0.45779532 0.3245258 0.09795371 -0.228562 -0.53357923 0.062091608 -0.3985987 -0.3072308 -0.38932356 0.024692915 0.08031726 0.1039949 0.029258367 0.6500866 -0.5754443 -0.019017946 0.34159178 -0.1717415 -0.17629808 -0.007900293 0.4584704 0.79306936 -0.02429272 -0.39206752 -0.3734426 0.24213943 -0.105883144 -0.18238923 -0.0766365 -0.08503144 -0.073776886 -0.36438337 -0.24824795 -0.47631818 -0.8093526 -0.31067556 -0.2969262 -0.14675874 -0.03107217 -0.32191595 -0.24419929 0.4914439 0.18574695 0.19681354 0.36153394 -0.49087483 0.04793253 -0.0046593044 -0.008546464 0.38660714 0.41040185 0.75180125 0.60250354 -0.7503664 0.5920948 -0.24016367 -0.18230277 -0.25874063 -0.18027188 -0.28892165 0.03640843 0.29729584 -0.56942004 -0.03118669 -0.24297048 -0.22301252 -0.065647185 0.06364204 -0.070404015 0.19100969 -0.3756148 0.0777593 -0.47452462 -0.15995823 -0.4868393 -0.6011909 -0.40350124 -0.36173967 0.040502638 0.0082206605 -0.18200262 -0.019306285 0.21656682 -0.26535395 0.37372082 0.11044672 -0.06732332 -0.07387386 -0.3902277 -0.4239025 -0.72784835 -0.52341855 0.1910276 -0.110116795 0.59336877 -0.011111832 -0.35665426 0.2716611 0.19074394 -0.2224523 -0.17456132 0.14928432 -0.24487954 0.08673034 0.6128733 -0.44609392 0.83811975 -0.18718521 -0.13318239 0.49884298 0.26746958 0.09017362 0.6670129 -0.011733862 0.6763264 -0.051279783 0.03072333 0.15731369 0.29843375 0.24656187 0.044595324 0.2832328 -0.2977226 -0.4747439
149 -0.27265096 -0.1194218 0.24601814 -0.3205872 -0.46089286 0.31519768 0.098890536 -0.22174302 -0.5307615 0.036695473 -0.3824403 -0.3027195 -0.37178427 -0.006560745 0.09500158 0.075771496 0.030658906 0.629275 -0.5593515 -0.03850015 0.33972284 -0.168105 -0.188691 -0.019007314 0.4734952 0.79154295 -0.02077614 -0.38865462 -0.36291045 0.26033768 -0.10690144 -0.18101195 -0.10308504 -0.10401511 -0.08483308 -0.3752118 -0.23834725 -0.44944608 -0.8147731 -0.30133793 -0.28778052 -0.15181053 -0.041734878 -0.29900733 -0.2534362 0.4607255 0.17712133 0.17451602 0.36219922 -0.48432863 0.044496898 0.005484622 -0.030112224 0.37558705 0.40976948 0.73883146 0.5919938 -0.7401356 0.59822804 -0.2422149 -0.19868976 -0.26933923 -0.19390126 -0.30467808 0.014804675 0.292183 -0.5690297 -0.008273067 -0.22235568 -0.20881967 -0.0775375 0.03793736 -0.06150669 0.18775228 -0.36749035 0.06752068 -0.47354117 -0.15498956 -0.48060676 -0.60708463 -0.39709866 -0.37494186 0.038444046 0.009406181 -0.2029714 -0.014129242 0.20636924 -0.26387435 0.38315997 0.09945695 -0.073774464 -0.07003078 -0.38926727 -0.4109156 -0.73418015 -0.5448851 0.1992597 -0.10351697 0.5981049 -0.023145445 -0.37686545 0.27493307 0.20333707 -0.25480232 -0.15762873 0.13349092 -0.2454648 0.11496588 0.6247466 -0.43766508 0.8305112 -0.19174245 -0.113196455 0.49860924 0.23808868 0.0884236 0.6338592 -0.021741025 0.66881585 -0.030345459 0.017191859 0.15441006 0.2889955 0.25518036 0.06969356 0.27394307 -0.28867677 -0.46904117
325 -0.26427847 -0.15128188 0.26222885 -0.34884986 -0.45559153 0.31524402 0.09962777 -0.22782557 -0.5257555 0.05350264 -0.38718897 -0.28536516 -0.35905173 0.016582524 0.09764285 0.10424035 0.02284719 0.6449449 -0.5550416 -0.04422492 0.33557326 -0.17702487 -0.17834646 -0.013380062 0.45101455 0.78973705 -0.028447375 -0.40079743 -0.3711873 0.26483425 -0.1056266 -0.21084929 -0.10484398 -0.088331066 -0.0720471 -0.36738923 -0.24986881 -0.48043594 -0.8069694 -0.3070117 -0.3014113 -0.16574432 -0.027857695 -0.28774303 -0.24547587 0.48619047 0.17121293 0.20005323 0.37945256 -0.49785513 0.050936583 -0.011189268 -0.0043252 0.37573075 0.40651673 0.76034194 0.6048131 -0.74466205 0.6007585 -0.24717215 -0.16023995 -0.2532896 -0.16901305 -0.28536588 0.051760837 0.30498907 -0.58139414 -0.031415522 -0.24555571 -0.23050873 -0.068641216 0.070805535 -0.054522566 0.18606031 -0.35428083 0.06732963 -0.4802234 -0.16667053 -0.48380262 -0.6012881 -0.39496005 -0.38020867 0.03557232 0.018526316 -0.1996153 -0.021125222 0.21421124 -0.27012444 0.378429 0.10920826 -0.07748442 -0.10264047 -0.37933257 -0.42632675 -0.722139 -0.5270708 0.19985634 -0.11764638 0.5923053 -0.013355279 -0.3546982 0.26032224 0.19686967 -0.24904852 -0.16901812 0.12222609 -0.24214923 0.08046958 0.6167625 -0.4308476 0.8558352 -0.2099104 -0.1305809 0.5125265 0.24813387 0.08041943 0.64563996 -0.016938573 0.6769901 -0.027127387 0.017526424 0.15621608 0.3089536 0.25480655 0.05471351 0.2844535 -0.2847794 -0.48126402
2959 -0.849986 -0.23763742 -0.23679106 0.01488604 0.065768816 0.30008498 0.16503422 0.31046906 -0.35761416 0.68362653 -0.2732493 -0.18894301 -0.6644241 0.3779638 -0.0973227 -0.15223868 -0.17195696 -0.1830615 -0.5272683 0.5852074 -0.036970902 -0.36421064 -0.29147673 0.7581288 0.33138648 0.59298015 -0.28674394 -0.04282654 -0.82665926 0.15447944 -0.3833383 0.05966931 0.26149178 0.34231296 0.4870889 1.0141932 0.04834993 0.24107005 -0.2338868 -0.3948984 -0.33903995 0.23558535 0.3127982 -0.0015492815 -0.6943133 0.044514563 0.519837 -0.18577664 0.36348826 -0.34976172 -0.0497087 -0.09083795 0.4328413 -0.06320958 0.6490817 -0.001766849 -0.054156434 -0.15763335 -0.12301362 -0.28123504 -0.57502145 -0.49894676 -0.47160977 0.06455492 -0.36741567 0.11331026 -0.18349268 0.013577026 0.5305512 -0.30230787 0.016055692 0.43647197 0.22534637 0.48421052 -0.17010245 -0.007138499 -0.6712187 0.048671 -0.24016376 -0.46728292 -0.14011574 -0.16815345 -0.2380923 0.049943324 0.32364357 0.24008076 0.055786982 -0.23763075 -0.14393085 0.5252556 -0.04446888 0.65151185 -0.36778563 -0.9353166 -0.19773601 -0.80380726 -0.20498699 0.70683295 -0.23420255 -0.40970618 0.51748025 0.60719866 -0.2143287 0.20551392 -0.29899478 0.7323257 0.31581083 0.3905126 0.07264289 -0.6332764 -0.18529204 0.2628738 -0.38913584 -0.18358561 0.2206424 0.2533447 0.20742364 0.26594278 0.5425908 -0.15478446 0.65366733 -0.05653857 0.025444249 0.28399926 0.017535808 0.06697315 0.036860447 -0.40256813
30 -0.21359624 -0.04451132 -0.07887224 0.065888956 -0.060997006 0.1782017 0.04070553 -0.21320154 -0.15730914 0.25333706 -0.36807692 -0.6043836 -0.38147 0.09566649 -0.054543052 -0.041849647 -0.1275932 0.26078156 -0.7383796 0.2720232 0.323678 0.081262805 -0.2793764 0.2218048 0.12469796 0.5242199 0.1510324 -0.0030715938 -0.3365374 0.26205346 -0.10182521 -0.11161622 0.22643013 -0.19547568 0.13847041 0.40394065 0.3131975 -0.21795513 -0.33735391 -0.20266902 -0.42511332 0.1529339 0.010940592 -0.27187026 -0.26467526 0.10231586 -0.13266248 0.057205483 0.31819448 -0.3732975 -0.12171159 -0.1168579 -0.034867864 -0.058385316 0.43218768 0.43252185 0.050619937 -0.17667247 0.13265365 -0.16616873 -0.3487534 -0.40372178 -0.2588237 0.054031618 -0.072535574 0.24032685 -0.046698503 0.1651385 -0.021943321 0.009450414 0.14258479 0.20943797 0.07309784 0.13780272 -0.067564376 0.4622266 -0.6085148 0.18659128 -0.108104624 -0.04976658 -0.21605411 -0.11924032 0.120178275 -0.21490762 -0.17694178 0.25207686 -0.023995034 -0.26091146 -0.0903779 -0.004708324 -0.086058386 0.38133657 -0.16946441 -0.21002723 -0.50211823 -0.33275032 0.12623312 0.20057692 0.24027601 -0.19856562 -0.2192922 0.21589695 0.061645027 -0.06362905 -0.14430562 0.67630434 -0.07181598 -0.109816566 0.2670457 -0.6590299 0.042729687 0.11695009 -0.3358183 -0.14231929 0.1133716 -0.15332277 0.20294254 0.17302442 0.31311035 -0.29068655 0.20461012 0.035443287 0.07023489 0.31736198 0.24852973 0.10506855 -0.2315491 -0.26667738
1499 -0.33838886 -0.37079334 0.34295073 0.10938852 -0.023568902 -0.20208216 0.26964584 0.26501393 -0.48874554 0.73270494 -0.4449133 -0.70595706 -0.8746564 -0.13279621 0.32390472 0.081370875 -0.50437284 -0.10683896 -0.50764745 0.5722419 -0.34540513 0.3298549 -0.30089423 -0.15097447 0.08462578 0.02270551 -0.61933964 -0.46697545 -0.47441992 -0.018966714 -0.10975741 -0.36622676 0.26433045 0.14624904 0.16080695 0.6225796 0.22186336 -0.08386015 -0.2916969 -0.48929286 0.0038085296 0.34154758 0.08625111 0.07455656 -0.97792 0.17853007 -0.17114004 -0.44713327 0.5328313 -0.15735447 0.16791718 0.50572294 -0.5741237 -0.052504823 0.61623573 0.1383251 -0.4695862 -0.39774066 0.22150771 -0.16423412 -0.6077351 -0.22838987 -0.32897675 0.6639797 0.24008103 -0.02221918 -0.36150706 -0.18247291 0.033842802 0.320319 -0.0050136223 0.57971007 0.04718283 0.037819095 -0.7143074 0.43346053 -0.8991659 -0.013059121 -0.33295992 -0.06955385 0.035387624 -0.05873017 0.6535313 -0.5737122 -0.3967733 0.2894271 -0.16140753 -0.006432378 -0.30060464 -0.06615675 0.12096603 0.35448217 0.19247343 -0.21611278 -0.58921117 -0.07595395 -0.027161058 -0.25478435 0.5602085 -0.18339565 -0.3592575 0.6941164 0.10404615 -0.12830284 -0.4188062 0.7626039 -0.33736712 -0.42207548 0.58836114 -0.21361654 -0.019586114 0.3338954 -0.61237925 -0.25790575 0.60646904 -0.07955441 0.19996274 0.32083416 0.61634845 -0.39601842 0.07404432 0.5061425 0.25460768 0.08129313 0.052644532 0.21567412 -0.04097277 -0.94335717
1347 -0.32854864 -0.32670948 0.3106404 0.12415921 0.018544208 -0.19805928 0.25808093 0.24027151 -0.4826717 0.7452947 -0.47012085 -0.68557155 -0.9101661 -0.13337085 0.32030308 0.046497308 -0.4858493 -0.098150425 -0.52039623 0.5691787 -0.34355474 0.35493693 -0.2925263 -0.1867413 0.10589592 0.026676659 -0.63996375 -0.44580865 -0.47782862 -0.05446388 -0.12557292 -0.3512464 0.29566893 0.12704167 0.19670278 0.6017795 0.22595853 -0.09775302 -0.28638408 -0.4947863 0.06451395 0.32194686 0.09353907 0.06902013 -0.94522506 0.19400688 -0.16518395 -0.44652253 0.50828516 -0.16059539 0.17651986 0.48894033 -0.56027734 -0.06836222 0.5929893 0.1393112 -0.47415212 -0.37220326 0.20241904 -0.16112798 -0.60867715 -0.21847004 -0.29133955 0.6542566 0.25103962 0.021442624 -0.39405534 -0.19249071 0.031800468 0.356295 -0.022222148 0.57850695 0.008017725 0.053988963 -0.7040948 0.4632735 -0.8946999 -0.028398689 -0.30668166 -0.056051157 0.018639639 -0.0565026 0.6437524 -0.5640489 -0.39780512 0.27714562 -0.12723085 0.033211343 -0.31307024 -0.095318995 0.12047652 0.34877282 0.20116338 -0.21854337 -0.5804439 -0.084805354 0.0040867454 -0.25323772 0.5111173 -0.1755981 -0.34523344 0.6908336 0.103158094 -0.12325561 -0.4672671 0.7645459 -0.3681066 -0.4104717 0.5650645 -0.20439585 -0.045508854 0.3378953 -0.5973033 -0.24794115 0.61593026 -0.12459282 0.21505886 0.2913777 0.61227053 -0.43473426 0.08243206 0.54434747 0.24986017 0.067171276 0.04125251 0.17909674 -0.019030107 -0.9479723
235 -0.1050149 0.56115866 -0.4195442 0.37093922 0.0039007175 0.7723248 0.1088257 0.07547618 -0.29111513 0.47162294 -0.5674555 -0.79368913 0.091907516 0.28793982 0.3131812 0.2536079 -0.015099612 0.47878325 -1.1931806 0.34741265 0.20754653 0.07637102 -0.8512353 -0.2352512 -0.13983323 0.3093359 0.35294312 -0.3754406 -0.1005822 0.14146978 -0.156607 -0.3090534 0.45639408 -0.054711126 0.22273508 0.61659735 0.46852085 -0.2935013 -0.1411022 -0.3897211 -0.12820521 0.2227649 0.4922235 0.07576024 0.038431294 0.18454576 -0.97084844 0.14076605 -0.13672824 -0.21592116 -0.19713736 -0.32100648 -0.113171674 -0.3596083 0.43703485 0.62828505 -0.4895759 -0.06639336 -0.35387558 -0.36542943 0.009146993 -0.4118376 -0.22381371 0.24182127 0.10335824 -0.05336765 0.41089612 -0.06705637 -0.5250725 0.58116597 -0.00364326 0.2458109 0.08291194 0.10135143 -0.6068582 0.82583207 -0.9869448 0.5831484 -0.2728143 0.625824 0.6478992 -0.32410768 -0.31409708 -0.2756213 -0.48522022 0.29290313 -0.31462252 -0.5482391 0.067137666 0.20143308 -0.11473141 -0.3045647 0.10895831 -0.23295599 -0.48457256 -0.48032892 0.44162467 0.18975565 0.02642121 -0.03202795 -0.16406354 0.044185687 -0.107905164 0.10885258 -0.42030814 1.0890098 -0.10928255 -0.13585766 -0.016466765 -0.4373857 0.09424101 0.59962124 -0.55214626 -0.07472644 0.23058039 -0.63358647 0.021754436 0.28352928 0.6424735 -0.2119735 0.12287881 0.0015012523 0.8900411 -0.13759501 0.6266347 0.35955542 -0.27892968 -0.21307294
2745 -0.25715953 -0.08447388 -0.064479746 0.043015357 -0.047349967 0.19483282 0.0428873 -0.26716316 -0.15036687 0.25542 -0.3754294 -0.72849554 -0.4835631 0.073587544 -0.107599206 -0.039406195 -0.15569036 0.31038877 -0.82145643 0.3099592 0.37796 0.091242656 -0.31865877 0.23580019 0.17844823 0.5890395 0.19712017 -0.0057170605 -0.4079466 0.28267053 -0.12720053 -0.15512662 0.23299794 -0.21203983 0.20285887 0.46842244 0.37544018 -0.21832378 -0.42584053 -0.23604374 -0.49027985 0.12694146 -0.0046828794 -0.28342092 -0.3245442 0.16188572 -0.1463567 0.076482564 0.39115754 -0.3993353 -0.1717155 -0.09142068 -0.023266595 -0.11543757 0.5464876 0.47848156 0.09824745 -0.21194927 0.18011096 -0.18158835 -0.39550552 -0.4854917 -0.32571483 0.064316474 -0.08177844 0.28065217 -0.119453706 0.17293826 0.042001527 0.01785214 0.15043797 0.24118836 0.06867136 0.14249647 -0.043587826 0.5250563 -0.6370466 0.17548205 -0.08481161 -0.09762162 -0.26307613 -0.22734228 0.14625883 -0.21267721 -0.1506292 0.25744864 -0.044963557 -0.292065 -0.11927415 -0.028540226 -0.09745249 0.40039107 -0.24579427 -0.26153395 -0.52109116 -0.35153705 0.09446463 0.22276436 0.2457076 -0.24690486 -0.2326986 0.21936393 0.07976405 -0.084743 -0.18174414 0.7676343 -0.098292366 -0.083686985 0.3706318 -0.7169043 0.08017735 0.09833547 -0.38051152 -0.1813058 0.12765823 -0.18000498 0.275577 0.13598545 0.37785468 -0.33574125 0.21243837 0.09535461 0.03804899 0.3887136 0.27261323 0.09275884 -0.2549774 -0.27776957
2224 -0.47254905 -0.42390734 0.10878207 -0.56792253 0.12748414 0.11434905 -0.21894951 -0.29776508 -0.093301736 0.57659245 -0.11736537 -0.34266967 -0.221416 0.09474157 -0.06980897 -0.1703721 -0.1481256 0.47932327 -1.3552535 -0.081681706 0.47607574 0.34155217 -0.5538624 0.7812156 -0.15127696 0.3527099 0.38804957 0.12513217 0.1819644 0.24494685 -0.1583322 -0.15891795 0.10484515 0.49882936 0.5210518 0.7941966 0.57419175 0.006890832 -0.42729768 -0.07624276 -1.0958552 0.4543378 -0.21415702 -0.40130562 -0.17602839 0.13348094 0.016850479 0.18305892 0.70196235 -0.6518452 -0.7030954 0.18030594 0.6500769 0.13620053 0.35590735 0.5598112 0.1945957 0.54275966 -0.17657201 -0.33962712 0.17077787 -0.29208136 -0.48175278 0.3072575 0.1444457 0.39922863 -0.04793512 0.2731893 0.1365239 0.15773724 0.23049128 0.22225879 0.60900474 0.23047906 -0.39132792 0.3410566 -0.7417087 0.1334797 0.34711966 0.055794563 -0.5507524 -0.5522803 0.06404404 -0.19597948 -0.05312983 0.08604166 -0.24461067 -0.35094246 -0.20439613 0.09425672 -0.17494279 0.109471686 0.3752277 -0.22239068 -0.2517705 -0.17039834 -0.49757582 0.2867828 0.27687213 0.32865053 -0.040745698 0.44576123 0.46557426 0.53226537 -0.29809576 0.33423862 0.2711643 0.2159663 -0.087587126 -0.38162202 0.3644023 0.11989725 -0.93458545 -0.24605617 0.2688144 -0.7752177 0.34060797 0.5291989 0.35040015 -0.63531035 0.31372848 0.036809452 -0.4193868 0.9669697 0.3659186 0.21350166 0.4317046 0.10403653
105 -0.40913683 -0.5090542 -0.17551298 -0.1507086 -0.14701386 0.006051606 0.43213788 -0.36811846 0.06806336 0.42786592 -0.4099498 -0.6976256 -0.36512995 0.01690781 0.2236682 -0.43050724 0.17449528 0.34380823 -0.5260149 0.44001627 0.27655208 0.46801475 0.14733927 0.47582373 -0.3524426 0.5191384 0.2699378 0.29145998 -0.36731324 -0.31696045 0.14819072 0.05948994 0.44234073 -0.048299246 0.21195604 0.90430206 0.13580538 -0.53430545 0.13025315 0.32074076 -1.3968219 0.08489612 -0.18798357 -0.6249495 -0.14488153 -0.056242082 -0.063046016 0.43327618 0.5106228 -1.0625126 -0.081469566 0.15477704 0.9012844 0.040657483 0.04126832 0.6869244 -0.1569439 -0.08921392 0.50673604 -0.63979715 -0.3259333 0.06945893 -0.0036214525 0.04978521 -0.24732262 0.2800567 -0.5294665 0.19292577 -0.5504785 -0.65678567 0.54855615 0.5233869 -0.16976714 0.31336012 0.3950763 0.63751256 -0.5323049 -0.03936591 -0.27676675 -0.029081186 -0.23376015 -0.24237832 0.70055306 -0.32105592 0.17681336 0.20774886 0.57849276 -0.21818414 -0.21748249 0.303475 0.027377985 0.013259751 -0.31667593 0.03321589 -0.3582297 -0.7402001 -0.47205395 -0.031400602 -0.059730534 -0.19943064 0.16737175 0.55299944 -0.3030841 -0.21144402 -0.17354344 0.18780547 0.10445883 -0.47040248 -0.031656124 -0.49445117 0.16088131 0.015089341 -0.547115 -0.46850514 0.3738593 0.19817746 0.092777714 -0.12924697 0.04702473 -0.78625596 0.2482618 0.3854525 -0.10717595 0.62599933 0.1671586 0.4062912 -0.4834936 -0.335023
1226 -0.10095316 0.5830659 -0.41910437 0.36514848 0.048924923 0.77741104 0.14290574 0.09550994 -0.31200838 0.48252526 -0.5943613 -0.79642344 0.1385989 0.27497762 0.31030253 0.24014585 -0.021879846 0.5058768 -1.190462 0.33901033 0.16624324 0.054383352 -0.8483246 -0.20471999 -0.12566598 0.30248 0.39824677 -0.3641693 -0.12865403 0.20749952 -0.18137334 -0.29269046 0.47466135 -0.07202525 0.24680321 0.6594958 0.46031573 -0.30347994 -0.14211187 -0.39566556 -0.113966666 0.20462301 0.482936 0.018522434 0.057619892 0.23574863 -0.9815565 0.12219975 -0.14186506 -0.19564667 -0.2502295 -0.339693 -0.1284498 -0.36435136 0.48201272 0.69407827 -0.47407934 -0.042734157 -0.44270813 -0.31989118 0.05478427 -0.4036745 -0.18276694 0.27220374 0.11929355 -0.022153992 0.41787097 -0.087897256 -0.4934712 0.5744298 0.001200117 0.27096632 0.04580958 0.11377171 -0.6105403 0.82864416 -1.0227497 0.6076243 -0.24235244 0.6155686 0.6685888 -0.30559143 -0.2906158 -0.2898218 -0.51434845 0.2800791 -0.36436465 -0.55342484 0.11221571 0.16423962 -0.17219104 -0.31857887 0.1380921 -0.23580088 -0.5430023 -0.4309478 0.45263466 0.21344407 0.068567984 0.0059745368 -0.14706 0.0015428752 -0.06504509 0.0773079 -0.45545307 1.147807 -0.080819406 -0.0945427 -0.023999747 -0.46609154 0.08342904 0.5640698 -0.55804276 -0.074985616 0.2224174 -0.6517049 0.0094269235 0.28608242 0.6596877 -0.19001843 0.14724046 -0.021245861 0.9206291 -0.14970368 0.6045007 0.3404823 -0.27092808 -0.23469928
1541 -0.22461125 0.024632275 0.0030581644 -0.1272231 -0.13463767 0.021107027 0.0069433018 0.22340092 -0.09622029 0.50246006 -0.12812339 -0.18973045 -0.6629488 0.31721115 0.027014598 -0.4136302 -0.338206 0.10145818 -1.4320973 0.31425622 0.385266 -0.12460027 0.145287 0.25938052 0.19767863 0.77901405 -0.14299257 -0.09459263 -0.2987705 0.4558347 0.47250092 -0.25361717 0.579245 -0.2544603 -0.046062563 0.5899904 -0.024758229 -0.4031693 -0.93121994 -0.138313 -0.6198658 0.20593823 -0.26134568 -0.84572905 0.141832 0.52421397 -0.06604421 0.3131784 0.60204834 -0.4575632 0.3639193 -0.2310306 0.3356274 -0.499144 0.1260398 0.43954495 -0.4135063 0.13159157 0.8447462 -0.46619824 -0.2601225 -0.0264169 -0.20968257 0.42463592 -0.51341176 -0.2394245 0.008588805 0.19435978 -0.20386069 0.28232077 0.13027151 0.68347687 0.06054446 0.001491725 0.39091218 0.39180487 -0.9074774 -0.24429822 -0.64803004 0.53460675 -0.21996696 -0.214554 0.0077271666 -0.2653222 -0.30945966 0.1695257 -0.28874332 -0.0476384 -0.31204757 -0.063458145 0.077679805 -0.33490422 0.18804866 -0.12780805 -0.49026507 -0.21132495 0.22909977 0.40261644 -0.14719954 -0.5479316 0.31103545 -0.0990844 0.053418033 -0.43945357 0.74664396 0.08454668 0.19062857 -0.24463193 0.17330195 -0.8278619 0.1953504 0.40873414 -0.68748575 -0.48874953 0.114820056 -0.5087541 -0.2596181 0.19973584 0.25185382 -0.72181314 0.044828907 -0.073219925 -0.12143331 0.7347198 0.85043156 0.45202482 -0.23005833 -0.23557688
471 -0.27670375 -0.090822 -0.06788619 0.031863187 -0.049491134 0.24644373 0.055942364 -0.3054219 -0.17456624 0.29820737 -0.46213257 -0.8045479 -0.534066 0.08948743 -0.11508859 -0.058523368 -0.14602731 0.35910523 -0.9307812 0.3778496 0.40695828 0.10517048 -0.32686448 0.26024935 0.17900577 0.6621047 0.2137477 -0.015483398 -0.44619688 0.32399392 -0.15264513 -0.16007279 0.3029566 -0.2594615 0.24713072 0.5212866 0.41429237 -0.28082186 -0.45267215 -0.2609564 -0.5591858 0.14244016 0.025730558 -0.33761513 -0.33643413 0.17742209 -0.16400535 0.11966129 0.406486 -0.4559048 -0.15334262 -0.09854399 -0.0039089615 -0.10418456 0.572043 0.53050077 0.10841258 -0.25175595 0.18285508 -0.22538559 -0.45109254 -0.5267619 -0.36287048 0.07175708 -0.09815748 0.30574352 -0.15268333 0.18915571 0.030008037 0.0012045227 0.19054295 0.27150238 0.05444002 0.1745762 -0.06973237 0.582754 -0.70896316 0.23347054 -0.09837461 -0.11100445 -0.31460518 -0.23386246 0.19040108 -0.24277705 -0.15957752 0.27630922 -0.03425239 -0.3389252 -0.1271215 -0.01610627 -0.08617959 0.46211848 -0.2897798 -0.28888902 -0.5972979 -0.40574512 0.11586317 0.25262097 0.27242407 -0.2518078 -0.24248861 0.25710452 0.07574223 -0.0792471 -0.22253647 0.85414904 -0.13741365 -0.11351685 0.39397416 -0.79723895 0.071040966 0.13104968 -0.41724575 -0.21736528 0.16104837 -0.20180342 0.31251994 0.16430159 0.4198011 -0.40453446 0.23017177 0.12662701 0.054027278 0.42701083 0.28511253 0.097666934 -0.31449673 -0.32868218
1007 -0.24626364 -0.07333405 -0.35332662 -0.09058052 -0.22890434 0.28910464 0.16471215 0.12812655 -0.60968876 -0.28772908 -0.1355806 -0.526349 -0.8347809 0.12879498 0.3193299 -0.1669084 -0.77389646 0.4052404 -0.8086057 -0.11716177 0.4078833 0.20689766 -0.57116973 0.6881752 0.24015439 0.18828245 -0.008885404 0.26729265 -0.41456047 0.33581194 -0.42653668 0.27703628 0.20359175 -0.27097368 0.29763877 0.46914637 0.55322945 0.19014609 -0.27115476 -0.111050785 -0.29936466 0.38027284 -0.08342548 -0.12596612 -0.17087345 0.31938738 -0.27530438 -0.11294625 -0.19703087 -0.807274 0.3733698 -0.26542822 -0.2815998 0.17176406 0.30254805 0.17657872 -0.02332596 -0.41628626 -0.54468447 0.13552468 -0.6552893 -0.5382957 0.08794845 0.06771071 -0.0017927621 0.09454941 0.51059073 0.65032005 0.3223443 -0.048997194 0.25733924 0.476001 0.59156823 -0.26668608 -0.13839558 0.67211103 -0.91400653 0.20192647 0.29572868 -0.109503485 0.22709064 0.17134555 0.30396318 -0.35201994 -0.779526 0.39012676 -0.19845244 -0.24574651 0.20094751 -0.49445695 -0.0012065688 0.70504725 0.35940564 0.13322616 -1.0154202 0.08703334 0.56563044 0.3166464 0.6144774 -0.7485953 -0.23581707 0.14902732 0.2935727 -0.42868006 0.35356727 0.6731814 -0.10991734 0.23408858 0.17124681 -0.88880163 -0.020515801 -0.170087 -0.12881467 0.05678979 0.27462158 -0.12512033 -0.14744285 0.13710442 0.110126 0.14805368 0.6542496 -0.28140628 0.18302043 2.4944407e-05 0.8676685 -0.3057231 -0.3104177 -0.24504642
1076 -0.18994382 -0.110640705 -0.06834209 0.0631878 -0.054206364 0.20221518 0.03549321 -0.23318096 -0.11588511 0.22463802 -0.32611138 -0.62720627 -0.3966154 0.09484792 -0.05349304 -0.030825092 -0.14498957 0.33757806 -0.7324223 0.25914124 0.30645308 0.11094323 -0.21127339 0.17884746 0.089846715 0.48585087 0.17981035 -0.006864192 -0.27494198 0.19503477 -0.051497865 -0.13128783 0.27871832 -0.22430465 0.23365165 0.4028876 0.38270953 -0.19434156 -0.33993724 -0.18925038 -0.40985063 0.080495715 0.030382944 -0.28297275 -0.2598065 0.11958541 -0.08934291 0.062198427 0.32591534 -0.32487282 -0.04347093 -0.030634496 -0.01388289 -0.049038954 0.46723387 0.3854624 0.0415916 -0.19477314 0.116583 -0.18121654 -0.36257115 -0.473111 -0.3229066 0.09108149 -0.11967175 0.24895564 -0.09729921 0.056021426 -0.01825923 0.06615718 0.15722547 0.15637043 -0.011819724 0.16472326 -0.0808972 0.48400864 -0.52791506 0.20680222 -0.11938775 -0.0430459 -0.2015596 -0.1500301 0.12955357 -0.19221635 -0.06643815 0.18174826 -0.046807725 -0.2568809 -0.09756084 -0.026945734 -0.07935606 0.32566512 -0.1918363 -0.23259501 -0.437546 -0.35136497 0.12362303 0.22387077 0.21298118 -0.14727673 -0.17808329 0.1640267 0.035754673 -0.06973088 -0.20716427 0.6280128 -0.11473021 -0.08655346 0.24179491 -0.6092766 0.05080637 0.14747684 -0.36523685 -0.13395493 0.109580904 -0.21320243 0.2182625 0.1552181 0.25781205 -0.29373756 0.18659177 0.07366873 -0.0042203134 0.2520327 0.19397514 0.048706334 -0.24830706 -0.26970944
1093 -0.24422151 -0.10216783 -0.044826467 -0.0045052674 -0.020028915 0.19908896 0.029186795 -0.25201592 -0.17592601 0.27027822 -0.41800323 -0.69830996 -0.46560642 0.10181921 -0.08984106 -0.08198448 -0.14162938 0.31990516 -0.7841617 0.35020262 0.35257858 0.069839716 -0.30404648 0.23350388 0.14925458 0.59887856 0.15459804 -0.0357794 -0.41306427 0.27829778 -0.12357971 -0.15398842 0.28207785 -0.22489528 0.21774596 0.4503808 0.36000022 -0.2456353 -0.40690795 -0.2639626 -0.47995916 0.14341813 0.03555043 -0.3221563 -0.3024477 0.12536454 -0.15627256 0.09199392 0.3853806 -0.37783024 -0.14912868 -0.0997525 -0.025789397 -0.09308597 0.53099686 0.4519513 0.07864005 -0.22130941 0.20115398 -0.20432298 -0.36228228 -0.46770725 -0.328554 0.043160588 -0.057294894 0.2501713 -0.15228617 0.14668262 0.020506864 0.012846227 0.19676968 0.28884903 0.025168935 0.19273543 -0.06369518 0.5389132 -0.672528 0.1973355 -0.0976003 -0.08808963 -0.2551598 -0.2100207 0.17635736 -0.25574717 -0.13559482 0.24029613 -0.05481113 -0.30566943 -0.091229424 -0.033057623 -0.12043971 0.38637114 -0.24711327 -0.2466314 -0.56543094 -0.35682938 0.11495914 0.20734493 0.2811058 -0.18568747 -0.2620102 0.22178268 0.08231654 -0.0793616 -0.23292065 0.74775404 -0.10793834 -0.11003172 0.3769404 -0.69191563 0.07593926 0.15980878 -0.34730515 -0.18775392 0.10577364 -0.20117372 0.26379743 0.15049206 0.38376975 -0.34566793 0.18915105 0.09209864 0.05961633 0.33210066 0.23972781 0.10588785 -0.26367357 -0.28487903
